FANN_FLO_2.1
num_layers=102
learning_rate=0.700000
connection_rate=1.000000
network_type=1
learning_momentum=0.000000
training_algorithm=2
train_error_function=0
train_stop_function=1
cascade_output_change_fraction=0.010000
quickprop_decay=-0.000100
quickprop_mu=1.750000
rprop_increase_factor=1.200000
rprop_decrease_factor=0.500000
rprop_delta_min=0.000000
rprop_delta_max=50.000000
rprop_delta_zero=0.100000
cascade_output_stagnation_epochs=12
cascade_candidate_change_fraction=0.010000
cascade_candidate_stagnation_epochs=12
cascade_max_out_epochs=150
cascade_max_cand_epochs=150
cascade_num_candidate_groups=8
bit_fail_limit=8.99999976158142089844e-01
cascade_candidate_limit=1.00000000000000000000e+03
cascade_weight_multiplier=4.00000005960464477539e-01
cascade_activation_functions_count=1
cascade_activation_functions=5 
cascade_activation_steepnesses_count=1
cascade_activation_steepnesses=1.00000000000000000000e+00 
layer_sizes=157 1 1 1 1 1 1 1 1 1 1 1 1 1 1 1 1 1 1 1 1 1 1 1 1 1 1 1 1 1 1 1 1 1 1 1 1 1 1 1 1 1 1 1 1 1 1 1 1 1 1 1 1 1 1 1 1 1 1 1 1 1 1 1 1 1 1 1 1 1 1 1 1 1 1 1 1 1 1 1 1 1 1 1 1 1 1 1 1 1 1 1 1 1 1 1 1 1 1 1 1 10 
scale_included=0
neurons (num_inputs, activation_function, activation_steepness)=(0, 0, 0.00000000000000000000e+00) (0, 0, 0.00000000000000000000e+00) (0, 0, 0.00000000000000000000e+00) (0, 0, 0.00000000000000000000e+00) (0, 0, 0.00000000000000000000e+00) (0, 0, 0.00000000000000000000e+00) (0, 0, 0.00000000000000000000e+00) (0, 0, 0.00000000000000000000e+00) (0, 0, 0.00000000000000000000e+00) (0, 0, 0.00000000000000000000e+00) (0, 0, 0.00000000000000000000e+00) (0, 0, 0.00000000000000000000e+00) (0, 0, 0.00000000000000000000e+00) (0, 0, 0.00000000000000000000e+00) (0, 0, 0.00000000000000000000e+00) (0, 0, 0.00000000000000000000e+00) (0, 0, 0.00000000000000000000e+00) (0, 0, 0.00000000000000000000e+00) (0, 0, 0.00000000000000000000e+00) (0, 0, 0.00000000000000000000e+00) (0, 0, 0.00000000000000000000e+00) (0, 0, 0.00000000000000000000e+00) (0, 0, 0.00000000000000000000e+00) (0, 0, 0.00000000000000000000e+00) (0, 0, 0.00000000000000000000e+00) (0, 0, 0.00000000000000000000e+00) (0, 0, 0.00000000000000000000e+00) (0, 0, 0.00000000000000000000e+00) (0, 0, 0.00000000000000000000e+00) (0, 0, 0.00000000000000000000e+00) (0, 0, 0.00000000000000000000e+00) (0, 0, 0.00000000000000000000e+00) (0, 0, 0.00000000000000000000e+00) (0, 0, 0.00000000000000000000e+00) (0, 0, 0.00000000000000000000e+00) (0, 0, 0.00000000000000000000e+00) (0, 0, 0.00000000000000000000e+00) (0, 0, 0.00000000000000000000e+00) (0, 0, 0.00000000000000000000e+00) (0, 0, 0.00000000000000000000e+00) (0, 0, 0.00000000000000000000e+00) (0, 0, 0.00000000000000000000e+00) (0, 0, 0.00000000000000000000e+00) (0, 0, 0.00000000000000000000e+00) (0, 0, 0.00000000000000000000e+00) (0, 0, 0.00000000000000000000e+00) (0, 0, 0.00000000000000000000e+00) (0, 0, 0.00000000000000000000e+00) (0, 0, 0.00000000000000000000e+00) (0, 0, 0.00000000000000000000e+00) (0, 0, 0.00000000000000000000e+00) (0, 0, 0.00000000000000000000e+00) (0, 0, 0.00000000000000000000e+00) (0, 0, 0.00000000000000000000e+00) (0, 0, 0.00000000000000000000e+00) (0, 0, 0.00000000000000000000e+00) (0, 0, 0.00000000000000000000e+00) (0, 0, 0.00000000000000000000e+00) (0, 0, 0.00000000000000000000e+00) (0, 0, 0.00000000000000000000e+00) (0, 0, 0.00000000000000000000e+00) (0, 0, 0.00000000000000000000e+00) (0, 0, 0.00000000000000000000e+00) (0, 0, 0.00000000000000000000e+00) (0, 0, 0.00000000000000000000e+00) (0, 0, 0.00000000000000000000e+00) (0, 0, 0.00000000000000000000e+00) (0, 0, 0.00000000000000000000e+00) (0, 0, 0.00000000000000000000e+00) (0, 0, 0.00000000000000000000e+00) (0, 0, 0.00000000000000000000e+00) (0, 0, 0.00000000000000000000e+00) (0, 0, 0.00000000000000000000e+00) (0, 0, 0.00000000000000000000e+00) (0, 0, 0.00000000000000000000e+00) (0, 0, 0.00000000000000000000e+00) (0, 0, 0.00000000000000000000e+00) (0, 0, 0.00000000000000000000e+00) (0, 0, 0.00000000000000000000e+00) (0, 0, 0.00000000000000000000e+00) (0, 0, 0.00000000000000000000e+00) (0, 0, 0.00000000000000000000e+00) (0, 0, 0.00000000000000000000e+00) (0, 0, 0.00000000000000000000e+00) (0, 0, 0.00000000000000000000e+00) (0, 0, 0.00000000000000000000e+00) (0, 0, 0.00000000000000000000e+00) (0, 0, 0.00000000000000000000e+00) (0, 0, 0.00000000000000000000e+00) (0, 0, 0.00000000000000000000e+00) (0, 0, 0.00000000000000000000e+00) (0, 0, 0.00000000000000000000e+00) (0, 0, 0.00000000000000000000e+00) (0, 0, 0.00000000000000000000e+00) (0, 0, 0.00000000000000000000e+00) (0, 0, 0.00000000000000000000e+00) (0, 0, 0.00000000000000000000e+00) (0, 0, 0.00000000000000000000e+00) (0, 0, 0.00000000000000000000e+00) (0, 0, 0.00000000000000000000e+00) (0, 0, 0.00000000000000000000e+00) (0, 0, 0.00000000000000000000e+00) (0, 0, 0.00000000000000000000e+00) (0, 0, 0.00000000000000000000e+00) (0, 0, 0.00000000000000000000e+00) (0, 0, 0.00000000000000000000e+00) (0, 0, 0.00000000000000000000e+00) (0, 0, 0.00000000000000000000e+00) (0, 0, 0.00000000000000000000e+00) (0, 0, 0.00000000000000000000e+00) (0, 0, 0.00000000000000000000e+00) (0, 0, 0.00000000000000000000e+00) (0, 0, 0.00000000000000000000e+00) (0, 0, 0.00000000000000000000e+00) (0, 0, 0.00000000000000000000e+00) (0, 0, 0.00000000000000000000e+00) (0, 0, 0.00000000000000000000e+00) (0, 0, 0.00000000000000000000e+00) (0, 0, 0.00000000000000000000e+00) (0, 0, 0.00000000000000000000e+00) (0, 0, 0.00000000000000000000e+00) (0, 0, 0.00000000000000000000e+00) (0, 0, 0.00000000000000000000e+00) (0, 0, 0.00000000000000000000e+00) (0, 0, 0.00000000000000000000e+00) (0, 0, 0.00000000000000000000e+00) (0, 0, 0.00000000000000000000e+00) (0, 0, 0.00000000000000000000e+00) (0, 0, 0.00000000000000000000e+00) (0, 0, 0.00000000000000000000e+00) (0, 0, 0.00000000000000000000e+00) (0, 0, 0.00000000000000000000e+00) (0, 0, 0.00000000000000000000e+00) (0, 0, 0.00000000000000000000e+00) (0, 0, 0.00000000000000000000e+00) (0, 0, 0.00000000000000000000e+00) (0, 0, 0.00000000000000000000e+00) (0, 0, 0.00000000000000000000e+00) (0, 0, 0.00000000000000000000e+00) (0, 0, 0.00000000000000000000e+00) (0, 0, 0.00000000000000000000e+00) (0, 0, 0.00000000000000000000e+00) (0, 0, 0.00000000000000000000e+00) (0, 0, 0.00000000000000000000e+00) (0, 0, 0.00000000000000000000e+00) (0, 0, 0.00000000000000000000e+00) (0, 0, 0.00000000000000000000e+00) (0, 0, 0.00000000000000000000e+00) (0, 0, 0.00000000000000000000e+00) (0, 0, 0.00000000000000000000e+00) (0, 0, 0.00000000000000000000e+00) (0, 0, 0.00000000000000000000e+00) (0, 0, 0.00000000000000000000e+00) (0, 0, 0.00000000000000000000e+00) (0, 0, 0.00000000000000000000e+00) (0, 0, 0.00000000000000000000e+00) (0, 0, 0.00000000000000000000e+00) (157, 5, 1.00000000000000000000e+00) (158, 5, 1.00000000000000000000e+00) (159, 5, 1.00000000000000000000e+00) (160, 5, 1.00000000000000000000e+00) (161, 5, 1.00000000000000000000e+00) (162, 5, 1.00000000000000000000e+00) (163, 5, 1.00000000000000000000e+00) (164, 5, 1.00000000000000000000e+00) (165, 5, 1.00000000000000000000e+00) (166, 5, 1.00000000000000000000e+00) (167, 5, 1.00000000000000000000e+00) (168, 5, 1.00000000000000000000e+00) (169, 5, 1.00000000000000000000e+00) (170, 5, 1.00000000000000000000e+00) (171, 5, 1.00000000000000000000e+00) (172, 5, 1.00000000000000000000e+00) (173, 5, 1.00000000000000000000e+00) (174, 5, 1.00000000000000000000e+00) (175, 5, 1.00000000000000000000e+00) (176, 5, 1.00000000000000000000e+00) (177, 5, 1.00000000000000000000e+00) (178, 5, 1.00000000000000000000e+00) (179, 5, 1.00000000000000000000e+00) (180, 5, 1.00000000000000000000e+00) (181, 5, 1.00000000000000000000e+00) (182, 5, 1.00000000000000000000e+00) (183, 5, 1.00000000000000000000e+00) (184, 5, 1.00000000000000000000e+00) (185, 5, 1.00000000000000000000e+00) (186, 5, 1.00000000000000000000e+00) (187, 5, 1.00000000000000000000e+00) (188, 5, 1.00000000000000000000e+00) (189, 5, 1.00000000000000000000e+00) (190, 5, 1.00000000000000000000e+00) (191, 5, 1.00000000000000000000e+00) (192, 5, 1.00000000000000000000e+00) (193, 5, 1.00000000000000000000e+00) (194, 5, 1.00000000000000000000e+00) (195, 5, 1.00000000000000000000e+00) (196, 5, 1.00000000000000000000e+00) (197, 5, 1.00000000000000000000e+00) (198, 5, 1.00000000000000000000e+00) (199, 5, 1.00000000000000000000e+00) (200, 5, 1.00000000000000000000e+00) (201, 5, 1.00000000000000000000e+00) (202, 5, 1.00000000000000000000e+00) (203, 5, 1.00000000000000000000e+00) (204, 5, 1.00000000000000000000e+00) (205, 5, 1.00000000000000000000e+00) (206, 5, 1.00000000000000000000e+00) (207, 5, 1.00000000000000000000e+00) (208, 5, 1.00000000000000000000e+00) (209, 5, 1.00000000000000000000e+00) (210, 5, 1.00000000000000000000e+00) (211, 5, 1.00000000000000000000e+00) (212, 5, 1.00000000000000000000e+00) (213, 5, 1.00000000000000000000e+00) (214, 5, 1.00000000000000000000e+00) (215, 5, 1.00000000000000000000e+00) (216, 5, 1.00000000000000000000e+00) (217, 5, 1.00000000000000000000e+00) (218, 5, 1.00000000000000000000e+00) (219, 5, 1.00000000000000000000e+00) (220, 5, 1.00000000000000000000e+00) (221, 5, 1.00000000000000000000e+00) (222, 5, 1.00000000000000000000e+00) (223, 5, 1.00000000000000000000e+00) (224, 5, 1.00000000000000000000e+00) (225, 5, 1.00000000000000000000e+00) (226, 5, 1.00000000000000000000e+00) (227, 5, 1.00000000000000000000e+00) (228, 5, 1.00000000000000000000e+00) (229, 5, 1.00000000000000000000e+00) (230, 5, 1.00000000000000000000e+00) (231, 5, 1.00000000000000000000e+00) (232, 5, 1.00000000000000000000e+00) (233, 5, 1.00000000000000000000e+00) (234, 5, 1.00000000000000000000e+00) (235, 5, 1.00000000000000000000e+00) (236, 5, 1.00000000000000000000e+00) (237, 5, 1.00000000000000000000e+00) (238, 5, 1.00000000000000000000e+00) (239, 5, 1.00000000000000000000e+00) (240, 5, 1.00000000000000000000e+00) (241, 5, 1.00000000000000000000e+00) (242, 5, 1.00000000000000000000e+00) (243, 5, 1.00000000000000000000e+00) (244, 5, 1.00000000000000000000e+00) (245, 5, 1.00000000000000000000e+00) (246, 5, 1.00000000000000000000e+00) (247, 5, 1.00000000000000000000e+00) (248, 5, 1.00000000000000000000e+00) (249, 5, 1.00000000000000000000e+00) (250, 5, 1.00000000000000000000e+00) (251, 5, 1.00000000000000000000e+00) (252, 5, 1.00000000000000000000e+00) (253, 5, 1.00000000000000000000e+00) (254, 5, 1.00000000000000000000e+00) (255, 5, 1.00000000000000000000e+00) (256, 5, 1.00000000000000000000e+00) (257, 0, 5.00000000000000000000e-01) (257, 0, 5.00000000000000000000e-01) (257, 0, 5.00000000000000000000e-01) (257, 0, 5.00000000000000000000e-01) (257, 0, 5.00000000000000000000e-01) (257, 0, 5.00000000000000000000e-01) (257, 0, 5.00000000000000000000e-01) (257, 0, 5.00000000000000000000e-01) (257, 0, 5.00000000000000000000e-01) (257, 0, 5.00000000000000000000e-01) 
connections (connected_to_neuron, weight)=(0, -5.13363098144531250000e+02) (1, 1.55145889282226562500e+02) (2, -2.33908996582031250000e+02) (3, 3.89595680236816406250e+01) (4, 2.28785572052001953125e+01) (5, 4.87361602783203125000e+02) (6, -1.50000000000000000000e+03) (7, 1.37142736816406250000e+03) (8, 1.23372839355468750000e+03) (9, 1.56465942382812500000e+02) (10, 1.50000000000000000000e+03) (11, -2.11012069702148437500e+02) (12, 8.74686523437500000000e+02) (13, -1.50000000000000000000e+03) (14, 1.50000000000000000000e+03) (15, 1.50000000000000000000e+03) (16, 1.50000000000000000000e+03) (17, -2.42007064819335937500e+02) (18, -1.50000000000000000000e+03) (19, -1.85674255371093750000e+02) (20, -1.43959680175781250000e+03) (21, -5.74520019531250000000e+02) (22, -6.56178207397460937500e+01) (23, 5.75527526855468750000e+02) (24, 3.21365666389465332031e+00) (25, -1.30682177734375000000e+03) (26, -1.50000000000000000000e+03) (27, -3.41484710693359375000e+02) (28, 8.09945922851562500000e+02) (29, 1.29794445800781250000e+03) (30, 4.17795593261718750000e+02) (31, 2.08236813545227050781e+00) (32, 1.35884069824218750000e+03) (33, 6.76009582519531250000e+02) (34, 1.49094848632812500000e+03) (35, 1.11884411621093750000e+03) (36, -1.50000000000000000000e+03) (37, 1.00424334716796875000e+03) (38, -2.33654708862304687500e+02) (39, 1.49582983398437500000e+03) (40, -8.08703079223632812500e+01) (41, 1.50000000000000000000e+03) (42, -3.80834655761718750000e+02) (43, 6.09189819335937500000e+02) (44, -1.05293884277343750000e+03) (45, 1.50000000000000000000e+03) (46, 2.90188169479370117188e+00) (47, -9.26252212524414062500e+01) (48, 7.00870605468750000000e+02) (49, 1.48167749023437500000e+03) (50, -1.50000000000000000000e+03) (51, -1.50000000000000000000e+03) (52, 2.62328430175781250000e+02) (53, -1.48069372558593750000e+03) (54, -1.46599047851562500000e+03) (55, -1.50000000000000000000e+03) (56, -1.57549037933349609375e+01) (57, -1.18422131347656250000e+03) (58, -8.39707275390625000000e+02) (59, -1.50000000000000000000e+03) (60, 2.53657579421997070312e+00) (61, -3.42134521484375000000e+02) (62, -1.30228247070312500000e+03) (63, -1.50000000000000000000e+03) (64, -7.17170047760009765625e+00) (65, 1.54519929885864257812e+01) (66, 7.11542053222656250000e+02) (67, 1.28173217773437500000e+03) (68, -1.37385815429687500000e+03) (69, 2.54916732788085937500e+02) (70, -1.46828161621093750000e+03) (71, 6.13581180572509765625e+00) (72, -1.05280334472656250000e+02) (73, 1.50000000000000000000e+03) (74, -1.01873968505859375000e+03) (75, -1.50000000000000000000e+03) (76, 1.28770031738281250000e+03) (77, -6.16664855957031250000e+02) (78, -6.23079162597656250000e+02) (79, 8.57780090332031250000e+02) (80, -1.50000000000000000000e+03) (81, -1.50000000000000000000e+03) (82, -2.50972640991210937500e+02) (83, -7.01884231567382812500e+01) (84, 1.50000000000000000000e+03) (85, -1.50000000000000000000e+03) (86, 9.98143188476562500000e+02) (87, 2.17478713989257812500e+02) (88, 5.55387207031250000000e+02) (89, -1.50000000000000000000e+03) (90, -1.46828161621093750000e+03) (91, -3.98389167785644531250e+01) (92, 1.04949597167968750000e+03) (93, 1.50000000000000000000e+03) (94, -1.33903955078125000000e+03) (95, -1.50000000000000000000e+03) (96, 1.50000000000000000000e+03) (97, -2.13567749023437500000e+02) (98, 1.33858325195312500000e+03) (99, -1.50000000000000000000e+03) (100, 1.28087231445312500000e+03) (101, 3.57907745361328125000e+02) (102, 1.88796520233154296875e+01) (103, -2.15012252807617187500e+02) (104, -1.00442237854003906250e+02) (105, -1.21865405273437500000e+03) (106, 1.09610107421875000000e+03) (107, -5.35191894531250000000e+02) (108, 1.50000000000000000000e+03) (109, -1.50000000000000000000e+03) (110, 2.67777709960937500000e+02) (111, 8.48042663574218750000e+02) (112, 2.10142059326171875000e+02) (113, -1.50000000000000000000e+03) (114, 7.59698486328125000000e+02) (115, -1.50000000000000000000e+03) (116, 7.76671447753906250000e+02) (117, 1.50000000000000000000e+03) (118, -1.28473510742187500000e+03) (119, 4.74983306884765625000e+02) (120, -2.70924377441406250000e+02) (121, -1.05254875183105468750e+02) (122, -8.26439819335937500000e+02) (123, 6.83285093307495117188e+00) (124, -1.40367004394531250000e+03) (125, -4.98822259902954101562e+00) (126, 4.50784332275390625000e+02) (127, -1.50000000000000000000e+03) (128, 1.45450607299804687500e+02) (129, 1.21054211425781250000e+03) (130, -1.50000000000000000000e+03) (131, 1.50000000000000000000e+03) (132, -6.99828567504882812500e+01) (133, 2.74698211669921875000e+02) (134, 1.50000000000000000000e+03) (135, -8.15451721191406250000e+02) (136, 4.62129608154296875000e+02) (137, 3.16938734054565429688e+00) (138, 2.78312063217163085938e+00) (139, 2.51171660423278808594e+00) (140, 1.64178812503814697266e+00) (141, 3.41822791099548339844e+00) (142, 1.50000000000000000000e+03) (143, 8.62068969726562500000e+02) (144, -8.04150924682617187500e+01) (145, 1.17077001953125000000e+03) (146, 1.46600561523437500000e+03) (147, 2.48298525810241699219e+00) (148, 3.06618165969848632812e+00) (149, 2.96522617340087890625e+00) (150, 3.69088792800903320312e+00) (151, 2.62034416198730468750e+00) (152, 2.81205511093139648438e+00) (153, 2.77067232131958007812e+00) (154, 1.50000000000000000000e+03) (155, 1.50000000000000000000e+03) (156, 2.91701316833496093750e+00) (0, -8.05783081054687500000e+00) (1, -1.49507880210876464844e+00) (2, 1.28173017501831054688e+00) (3, -3.82761240005493164062e-01) (4, 1.62013813853263854980e-01) (5, 3.93474072217941284180e-01) (6, -1.00686877965927124023e-01) (7, -7.28199005126953125000e-01) (8, -3.61737370491027832031e-01) (9, -2.58287048339843750000e+00) (10, 5.95027506351470947266e-01) (11, -3.98736536502838134766e-01) (12, -4.24701064825057983398e-01) (13, 4.22896295785903930664e-01) (14, 9.42744195461273193359e-01) (15, -7.40620374679565429688e-01) (16, -1.97750306129455566406e+00) (17, -1.06814062595367431641e+00) (18, -7.22631275653839111328e-01) (19, -1.43982100486755371094e+00) (20, 6.17715835571289062500e-01) (21, 1.92998576164245605469e+00) (22, 2.27106976509094238281e+00) (23, 1.10451972484588623047e+00) (24, 8.38227868080139160156e-01) (25, 5.91436088085174560547e-01) (26, -1.04039108753204345703e+00) (27, 1.17387080192565917969e+00) (28, 1.80242598056793212891e+00) (29, -5.37476062774658203125e-01) (30, 1.28737017512321472168e-01) (31, -2.35482379794120788574e-01) (32, 3.08182096481323242188e+00) (33, 1.01463057100772857666e-01) (34, -5.76844215393066406250e-01) (35, 8.93461629748344421387e-02) (36, 1.76956489682197570801e-01) (37, 1.42204910516738891602e-01) (38, -9.47387337684631347656e-01) (39, -1.60899603366851806641e+00) (40, 5.60198664665222167969e-01) (41, -5.70588707923889160156e-01) (42, -6.30692362785339355469e-01) (43, -1.28663241863250732422e-01) (44, -1.43851351737976074219e+00) (45, 8.50224196910858154297e-01) (46, -3.67823958396911621094e-01) (47, -4.16059792041778564453e-01) (48, 6.94609045982360839844e-01) (49, -2.29100883007049560547e-01) (50, -1.53211355209350585938e+00) (51, 1.00147640332579612732e-02) (52, 1.42708456516265869141e+00) (53, -5.12626409530639648438e-01) (54, 1.79036784172058105469e+00) (55, -1.27110958099365234375e+00) (56, -8.83937776088714599609e-01) (57, -1.74125480651855468750e+00) (58, -1.77795612812042236328e+00) (59, 3.88824248313903808594e+00) (60, 2.41544336080551147461e-01) (61, -9.54746425151824951172e-01) (62, -1.17564547061920166016e+00) (63, -6.26020431518554687500e-01) (64, -2.47109675407409667969e+00) (65, -7.32784867286682128906e-01) (66, 9.26720257848501205444e-03) (67, -1.58898636698722839355e-01) (68, 2.84673366695642471313e-03) (69, -1.66596919298171997070e-01) (70, 1.10812354087829589844e+00) (71, 2.83866500854492187500e+00) (72, -1.62007343769073486328e+00) (73, 2.88278311491012573242e-02) (74, 8.89833047986030578613e-02) (75, 9.48890209197998046875e-01) (76, 9.68824565410614013672e-01) (77, -2.79320746660232543945e-01) (78, 5.12923717498779296875e-01) (79, 2.60409921407699584961e-01) (80, -7.18647956848144531250e-01) (81, -1.26949572563171386719e+00) (82, -1.48135483264923095703e+00) (83, 8.35221484303474426270e-02) (84, 1.89386260509490966797e+00) (85, -1.90684986114501953125e+00) (86, 6.99444830417633056641e-01) (87, 1.08938074111938476562e+00) (88, -3.52655559778213500977e-01) (89, -4.40937042236328125000e-01) (90, 3.20914953947067260742e-01) (91, -1.35129916667938232422e+00) (92, -1.67972505092620849609e+00) (93, 6.63171410560607910156e-02) (94, -6.43226623535156250000e-01) (95, -4.30890738964080810547e-01) (96, 1.09523296356201171875e+00) (97, 8.77452969551086425781e-01) (98, -1.32411909103393554688e+00) (99, -1.46440887451171875000e+00) (100, -3.05588036775588989258e-01) (101, -4.03668850660324096680e-01) (102, 1.17918968200683593750e+00) (103, 2.50980824232101440430e-01) (104, -5.43590076267719268799e-02) (105, -5.53863346576690673828e-02) (106, 8.41868996620178222656e-01) (107, 3.91826182603836059570e-01) (108, 3.85029703378677368164e-01) (109, 6.13861739635467529297e-01) (110, -5.67634850740432739258e-02) (111, -1.41525518894195556641e+00) (112, 1.20566046237945556641e+00) (113, 3.11524689197540283203e-01) (114, -3.34135383367538452148e-01) (115, -1.89294040203094482422e-01) (116, 2.81074166297912597656e+00) (117, 2.06622147560119628906e+00) (118, -1.53230047225952148438e+00) (119, -7.03977465629577636719e-01) (120, 1.15964911878108978271e-01) (121, -5.97704768180847167969e-01) (122, 8.05791616439819335938e-01) (123, -5.78749656677246093750e-01) (124, -4.65686738491058349609e-01) (125, 4.10259366035461425781e-01) (126, 6.90600574016571044922e-01) (127, -6.63203597068786621094e-01) (128, 5.44693887233734130859e-01) (129, 1.54356777667999267578e-01) (130, -2.45469659566879272461e-01) (131, 5.09342968463897705078e-01) (132, -1.14132714271545410156e+00) (133, -6.49667382240295410156e-01) (134, 1.91951429843902587891e+00) (135, 1.07055664062500000000e+00) (136, 2.79374141246080398560e-02) (137, 1.21167707443237304688e+00) (138, 1.20756769180297851562e+00) (139, 7.36881256103515625000e-01) (140, 1.53065502643585205078e+00) (141, -3.20611655712127685547e-01) (142, 1.04139995574951171875e+00) (143, 1.50202527642250061035e-01) (144, 1.07270024716854095459e-01) (145, 2.56523895263671875000e+00) (146, 2.13483236730098724365e-02) (147, 5.53268101066350936890e-03) (148, 1.38424849510192871094e+00) (149, 1.75728231668472290039e-01) (150, 1.95286661386489868164e-01) (151, 3.69655787944793701172e-01) (152, -1.69991463422775268555e-01) (153, 1.15421581268310546875e+00) (154, 1.50000000000000000000e+03) (155, 1.50000000000000000000e+03) (156, -1.26026958227157592773e-01) (157, -3.30699753761291503906e+00) (0, -2.81861996650695800781e+00) (1, -1.38742104172706604004e-01) (2, -2.80968666076660156250e+00) (3, -2.93904334306716918945e-01) (4, 2.59993463754653930664e-01) (5, 7.62219727039337158203e-01) (6, -3.52433919906616210938e+00) (7, 1.96828889846801757812e+00) (8, 5.99399507045745849609e-01) (9, -1.19219648838043212891e+00) (10, 1.12302446365356445312e+00) (11, 3.19186717271804809570e-01) (12, -6.09191179275512695312e-01) (13, 2.27896958589553833008e-01) (14, 1.77767205238342285156e+00) (15, 4.49846893548965454102e-01) (16, 8.58920395374298095703e-01) (17, -1.91946911811828613281e+00) (18, -7.66222298145294189453e-01) (19, 1.40729770064353942871e-01) (20, -3.20476680994033813477e-01) (21, 1.17899787425994873047e+00) (22, -2.89123952388763427734e-02) (23, -7.05868601799011230469e-01) (24, 5.08898675441741943359e-01) (25, -5.37292540073394775391e-01) (26, -2.50266695022583007812e+00) (27, -2.00698781013488769531e+00) (28, 8.08514297008514404297e-01) (29, 1.04949355125427246094e+00) (30, -8.38065370917320251465e-02) (31, 1.32599043846130371094e+00) (32, -4.86801236867904663086e-01) (33, 7.08487749099731445312e-01) (34, 3.90595173835754394531e+00) (35, 1.46888947486877441406e+00) (36, -1.27743089199066162109e+00) (37, 7.57841527462005615234e-01) (38, 2.16512537002563476562e+00) (39, -1.63640052080154418945e-01) (40, -1.74052762985229492188e+00) (41, 5.99757969379425048828e-01) (42, 1.76564201712608337402e-01) (43, -3.21577757596969604492e-01) (44, -4.24203872680664062500e+00) (45, 4.67729061841964721680e-01) (46, 9.34591218829154968262e-02) (47, 7.77826532721519470215e-02) (48, 5.39003908634185791016e-01) (49, 2.42045760154724121094e+00) (50, 1.16411231458187103271e-01) (51, 2.64071881771087646484e-01) (52, 3.08832734823226928711e-01) (53, -2.51585841178894042969e+00) (54, -1.31163930892944335938e+00) (55, -1.06961619853973388672e+00) (56, -3.74895721673965454102e-01) (57, -4.15721368789672851562e+00) (58, -1.83162778615951538086e-01) (59, -4.31776016950607299805e-01) (60, 2.58721500635147094727e-01) (61, -5.99603712558746337891e-01) (62, -1.77059376239776611328e+00) (63, 5.66263496875762939453e-01) (64, 1.64563983678817749023e-01) (65, 2.19765990972518920898e-01) (66, 3.53284850716590881348e-02) (67, 1.41640615463256835938e+00) (68, -1.58387732505798339844e+00) (69, 6.81241631507873535156e-01) (70, -1.45641779899597167969e+00) (71, -2.36856296658515930176e-01) (72, -2.84468859434127807617e-01) (73, 5.08874833583831787109e-01) (74, 3.47341626882553100586e-01) (75, -3.50001782178878784180e-01) (76, 2.48217082023620605469e+00) (77, -4.67221021652221679688e-01) (78, -1.14852166175842285156e+00) (79, -2.51914650201797485352e-01) (80, -7.91947364807128906250e-01) (81, 2.30179820209741592407e-02) (82, -5.22862911224365234375e-01) (83, 7.59880319237709045410e-02) (84, 1.15388858318328857422e+00) (85, -6.86351284384727478027e-02) (86, -3.19290548563003540039e-01) (87, -2.41006112098693847656e+00) (88, 1.10749304294586181641e+00) (89, 4.35072451829910278320e-01) (90, -9.40996944904327392578e-01) (91, 7.31200814247131347656e-01) (92, 2.89409756660461425781e-01) (93, -9.48725119233131408691e-02) (94, -1.47729575634002685547e-01) (95, -6.30419731140136718750e-01) (96, 5.75294256210327148438e-01) (97, 1.12165105342864990234e+00) (98, 9.31352376937866210938e-01) (99, -9.00486707687377929688e-01) (100, 1.15697968006134033203e+00) (101, 5.28438508510589599609e-01) (102, -3.03117662668228149414e-01) (103, 7.93903291225433349609e-01) (104, -5.53104758262634277344e-01) (105, -8.93224179744720458984e-01) (106, 4.29103165864944458008e-01) (107, 8.49401235580444335938e-01) (108, 3.05203628540039062500e+00) (109, 6.28728985786437988281e-01) (110, -1.69851154088973999023e-01) (111, 3.10288715362548828125e+00) (112, 4.79127794504165649414e-01) (113, -1.23112678527832031250e+00) (114, 8.28408598899841308594e-02) (115, -3.43490898609161376953e-01) (116, -3.65029722452163696289e-01) (117, 4.74121093750000000000e-01) (118, -1.90745651721954345703e-01) (119, -7.02321887016296386719e-01) (120, -5.28114140033721923828e-02) (121, 3.04339379072189331055e-01) (122, -7.05546438694000244141e-02) (123, 5.42231321334838867188e-01) (124, -2.07361912727355957031e+00) (125, -9.28368330001831054688e-01) (126, 4.87479478120803833008e-01) (127, -2.56733417510986328125e+00) (128, -3.07143539190292358398e-01) (129, -3.71107012033462524414e-01) (130, -9.94271278381347656250e-01) (131, 1.04605329036712646484e+00) (132, 2.52541638910770416260e-02) (133, -1.12641024589538574219e+00) (134, 9.89197432994842529297e-01) (135, 5.68306088447570800781e-01) (136, -4.05858278274536132812e-01) (137, 5.95389783382415771484e-01) (138, 1.20848619937896728516e+00) (139, 7.86807835102081298828e-01) (140, 9.85635817050933837891e-03) (141, 1.06349773406982421875e+01) (142, 6.02745294570922851562e-01) (143, 1.29907059669494628906e+00) (144, -8.28061819076538085938e-01) (145, 2.50173844397068023682e-02) (146, 2.26749372482299804688e+00) (147, 4.66649264097213745117e-01) (148, 1.76253244280815124512e-01) (149, -1.55433669686317443848e-01) (150, 5.59682905673980712891e-01) (151, 1.37110519409179687500e+00) (152, -3.94944064319133758545e-02) (153, -2.33756616711616516113e-01) (154, 1.50000000000000000000e+03) (155, 1.50000000000000000000e+03) (156, -1.61565637588500976562e+00) (157, -9.59382534027099609375e+00) (158, -2.31013059616088867188e+00) (0, -7.87927582859992980957e-03) (1, 9.72357630729675292969e-01) (2, 3.45212250947952270508e-01) (3, 6.41940951347351074219e-01) (4, 1.22247052192687988281e+00) (5, 5.34314513206481933594e-01) (6, 1.66259601712226867676e-01) (7, -2.14308187365531921387e-01) (8, -5.74843525886535644531e-01) (9, 6.21172726154327392578e-01) (10, -1.75227284431457519531e+00) (11, 6.50041326880455017090e-02) (12, -3.79370525479316711426e-02) (13, 1.61139875650405883789e-01) (14, -8.06680500507354736328e-01) (15, -8.34095001220703125000e-01) (16, 5.67352175712585449219e-01) (17, 1.57874092459678649902e-01) (18, 5.51157116889953613281e-01) (19, -8.89746189117431640625e-01) (20, 6.86450541019439697266e-01) (21, 1.81220009922981262207e-01) (22, 7.88361310958862304688e-01) (23, -6.27826333045959472656e-01) (24, -6.11221253871917724609e-01) (25, 9.34652686119079589844e-01) (26, -7.39404439926147460938e-01) (27, -4.99167680740356445312e-01) (28, -4.27498102188110351562e-01) (29, 2.97985851764678955078e-01) (30, 2.90419459342956542969e-01) (31, -4.09075677394866943359e-01) (32, 4.78454440832138061523e-01) (33, 7.34730184078216552734e-01) (34, 9.92608249187469482422e-01) (35, 1.31705835461616516113e-01) (36, 9.76353138685226440430e-02) (37, 3.41803207993507385254e-03) (38, 1.06572830677032470703e+00) (39, -4.01662230491638183594e-01) (40, -1.86689406633377075195e-01) (41, -1.44103097915649414062e+00) (42, 8.53215157985687255859e-01) (43, 3.03618937730789184570e-01) (44, 2.58718550205230712891e-01) (45, -1.43501913547515869141e+00) (46, -6.22876703739166259766e-01) (47, -1.09051275253295898438e+00) (48, -1.01826852187514305115e-03) (49, 5.89622795581817626953e-01) (50, -2.51656174659729003906e-01) (51, -3.01226764917373657227e-01) (52, 5.24878680706024169922e-01) (53, -5.99551312625408172607e-02) (54, 3.18183183670043945312e-01) (55, 8.10484826564788818359e-01) (56, -3.73876631259918212891e-01) (57, 7.27566063404083251953e-01) (58, -4.72947329282760620117e-01) (59, 7.93326139450073242188e-01) (60, 1.25121071934700012207e-01) (61, 3.41736644506454467773e-01) (62, 6.80137813091278076172e-01) (63, -5.41588306427001953125e-01) (64, -5.96231579780578613281e-01) (65, 9.17885363101959228516e-01) (66, 5.44195950031280517578e-01) (67, -1.39434993267059326172e-01) (68, -2.76326447725296020508e-01) (69, 1.25745832920074462891e-01) (70, -3.61661575734615325928e-02) (71, 6.68387115001678466797e-01) (72, 8.52301955223083496094e-01) (73, -9.85175073146820068359e-01) (74, 5.73005557060241699219e-01) (75, -5.55700898170471191406e-01) (76, -9.42634582519531250000e-01) (77, 8.39866518974304199219e-01) (78, 2.19840779900550842285e-01) (79, 4.77484762668609619141e-01) (80, -1.66745781898498535156e-01) (81, -5.30376017093658447266e-01) (82, 3.83054651319980621338e-02) (83, -7.23477184772491455078e-01) (84, -1.15010786056518554688e+00) (85, -1.02128410339355468750e+00) (86, -5.93048155307769775391e-01) (87, 2.35755786299705505371e-01) (88, 5.31070351600646972656e-01) (89, -4.08364713191986083984e-01) (90, -1.11966215074062347412e-01) (91, -2.16900810599327087402e-01) (92, 6.71848893165588378906e-01) (93, -4.73360776901245117188e-01) (94, -6.47650435566902160645e-02) (95, 9.24547612667083740234e-02) (96, -1.04413902759552001953e+00) (97, 2.47390568256378173828e-01) (98, 4.02694851160049438477e-01) (99, -1.03607758879661560059e-01) (100, -4.98277127742767333984e-01) (101, -8.21759462356567382812e-01) (102, -4.00810360908508300781e-01) (103, -6.60362720489501953125e-01) (104, -9.09923136234283447266e-01) (105, 2.97305643558502197266e-01) (106, -2.26414307951927185059e-01) (107, -1.59129905700683593750e+00) (108, -6.81988120079040527344e-01) (109, -5.43832004070281982422e-01) (110, -8.76626431941986083984e-01) (111, 6.21554434299468994141e-01) (112, -9.04766678810119628906e-01) (113, -2.07888290286064147949e-01) (114, -6.36783838272094726562e-01) (115, 5.61663284897804260254e-02) (116, 5.95326349139213562012e-02) (117, -2.38390505313873291016e-01) (118, -1.31512308120727539062e+00) (119, -4.04119402170181274414e-01) (120, 1.76839545369148254395e-01) (121, 1.29258915781974792480e-01) (122, 7.35738098621368408203e-01) (123, -1.69011741876602172852e-01) (124, 9.04377877712249755859e-01) (125, -2.75031298398971557617e-01) (126, -1.05362927913665771484e+00) (127, 1.07153296470642089844e+00) (128, 7.05345988273620605469e-01) (129, 6.58603131771087646484e-01) (130, -3.35805296897888183594e-01) (131, -4.64562654495239257812e-01) (132, 1.20485901832580566406e+00) (133, 3.79016011953353881836e-01) (134, -1.44486397504806518555e-01) (135, 4.07274991273880004883e-01) (136, -1.09104180335998535156e+00) (137, 5.99486589431762695312e-01) (138, -2.88543492555618286133e-01) (139, 1.21540278196334838867e-01) (140, 8.66818070411682128906e-01) (141, 6.10037147998809814453e-01) (142, -3.14848005771636962891e-01) (143, 7.52797782421112060547e-01) (144, 8.85780692100524902344e-01) (145, 4.71160620450973510742e-01) (146, -4.81009542942047119141e-01) (147, 7.94518589973449707031e-02) (148, 1.13144063949584960938e+00) (149, -2.33127027750015258789e-01) (150, 7.61363029479980468750e-01) (151, 4.81070965528488159180e-01) (152, 7.54938960075378417969e-01) (153, 2.05422773957252502441e-01) (154, 1.50000000000000000000e+03) (155, 1.50000000000000000000e+03) (156, 5.95660567283630371094e-01) (157, -1.02712035179138183594e+00) (158, 3.40189069509506225586e-01) (159, 5.36276578903198242188e-01) (0, -5.61927437782287597656e-01) (1, -1.82465001940727233887e-01) (2, 3.43087268993258476257e-03) (3, 6.19067728519439697266e-01) (4, 1.05031147599220275879e-01) (5, 3.27787786722183227539e-01) (6, -5.55153898894786834717e-02) (7, -3.78999829292297363281e-01) (8, 3.95097918808460235596e-02) (9, -4.94311958551406860352e-01) (10, -3.58209490776062011719e-01) (11, 5.61822533607482910156e-01) (12, 9.48514640331268310547e-02) (13, 6.56396806240081787109e-01) (14, -8.52962359786033630371e-02) (15, 6.34351551532745361328e-01) (16, 2.79665529727935791016e-01) (17, 5.30354917049407958984e-01) (18, 2.66720741987228393555e-01) (19, 3.56776714324951171875e-01) (20, -6.76474273204803466797e-01) (21, -2.35670700669288635254e-01) (22, -4.25765991210937500000e-01) (23, 4.14588123559951782227e-01) (24, -2.16525718569755554199e-01) (25, 1.66907921433448791504e-01) (26, 2.82296866178512573242e-01) (27, 7.42695808410644531250e-01) (28, 1.72274217009544372559e-01) (29, 6.32909178733825683594e-01) (30, -9.61302936077117919922e-01) (31, 6.96375191211700439453e-01) (32, -6.30302131175994873047e-01) (33, 1.56400829553604125977e-01) (34, 1.03474907577037811279e-01) (35, 2.56844073534011840820e-01) (36, -6.41068935394287109375e-01) (37, -8.55880022048950195312e-01) (38, 8.01504492759704589844e-01) (39, 8.26843976974487304688e-02) (40, -4.96343314647674560547e-01) (41, -7.56312370300292968750e-01) (42, -2.76573538780212402344e-01) (43, 4.71080005168914794922e-01) (44, 9.47710812091827392578e-01) (45, 5.29978811740875244141e-01) (46, 1.84998303651809692383e-01) (47, -7.68829807639122009277e-02) (48, -8.11645295470952987671e-03) (49, -6.12278103828430175781e-01) (50, -7.48073995113372802734e-01) (51, 2.86219149827957153320e-01) (52, -3.34960967302322387695e-03) (53, -2.21537485718727111816e-01) (54, -3.11773002147674560547e-01) (55, 5.86570620536804199219e-01) (56, 5.80611228942871093750e-01) (57, 8.51517200469970703125e-01) (58, 3.21409493684768676758e-01) (59, 4.56952333450317382812e-01) (60, 3.46039056777954101562e-01) (61, 3.45059692859649658203e-01) (62, -7.67930328845977783203e-01) (63, 7.71956503391265869141e-01) (64, -3.10322910547256469727e-01) (65, 8.65834206342697143555e-02) (66, -2.31350492686033248901e-02) (67, -5.85868179798126220703e-01) (68, 5.17343938350677490234e-01) (69, -2.15519532561302185059e-01) (70, 6.07081353664398193359e-01) (71, 9.41000342369079589844e-01) (72, -4.65815290808677673340e-02) (73, -7.52391040325164794922e-01) (74, 2.82945692539215087891e-01) (75, -3.59822690486907958984e-01) (76, 8.01614165306091308594e-01) (77, -6.74859821796417236328e-01) (78, 1.41576468944549560547e-01) (79, -3.05546164512634277344e-01) (80, -3.08317482471466064453e-01) (81, 4.94563847780227661133e-01) (82, 7.15687394142150878906e-01) (83, 2.95208007097244262695e-01) (84, -6.70338153839111328125e-01) (85, -4.20569032430648803711e-01) (86, 5.79168610274791717529e-02) (87, -7.69836366176605224609e-01) (88, -7.79903173446655273438e-01) (89, -4.95315939188003540039e-01) (90, 1.25546902418136596680e-01) (91, 9.68949019908905029297e-01) (92, 6.66372716426849365234e-01) (93, 4.85547810792922973633e-01) (94, 3.03765475749969482422e-01) (95, 8.67929816246032714844e-01) (96, -7.20998421311378479004e-02) (97, -4.54552292823791503906e-01) (98, -6.12187623977661132812e-01) (99, -4.83654320240020751953e-01) (100, 4.03403550386428833008e-01) (101, 8.54713559150695800781e-01) (102, -8.72239470481872558594e-01) (103, -8.93622636795043945312e-01) (104, 9.62611675262451171875e-01) (105, 2.27308616042137145996e-01) (106, -1.80006638169288635254e-01) (107, 7.42491245269775390625e-01) (108, 3.03219199180603027344e-01) (109, -4.80590045452117919922e-01) (110, -6.23787045478820800781e-01) (111, -6.63504362106323242188e-01) (112, -6.87737047672271728516e-01) (113, -8.26247513294219970703e-01) (114, 5.95487713813781738281e-01) (115, -1.43100172281265258789e-01) (116, -3.65039527416229248047e-01) (117, -3.43118160963058471680e-01) (118, 5.06979785859584808350e-02) (119, 2.57432043552398681641e-01) (120, -1.23793594539165496826e-01) (121, -8.00611257553100585938e-01) (122, 1.39372264966368675232e-02) (123, -4.48443055152893066406e-01) (124, 5.49276173114776611328e-01) (125, -1.94702640175819396973e-01) (126, -1.11304998397827148438e+00) (127, -1.18888750672340393066e-01) (128, -1.45834758877754211426e-01) (129, -4.84359264373779296875e-01) (130, -7.59651243686676025391e-01) (131, -7.48529195785522460938e-01) (132, -8.03007423877716064453e-01) (133, -8.76562416553497314453e-01) (134, -6.83690667152404785156e-01) (135, -8.03902745246887207031e-01) (136, 9.17131602764129638672e-01) (137, 4.72999475896358489990e-02) (138, 8.97387504577636718750e-01) (139, 4.24438834190368652344e-01) (140, 3.77111673355102539062e-01) (141, -5.30432999134063720703e-01) (142, 3.86152714490890502930e-01) (143, 5.61555743217468261719e-01) (144, -8.55144798755645751953e-01) (145, -1.15693435072898864746e-01) (146, -5.81830799579620361328e-01) (147, -2.12805092334747314453e-01) (148, 4.08462405204772949219e-01) (149, 4.75788116455078125000e-01) (150, 7.87218451499938964844e-01) (151, -7.81183958053588867188e-01) (152, 5.27346551418304443359e-01) (153, -3.34818243980407714844e-01) (154, 1.50000000000000000000e+03) (155, 1.50000000000000000000e+03) (156, -8.78807187080383300781e-01) (157, 1.96465216577053070068e-02) (158, -9.05449628829956054688e-01) (159, 1.45634949207305908203e+00) (160, 3.39474511146545410156e+00) (0, 2.92650651931762695312e+00) (1, -6.68749690055847167969e-01) (2, 1.02594685554504394531e+00) (3, -3.08943927288055419922e-01) (4, 6.57045364379882812500e-01) (5, 4.25595417618751525879e-02) (6, 4.74324584007263183594e-01) (7, -4.11672860383987426758e-01) (8, -5.14386892318725585938e-02) (9, 8.07247102260589599609e-01) (10, 1.30510008335113525391e+00) (11, -6.22365534305572509766e-01) (12, -6.26136004924774169922e-01) (13, 6.90900534391403198242e-02) (14, 2.34942108392715454102e-01) (15, 2.40740522742271423340e-01) (16, -3.05883496999740600586e-01) (17, -8.85835647583007812500e-01) (18, 3.40941518545150756836e-01) (19, 3.37339103221893310547e-01) (20, 1.60264655947685241699e-01) (21, 4.88065004348754882812e-01) (22, 5.97697556018829345703e-01) (23, -2.96568363904953002930e-01) (24, 4.95298534631729125977e-01) (25, 3.57736647129058837891e-01) (26, -5.31028449535369873047e-01) (27, 2.79779970645904541016e-01) (28, 1.47469788789749145508e-01) (29, 8.48466157913208007812e-03) (30, -6.00207984447479248047e-01) (31, 1.62959605455398559570e-01) (32, 3.05448412895202636719e-01) (33, -6.50769531726837158203e-01) (34, -9.35945034027099609375e-01) (35, 3.71308118104934692383e-01) (36, 4.88603889942169189453e-01) (37, 4.96836751699447631836e-01) (38, 6.49396777153015136719e-01) (39, 9.64904427528381347656e-02) (40, 4.87262159585952758789e-01) (41, 7.40790426731109619141e-01) (42, 2.04277217388153076172e-01) (43, 8.18799972534179687500e-01) (44, -2.95332640409469604492e-01) (45, -5.78073918819427490234e-01) (46, -2.58980542421340942383e-01) (47, 2.20425814390182495117e-01) (48, -5.58961153030395507812e-01) (49, -5.42314589023590087891e-01) (50, -3.36302548646926879883e-01) (51, 4.51882898807525634766e-01) (52, -1.04884970188140869141e+00) (53, -8.19160223007202148438e-01) (54, -7.95211970806121826172e-01) (55, 5.76680004596710205078e-01) (56, 9.86667335033416748047e-01) (57, -2.97018826007843017578e-01) (58, -2.94695764780044555664e-01) (59, 2.65881848335266113281e+00) (60, 4.82050031423568725586e-01) (61, 1.53032928705215454102e-01) (62, 5.16736567020416259766e-01) (63, -1.93700581789016723633e-01) (64, 3.84382694959640502930e-01) (65, 4.66753780841827392578e-01) (66, -7.53508627414703369141e-01) (67, -1.38960123062133789062e-01) (68, 2.00862273573875427246e-01) (69, 7.46610701084136962891e-01) (70, 6.64467275142669677734e-01) (71, -8.26492667198181152344e-01) (72, 3.21085870265960693359e-01) (73, -1.59882575273513793945e-01) (74, -7.60690450668334960938e-01) (75, -9.53838169574737548828e-01) (76, -3.06908339262008666992e-01) (77, 1.75916746258735656738e-01) (78, 5.30969679355621337891e-01) (79, 5.18145561218261718750e-01) (80, 3.28324288129806518555e-01) (81, -6.55562162399291992188e-01) (82, 5.30083119869232177734e-01) (83, 5.60075104236602783203e-01) (84, -3.48465651273727416992e-01) (85, 7.22385048866271972656e-01) (86, 5.14658451080322265625e-01) (87, -1.05338871479034423828e+00) (88, -4.88534271717071533203e-01) (89, -6.79567039012908935547e-01) (90, -1.11095927655696868896e-01) (91, -7.98078954219818115234e-01) (92, 1.67997434735298156738e-01) (93, -4.93904858827590942383e-01) (94, -2.79408488422632217407e-02) (95, 3.09979133307933807373e-02) (96, -6.70366585254669189453e-01) (97, -3.66172790527343750000e-02) (98, 6.33525490760803222656e-01) (99, 6.19344949722290039062e-01) (100, -3.10599841177463531494e-02) (101, 5.98787128925323486328e-01) (102, -9.11220490932464599609e-01) (103, -2.96998590230941772461e-01) (104, -3.82188856601715087891e-01) (105, -1.23886668682098388672e+00) (106, 4.28649969398975372314e-02) (107, 4.88650739192962646484e-01) (108, 4.13372516632080078125e-01) (109, -2.18780621886253356934e-01) (110, 3.90239417552947998047e-01) (111, -2.05535918474197387695e-01) (112, -2.55602806806564331055e-01) (113, -1.41741096973419189453e-01) (114, -4.75639045238494873047e-01) (115, 4.69475448131561279297e-01) (116, -5.77195703983306884766e-01) (117, 8.44906687736511230469e-01) (118, 6.98238372802734375000e-01) (119, 5.12559533119201660156e-01) (120, -9.40154254436492919922e-01) (121, -2.77442097663879394531e-01) (122, -1.62856951355934143066e-01) (123, 5.18510639667510986328e-01) (124, 4.01775032281875610352e-01) (125, -9.65245962142944335938e-01) (126, -3.65413993597030639648e-01) (127, 3.47688287496566772461e-01) (128, 2.90318727493286132812e-01) (129, -7.93196439743041992188e-01) (130, 1.40892893075942993164e-01) (131, -7.98144400119781494141e-01) (132, 6.38313889503479003906e-01) (133, -1.60321488976478576660e-01) (134, 3.57338577508926391602e-01) (135, 9.69368219375610351562e-01) (136, 5.19291520118713378906e-01) (137, -9.98667359352111816406e-01) (138, 4.31157380342483520508e-01) (139, -1.44419461488723754883e-01) (140, -1.63223177194595336914e-01) (141, -5.55150568485260009766e-01) (142, 6.44038736820220947266e-01) (143, 7.99995243549346923828e-01) (144, 8.71635228395462036133e-02) (145, -5.98816990852355957031e-01) (146, 2.47733920812606811523e-01) (147, -8.18989336490631103516e-01) (148, -1.10036563873291015625e+00) (149, -3.83300334215164184570e-01) (150, 2.70373433828353881836e-01) (151, -1.06770300865173339844e+00) (152, 2.42005154490470886230e-01) (153, -6.00970625877380371094e-01) (154, 1.50000000000000000000e+03) (155, 1.50000000000000000000e+03) (156, -1.85310256481170654297e+00) (157, 6.09720706939697265625e-01) (158, -7.72654533386230468750e-01) (159, 5.25351583957672119141e-01) (160, 1.79413771629333496094e+00) (161, 1.11569726467132568359e+00) (0, -6.80008888244628906250e-01) (1, -7.07154750823974609375e-01) (2, 5.82803487777709960938e-01) (3, 2.95937545597553253174e-02) (4, 8.43163371086120605469e-01) (5, -6.20793998241424560547e-01) (6, 2.61126875877380371094e-01) (7, -2.41599276661872863770e-01) (8, -6.00113153457641601562e-01) (9, 1.99286594986915588379e-01) (10, 9.39677059650421142578e-02) (11, 7.36123621463775634766e-01) (12, 7.63522759079933166504e-02) (13, 5.08265912532806396484e-01) (14, 7.71097898483276367188e-01) (15, 4.78169918060302734375e-01) (16, 4.86124902963638305664e-02) (17, 4.92231816053390502930e-01) (18, -7.24288582801818847656e-01) (19, -1.21963620185852050781e+00) (20, 4.77888196706771850586e-01) (21, -6.18640542030334472656e-01) (22, -5.27083575725555419922e-01) (23, -5.89815974235534667969e-01) (24, 2.32931509613990783691e-01) (25, 1.36693787574768066406e+00) (26, 6.22429013252258300781e-01) (27, 5.29079437255859375000e-01) (28, 2.64950960874557495117e-01) (29, -1.63827970623970031738e-01) (30, 3.26360881328582763672e-01) (31, 7.82543301582336425781e-01) (32, -3.86248379945755004883e-01) (33, -7.13628530502319335938e-01) (34, -5.74545323848724365234e-01) (35, -8.72508883476257324219e-01) (36, 2.37003192305564880371e-01) (37, -6.86934292316436767578e-01) (38, 1.16229064762592315674e-01) (39, -1.10103142261505126953e+00) (40, 3.30102175474166870117e-01) (41, 8.57273459434509277344e-01) (42, -5.81423453986644744873e-02) (43, 9.71209168434143066406e-01) (44, -7.00856968760490417480e-02) (45, -3.52193892002105712891e-01) (46, -8.39034020900726318359e-01) (47, -2.38780951499938964844e+00) (48, -9.06272768974304199219e-01) (49, -4.27185781300067901611e-02) (50, -2.92072743177413940430e-01) (51, -7.49078691005706787109e-01) (52, -1.37769961357116699219e+00) (53, -5.96115626394748687744e-02) (54, -2.80898660421371459961e-01) (55, 5.70953071117401123047e-01) (56, -1.16513319313526153564e-01) (57, -5.56876480579376220703e-01) (58, -2.51746296882629394531e-01) (59, -1.32620322704315185547e+00) (60, -1.10676795244216918945e-01) (61, 6.77508533000946044922e-01) (62, 8.89581382274627685547e-01) (63, 4.78274703025817871094e-01) (64, -2.20178868621587753296e-02) (65, -5.85969448089599609375e-01) (66, 5.66663503646850585938e-01) (67, -1.37152075767517089844e+00) (68, 1.34239264298230409622e-03) (69, 5.90591691434383392334e-02) (70, 8.45462620258331298828e-01) (71, -3.87206733226776123047e-01) (72, -4.99699920415878295898e-01) (73, -2.80713252723217010498e-02) (74, 5.17559587955474853516e-01) (75, 5.61015188694000244141e-01) (76, -6.98673069477081298828e-01) (77, -5.42154788970947265625e-01) (78, 5.21448910236358642578e-01) (79, -1.51280947029590606689e-02) (80, 4.50075596570968627930e-01) (81, -1.99665442109107971191e-01) (82, 1.31103262305259704590e-01) (83, -9.00676250457763671875e-01) (84, 8.69529306888580322266e-01) (85, -6.96374058723449707031e-01) (86, -8.66929650306701660156e-01) (87, -4.24338817596435546875e-01) (88, 1.21652662754058837891e-01) (89, -2.79945641756057739258e-01) (90, -4.92263495922088623047e-01) (91, -4.89308863878250122070e-01) (92, 2.29378212243318557739e-02) (93, 9.23708379268646240234e-01) (94, -5.28321385383605957031e-01) (95, 1.01398205757141113281e+00) (96, -5.47321617603302001953e-01) (97, -2.99544602632522583008e-01) (98, -6.85575246810913085938e-01) (99, -7.00365126132965087891e-01) (100, -1.02060663700103759766e+00) (101, -8.12721431255340576172e-01) (102, 8.98743808269500732422e-01) (103, 7.69133925437927246094e-01) (104, 3.60168009996414184570e-01) (105, 4.01400059461593627930e-01) (106, -2.13717088103294372559e-01) (107, 8.08550477027893066406e-01) (108, 2.74803757667541503906e-01) (109, 1.64535075426101684570e-01) (110, 6.68282449245452880859e-01) (111, -1.63781955838203430176e-01) (112, -1.32658649235963821411e-02) (113, -3.53085398674011230469e-02) (114, -2.80233025550842285156e-02) (115, 4.26157146692276000977e-01) (116, 8.58645379543304443359e-01) (117, -6.19374513626098632812e-01) (118, 1.23238945007324218750e+00) (119, 1.33447438478469848633e-01) (120, 3.95806133747100830078e-01) (121, 5.34591138362884521484e-01) (122, -4.45713073015213012695e-01) (123, 2.11036831140518188477e-01) (124, 3.92295777797698974609e-01) (125, 3.01580727100372314453e-01) (126, -6.71881139278411865234e-02) (127, 3.68137776851654052734e-01) (128, 2.78273671865463256836e-01) (129, -4.07657712697982788086e-01) (130, -4.79101061820983886719e-01) (131, -2.37539783120155334473e-01) (132, -2.28589937090873718262e-01) (133, -6.98347151279449462891e-01) (134, -1.26880168914794921875e+00) (135, -5.39020538330078125000e-01) (136, -1.47196754813194274902e-01) (137, 4.32771235704421997070e-01) (138, 7.37910449504852294922e-01) (139, -5.29593288898468017578e-01) (140, 1.25761365890502929688e+00) (141, 4.95883882045745849609e-01) (142, -1.61354553699493408203e+00) (143, 7.01444625854492187500e-01) (144, 1.07135522365570068359e+00) (145, -3.72494220733642578125e-01) (146, -2.37049430608749389648e-01) (147, 1.20653510093688964844e+00) (148, 3.62271219491958618164e-01) (149, 1.27760326862335205078e+00) (150, 6.83445394039154052734e-01) (151, 1.17375396192073822021e-01) (152, 9.35046970844268798828e-01) (153, 1.02272796630859375000e+00) (154, 1.50000000000000000000e+03) (155, 1.50000000000000000000e+03) (156, -1.52688872814178466797e+00) (157, 3.37436318397521972656e-01) (158, 2.04526305198669433594e+00) (159, 6.87222301959991455078e-01) (160, 3.62781071662902832031e+00) (161, 3.04100799560546875000e+00) (162, 2.72851800918579101562e+00) (0, 2.66194462776184082031e+00) (1, 5.42983591556549072266e-01) (2, -3.49718272686004638672e-01) (3, -1.05457711219787597656e+00) (4, -4.11779761314392089844e-01) (5, -4.08133953809738159180e-01) (6, 5.02900123596191406250e-01) (7, 3.65854173898696899414e-01) (8, 3.47632378339767456055e-01) (9, -4.09424155950546264648e-01) (10, -4.65900003910064697266e-01) (11, -5.89911401271820068359e-01) (12, 6.41142368316650390625e-01) (13, 2.73295670747756958008e-01) (14, 1.22864460945129394531e+00) (15, 7.37125694751739501953e-01) (16, 4.96910288929939270020e-02) (17, -3.87882113456726074219e-01) (18, -7.27681756019592285156e-01) (19, 1.35404676198959350586e-01) (20, 1.88623055815696716309e-01) (21, 7.42420017719268798828e-01) (22, -5.63065588474273681641e-01) (23, -2.00079157948493957520e-02) (24, 6.60944342613220214844e-01) (25, -3.87533813714981079102e-01) (26, -2.21955209970474243164e-01) (27, -1.90291035175323486328e+00) (28, 3.46942752599716186523e-01) (29, -7.88833379745483398438e-01) (30, 2.08339333534240722656e-01) (31, -3.28451633453369140625e-01) (32, 3.21718268096446990967e-02) (33, -3.22872251272201538086e-01) (34, -1.11131608486175537109e+00) (35, -2.40905612707138061523e-01) (36, 3.11596900224685668945e-01) (37, 9.40058529376983642578e-01) (38, 4.31932181119918823242e-01) (39, -8.79198849201202392578e-01) (40, 1.29153966903686523438e+00) (41, -6.55388712882995605469e-01) (42, -1.21782749891281127930e-01) (43, -5.94200789928436279297e-02) (44, 5.24864375591278076172e-01) (45, -7.15523064136505126953e-01) (46, -6.16505146026611328125e-01) (47, -8.07712256908416748047e-01) (48, 2.09103658795356750488e-01) (49, -8.81294786930084228516e-01) (50, -8.94906222820281982422e-01) (51, 1.00592374801635742188e+00) (52, 3.08464199304580688477e-01) (53, -3.79291027784347534180e-01) (54, -1.25322729349136352539e-01) (55, -1.39529198408126831055e-01) (56, -4.50588107109069824219e-01) (57, 6.15735352039337158203e-02) (58, 3.25297117233276367188e-01) (59, 9.50251162052154541016e-01) (60, -1.00482952594757080078e+00) (61, 1.52063024044036865234e+00) (62, -3.26253265142440795898e-01) (63, -8.68465960025787353516e-01) (64, 3.60017418861389160156e-01) (65, 1.17211952805519104004e-01) (66, 3.62391084432601928711e-01) (67, 6.01602137088775634766e-01) (68, 1.92677862942218780518e-02) (69, -2.77306020259857177734e-01) (70, 2.99459725618362426758e-01) (71, -4.81244981288909912109e-01) (72, -7.35584259033203125000e-01) (73, 1.29304695129394531250e+00) (74, -3.45637798309326171875e-01) (75, 1.09137284755706787109e+00) (76, -5.63872575759887695312e-01) (77, 6.62509739398956298828e-01) (78, -7.47921586036682128906e-01) (79, 6.73905491828918457031e-01) (80, 6.81260466575622558594e-01) (81, -8.60462069511413574219e-01) (82, 3.42031151056289672852e-01) (83, -9.71205353736877441406e-01) (84, 7.17427134513854980469e-01) (85, -5.20245790481567382812e-01) (86, 2.96542029827833175659e-02) (87, 7.70925939083099365234e-01) (88, -8.34402978420257568359e-01) (89, -1.55376315116882324219e-01) (90, -3.08747559785842895508e-01) (91, -1.30159997940063476562e+00) (92, -7.86563873291015625000e-01) (93, 1.51134014129638671875e-01) (94, -1.56671547889709472656e+00) (95, -7.42193281650543212891e-01) (96, -8.15857589244842529297e-01) (97, 6.44544005393981933594e-01) (98, 4.09291565418243408203e-01) (99, -4.10061376169323921204e-03) (100, 3.62220034003257751465e-02) (101, -9.27091911435127258301e-02) (102, -2.39213123917579650879e-01) (103, 2.86710523068904876709e-02) (104, 5.55348247289657592773e-02) (105, -6.21014058589935302734e-01) (106, 6.34781867265701293945e-02) (107, 4.28111612796783447266e-01) (108, -7.45768010616302490234e-01) (109, 1.06556737422943115234e+00) (110, 1.53005152940750122070e-01) (111, 7.61435270309448242188e-01) (112, 8.53730976581573486328e-01) (113, 1.78109180927276611328e+00) (114, -5.29581271111965179443e-02) (115, -4.68731433153152465820e-01) (116, 9.27596271038055419922e-01) (117, 6.37370049953460693359e-01) (118, 5.62940895557403564453e-01) (119, -5.51417231559753417969e-01) (120, 1.02027869224548339844e+00) (121, 4.43752944469451904297e-01) (122, -5.03486275672912597656e-01) (123, -6.84472501277923583984e-01) (124, 7.95673191547393798828e-01) (125, 4.89412605762481689453e-01) (126, 3.45707654953002929688e-01) (127, 9.23863172531127929688e-01) (128, 1.16507995128631591797e+00) (129, 4.95027042925357818604e-02) (130, 1.32697296142578125000e+00) (131, -6.28199219703674316406e-01) (132, 2.35870361328125000000e+00) (133, 4.35657531023025512695e-01) (134, -7.13009893894195556641e-01) (135, 2.21683287620544433594e+00) (136, 2.79486477375030517578e-01) (137, 7.72613167762756347656e-01) (138, -5.71147084236145019531e-01) (139, 6.18057310581207275391e-01) (140, 2.47107163071632385254e-01) (141, 1.03591179847717285156e+00) (142, -5.70107936859130859375e-01) (143, -2.42827206850051879883e-01) (144, 5.08290350437164306641e-01) (145, -1.25027501583099365234e+00) (146, -5.22534310817718505859e-01) (147, 7.91004061698913574219e-01) (148, 1.05397176742553710938e+00) (149, -2.24589511752128601074e-01) (150, -6.96093440055847167969e-01) (151, -7.28599429130554199219e-01) (152, 1.60005286335945129395e-01) (153, -3.11588253825902938843e-02) (154, 1.50000000000000000000e+03) (155, 1.50000000000000000000e+03) (156, 4.47692155838012695312e-01) (157, 1.01399004459381103516e-01) (158, -1.65033435821533203125e+00) (159, 1.05832827091217041016e+00) (160, 2.78605556488037109375e+00) (161, 5.44880104064941406250e+00) (162, 1.81401026248931884766e+00) (163, -1.83127915859222412109e+00) (0, -4.96211320161819458008e-01) (1, -1.30765542387962341309e-01) (2, -2.87319153547286987305e-01) (3, 3.42718601226806640625e-01) (4, -5.32421730458736419678e-02) (5, 9.58467200398445129395e-02) (6, -2.98069834709167480469e-01) (7, 4.30335551500320434570e-01) (8, 3.85054826736450195312e-01) (9, -6.76557481288909912109e-01) (10, 1.42797493934631347656e+00) (11, 6.02948963642120361328e-01) (12, -4.42816823720932006836e-01) (13, 4.84822213649749755859e-01) (14, -3.88078659772872924805e-01) (15, 8.41856654733419418335e-03) (16, -9.28970634937286376953e-01) (17, 2.96990841627120971680e-01) (18, -3.62678647041320800781e-01) (19, 1.27899006009101867676e-01) (20, -6.85960412025451660156e-01) (21, -1.10659277439117431641e+00) (22, -3.57477426528930664062e-01) (23, -2.67093569040298461914e-01) (24, 1.16836082935333251953e+00) (25, 7.28016495704650878906e-01) (26, -9.01456251740455627441e-02) (27, 8.34294930100440979004e-02) (28, 1.15124836564064025879e-01) (29, -3.13166260719299316406e-01) (30, -7.28586077690124511719e-01) (31, 2.27387234568595886230e-01) (32, 2.91000604629516601562e-01) (33, -2.26792022585868835449e-01) (34, -9.23779785633087158203e-01) (35, -9.21331405639648437500e-01) (36, -1.44340563565492630005e-02) (37, 3.57977777719497680664e-01) (38, 1.74806118011474609375e-01) (39, -2.66626417636871337891e-01) (40, 1.39845573902130126953e+00) (41, 9.69904541969299316406e-01) (42, 6.40686631202697753906e-01) (43, 7.03706145286560058594e-01) (44, 6.28803551197052001953e-01) (45, -8.05611014366149902344e-01) (46, -8.66981804370880126953e-01) (47, 8.32196235656738281250e-01) (48, -4.19253200292587280273e-01) (49, 1.01640768349170684814e-01) (50, 2.88597494363784790039e-01) (51, 1.31369912624359130859e+00) (52, 3.99968534708023071289e-01) (53, 5.18106400966644287109e-01) (54, -7.18067660927772521973e-02) (55, -3.59813272953033447266e-01) (56, 4.91168320178985595703e-01) (57, 7.34259607270359992981e-03) (58, -1.19790101051330566406e+00) (59, 2.63960146903991699219e+00) (60, 3.70421171188354492188e-01) (61, -4.67614322900772094727e-01) (62, -4.61118131875991821289e-01) (63, -6.05162560939788818359e-01) (64, -1.27262663841247558594e+00) (65, -1.25879332423210144043e-01) (66, -3.52752119302749633789e-01) (67, -8.04130375385284423828e-01) (68, -1.62630140781402587891e-01) (69, -2.91233807802200317383e-01) (70, 5.33255636692047119141e-01) (71, 5.87520420551300048828e-01) (72, -6.35230958461761474609e-01) (73, 4.43697959184646606445e-01) (74, 2.70780593156814575195e-01) (75, 3.78418155014514923096e-03) (76, -7.87753105163574218750e-01) (77, -1.02903807163238525391e+00) (78, 1.24480819702148437500e+00) (79, -4.06161516904830932617e-01) (80, 3.60704928636550903320e-01) (81, -3.51040542125701904297e-01) (82, -3.27100962400436401367e-01) (83, 1.64282634854316711426e-01) (84, -6.08467519283294677734e-01) (85, 1.05709123611450195312e+00) (86, -7.62042403221130371094e-01) (87, -7.37085163593292236328e-01) (88, 1.31733426824212074280e-02) (89, -6.87747597694396972656e-01) (90, 4.35001581907272338867e-01) (91, -8.01119208335876464844e-01) (92, -1.00499105453491210938e+00) (93, -8.46260905265808105469e-01) (94, 1.95460557937622070312e-01) (95, -2.54330456256866455078e-01) (96, 4.33019101619720458984e-01) (97, 9.06110405921936035156e-01) (98, -9.01169627904891967773e-02) (99, -4.44682717323303222656e-01) (100, -6.59858226776123046875e-01) (101, -3.88977169990539550781e-01) (102, 2.36680153757333755493e-02) (103, 2.72091448307037353516e-01) (104, -8.45391392707824707031e-01) (105, -6.25024497509002685547e-01) (106, -1.60586908459663391113e-02) (107, -3.69564294815063476562e-01) (108, -1.72618716955184936523e-01) (109, 8.05957734584808349609e-01) (110, 6.25830829143524169922e-01) (111, -4.46374595165252685547e-01) (112, 1.31994438171386718750e+00) (113, -2.44315907359123229980e-01) (114, -8.95344197750091552734e-01) (115, -7.90611982345581054688e-01) (116, 1.14773571491241455078e+00) (117, -3.89499127864837646484e-01) (118, 6.19179725646972656250e-01) (119, -2.41840049624443054199e-01) (120, 8.28034281730651855469e-01) (121, 6.26947999000549316406e-01) (122, -5.95399022102355957031e-01) (123, 3.99215847253799438477e-01) (124, 2.36501589417457580566e-01) (125, 6.44816100597381591797e-01) (126, -7.52761438488960266113e-02) (127, -1.76846049726009368896e-02) (128, 9.37908470630645751953e-01) (129, 5.24552404880523681641e-01) (130, 1.33755314350128173828e+00) (131, -7.67266809940338134766e-01) (132, -1.78755208849906921387e-01) (133, -6.11449778079986572266e-01) (134, 4.21838611364364624023e-01) (135, -1.24489128589630126953e+00) (136, 8.15206408500671386719e-01) (137, -3.28579753637313842773e-01) (138, -4.01715964078903198242e-01) (139, -1.13025939464569091797e+00) (140, -1.22046971321105957031e+00) (141, 1.61912608891725540161e-02) (142, 6.52498483657836914062e-01) (143, 7.93366909027099609375e-01) (144, 9.01047825813293457031e-01) (145, 1.62506118416786193848e-01) (146, 1.45173594355583190918e-01) (147, -9.48826968669891357422e-01) (148, -1.19857621192932128906e+00) (149, 6.45532965660095214844e-01) (150, -4.18796509504318237305e-01) (151, 6.81819617748260498047e-02) (152, -4.82861191034317016602e-01) (153, 4.85953360795974731445e-01) (154, 1.50000000000000000000e+03) (155, 1.50000000000000000000e+03) (156, 1.58052034676074981689e-02) (157, 1.05110144615173339844e+00) (158, 7.20401182770729064941e-02) (159, 4.75705653429031372070e-01) (160, 3.01507115364074707031e+00) (161, 3.20581793785095214844e+00) (162, 1.16607499122619628906e+00) (163, -3.40767240524291992188e+00) (164, 1.22937786579132080078e+00) (0, 5.71289658546447753906e-01) (1, -6.54016971588134765625e-01) (2, 2.53799438476562500000e-01) (3, -3.54324400424957275391e-01) (4, -7.95540869235992431641e-01) (5, 5.17821729183197021484e-01) (6, 6.11031293869018554688e-01) (7, -3.11111479997634887695e-01) (8, 7.25855052471160888672e-01) (9, -8.29083621501922607422e-01) (10, 7.06675350666046142578e-01) (11, -1.29560619592666625977e-01) (12, 9.22737181186676025391e-01) (13, 2.01476588845252990723e-01) (14, -4.02206834405660629272e-03) (15, -7.98965319991111755371e-02) (16, 2.91870504617691040039e-01) (17, 5.52209079265594482422e-01) (18, 1.19989708065986633301e-01) (19, 5.28370141983032226562e-01) (20, -3.89742285013198852539e-01) (21, 4.63842064142227172852e-01) (22, -6.09815306961536407471e-02) (23, 4.61988866329193115234e-01) (24, -6.25813901424407958984e-01) (25, -8.87949109077453613281e-01) (26, 8.20438206195831298828e-01) (27, -9.25151184201240539551e-02) (28, 7.94134587049484252930e-02) (29, 3.72291266918182373047e-01) (30, 7.23275303840637207031e-01) (31, -5.44541597366333007812e-01) (32, -5.17461240291595458984e-01) (33, -3.69555264711380004883e-01) (34, -1.67570650577545166016e-01) (35, 8.82800072431564331055e-02) (36, -7.89859294891357421875e-01) (37, -5.62105715274810791016e-01) (38, -1.65471583604812622070e-01) (39, 1.07758939266204833984e+00) (40, -1.03524518013000488281e+00) (41, 4.11630511283874511719e-01) (42, -2.54760414361953735352e-01) (43, -5.35988628864288330078e-01) (44, -6.09178721904754638672e-01) (45, 6.65856838226318359375e-01) (46, 7.02325403690338134766e-01) (47, 5.96629977226257324219e-01) (48, 4.88202534615993499756e-02) (49, 1.37074571102857589722e-02) (50, -2.55803376436233520508e-01) (51, 9.89205479621887207031e-01) (52, -1.86901867389678955078e-01) (53, -6.12510144710540771484e-01) (54, -5.16446769237518310547e-01) (55, -4.34032678604125976562e-01) (56, -5.05931794643402099609e-01) (57, 2.45133079588413238525e-02) (58, 8.02993237972259521484e-01) (59, 6.38163089752197265625e-01) (60, -2.82178014516830444336e-01) (61, 3.47119987010955810547e-01) (62, 3.12000960111618041992e-01) (63, -9.08571034669876098633e-02) (64, 1.16246509552001953125e+00) (65, -8.19046676158905029297e-01) (66, 4.92668986320495605469e-01) (67, -8.68565797805786132812e-01) (68, -5.82220971584320068359e-01) (69, 2.87886261940002441406e-01) (70, -8.49102020263671875000e-01) (71, -6.01324392482638359070e-03) (72, -3.78515064716339111328e-01) (73, -1.86880752444267272949e-01) (74, 3.79871547222137451172e-01) (75, -1.29195347428321838379e-01) (76, -8.37644517421722412109e-01) (77, -2.97146886587142944336e-01) (78, -8.76277744770050048828e-01) (79, -9.90881547331809997559e-02) (80, 6.81385695934295654297e-01) (81, -1.51700019836425781250e-01) (82, 6.91422894597053527832e-02) (83, 1.11573004722595214844e+00) (84, 2.62433946132659912109e-01) (85, -2.33885526657104492188e-01) (86, -3.31387072801589965820e-01) (87, 5.22396743297576904297e-01) (88, 6.39967799186706542969e-01) (89, -1.05781269073486328125e+00) (90, 9.44597348570823669434e-02) (91, 7.56879210472106933594e-01) (92, 1.96332395076751708984e-01) (93, -3.09617549180984497070e-01) (94, -2.23529398441314697266e-01) (95, 2.16975674033164978027e-01) (96, -1.63108244538307189941e-01) (97, -2.92954176664352416992e-01) (98, 3.42201918363571166992e-01) (99, 4.88678932189941406250e-01) (100, 1.00146782398223876953e+00) (101, 4.88723456859588623047e-01) (102, -4.63235020637512207031e-01) (103, -4.92804378271102905273e-01) (104, 8.42525720596313476562e-01) (105, -7.51263201236724853516e-01) (106, 2.61007219552993774414e-01) (107, 7.65684247016906738281e-01) (108, -6.85287654399871826172e-01) (109, 9.51556116342544555664e-02) (110, 1.21384747326374053955e-01) (111, 6.46982133388519287109e-01) (112, 9.95344221591949462891e-01) (113, -5.87322056293487548828e-01) (114, 7.70126044750213623047e-01) (115, -2.35511243343353271484e-01) (116, -7.40003287792205810547e-01) (117, -6.64401948451995849609e-01) (118, -2.29821145534515380859e-01) (119, 5.77772915363311767578e-01) (120, -6.74615561962127685547e-01) (121, 7.83069491386413574219e-01) (122, -1.33960068225860595703e-01) (123, 5.34488439559936523438e-01) (124, -8.21420669555664062500e-01) (125, -7.85980224609375000000e-01) (126, -2.18768969178199768066e-01) (127, 1.58007070422172546387e-01) (128, -3.31859856843948364258e-01) (129, 7.98772215843200683594e-01) (130, 1.07835352420806884766e+00) (131, -4.87115174531936645508e-01) (132, 3.06241482496261596680e-01) (133, -7.48574614524841308594e-01) (134, 4.02718931436538696289e-02) (135, 9.47789624333381652832e-02) (136, 4.71759885549545288086e-01) (137, -8.71469795703887939453e-01) (138, 7.99315571784973144531e-02) (139, 5.74547469615936279297e-01) (140, 2.76844173669815063477e-01) (141, -9.37378227710723876953e-01) (142, 3.93719106912612915039e-01) (143, 1.57892614603042602539e-01) (144, -7.50298798084259033203e-01) (145, -1.90103262662887573242e-01) (146, -7.63351678848266601562e-01) (147, -4.39353674650192260742e-01) (148, -4.16578575968742370605e-02) (149, -2.39347755908966064453e-01) (150, -8.41680705547332763672e-01) (151, 1.85171604156494140625e-01) (152, -6.70647084712982177734e-01) (153, 5.40904045104980468750e-01) (154, 1.50000000000000000000e+03) (155, 1.50000000000000000000e+03) (156, 9.35683920979499816895e-02) (157, 5.81860542297363281250e-01) (158, -5.67802935838699340820e-02) (159, -9.72440838813781738281e-03) (160, 4.32073116302490234375e+00) (161, 3.41782951354980468750e+00) (162, 1.91975343227386474609e+00) (163, 3.07878303527832031250e+00) (164, -1.56327202916145324707e-01) (165, 3.97982764244079589844e+00) (0, 2.94851183891296386719e-01) (1, -5.65059743821620941162e-02) (2, 3.88433635234832763672e-01) (3, -6.40573918819427490234e-01) (4, -1.41843914985656738281e+00) (5, -5.94090223312377929688e-01) (6, 7.42142736911773681641e-01) (7, -4.02298599481582641602e-01) (8, 9.24284577369689941406e-01) (9, 3.81901025772094726562e-01) (10, 8.07969391345977783203e-01) (11, -1.91688492894172668457e-01) (12, 6.68529644608497619629e-02) (13, 4.26679313182830810547e-01) (14, -4.69770044088363647461e-01) (15, 3.64559710025787353516e-01) (16, -6.10744595527648925781e-01) (17, -3.37463498115539550781e-01) (18, -2.78372801840305328369e-02) (19, 7.38182544708251953125e-01) (20, -6.41138494014739990234e-01) (21, -2.10850790143013000488e-01) (22, -3.32751870155334472656e-01) (23, -1.36884972453117370605e-01) (24, 3.37546586990356445312e-01) (25, 2.44955033063888549805e-01) (26, 7.17456817626953125000e-01) (27, -1.20476283133029937744e-01) (28, 9.81612280011177062988e-02) (29, -7.47674107551574707031e-01) (30, -1.38112977147102355957e-01) (31, -1.33854460716247558594e+00) (32, -2.75992929935455322266e-01) (33, -6.64956450462341308594e-01) (34, -7.16638028621673583984e-01) (35, 7.87496805191040039062e-01) (36, 1.21441960334777832031e-01) (37, 1.14796571433544158936e-01) (38, -1.24621927738189697266e+00) (39, -1.74270153045654296875e-01) (40, -1.12217865884304046631e-01) (41, -7.83132612705230712891e-01) (42, 1.19616973400115966797e+00) (43, -8.15317273139953613281e-01) (44, 4.59447234869003295898e-01) (45, -6.55765950679779052734e-01) (46, 9.59642305970191955566e-02) (47, 7.68508076667785644531e-01) (48, -7.61114895343780517578e-01) (49, -1.61368831992149353027e-01) (50, 7.57675945758819580078e-01) (51, -7.59814739227294921875e-01) (52, 4.72947001457214355469e-01) (53, -4.35690701007843017578e-01) (54, 1.81482210755348205566e-01) (55, -5.04403598606586456299e-02) (56, 9.04944777488708496094e-01) (57, -1.70181527733802795410e-01) (58, 4.00303192436695098877e-02) (59, -1.10841922760009765625e+01) (60, 1.57585218548774719238e-01) (61, -6.57770216464996337891e-01) (62, -3.91249924898147583008e-01) (63, -8.45418751239776611328e-01) (64, 3.83499152958393096924e-02) (65, 6.68350934982299804688e-01) (66, -3.42859804630279541016e-01) (67, 2.40807816386222839355e-01) (68, 6.83085322380065917969e-01) (69, -4.84645694494247436523e-01) (70, 1.16078937053680419922e+00) (71, -5.12213349342346191406e-01) (72, -4.60005104541778564453e-01) (73, 8.37223291397094726562e-01) (74, -6.66168108582496643066e-02) (75, -3.74769955873489379883e-01) (76, -5.16373217105865478516e-01) (77, -6.54695808887481689453e-01) (78, 4.85808402299880981445e-01) (79, 1.37281179428100585938e-01) (80, -9.75788533687591552734e-02) (81, -1.61363527178764343262e-01) (82, 5.39784967899322509766e-01) (83, -5.74510633945465087891e-01) (84, 4.96685236692428588867e-01) (85, -4.70132052898406982422e-01) (86, 7.92668461799621582031e-01) (87, 6.49134337902069091797e-01) (88, 9.21833634376525878906e-01) (89, 3.16593945026397705078e-01) (90, -5.72821974754333496094e-01) (91, 4.78424847126007080078e-01) (92, 2.62410342693328857422e-01) (93, 3.18600773811340332031e-01) (94, 5.17962694168090820312e-01) (95, 1.46341100335121154785e-01) (96, -3.76621663570404052734e-01) (97, 4.20411676168441772461e-01) (98, -2.06979766488075256348e-01) (99, -8.42226684093475341797e-01) (100, 8.24632167816162109375e-01) (101, -1.72861725091934204102e-01) (102, -1.04234397411346435547e-01) (103, -7.79043018817901611328e-01) (104, -4.55606192350387573242e-01) (105, 3.76221865415573120117e-01) (106, 1.05302858352661132812e+00) (107, 3.48838120698928833008e-01) (108, 5.15619516372680664062e-01) (109, 8.07698011398315429688e-01) (110, -5.09285748004913330078e-01) (111, -2.26490557193756103516e-01) (112, -2.08118602633476257324e-01) (113, 2.69352495670318603516e-01) (114, -3.92754942178726196289e-01) (115, -5.42873740196228027344e-01) (116, -3.07137221097946166992e-01) (117, 6.98549812659621238708e-03) (118, 8.73189210891723632812e-01) (119, -5.29500961303710937500e-01) (120, 7.32877850532531738281e-01) (121, -6.55141234397888183594e-01) (122, 4.50259655714035034180e-01) (123, -1.17730185389518737793e-01) (124, 8.70656788349151611328e-01) (125, 2.75283694267272949219e-01) (126, -1.45382240414619445801e-01) (127, -6.81523323059082031250e-01) (128, -1.15491592884063720703e+00) (129, 6.89986765384674072266e-01) (130, -1.23664355278015136719e+00) (131, -6.27228617668151855469e-01) (132, -7.71005526185035705566e-02) (133, 8.93325746059417724609e-01) (134, -7.31715500354766845703e-01) (135, 2.33439117670059204102e-01) (136, -4.13122475147247314453e-02) (137, -7.12722480297088623047e-01) (138, -5.25885045528411865234e-01) (139, -4.35274809598922729492e-01) (140, 8.12180459499359130859e-01) (141, -7.23555505275726318359e-01) (142, 1.36103048920631408691e-01) (143, -3.01377624273300170898e-01) (144, -7.41667985916137695312e-01) (145, 1.30433225631713867188e+00) (146, 1.20755545794963836670e-02) (147, -7.00833722949028015137e-02) (148, -6.56245172023773193359e-01) (149, -4.55971717834472656250e-01) (150, 4.82516556978225708008e-01) (151, 9.39642250537872314453e-01) (152, -3.35864752531051635742e-01) (153, 1.21422179043292999268e-01) (154, 1.50000000000000000000e+03) (155, 1.50000000000000000000e+03) (156, -2.82042431831359863281e+00) (157, 3.29885721206665039062e+00) (158, -9.19009745121002197266e-01) (159, 8.02116215229034423828e-01) (160, 2.83291172981262207031e+00) (161, 2.38182210922241210938e+00) (162, -7.06200122833251953125e-01) (163, 1.78376686573028564453e+00) (164, -6.44066184759140014648e-02) (165, 2.26645350456237792969e+00) (166, 2.01559805870056152344e+00) (0, -5.83802282810211181641e-01) (1, -5.95287680625915527344e-01) (2, 2.22054168581962585449e-01) (3, -5.60869693756103515625e-01) (4, -9.01479661464691162109e-01) (5, 1.78432509303092956543e-01) (6, -5.39390683174133300781e-01) (7, 3.50884109735488891602e-01) (8, -4.93565708398818969727e-01) (9, 8.94221007823944091797e-01) (10, -9.96805205941200256348e-02) (11, -7.77603924274444580078e-01) (12, 2.64832451939582824707e-02) (13, -1.10909737646579742432e-01) (14, -7.57098913192749023438e-01) (15, -6.36133030056953430176e-02) (16, 1.84835702180862426758e-01) (17, 7.30112612247467041016e-01) (18, -1.48936733603477478027e-01) (19, 4.73250687122344970703e-01) (20, 3.37729930877685546875e-01) (21, -8.20940732955932617188e-01) (22, -6.94728344678878784180e-02) (23, -5.10028839111328125000e-01) (24, 3.84230971336364746094e-01) (25, -8.35767090320587158203e-01) (26, -6.21777415275573730469e-01) (27, 5.00948905944824218750e-01) (28, 1.04240238666534423828e+00) (29, 2.76836991310119628906e-01) (30, -2.17031076550483703613e-01) (31, 4.77904498577117919922e-01) (32, 3.63649934530258178711e-01) (33, 9.33748841285705566406e-01) (34, 1.01269733905792236328e+00) (35, 4.51059460639953613281e-01) (36, -3.77432033419609069824e-02) (37, -4.98839855194091796875e-01) (38, -2.32976496219635009766e-01) (39, 4.32005137205123901367e-01) (40, -1.00340807437896728516e+00) (41, -5.38982868194580078125e-01) (42, 3.44878286123275756836e-01) (43, 3.03050875663757324219e-01) (44, 1.63015916943550109863e-01) (45, 6.96231365203857421875e-01) (46, -6.48272931575775146484e-01) (47, -1.07845401763916015625e+00) (48, 4.84207063913345336914e-01) (49, 9.96193587779998779297e-02) (50, 1.01364240050315856934e-01) (51, 1.07250891625881195068e-01) (52, 3.45718353986740112305e-01) (53, 7.74825274944305419922e-01) (54, 7.32404232025146484375e-01) (55, -9.67433303594589233398e-02) (56, 7.08950519561767578125e-01) (57, 1.02845680713653564453e+00) (58, -7.40218997001647949219e-01) (59, 5.62606215476989746094e-01) (60, 3.77573966979980468750e-01) (61, 2.35329428687691688538e-03) (62, 6.07866108417510986328e-01) (63, -2.62041509151458740234e-01) (64, -1.36441484093666076660e-01) (65, 5.86346745491027832031e-01) (66, -1.14003050327301025391e+00) (67, 8.68631958961486816406e-01) (68, 1.03063273429870605469e+00) (69, 1.20292477309703826904e-01) (70, 1.52655944228172302246e-01) (71, 6.70297741889953613281e-01) (72, 5.73655188083648681641e-01) (73, -3.09267759323120117188e-01) (74, -1.04310072958469390869e-01) (75, -1.35698288679122924805e-01) (76, -6.62696897983551025391e-01) (77, 8.75103101134300231934e-02) (78, -2.47431263327598571777e-01) (79, 6.37193620204925537109e-01) (80, -7.02905297279357910156e-01) (81, 3.48238766193389892578e-01) (82, -2.47974812984466552734e-01) (83, 5.82053661346435546875e-01) (84, 6.74496352672576904297e-01) (85, -4.62720364332199096680e-01) (86, -4.86572027206420898438e-01) (87, 6.08935654163360595703e-01) (88, -5.94081163406372070312e-01) (89, -4.10281240940093994141e-01) (90, 5.24069547653198242188e-01) (91, 9.01345431804656982422e-01) (92, 4.91067439317703247070e-01) (93, 1.69270575046539306641e-01) (94, -5.00597655773162841797e-01) (95, -5.88812887668609619141e-01) (96, -3.79134178161621093750e-01) (97, -2.58248448371887207031e-01) (98, -6.91209614276885986328e-01) (99, -5.59832811355590820312e-01) (100, 6.83328926563262939453e-01) (101, 4.84267145395278930664e-01) (102, -6.91541314125061035156e-01) (103, 5.56577563285827636719e-01) (104, -8.99548947811126708984e-01) (105, 3.39123040437698364258e-01) (106, -6.75598978996276855469e-01) (107, -5.71941137313842773438e-01) (108, -5.71966707706451416016e-01) (109, 1.31144493818283081055e-01) (110, -7.56267070770263671875e-01) (111, -1.78050205111503601074e-01) (112, -1.51415765285491943359e-01) (113, 1.30144387483596801758e-01) (114, -8.23929309844970703125e-01) (115, -3.60718727111816406250e-01) (116, 5.80586791038513183594e-01) (117, -2.68906652927398681641e-01) (118, -8.04823994636535644531e-01) (119, 9.04372155666351318359e-01) (120, -4.46747168898582458496e-02) (121, 6.26946628093719482422e-01) (122, 6.44819021224975585938e-01) (123, -2.80831187963485717773e-01) (124, -6.93646371364593505859e-02) (125, -6.98357701301574707031e-01) (126, 2.65855699777603149414e-01) (127, 5.98995685577392578125e-01) (128, -2.77656584978103637695e-01) (129, 4.82535988092422485352e-01) (130, 9.37030136585235595703e-01) (131, -3.85471999645233154297e-01) (132, -2.91039217263460159302e-02) (133, -8.36573660373687744141e-01) (134, -8.35587918758392333984e-01) (135, -4.55904863774776458740e-02) (136, 1.56470894813537597656e-01) (137, -5.50335407257080078125e-01) (138, 5.28997540473937988281e-01) (139, 1.01494884490966796875e+00) (140, 5.78921675682067871094e-01) (141, 8.22898983955383300781e-01) (142, -2.00826048851013183594e-01) (143, -4.46757555007934570312e-01) (144, -2.15555191040039062500e-01) (145, 3.69973182678222656250e-02) (146, 1.85101538896560668945e-01) (147, -5.47702193260192871094e-01) (148, 7.40188002586364746094e-01) (149, 3.94913882017135620117e-01) (150, -5.91505765914916992188e-01) (151, -4.08406592905521392822e-02) (152, 1.38773247599601745605e-01) (153, -9.67429161071777343750e-01) (154, 1.50000000000000000000e+03) (155, 1.50000000000000000000e+03) (156, -2.88441109657287597656e+00) (157, -5.06357789039611816406e-01) (158, 1.94980241358280181885e-02) (159, 1.06240950524806976318e-01) (160, 2.18982911109924316406e+00) (161, 3.92950868606567382812e+00) (162, 3.22865653038024902344e+00) (163, 2.42294931411743164062e+00) (164, 2.76225417852401733398e-01) (165, 3.27142310142517089844e+00) (166, 1.94327831268310546875e+00) (167, 2.87638831138610839844e+00) (0, -4.94879275560379028320e-01) (1, -5.97696006298065185547e-01) (2, 1.46194770932197570801e-01) (3, 4.01710212230682373047e-01) (4, -1.85208246111869812012e-01) (5, -1.33756244182586669922e+00) (6, -2.72806972265243530273e-01) (7, -9.41009819507598876953e-01) (8, 3.40890586376190185547e-01) (9, 3.92947405576705932617e-01) (10, -7.19550371170043945312e-01) (11, 1.93894162774085998535e-01) (12, 6.77553415298461914062e-01) (13, 5.25615096092224121094e-01) (14, 3.33066523075103759766e-01) (15, 1.45619988441467285156e-01) (16, 8.01965892314910888672e-01) (17, -2.36981615424156188965e-01) (18, 3.80438119173049926758e-01) (19, 3.91230762004852294922e-01) (20, 4.51446890830993652344e-01) (21, -3.85803401470184326172e-01) (22, 2.78184860944747924805e-02) (23, -6.77989125251770019531e-01) (24, 1.58249422907829284668e-01) (25, 4.57978606224060058594e-01) (26, -6.45847201347351074219e-01) (27, 4.30532723665237426758e-01) (28, -4.92857247591018676758e-01) (29, 2.32568457722663879395e-01) (30, 1.05166757106781005859e+00) (31, -4.98778432607650756836e-01) (32, -2.36570447683334350586e-01) (33, -1.55075594782829284668e-01) (34, 9.12448346614837646484e-01) (35, -1.39592394232749938965e-01) (36, -2.25766047835350036621e-01) (37, -7.59044170379638671875e-01) (38, 4.86449092626571655273e-01) (39, -3.67731750011444091797e-01) (40, -9.63990449905395507812e-01) (41, -8.81680846214294433594e-01) (42, 6.78163051605224609375e-01) (43, 4.16410237550735473633e-01) (44, 6.81681215763092041016e-01) (45, 2.75378078222274780273e-01) (46, 6.86497569084167480469e-01) (47, 2.99021363258361816406e-01) (48, -1.40007281303405761719e+00) (49, -3.09314727783203125000e-01) (50, 4.22691136598587036133e-01) (51, 9.99232947826385498047e-01) (52, -1.58532404899597167969e+00) (53, -1.97260126471519470215e-01) (54, 8.11181664466857910156e-02) (55, -1.75941422581672668457e-01) (56, -1.98118612170219421387e-01) (57, -1.00404775142669677734e+00) (58, -3.63210171461105346680e-01) (59, 3.02079033851623535156e+00) (60, 2.84221410751342773438e-01) (61, -2.40908980369567871094e-01) (62, 4.74840402603149414062e-01) (63, -8.26060831546783447266e-01) (64, 8.14014434814453125000e-01) (65, -6.88256621360778808594e-01) (66, 3.57231795787811279297e-01) (67, 1.11393980681896209717e-01) (68, 1.17482984066009521484e+00) (69, -2.18028739094734191895e-01) (70, 7.17944681644439697266e-01) (71, 7.64798820018768310547e-01) (72, 1.58554732799530029297e-01) (73, 1.92478895187377929688e-01) (74, 9.45116937160491943359e-01) (75, -2.69213974475860595703e-01) (76, 4.68021810054779052734e-01) (77, 6.90171346068382263184e-02) (78, -5.10497629642486572266e-01) (79, 4.12684172391891479492e-01) (80, 1.90973117947578430176e-01) (81, 3.77107113599777221680e-01) (82, 1.29652678966522216797e-01) (83, 1.96621730923652648926e-01) (84, -4.85787659883499145508e-01) (85, 1.18322856724262237549e-02) (86, -9.69582945108413696289e-02) (87, -3.14500778913497924805e-01) (88, -6.83572411537170410156e-01) (89, -1.37723875045776367188e+00) (90, -8.80555033683776855469e-01) (91, -4.46784734725952148438e-01) (92, 2.97610878944396972656e-01) (93, 4.55615073442459106445e-01) (94, -4.42733466625213623047e-02) (95, -2.71182656288146972656e-01) (96, -2.47151985764503479004e-01) (97, -1.40987491607666015625e+00) (98, -1.05764305591583251953e+00) (99, -4.32282954454421997070e-01) (100, 6.94011032581329345703e-01) (101, 2.80648380517959594727e-01) (102, -2.11084764450788497925e-02) (103, -1.23260416090488433838e-01) (104, 9.00798618793487548828e-01) (105, -1.44893562793731689453e+00) (106, 8.26595544815063476562e-01) (107, 6.34605646133422851562e-01) (108, 5.50269484519958496094e-01) (109, -9.58276212215423583984e-01) (110, -1.70056838542222976685e-02) (111, -3.37440073490142822266e-01) (112, -5.77297866344451904297e-01) (113, 7.21858382225036621094e-01) (114, -4.49665576219558715820e-01) (115, 1.23862596228718757629e-02) (116, -6.57483458518981933594e-01) (117, 4.14630472660064697266e-01) (118, 6.09038054943084716797e-01) (119, -1.64182305335998535156e-01) (120, 9.67637479305267333984e-01) (121, 6.76418483257293701172e-01) (122, 1.14761126041412353516e+00) (123, -1.50250449776649475098e-01) (124, 6.81995600461959838867e-02) (125, 9.03061777353286743164e-03) (126, 4.70030486583709716797e-01) (127, -3.26555222272872924805e-01) (128, 2.96497017145156860352e-01) (129, 3.57473701238632202148e-01) (130, -1.74226164817810058594e-01) (131, -2.74273399263620376587e-02) (132, -2.25260332226753234863e-01) (133, 2.02018246054649353027e-01) (134, 8.03880929946899414062e-01) (135, 6.29524648189544677734e-01) (136, 4.30257350206375122070e-01) (137, 5.51542162895202636719e-01) (138, -5.75689911842346191406e-01) (139, -1.07945851981639862061e-01) (140, 8.86864602565765380859e-01) (141, 9.61980819702148437500e-02) (142, 6.24093294143676757812e-01) (143, 3.81970733404159545898e-01) (144, -4.23834800720214843750e-01) (145, -9.20132339000701904297e-01) (146, -9.01961624622344970703e-02) (147, 3.41641157865524291992e-02) (148, 6.56743288040161132812e-01) (149, -8.18083405494689941406e-01) (150, -8.46048712730407714844e-01) (151, 2.36810132861137390137e-01) (152, 9.40544486045837402344e-01) (153, -1.00240528583526611328e+00) (154, 1.50000000000000000000e+03) (155, 1.50000000000000000000e+03) (156, -1.15874755382537841797e+00) (157, -5.15388607978820800781e-01) (158, 2.44368407875299453735e-02) (159, -3.58716964721679687500e-01) (160, 8.85251283645629882812e-01) (161, 1.07086348533630371094e+00) (162, 2.73077988624572753906e+00) (163, 2.19806981086730957031e+00) (164, 7.34346330165863037109e-01) (165, 3.20864868164062500000e+00) (166, 2.26970648765563964844e+00) (167, 2.66139221191406250000e+00) (168, 2.45489835739135742188e+00) (0, 5.39329588413238525391e-01) (1, 4.56878125667572021484e-01) (2, 3.99718135595321655273e-01) (3, -3.82475465536117553711e-01) (4, -1.09204716980457305908e-01) (5, -9.68187391757965087891e-01) (6, -1.06755256652832031250e+00) (7, -3.56898486614227294922e-01) (8, 1.40784695744514465332e-01) (9, -2.61316418647766113281e-01) (10, -2.07381978631019592285e-01) (11, 5.73955237865447998047e-01) (12, -7.83993244171142578125e-01) (13, 8.81931424140930175781e-01) (14, -3.84800881147384643555e-01) (15, -6.29106819629669189453e-01) (16, -6.67901277542114257812e-01) (17, 8.45152676105499267578e-01) (18, 9.50056612491607666016e-02) (19, -9.27016437053680419922e-01) (20, -1.52546733617782592773e-01) (21, 5.00781238079071044922e-01) (22, -8.13775420188903808594e-01) (23, 4.87534366548061370850e-02) (24, 3.08613479137420654297e-01) (25, 8.06394398212432861328e-01) (26, 1.16881079971790313721e-01) (27, 1.93186283111572265625e-01) (28, -9.37419980764389038086e-02) (29, -5.76777994632720947266e-01) (30, 1.35902321338653564453e+00) (31, 8.72994005680084228516e-01) (32, -2.33707979321479797363e-01) (33, 5.80147862434387207031e-01) (34, -8.73965740203857421875e-01) (35, 4.92997378110885620117e-01) (36, 7.50313997268676757812e-01) (37, -9.78854835033416748047e-01) (38, 6.25758945941925048828e-01) (39, 1.46169304847717285156e-01) (40, 2.81319916248321533203e-02) (41, 5.44750332832336425781e-01) (42, -8.59080672264099121094e-01) (43, -2.56339341402053833008e-01) (44, 7.88537740707397460938e-01) (45, -2.54665240645408630371e-02) (46, -1.03398692607879638672e+00) (47, 4.61225450038909912109e-01) (48, -4.03743654489517211914e-01) (49, 6.74834430217742919922e-01) (50, 7.97119557857513427734e-01) (51, -1.44406229257583618164e-01) (52, -6.82262539863586425781e-01) (53, -9.60311964154243469238e-02) (54, 9.77291822433471679688e-01) (55, -4.64190155267715454102e-01) (56, 2.67037093639373779297e-01) (57, -8.75575006008148193359e-01) (58, 7.96329200267791748047e-01) (59, 9.75736498832702636719e-01) (60, 5.73486685752868652344e-01) (61, 1.00073325634002685547e+00) (62, 8.62608373165130615234e-01) (63, 1.47105920314788818359e+00) (64, -1.42448985576629638672e+00) (65, 6.02928847074508666992e-02) (66, 6.23212933540344238281e-01) (67, -3.85994762182235717773e-01) (68, -1.29568606615066528320e-01) (69, -1.06318481266498565674e-01) (70, -4.68948855996131896973e-02) (71, 1.08130776882171630859e+00) (72, -3.02825182676315307617e-01) (73, 9.45047497749328613281e-01) (74, 4.67143356800079345703e-01) (75, 7.46007800102233886719e-01) (76, 5.68997979164123535156e-01) (77, -5.41720032691955566406e-01) (78, 5.48435337841510772705e-02) (79, -1.84110194444656372070e-01) (80, 7.37901508808135986328e-01) (81, -2.58634656667709350586e-01) (82, -4.93544101715087890625e-01) (83, -5.62846004962921142578e-01) (84, 1.14730370044708251953e+00) (85, 1.78752420470118522644e-03) (86, 7.73364678025245666504e-02) (87, 3.55399161577224731445e-01) (88, -8.30022931098937988281e-01) (89, -3.38500738143920898438e-01) (90, 9.02436435222625732422e-01) (91, 6.21922016143798828125e-01) (92, -9.89757239818572998047e-01) (93, 2.35622644424438476562e-01) (94, -1.81465756893157958984e+00) (95, 2.22369462251663208008e-01) (96, 6.80310428142547607422e-02) (97, -6.04254007339477539062e-01) (98, 1.58443772792816162109e+00) (99, 9.72562611103057861328e-01) (100, -4.88813936710357666016e-01) (101, 1.55344679951667785645e-01) (102, 9.07399356365203857422e-01) (103, -6.04899287223815917969e-01) (104, -5.50471186637878417969e-01) (105, 2.64951676130294799805e-01) (106, 4.19090628623962402344e-01) (107, 6.33746027946472167969e-01) (108, 6.53468847274780273438e-01) (109, 4.26881946623325347900e-02) (110, 5.43006777763366699219e-01) (111, -1.03544342517852783203e+00) (112, 2.11191713809967041016e-01) (113, 9.20226752758026123047e-01) (114, 2.44126141071319580078e-01) (115, 4.75646853446960449219e-01) (116, -6.65429010987281799316e-02) (117, -1.88250601291656494141e-01) (118, -6.65693402290344238281e-01) (119, -1.07656896114349365234e+00) (120, -3.53450685739517211914e-01) (121, -1.07918274402618408203e+00) (122, 5.70912174880504608154e-02) (123, 2.31364145874977111816e-01) (124, 8.77423346042633056641e-01) (125, -7.12958335876464843750e-01) (126, 1.42885243892669677734e+00) (127, -7.18077540397644042969e-01) (128, 4.35947358608245849609e-01) (129, -2.12228029966354370117e-01) (130, -7.97031998634338378906e-01) (131, -1.02735483646392822266e+00) (132, -3.83767455816268920898e-01) (133, 9.31138634681701660156e-01) (134, -3.36291581392288208008e-01) (135, -2.27449715137481689453e-01) (136, 9.67489600181579589844e-01) (137, -9.49021935462951660156e-01) (138, -2.04532817006111145020e-01) (139, -5.82380712032318115234e-01) (140, 1.12327588722109794617e-02) (141, -4.43280413746833801270e-02) (142, 8.08783471584320068359e-01) (143, -1.90440773963928222656e-01) (144, -3.16451609134674072266e-01) (145, 3.72183561325073242188e-01) (146, -8.44470977783203125000e-01) (147, -6.57584249973297119141e-01) (148, 1.55680745840072631836e-01) (149, -3.97646486759185791016e-01) (150, -3.26974242925643920898e-01) (151, -1.11922764778137207031e+00) (152, -1.73209741711616516113e-01) (153, -7.76913762092590332031e-01) (154, 1.50000000000000000000e+03) (155, 1.50000000000000000000e+03) (156, -1.13431906700134277344e+00) (157, 1.62398624420166015625e+00) (158, 7.73443996906280517578e-01) (159, 5.13074398040771484375e-02) (160, 8.75834941864013671875e-01) (161, 5.92967212200164794922e-01) (162, 1.08472275733947753906e+00) (163, -4.62831825017929077148e-01) (164, 1.28801256418228149414e-01) (165, 1.64184987545013427734e+00) (166, 3.08650827407836914062e+00) (167, 2.04187607765197753906e+00) (168, 1.82210576534271240234e+00) (169, 1.86551523208618164062e+00) (0, -1.66650152206420898438e+00) (1, -1.53264844417572021484e+00) (2, 4.42124456167221069336e-01) (3, 9.15867328643798828125e-01) (4, -5.53921222686767578125e-01) (5, -4.37854193150997161865e-02) (6, -5.65755784511566162109e-01) (7, 1.44666528701782226562e+00) (8, -3.34231048822402954102e-01) (9, -3.83606135845184326172e-01) (10, -1.22181236743927001953e+00) (11, -6.24551057815551757812e-01) (12, 1.43351721763610839844e+00) (13, 1.95667758584022521973e-01) (14, -2.15312838554382324219e-01) (15, 6.19412302970886230469e-01) (16, 4.25478994846343994141e-01) (17, 7.44747400283813476562e-01) (18, 1.22427657246589660645e-01) (19, 5.71133792400360107422e-01) (20, -9.66114819049835205078e-01) (21, -1.96646437048912048340e-01) (22, 6.89465939998626708984e-01) (23, 7.44226396083831787109e-01) (24, -6.32804930210113525391e-01) (25, 9.45351719856262207031e-01) (26, -3.87663096189498901367e-01) (27, 9.80033755302429199219e-01) (28, 6.76424980163574218750e-01) (29, -1.66442561894655227661e-02) (30, 6.63166105747222900391e-01) (31, 9.85109984874725341797e-01) (32, -3.62801522016525268555e-01) (33, 3.72039735317230224609e-01) (34, -2.79012918472290039062e-01) (35, -5.32975327223539352417e-03) (36, -1.32288253307342529297e+00) (37, 4.56344038248062133789e-01) (38, -2.33981773257255554199e-01) (39, 8.60633909702301025391e-01) (40, 1.29463839530944824219e+00) (41, 6.11517786979675292969e-01) (42, -1.23312211036682128906e+00) (43, 1.52294993400573730469e-01) (44, 4.67889189720153808594e-01) (45, 1.38140022754669189453e+00) (46, 6.10671103000640869141e-01) (47, -1.51046550273895263672e+00) (48, -1.43782034516334533691e-01) (49, -1.26872944831848144531e+00) (50, 6.55200481414794921875e-01) (51, 9.94735807180404663086e-02) (52, 3.95000874996185302734e-01) (53, 4.22444455325603485107e-02) (54, 6.29892706871032714844e-01) (55, 7.48952150344848632812e-01) (56, -5.01832127571105957031e-01) (57, 1.71832787990570068359e+00) (58, 4.46259140968322753906e-01) (59, -1.04358720779418945312e+00) (60, -5.40131211280822753906e-01) (61, 6.41607940196990966797e-01) (62, -1.26857459545135498047e-01) (63, -9.68123614788055419922e-01) (64, -5.63348829746246337891e-01) (65, -5.14431148767471313477e-02) (66, -5.41896760463714599609e-01) (67, 3.38781327009201049805e-01) (68, -7.13401138782501220703e-01) (69, -3.85986626148223876953e-01) (70, -4.89048123359680175781e-01) (71, 5.04032850265502929688e-01) (72, 5.02179674804210662842e-02) (73, 7.96294450759887695312e-01) (74, 4.44601744413375854492e-01) (75, -4.73225444555282592773e-01) (76, -7.71616458892822265625e-01) (77, 1.42773985862731933594e-01) (78, 1.26396644115447998047e+00) (79, -5.75242578983306884766e-01) (80, 5.48198759555816650391e-01) (81, 3.97885441780090332031e-01) (82, -8.18012773990631103516e-01) (83, 7.97867476940155029297e-01) (84, 9.55927670001983642578e-01) (85, 2.62700843811035156250e+00) (86, -6.33774518966674804688e-01) (87, -8.34445774555206298828e-01) (88, 5.02826385200023651123e-02) (89, 8.89733880758285522461e-02) (90, 1.47133558988571166992e-01) (91, -5.04326999187469482422e-01) (92, 1.01833450794219970703e+00) (93, 4.46665942668914794922e-01) (94, -3.22801411151885986328e-01) (95, -7.02737331390380859375e-01) (96, -6.20762646198272705078e-01) (97, 7.31800317764282226562e-01) (98, -8.28895211219787597656e-01) (99, -7.68173873424530029297e-01) (100, -1.46930611133575439453e+00) (101, 4.33887422084808349609e-01) (102, -2.32788443565368652344e-01) (103, 7.57257580757141113281e-01) (104, -3.76287777908146381378e-03) (105, 1.68211072683334350586e-01) (106, 5.33147633075714111328e-01) (107, 9.13844943046569824219e-01) (108, -5.49006402492523193359e-01) (109, -4.81026679277420043945e-01) (110, -1.91010814160108566284e-02) (111, -1.14678233861923217773e-01) (112, 5.55492043495178222656e-01) (113, -1.16472876071929931641e+00) (114, 7.48089373111724853516e-01) (115, 3.68962772190570831299e-02) (116, -7.29304552078247070312e-01) (117, 1.58028692007064819336e-01) (118, -1.17528140544891357422e+00) (119, 9.70894157886505126953e-01) (120, 2.82074082642793655396e-02) (121, 9.59888219833374023438e-01) (122, -1.91720116138458251953e+00) (123, -7.13669717311859130859e-01) (124, -4.93435651063919067383e-01) (125, -9.17460620403289794922e-02) (126, -2.37705593463033437729e-04) (127, 3.73464375734329223633e-01) (128, -5.76061904430389404297e-01) (129, -6.32020235061645507812e-01) (130, 1.03103244304656982422e+00) (131, 5.64480662345886230469e-01) (132, -7.86955714225769042969e-01) (133, -2.13597163558006286621e-01) (134, 2.79983729124069213867e-01) (135, 8.46443891525268554688e-01) (136, -5.39961755275726318359e-01) (137, -6.32664442062377929688e-01) (138, 8.73865842819213867188e-01) (139, -3.19509685039520263672e-01) (140, 4.85580891370773315430e-01) (141, -1.66306376457214355469e+00) (142, 3.52455556392669677734e-01) (143, -3.04109334945678710938e-01) (144, 5.52040159702301025391e-01) (145, -2.47745811939239501953e-01) (146, 1.81243166327476501465e-01) (147, -5.64062669873237609863e-02) (148, 3.54437865316867828369e-02) (149, -6.15520715713500976562e-01) (150, -2.85719573497772216797e-01) (151, 3.96273940801620483398e-01) (152, -7.96417951583862304688e-01) (153, -7.33420103788375854492e-02) (154, 1.50000000000000000000e+03) (155, 1.50000000000000000000e+03) (156, 3.26159983873367309570e-01) (157, -3.38452905416488647461e-02) (158, 1.11650359630584716797e+00) (159, -2.88307219743728637695e-01) (160, 9.44171965122222900391e-01) (161, 1.38554644584655761719e+00) (162, 2.48947834968566894531e+00) (163, 2.03245425224304199219e+00) (164, -1.09187543392181396484e+00) (165, 2.56014752388000488281e+00) (166, 3.01251864433288574219e+00) (167, 3.23236060142517089844e+00) (168, 5.51900267601013183594e-01) (169, 4.40699052810668945312e+00) (170, 2.63855862617492675781e+00) (0, 2.98675686120986938477e-01) (1, -1.15732288360595703125e+00) (2, 1.19917303323745727539e-01) (3, 8.11106681823730468750e-01) (4, 8.20951938629150390625e-01) (5, -9.73612368106842041016e-01) (6, -9.98347299173474311829e-04) (7, 3.21980953216552734375e-01) (8, -2.64634430408477783203e-01) (9, 1.58832937479019165039e-01) (10, 5.55025994777679443359e-01) (11, 7.64441490173339843750e-02) (12, -5.68255186080932617188e-01) (13, -5.43546557426452636719e-01) (14, 8.73004972934722900391e-01) (15, -1.11050772666931152344e+00) (16, -5.44257998466491699219e-01) (17, 2.79295206069946289062e-01) (18, 6.33405506610870361328e-01) (19, -5.73336243629455566406e-01) (20, -4.26954299211502075195e-01) (21, 4.18431520462036132812e-01) (22, 5.90376794338226318359e-01) (23, -6.38290107250213623047e-01) (24, 1.43450692296028137207e-01) (25, 1.27589762210845947266e-01) (26, 1.01737332344055175781e+00) (27, 8.76991391181945800781e-01) (28, -8.93072426319122314453e-01) (29, 5.02235710620880126953e-01) (30, -1.02126276493072509766e+00) (31, 4.18979495763778686523e-01) (32, 8.73829007148742675781e-01) (33, 3.08119475841522216797e-01) (34, 2.55312979221343994141e-01) (35, 4.87387001514434814453e-01) (36, 5.03129899501800537109e-01) (37, -9.30622041225433349609e-01) (38, -3.13852936029434204102e-01) (39, -2.42057278752326965332e-01) (40, 6.66445434093475341797e-01) (41, -3.93525928258895874023e-01) (42, 7.43436992168426513672e-01) (43, -8.32228243350982666016e-01) (44, 1.46927520632743835449e-01) (45, 5.84030449390411376953e-01) (46, -4.68624562025070190430e-01) (47, -4.39581811428070068359e-01) (48, 5.92935569584369659424e-02) (49, -9.25170660018920898438e-01) (50, -5.55745661258697509766e-01) (51, 5.32507061958312988281e-01) (52, 5.42456626892089843750e-01) (53, 8.60198736190795898438e-01) (54, 9.53923404216766357422e-01) (55, -2.04347223043441772461e-01) (56, 1.07823759317398071289e-01) (57, 6.87119960784912109375e-01) (58, 3.96451741456985473633e-01) (59, 2.08708500862121582031e+00) (60, 1.12402546405792236328e+00) (61, 4.73420053720474243164e-01) (62, 1.80069521069526672363e-01) (63, 6.24120116233825683594e-01) (64, -1.41525432467460632324e-01) (65, -3.00351709127426147461e-01) (66, 3.37030142545700073242e-01) (67, -4.15826112031936645508e-01) (68, -2.93038249015808105469e-01) (69, -9.18020904064178466797e-01) (70, 2.50019431114196777344e-01) (71, -2.08551250398159027100e-02) (72, 3.13445217907428741455e-02) (73, 8.30650031566619873047e-02) (74, 3.60008515417575836182e-02) (75, -1.37012350559234619141e+00) (76, 9.02839284390211105347e-03) (77, 2.75365561246871948242e-01) (78, -2.92689561843872070312e-01) (79, 6.68857455253601074219e-01) (80, 8.14959883689880371094e-01) (81, -1.40654012560844421387e-01) (82, 2.23507270216941833496e-01) (83, 2.65323668718338012695e-01) (84, 2.19845563173294067383e-01) (85, 1.66326552629470825195e-01) (86, -3.94945859909057617188e-01) (87, -4.20476138591766357422e-01) (88, 1.56069025397300720215e-01) (89, -9.01197433471679687500e-01) (90, -5.35448193550109863281e-01) (91, -3.34383338689804077148e-01) (92, 6.69130027294158935547e-01) (93, 4.90702092647552490234e-01) (94, -6.18586421012878417969e-01) (95, -2.58256077766418457031e-01) (96, -2.92830556631088256836e-01) (97, 5.94880700111389160156e-01) (98, 5.36825537681579589844e-01) (99, 5.95224350690841674805e-02) (100, 4.00907516479492187500e-01) (101, -4.40295189619064331055e-02) (102, -3.68284210562705993652e-02) (103, -3.76603938639163970947e-02) (104, -7.90796577930450439453e-01) (105, -1.01390421390533447266e+00) (106, -1.75206393003463745117e-01) (107, -1.58499181270599365234e-01) (108, 4.23688858747482299805e-01) (109, 1.08045488595962524414e-01) (110, -4.63611274957656860352e-01) (111, 2.46102750301361083984e-01) (112, -2.73770153522491455078e-01) (113, -1.00489985942840576172e+00) (114, -2.68543899059295654297e-01) (115, 9.69392597675323486328e-01) (116, 9.80649292469024658203e-02) (117, -2.76914268732070922852e-01) (118, -4.31014657020568847656e-01) (119, -7.44210541248321533203e-01) (120, -1.08480215072631835938e+00) (121, 6.84537515044212341309e-02) (122, -4.63388413190841674805e-02) (123, 8.46973001956939697266e-01) (124, -1.27540051937103271484e-01) (125, -1.01627655327320098877e-01) (126, -1.44416123628616333008e-01) (127, 3.27990412712097167969e-01) (128, -5.17243802547454833984e-01) (129, -3.91570746898651123047e-01) (130, 5.28799071907997131348e-02) (131, -4.14068818092346191406e-01) (132, 4.09296602010726928711e-01) (133, -8.44273388385772705078e-01) (134, 4.93005812168121337891e-01) (135, 4.38578277826309204102e-01) (136, -8.80510509014129638672e-01) (137, -4.99363481998443603516e-01) (138, -4.70907747745513916016e-01) (139, 8.92439901828765869141e-01) (140, -1.01842606067657470703e+00) (141, 3.71953368186950683594e-01) (142, 1.72599062323570251465e-01) (143, -3.39107036590576171875e-01) (144, 4.32789832353591918945e-01) (145, 1.06799304485321044922e+00) (146, -1.88483372330665588379e-01) (147, -4.80279654264450073242e-01) (148, 6.20884478092193603516e-01) (149, 4.95388269424438476562e-01) (150, -1.78530827164649963379e-01) (151, 6.31477534770965576172e-01) (152, -4.05529618263244628906e-01) (153, 8.53061735630035400391e-01) (154, 1.50000000000000000000e+03) (155, 1.50000000000000000000e+03) (156, -7.17440903186798095703e-01) (157, -5.11581778526306152344e-01) (158, -1.36718833446502685547e+00) (159, -1.42125689983367919922e+00) (160, 2.85631728172302246094e+00) (161, 2.83773708343505859375e+00) (162, 4.31749254465103149414e-01) (163, 1.64701414108276367188e+00) (164, -9.43184733390808105469e-01) (165, 2.14899802207946777344e+00) (166, 1.76799607276916503906e+00) (167, 2.41998577117919921875e+00) (168, 6.44493699073791503906e-01) (169, 4.07438230514526367188e+00) (170, 7.32177257537841796875e-01) (171, -5.86697936058044433594e-01) (0, 4.15484571456909179688e+00) (1, 1.35355305671691894531e+00) (2, 1.95889756083488464355e-01) (3, 4.36939125061035156250e+01) (4, 7.78292268514633178711e-02) (5, 