FANN_FLO_2.1
num_layers=52
learning_rate=0.700000
connection_rate=1.000000
network_type=1
learning_momentum=0.000000
training_algorithm=2
train_error_function=0
train_stop_function=1
cascade_output_change_fraction=0.010000
quickprop_decay=-0.000100
quickprop_mu=1.750000
rprop_increase_factor=1.200000
rprop_decrease_factor=0.500000
rprop_delta_min=0.000000
rprop_delta_max=50.000000
rprop_delta_zero=0.100000
cascade_output_stagnation_epochs=12
cascade_candidate_change_fraction=0.010000
cascade_candidate_stagnation_epochs=12
cascade_max_out_epochs=150
cascade_max_cand_epochs=150
cascade_num_candidate_groups=8
bit_fail_limit=8.99999976158142089844e-01
cascade_candidate_limit=1.00000000000000000000e+03
cascade_weight_multiplier=4.00000005960464477539e-01
cascade_activation_functions_count=1
cascade_activation_functions=5 
cascade_activation_steepnesses_count=1
cascade_activation_steepnesses=1.00000000000000000000e+00 
layer_sizes=157 1 1 1 1 1 1 1 1 1 1 1 1 1 1 1 1 1 1 1 1 1 1 1 1 1 1 1 1 1 1 1 1 1 1 1 1 1 1 1 1 1 1 1 1 1 1 1 1 1 1 10 
scale_included=0
neurons (num_inputs, activation_function, activation_steepness)=(0, 0, 0.00000000000000000000e+00) (0, 0, 0.00000000000000000000e+00) (0, 0, 0.00000000000000000000e+00) (0, 0, 0.00000000000000000000e+00) (0, 0, 0.00000000000000000000e+00) (0, 0, 0.00000000000000000000e+00) (0, 0, 0.00000000000000000000e+00) (0, 0, 0.00000000000000000000e+00) (0, 0, 0.00000000000000000000e+00) (0, 0, 0.00000000000000000000e+00) (0, 0, 0.00000000000000000000e+00) (0, 0, 0.00000000000000000000e+00) (0, 0, 0.00000000000000000000e+00) (0, 0, 0.00000000000000000000e+00) (0, 0, 0.00000000000000000000e+00) (0, 0, 0.00000000000000000000e+00) (0, 0, 0.00000000000000000000e+00) (0, 0, 0.00000000000000000000e+00) (0, 0, 0.00000000000000000000e+00) (0, 0, 0.00000000000000000000e+00) (0, 0, 0.00000000000000000000e+00) (0, 0, 0.00000000000000000000e+00) (0, 0, 0.00000000000000000000e+00) (0, 0, 0.00000000000000000000e+00) (0, 0, 0.00000000000000000000e+00) (0, 0, 0.00000000000000000000e+00) (0, 0, 0.00000000000000000000e+00) (0, 0, 0.00000000000000000000e+00) (0, 0, 0.00000000000000000000e+00) (0, 0, 0.00000000000000000000e+00) (0, 0, 0.00000000000000000000e+00) (0, 0, 0.00000000000000000000e+00) (0, 0, 0.00000000000000000000e+00) (0, 0, 0.00000000000000000000e+00) (0, 0, 0.00000000000000000000e+00) (0, 0, 0.00000000000000000000e+00) (0, 0, 0.00000000000000000000e+00) (0, 0, 0.00000000000000000000e+00) (0, 0, 0.00000000000000000000e+00) (0, 0, 0.00000000000000000000e+00) (0, 0, 0.00000000000000000000e+00) (0, 0, 0.00000000000000000000e+00) (0, 0, 0.00000000000000000000e+00) (0, 0, 0.00000000000000000000e+00) (0, 0, 0.00000000000000000000e+00) (0, 0, 0.00000000000000000000e+00) (0, 0, 0.00000000000000000000e+00) (0, 0, 0.00000000000000000000e+00) (0, 0, 0.00000000000000000000e+00) (0, 0, 0.00000000000000000000e+00) (0, 0, 0.00000000000000000000e+00) (0, 0, 0.00000000000000000000e+00) (0, 0, 0.00000000000000000000e+00) (0, 0, 0.00000000000000000000e+00) (0, 0, 0.00000000000000000000e+00) (0, 0, 0.00000000000000000000e+00) (0, 0, 0.00000000000000000000e+00) (0, 0, 0.00000000000000000000e+00) (0, 0, 0.00000000000000000000e+00) (0, 0, 0.00000000000000000000e+00) (0, 0, 0.00000000000000000000e+00) (0, 0, 0.00000000000000000000e+00) (0, 0, 0.00000000000000000000e+00) (0, 0, 0.00000000000000000000e+00) (0, 0, 0.00000000000000000000e+00) (0, 0, 0.00000000000000000000e+00) (0, 0, 0.00000000000000000000e+00) (0, 0, 0.00000000000000000000e+00) (0, 0, 0.00000000000000000000e+00) (0, 0, 0.00000000000000000000e+00) (0, 0, 0.00000000000000000000e+00) (0, 0, 0.00000000000000000000e+00) (0, 0, 0.00000000000000000000e+00) (0, 0, 0.00000000000000000000e+00) (0, 0, 0.00000000000000000000e+00) (0, 0, 0.00000000000000000000e+00) (0, 0, 0.00000000000000000000e+00) (0, 0, 0.00000000000000000000e+00) (0, 0, 0.00000000000000000000e+00) (0, 0, 0.00000000000000000000e+00) (0, 0, 0.00000000000000000000e+00) (0, 0, 0.00000000000000000000e+00) (0, 0, 0.00000000000000000000e+00) (0, 0, 0.00000000000000000000e+00) (0, 0, 0.00000000000000000000e+00) (0, 0, 0.00000000000000000000e+00) (0, 0, 0.00000000000000000000e+00) (0, 0, 0.00000000000000000000e+00) (0, 0, 0.00000000000000000000e+00) (0, 0, 0.00000000000000000000e+00) (0, 0, 0.00000000000000000000e+00) (0, 0, 0.00000000000000000000e+00) (0, 0, 0.00000000000000000000e+00) (0, 0, 0.00000000000000000000e+00) (0, 0, 0.00000000000000000000e+00) (0, 0, 0.00000000000000000000e+00) (0, 0, 0.00000000000000000000e+00) (0, 0, 0.00000000000000000000e+00) (0, 0, 0.00000000000000000000e+00) (0, 0, 0.00000000000000000000e+00) (0, 0, 0.00000000000000000000e+00) (0, 0, 0.00000000000000000000e+00) (0, 0, 0.00000000000000000000e+00) (0, 0, 0.00000000000000000000e+00) (0, 0, 0.00000000000000000000e+00) (0, 0, 0.00000000000000000000e+00) (0, 0, 0.00000000000000000000e+00) (0, 0, 0.00000000000000000000e+00) (0, 0, 0.00000000000000000000e+00) (0, 0, 0.00000000000000000000e+00) (0, 0, 0.00000000000000000000e+00) (0, 0, 0.00000000000000000000e+00) (0, 0, 0.00000000000000000000e+00) (0, 0, 0.00000000000000000000e+00) (0, 0, 0.00000000000000000000e+00) (0, 0, 0.00000000000000000000e+00) (0, 0, 0.00000000000000000000e+00) (0, 0, 0.00000000000000000000e+00) (0, 0, 0.00000000000000000000e+00) (0, 0, 0.00000000000000000000e+00) (0, 0, 0.00000000000000000000e+00) (0, 0, 0.00000000000000000000e+00) (0, 0, 0.00000000000000000000e+00) (0, 0, 0.00000000000000000000e+00) (0, 0, 0.00000000000000000000e+00) (0, 0, 0.00000000000000000000e+00) (0, 0, 0.00000000000000000000e+00) (0, 0, 0.00000000000000000000e+00) (0, 0, 0.00000000000000000000e+00) (0, 0, 0.00000000000000000000e+00) (0, 0, 0.00000000000000000000e+00) (0, 0, 0.00000000000000000000e+00) (0, 0, 0.00000000000000000000e+00) (0, 0, 0.00000000000000000000e+00) (0, 0, 0.00000000000000000000e+00) (0, 0, 0.00000000000000000000e+00) (0, 0, 0.00000000000000000000e+00) (0, 0, 0.00000000000000000000e+00) (0, 0, 0.00000000000000000000e+00) (0, 0, 0.00000000000000000000e+00) (0, 0, 0.00000000000000000000e+00) (0, 0, 0.00000000000000000000e+00) (0, 0, 0.00000000000000000000e+00) (0, 0, 0.00000000000000000000e+00) (0, 0, 0.00000000000000000000e+00) (0, 0, 0.00000000000000000000e+00) (0, 0, 0.00000000000000000000e+00) (0, 0, 0.00000000000000000000e+00) (0, 0, 0.00000000000000000000e+00) (0, 0, 0.00000000000000000000e+00) (0, 0, 0.00000000000000000000e+00) (0, 0, 0.00000000000000000000e+00) (0, 0, 0.00000000000000000000e+00) (0, 0, 0.00000000000000000000e+00) (0, 0, 0.00000000000000000000e+00) (0, 0, 0.00000000000000000000e+00) (0, 0, 0.00000000000000000000e+00) (157, 5, 1.00000000000000000000e+00) (158, 5, 1.00000000000000000000e+00) (159, 5, 1.00000000000000000000e+00) (160, 5, 1.00000000000000000000e+00) (161, 5, 1.00000000000000000000e+00) (162, 5, 1.00000000000000000000e+00) (163, 5, 1.00000000000000000000e+00) (164, 5, 1.00000000000000000000e+00) (165, 5, 1.00000000000000000000e+00) (166, 5, 1.00000000000000000000e+00) (167, 5, 1.00000000000000000000e+00) (168, 5, 1.00000000000000000000e+00) (169, 5, 1.00000000000000000000e+00) (170, 5, 1.00000000000000000000e+00) (171, 5, 1.00000000000000000000e+00) (172, 5, 1.00000000000000000000e+00) (173, 5, 1.00000000000000000000e+00) (174, 5, 1.00000000000000000000e+00) (175, 5, 1.00000000000000000000e+00) (176, 5, 1.00000000000000000000e+00) (177, 5, 1.00000000000000000000e+00) (178, 5, 1.00000000000000000000e+00) (179, 5, 1.00000000000000000000e+00) (180, 5, 1.00000000000000000000e+00) (181, 5, 1.00000000000000000000e+00) (182, 5, 1.00000000000000000000e+00) (183, 5, 1.00000000000000000000e+00) (184, 5, 1.00000000000000000000e+00) (185, 5, 1.00000000000000000000e+00) (186, 5, 1.00000000000000000000e+00) (187, 5, 1.00000000000000000000e+00) (188, 5, 1.00000000000000000000e+00) (189, 5, 1.00000000000000000000e+00) (190, 5, 1.00000000000000000000e+00) (191, 5, 1.00000000000000000000e+00) (192, 5, 1.00000000000000000000e+00) (193, 5, 1.00000000000000000000e+00) (194, 5, 1.00000000000000000000e+00) (195, 5, 1.00000000000000000000e+00) (196, 5, 1.00000000000000000000e+00) (197, 5, 1.00000000000000000000e+00) (198, 5, 1.00000000000000000000e+00) (199, 5, 1.00000000000000000000e+00) (200, 5, 1.00000000000000000000e+00) (201, 5, 1.00000000000000000000e+00) (202, 5, 1.00000000000000000000e+00) (203, 5, 1.00000000000000000000e+00) (204, 5, 1.00000000000000000000e+00) (205, 5, 1.00000000000000000000e+00) (206, 5, 1.00000000000000000000e+00) (207, 0, 5.00000000000000000000e-01) (207, 0, 5.00000000000000000000e-01) (207, 0, 5.00000000000000000000e-01) (207, 0, 5.00000000000000000000e-01) (207, 0, 5.00000000000000000000e-01) (207, 0, 5.00000000000000000000e-01) (207, 0, 5.00000000000000000000e-01) (207, 0, 5.00000000000000000000e-01) (207, 0, 5.00000000000000000000e-01) (207, 0, 5.00000000000000000000e-01) 
connections (connected_to_neuron, weight)=(0, -8.67478013038635253906e-01) (1, -3.83515685796737670898e-01) (2, 6.92427635192871093750e-01) (3, 8.55817422270774841309e-02) (4, -3.10792177915573120117e-01) (5, -2.78079009056091308594e+00) (6, -6.05067789554595947266e-01) (7, 6.02098047733306884766e-01) (8, -1.35083603858947753906e+00) (9, -6.94867968559265136719e-01) (10, -1.70434141159057617188e+00) (11, -1.11695992946624755859e+00) (12, -7.05570936203002929688e-01) (13, 5.51270365715026855469e-01) (14, -3.83728832006454467773e-01) (15, -1.54024624824523925781e+00) (16, -6.46235585212707519531e-01) (17, 1.87696129083633422852e-01) (18, -4.75728750228881835938e+00) (19, 7.51360654830932617188e-01) (20, 2.12905859947204589844e+00) (21, -2.16119480133056640625e+00) (22, -2.25423604249954223633e-01) (23, 5.03957271575927734375e-01) (24, 7.02232480049133300781e-01) (25, -1.93742609024047851562e+00) (26, -1.61068767309188842773e-01) (27, -1.50545760989189147949e-01) (28, 6.14525139331817626953e-01) (29, -1.24360382556915283203e-01) (30, 1.51179134845733642578e+00) (31, 1.06525290012359619141e+00) (32, -6.36872708797454833984e-01) (33, -2.76460433006286621094e+00) (34, -3.04424971342086791992e-01) (35, -1.14907395839691162109e+00) (36, 4.11646842956542968750e+00) (37, -1.31861522793769836426e-01) (38, 9.82498943805694580078e-01) (39, -5.17305946350097656250e+00) (40, -7.36135423183441162109e-01) (41, 4.83756780624389648438e+00) (42, -7.65533387660980224609e-01) (43, -1.14894628524780273438e+00) (44, 4.35736894607543945312e+00) (45, 1.86259925365447998047e+00) (46, -5.85061430931091308594e-01) (47, -2.38403964042663574219e+00) (48, -1.08680760860443115234e+00) (49, 3.10935020446777343750e-01) (50, 5.47971367835998535156e-01) (51, 3.59054207801818847656e+00) (52, 8.34035277366638183594e-02) (53, 6.85769140720367431641e-01) (54, -9.57608878612518310547e-01) (55, 1.51355803012847900391e+00) (56, 1.11785888671875000000e+00) (57, 1.82934343814849853516e-01) (58, 7.46247887611389160156e-01) (59, -6.20269250869750976562e+00) (60, 6.81475758552551269531e-01) (61, -2.35382175445556640625e+00) (62, 1.39874649047851562500e+00) (63, 3.03822696208953857422e-01) (64, 6.48071050643920898438e-01) (65, 7.43405520915985107422e-01) (66, -2.03203821182250976562e+00) (67, -1.48613572120666503906e-01) (68, -8.41917812824249267578e-01) (69, 3.35296297073364257812e+00) (70, 1.62162974476814270020e-01) (71, -1.33214223384857177734e+00) (72, -1.91943871974945068359e+00) (73, -2.91101121902465820312e+00) (74, 3.38581871986389160156e+00) (75, -7.86483585834503173828e-01) (76, 4.74725186824798583984e-01) (77, 8.91575098037719726562e-01) (78, 4.94691640138626098633e-01) (79, -5.98376558627933263779e-04) (80, 6.36784434318542480469e-02) (81, 3.01648437976837158203e-01) (82, -2.62330269813537597656e+00) (83, -3.32066774368286132812e-01) (84, 4.15726470947265625000e+00) (85, 1.11133074760437011719e+00) (86, -2.69795989990234375000e+00) (87, -1.07784736156463623047e+00) (88, -1.34513713419437408447e-02) (89, 4.37567323446273803711e-01) (90, 4.28308296203613281250e+00) (91, -1.23865377902984619141e+00) (92, -1.06377243995666503906e+00) (93, 8.23243334889411926270e-02) (94, 1.84456741809844970703e+00) (95, 6.52855694293975830078e-01) (96, -2.25773006677627563477e-01) (97, 1.45369160175323486328e+00) (98, -1.82900115847587585449e-01) (99, -5.54457167163491249084e-03) (100, -7.47546792030334472656e-01) (101, -3.39358627796173095703e-01) (102, -5.74146211147308349609e-03) (103, 1.29426658153533935547e+00) (104, -1.19852706789970397949e-01) (105, 7.60888278484344482422e-01) (106, -5.98873496055603027344e-01) (107, 2.83622360229492187500e+00) (108, 1.80681318044662475586e-01) (109, -1.16675794124603271484e+00) (110, 2.48828816413879394531e+00) (111, 3.78529191017150878906e+00) (112, -4.55571323633193969727e-01) (113, 8.32946419715881347656e-01) (114, -7.90037438273429870605e-02) (115, 7.90554046630859375000e-01) (116, -1.86316996812820434570e-01) (117, -2.62123584747314453125e-01) (118, -9.17485773563385009766e-01) (119, 1.75630080699920654297e+00) (120, -1.31837844848632812500e-01) (121, 1.79063722491264343262e-01) (122, -2.23307180404663085938e+00) (123, -9.61546182632446289062e-01) (124, -1.70039665699005126953e+00) (125, 3.71086668968200683594e+00) (126, -1.18638730049133300781e+00) (127, -2.22931647300720214844e+00) (128, -2.26301550865173339844e+00) (129, -7.07364022731781005859e-01) (130, -9.02371764183044433594e-01) (131, -2.17669889330863952637e-01) (132, 6.31001219153404235840e-02) (133, 7.94943690299987792969e-01) (134, -2.43157580494880676270e-01) (135, -1.81253457069396972656e+00) (136, -6.89172267913818359375e-01) (137, -7.84951388835906982422e-01) (138, 3.55687648057937622070e-01) (139, 4.02908593416213989258e-01) (140, 6.81624650955200195312e-01) (141, 1.97232440114021301270e-01) (142, 4.88492071628570556641e-01) (143, -6.32786870002746582031e-01) (144, 1.45438647270202636719e+00) (145, 8.31937909126281738281e-01) (146, -8.17264258861541748047e-01) (147, 4.70570474863052368164e-01) (148, 4.20899718999862670898e-01) (149, -3.87140721082687377930e-01) (150, 5.15015423297882080078e-01) (151, -7.96882808208465576172e-01) (152, 6.99714124202728271484e-01) (153, -6.31022989749908447266e-01) (154, 1.50000000000000000000e+03) (155, 1.50000000000000000000e+03) (156, -2.80427289009094238281e+00) (0, -3.81530940532684326172e-01) (1, 1.77012860774993896484e-01) (2, -1.02965092658996582031e+00) (3, -8.88334751129150390625e-01) (4, 2.56897497177124023438e+00) (5, 1.46429288387298583984e+00) (6, -2.08372473716735839844e+00) (7, 5.09831309318542480469e-01) (8, 1.37245261669158935547e+00) (9, 5.91890335083007812500e-01) (10, -2.93549805879592895508e-01) (11, 1.93551599979400634766e+00) (12, -6.51987969875335693359e-01) (13, 9.74460542201995849609e-01) (14, 2.00216054916381835938e+00) (15, 1.60916224122047424316e-01) (16, -2.64565324783325195312e+00) (17, -3.53124707937240600586e-01) (18, 4.50396001338958740234e-01) (19, 7.94599279761314392090e-02) (20, 9.43948984146118164062e-01) (21, -1.12359571456909179688e+00) (22, -6.91547274589538574219e-01) (23, 2.18222999572753906250e+00) (24, 1.82033455371856689453e+00) (25, 9.14295613765716552734e-01) (26, -1.96298789978027343750e+00) (27, 7.05169260501861572266e-01) (28, -2.90634155273437500000e-01) (29, -2.08926415443420410156e+00) (30, -2.39011168479919433594e+00) (31, -1.70511737465858459473e-01) (32, -1.64047467708587646484e+00) (33, -4.15626354515552520752e-02) (34, -1.93306851387023925781e+00) (35, -3.51139163970947265625e+00) (36, -4.16956484317779541016e-01) (37, 1.33573627471923828125e+00) (38, -5.00640034675598144531e-01) (39, 1.99592840671539306641e+00) (40, -8.37055623531341552734e-01) (41, 2.10932683944702148438e+00) (42, -1.16849768161773681641e+00) (43, -1.38891482353210449219e+00) (44, -2.49581322073936462402e-01) (45, -3.20259332656860351562e-01) (46, -4.80157047510147094727e-01) (47, -7.89077043533325195312e-01) (48, 3.64918440580368041992e-01) (49, 2.11670055985450744629e-01) (50, 1.45765990018844604492e-01) (51, -2.16476544737815856934e-01) (52, 2.84256267547607421875e+00) (53, 1.07182338833808898926e-01) (54, -8.56934785842895507812e-01) (55, 8.69821310043334960938e-02) (56, -3.71064841747283935547e-01) (57, 1.15667626261711120605e-01) (58, -4.15322870016098022461e-01) (59, -2.14797115325927734375e+01) (60, -2.42419838905334472656e+00) (61, 9.53318357467651367188e-01) (62, 5.66428422927856445312e-01) (63, -1.12245798110961914062e-01) (64, -2.43342518806457519531e+00) (65, -1.37449133396148681641e+00) (66, 2.86845159530639648438e+00) (67, 3.74189317226409912109e-01) (68, 2.26011228561401367188e+00) (69, -1.13273493945598602295e-01) (70, -5.69123864173889160156e-01) (71, -2.49063873291015625000e+00) (72, -3.24632096290588378906e+00) (73, -6.40938758850097656250e-01) (74, 8.73387530446052551270e-02) (75, -1.86969649791717529297e+00) (76, 2.63308906555175781250e+00) (77, -3.47418165206909179688e+00) (78, 3.33378016948699951172e-01) (79, -7.68604874610900878906e-01) (80, -9.34563159942626953125e-01) (81, 2.05969333648681640625e+00) (82, 1.32600343227386474609e+00) (83, -1.21377670764923095703e+00) (84, 3.27889084815979003906e+00) (85, -2.34422397613525390625e+00) (86, 5.56303560733795166016e-01) (87, -5.36954700946807861328e-01) (88, 7.77688026428222656250e-01) (89, -6.51514589786529541016e-01) (90, -6.55056118965148925781e-01) (91, 3.96329343318939208984e-01) (92, -2.00843119621276855469e+00) (93, -6.93437218666076660156e-01) (94, -1.28104817867279052734e+00) (95, -8.72578024864196777344e-01) (96, 3.19418430328369140625e+00) (97, -2.28066349029541015625e+00) (98, -2.00393319129943847656e+00) (99, -1.41179168224334716797e+00) (100, 1.28970825672149658203e+00) (101, -1.27986633777618408203e+00) (102, 3.99770913645625114441e-04) (103, 4.52748000621795654297e-01) (104, 2.86138176918029785156e-01) (105, 5.00025939941406250000e+00) (106, -1.97044467926025390625e+00) (107, 2.84113907814025878906e+00) (108, -2.99815344810485839844e+00) (109, 2.30567455291748046875e+00) (110, 5.41188240051269531250e-01) (111, -6.61812126636505126953e-01) (112, 2.02817177772521972656e+00) (113, -9.73198339343070983887e-02) (114, -9.24476563930511474609e-01) (115, -1.79008269309997558594e+00) (116, 2.37720876932144165039e-01) (117, -1.43258368968963623047e+00) (118, -2.36866936087608337402e-01) (119, 5.82299172878265380859e-01) (120, -7.40987002849578857422e-01) (121, -1.47769153118133544922e+00) (122, -2.48101401329040527344e+00) (123, 1.69252145290374755859e+00) (124, 1.08565235137939453125e+00) (125, -1.89428925514221191406e-01) (126, -1.81069505214691162109e+00) (127, 1.12920665740966796875e+00) (128, 2.55158257484436035156e+00) (129, -3.10854768753051757812e+00) (130, 1.03685759007930755615e-01) (131, 1.93074297904968261719e+00) (132, -2.50555038452148437500e-01) (133, -8.79173398017883300781e-01) (134, -7.76480734348297119141e-01) (135, 2.04961609840393066406e+00) (136, -1.04366993904113769531e+00) (137, 1.67327094078063964844e+00) (138, 1.11257159709930419922e+00) (139, 1.83564186096191406250e+00) (140, 3.77510714530944824219e+00) (141, 1.21638655662536621094e+00) (142, 1.31876349449157714844e+00) (143, 7.43528530001640319824e-02) (144, -1.91411674022674560547e+00) (145, 4.26451563835144042969e-01) (146, -3.48068177700042724609e-01) (147, 7.25271821022033691406e-01) (148, 1.68433022499084472656e+00) (149, 1.59981465339660644531e+00) (150, 1.55497002601623535156e+00) (151, 2.36487174034118652344e+00) (152, 9.61177349090576171875e-01) (153, 1.84326791763305664062e+00) (154, 1.50000000000000000000e+03) (155, 1.50000000000000000000e+03) (156, 2.51887011528015136719e+00) (157, -2.80679750442504882812e+00) (0, 9.68311691284179687500e+01) (1, -2.87182474136352539062e+00) (2, 6.10563087463378906250e+01) (3, 7.26508178710937500000e+01) (4, -6.62883639335632324219e-01) (5, -1.29723678588867187500e+02) (6, -1.07080398559570312500e+02) (7, -1.45723998546600341797e+00) (8, -7.32052383422851562500e+01) (9, 2.45246887207031250000e+00) (10, -1.03804183959960937500e+02) (11, -2.27958798408508300781e+00) (12, -1.14020912170410156250e+02) (13, 2.77964496612548828125e+00) (14, -1.14942371845245361328e+00) (15, 5.13024568557739257812e+00) (16, -1.87834911346435546875e+01) (17, -1.80903041362762451172e+00) (18, -2.09431854248046875000e+02) (19, -1.02693309783935546875e+01) (20, 7.49432525634765625000e+01) (21, -2.63517608642578125000e+02) (22, 5.33846235275268554688e+00) (23, 2.42040738463401794434e-01) (24, 9.17675857543945312500e+01) (25, 8.16300354003906250000e+01) (26, -2.10562729835510253906e+00) (27, 5.54221582412719726562e+00) (28, -1.56102418899536132812e-01) (29, 9.15340652465820312500e+01) (30, 8.19953632354736328125e+00) (31, -7.57227039337158203125e+00) (32, -1.07010475158691406250e+02) (33, -1.07688056945800781250e+02) (34, -2.09184169769287109375e+00) (35, -1.30455825805664062500e+02) (36, 2.43072189331054687500e+02) (37, -6.83548889160156250000e+01) (38, 5.19542038440704345703e-01) (39, -2.02399948120117187500e+02) (40, -6.41990051269531250000e+01) (41, 1.79924835205078125000e+02) (42, -1.58652572631835937500e+02) (43, -2.57210636138916015625e+00) (44, 3.02675872802734375000e+02) (45, 6.56503753662109375000e+01) (46, -1.22012662887573242188e+01) (47, -2.24191787719726562500e+02) (48, -2.90922718048095703125e+01) (49, 6.36970672607421875000e+01) (50, 1.61333198547363281250e+01) (51, 2.39103454589843750000e+02) (52, -1.68231536865234375000e+02) (53, -1.04783401489257812500e+01) (54, -6.97449207305908203125e-01) (55, 4.22082748413085937500e+01) (56, 2.92660770416259765625e+01) (57, 7.12949447631835937500e+01) (58, 1.67231292724609375000e+01) (59, -1.02171527099609375000e+03) (60, -1.61228477954864501953e+00) (61, -1.09115089416503906250e+02) (62, 6.26185531616210937500e+01) (63, 5.94910049438476562500e+01) (64, 3.68383496999740600586e-01) (65, 7.56133651733398437500e+01) (66, -9.65606918334960937500e+01) (67, -1.24966018676757812500e+02) (68, -8.00014877319335937500e+01) (69, 2.14663330078125000000e+02) (70, 7.19560682773590087891e-01) (71, -1.35986923217773437500e+02) (72, -1.28206375122070312500e+02) (73, -1.66750289916992187500e+02) (74, 1.98778518676757812500e+02) (75, -5.97967910766601562500e+01) (76, 6.60468826293945312500e+01) (77, -5.39156556129455566406e-01) (78, 8.18549423217773437500e+01) (79, -1.37882888793945312500e+02) (80, -8.90212345123291015625e+00) (81, 1.29881639480590820312e+01) (82, -1.19890830993652343750e+02) (83, -1.58619842529296875000e+01) (84, 2.59747497558593750000e+02) (85, 5.86183319091796875000e+01) (86, -2.12774459838867187500e+02) (87, -6.33609352111816406250e+01) (88, -3.85761916637420654297e-01) (89, -7.42311401367187500000e+01) (90, 3.40030090332031250000e+02) (91, -5.91771888732910156250e+00) (92, 4.92205232381820678711e-01) (93, -1.63342170715332031250e+01) (94, -9.33907628059387207031e-01) (95, 3.11489319801330566406e+00) (96, 6.24680671691894531250e+01) (97, 7.61394958496093750000e+01) (98, -9.90052342414855957031e-01) (99, -5.54298553466796875000e+01) (100, 5.44128131866455078125e+00) (101, -4.80439752340316772461e-01) (102, 1.57046537399291992188e+01) (103, 1.60212234497070312500e+02) (104, -6.22424583435058593750e+01) (105, 3.46995124816894531250e+01) (106, -6.92202453613281250000e+01) (107, 1.71260787963867187500e+02) (108, -1.15179153442382812500e+02) (109, 1.27569580078125000000e+01) (110, 5.09169578552246093750e-01) (111, 1.84305130004882812500e+02) (112, 8.03027038574218750000e+01) (113, 1.98503265380859375000e+02) (114, 1.74489274621009826660e-01) (115, 3.71105461120605468750e+01) (116, -6.34316787719726562500e+01) (117, -3.40953135490417480469e+00) (118, -6.23818349838256835938e+00) (119, 1.64749572753906250000e+02) (120, 1.40924711227416992188e+01) (121, -4.10068464279174804688e+00) (122, -1.35900482177734375000e+02) (123, 5.78465347290039062500e+01) (124, -5.40286941528320312500e+01) (125, 2.21728744506835937500e+02) (126, -1.28122314453125000000e+02) (127, -1.68395690917968750000e+02) (128, -1.34285675048828125000e+02) (129, -1.08184234619140625000e+02) (130, 4.09841680526733398438e+00) (131, -8.19232635498046875000e+01) (132, 4.64119005203247070312e+00) (133, 1.82462905883789062500e+02) (134, -4.65667495727539062500e+01) (135, -3.59893471002578735352e-01) (136, -7.02914352416992187500e+01) (137, -4.96493309736251831055e-01) (138, 9.25184845924377441406e-01) (139, 9.03044342994689941406e-01) (140, 1.50000000000000000000e+03) (141, -5.67793846130371093750e+01) (142, -2.52804249525070190430e-01) (143, -4.47059288024902343750e+01) (144, 1.29457988739013671875e+01) (145, 1.43295272827148437500e+02) (146, -1.98860916137695312500e+02) (147, -2.49335110187530517578e-01) (148, 7.56475806236267089844e-01) (149, -1.25600188970565795898e-01) (150, 2.19533294439315795898e-01) (151, -4.96623665094375610352e-02) (152, 9.01161506772041320801e-03) (153, 6.23861789703369140625e-01) (154, 1.50000000000000000000e+03) (155, 1.50000000000000000000e+03) (156, -2.53262424468994140625e+00) (157, -1.50000000000000000000e+03) (158, -2.80908203125000000000e+02) (0, 4.06850397586822509766e-01) (1, -8.00361251831054687500e+00) (2, -4.34406566619873046875e+00) (3, -4.26696586608886718750e+00) (4, -3.70627951622009277344e+00) (5, -3.81203460693359375000e+00) (6, -5.08344802856445312500e+01) (7, -4.06278038024902343750e+00) (8, -9.32882189750671386719e-01) (9, -8.32732200622558593750e+00) (10, -7.99479067325592041016e-01) (11, -9.97097206115722656250e+00) (12, 7.13302755355834960938e+00) (13, -3.04938912391662597656e+00) (14, -4.88413524627685546875e+00) (15, -3.16390216350555419922e-01) (16, -8.35746383666992187500e+00) (17, -8.70843505859375000000e+00) (18, -9.55695343017578125000e+00) (19, -8.35453605651855468750e+00) (20, -8.62033462524414062500e+00) (21, -4.46291637420654296875e+00) (22, -1.65265694260597229004e-01) (23, -1.71191930770874023438e-01) (24, 8.26276302337646484375e+00) (25, -1.03010358810424804688e+01) (26, -3.34410023689270019531e+00) (27, -4.56009536981582641602e-01) (28, -3.30658817291259765625e+00) (29, 8.58870124816894531250e+00) (30, -9.30813884735107421875e+00) (31, -9.61122798919677734375e+00) (32, -3.29994606971740722656e+00) (33, -2.12880725860595703125e+01) (34, -2.14580402374267578125e+01) (35, -3.01631879806518554688e+00) (36, -4.88633060455322265625e+00) (37, -4.46343898773193359375e+00) (38, -2.20665836334228515625e+01) (39, -8.67052078247070312500e+00) (40, -4.63802814483642578125e+00) (41, -4.30786895751953125000e+00) (42, -4.81183910369873046875e+00) (43, -4.44368743896484375000e+00) (44, -9.87202548980712890625e+00) (45, -2.39957594871520996094e+00) (46, 8.78211557865142822266e-02) (47, -9.84797573089599609375e+00) (48, -3.42895579338073730469e+00) (49, -6.94162368774414062500e-01) (50, 1.30349785089492797852e-01) (51, -9.34469699859619140625e+00) (52, -4.33355474472045898438e+00) (53, -3.01280093193054199219e+00) (54, -2.48079752922058105469e+00) (55, -4.30999469757080078125e+00) (56, -2.58254075050354003906e+00) (57, -7.97748470306396484375e+00) (58, -9.56862545013427734375e+00) (59, 7.50795900821685791016e-01) (60, -4.99661483764648437500e+01) (61, -9.21690177917480468750e+00) (62, 5.57790338993072509766e-01) (63, -3.00005054473876953125e+00) (64, 9.93760395050048828125e+00) (65, -2.03392353057861328125e+01) (66, -2.12628698348999023438e+00) (67, -4.92206954956054687500e+01) (68, -4.43643379211425781250e+00) (69, -3.28489255905151367188e+00) (70, -3.28731560707092285156e+00) (71, -4.28031158447265625000e+00) (72, -3.39664125442504882812e+00) (73, -2.11271419525146484375e+01) (74, -9.37798690795898437500e+00) (75, -3.02637553215026855469e+00) (76, -2.95528244972229003906e+00) (77, -3.99331617355346679688e+00) (78, 2.65701245516538619995e-02) (79, -8.67022514343261718750e+00) (80, -5.08388137817382812500e+01) (81, -1.77452683448791503906e+00) (82, -4.41404962539672851562e+00) (83, -8.75278091430664062500e+00) (84, -1.02701263427734375000e+01) (85, -4.29801464080810546875e+00) (86, -9.43068218231201171875e+00) (87, -1.17042148113250732422e+00) (88, 4.27428066730499267578e-01) (89, -4.27479743957519531250e+00) (90, -3.15337467193603515625e+00) (91, -3.23738455772399902344e+00) (92, -8.72011375427246093750e+00) (93, -3.68658685684204101562e+00) (94, -3.45652747154235839844e+00) (95, -3.29847741127014160156e+00) (96, -3.96451258659362792969e+00) (97, -8.30182266235351562500e+00) (98, -3.46213030815124511719e+00) (99, -2.15997314453125000000e+00) (100, -1.02550249099731445312e+01) (101, -3.81607317924499511719e+00) (102, -2.08391904830932617188e-01) (103, -8.85751533508300781250e+00) (104, -4.03523921966552734375e+00) (105, -4.83992576599121093750e+00) (106, -2.14769802093505859375e+01) (107, -9.27650928497314453125e+00) (108, -2.98366475105285644531e+00) (109, -2.12932801246643066406e+00) (110, -1.00227813720703125000e+01) (111, -9.62037563323974609375e+00) (112, -8.52146148681640625000e+00) (113, -4.04207468032836914062e+00) (114, -3.28272914886474609375e+00) (115, -8.39683151245117187500e+00) (116, -3.39347290992736816406e+00) (117, -8.04585075378417968750e+00) (118, -2.47322964668273925781e+00) (119, -1.98413693904876708984e+00) (120, -4.25130462646484375000e+00) (121, -8.30287933349609375000e+00) (122, -7.81243896484375000000e+00) (123, -8.66121482849121093750e+00) (124, -4.83841228485107421875e+00) (125, -1.36542367935180664062e+00) (126, 1.19222974777221679688e+00) (127, -4.60680532455444335938e+00) (128, -7.92998850345611572266e-01) (129, -7.95274448394775390625e+00) (130, -3.17435979843139648438e+00) (131, -2.65779346227645874023e-01) (132, -9.20136260986328125000e+00) (133, -3.21924710273742675781e+00) (134, -8.40939140319824218750e+00) (135, -1.12725436687469482422e+00) (136, -8.56069755554199218750e+00) (137, 3.47187221050262451172e-01) (138, -7.86898136138916015625e-01) (139, -1.88367366790771484375e-01) (140, 2.53090471029281616211e-01) (141, -4.29236698150634765625e+00) (142, -1.64036738872528076172e+00) (143, -3.79152208566665649414e-01) (144, -8.83596515655517578125e+00) (145, 1.44214224815368652344e+00) (146, -4.02953100204467773438e+00) (147, 2.95184850692749023438e-02) (148, -4.38570976257324218750e-01) (149, -2.84843314439058303833e-02) (150, -7.66728371381759643555e-02) (151, 2.56740957498550415039e-01) (152, -1.24883405864238739014e-01) (153, -6.39341235160827636719e-01) (154, 2.96417053222656250000e+02) (155, 2.95786926269531250000e+02) (156, -3.67911159992218017578e-01) (157, 1.26632049560546875000e+02) (158, -2.04067058563232421875e+01) (159, 2.47365188598632812500e+00) (0, -8.01142394542694091797e-01) (1, -3.76825667917728424072e-02) (2, -7.94154763221740722656e-01) (3, -1.23449295759201049805e-01) (4, -9.36834037303924560547e-01) (5, 8.51188242435455322266e-01) (6, -1.74718676134943962097e-04) (7, -9.75941866636276245117e-02) (8, -3.41845095157623291016e-01) (9, -1.50468736886978149414e-01) (10, -7.56286680698394775391e-01) (11, -8.83817791938781738281e-01) (12, -7.59911179542541503906e-01) (13, -5.00773370265960693359e-01) (14, 1.23305428028106689453e+00) (15, -1.02879440784454345703e+00) (16, 5.25034129619598388672e-01) (17, 1.18220604956150054932e-01) (18, -3.38161885738372802734e-01) (19, 3.55228155851364135742e-01) (20, 4.05841648578643798828e-01) (21, -4.89685148000717163086e-01) (22, -5.14296174049377441406e-01) (23, -6.98153495788574218750e-01) (24, -9.12498414516448974609e-01) (25, -1.67665004730224609375e-01) (26, 8.74753952026367187500e-01) (27, -9.36661303043365478516e-01) (28, -3.77743512392044067383e-01) (29, -5.54776370525360107422e-01) (30, -5.20859658718109130859e-01) (31, -7.32515692710876464844e-01) (32, 3.58116924762725830078e-01) (33, -1.68711379170417785645e-01) (34, 3.73773902654647827148e-01) (35, 8.23627591133117675781e-01) (36, -1.41378000378608703613e-01) (37, -6.53485596179962158203e-01) (38, -2.28518292307853698730e-01) (39, 1.99338436126708984375e-01) (40, 7.01426416635513305664e-02) (41, 1.13809131085872650146e-01) (42, 4.87119287252426147461e-01) (43, 3.55664283037185668945e-01) (44, 5.59246003627777099609e-01) (45, 5.14334380626678466797e-01) (46, 3.87768328189849853516e-01) (47, 2.17202343046665191650e-02) (48, -5.94433367252349853516e-01) (49, -5.13867795467376708984e-01) (50, -2.40816593170166015625e-01) (51, 9.79456424713134765625e-01) (52, 1.76426723599433898926e-01) (53, 2.31616482138633728027e-01) (54, -4.93516296148300170898e-01) (55, 6.01221084594726562500e-01) (56, -8.63531827926635742188e-01) (57, -5.77430963516235351562e-01) (58, 3.43783497810363769531e-01) (59, 3.08060765266418457031e-01) (60, -1.29546001553535461426e-01) (61, 8.46588909626007080078e-01) (62, -8.13785493373870849609e-02) (63, -3.57996881008148193359e-01) (64, -2.49148666858673095703e-01) (65, -6.45319461822509765625e-01) (66, -3.05639207363128662109e-01) (67, 5.61659336090087890625e-01) (68, -2.15283751487731933594e-01) (69, 1.70950934290885925293e-01) (70, 3.62306833267211914062e-02) (71, 5.89766144752502441406e-01) (72, -8.33033621311187744141e-01) (73, -8.86693596839904785156e-01) (74, -2.03709285706281661987e-02) (75, 5.26395618915557861328e-01) (76, 8.05746018886566162109e-01) (77, -7.38234996795654296875e-01) (78, -4.45892900228500366211e-01) (79, -5.49073934555053710938e-01) (80, 1.02893739938735961914e-01) (81, 3.40062201023101806641e-01) (82, -9.57774579524993896484e-01) (83, -9.33714449405670166016e-01) (84, -8.89624096453189849854e-03) (85, -1.82535588741302490234e-01) (86, 6.73497319221496582031e-01) (87, 2.35541343688964843750e-01) (88, -2.99388527870178222656e-01) (89, -4.26808983087539672852e-01) (90, 6.72065973281860351562e-01) (91, 4.97522681951522827148e-01) (92, -2.31093280017375946045e-02) (93, -2.15668469667434692383e-01) (94, 7.52703607082366943359e-01) (95, 4.55907464027404785156e-01) (96, -1.23438619077205657959e-01) (97, -5.57650327682495117188e-01) (98, 2.11607247591018676758e-01) (99, 8.36515724658966064453e-01) (100, 2.73367136716842651367e-01) (101, 8.36934924125671386719e-01) (102, 5.52513122558593750000e-01) (103, 9.33145880699157714844e-01) (104, 6.86282634735107421875e-01) (105, -6.93166553974151611328e-02) (106, 5.37970006465911865234e-01) (107, 5.41515290737152099609e-01) (108, 5.30097067356109619141e-01) (109, -5.49255549907684326172e-01) (110, 8.61907124519348144531e-01) (111, -4.79489028453826904297e-01) (112, 8.94644737243652343750e-01) (113, 5.99286913871765136719e-01) (114, -9.78095978498458862305e-02) (115, -3.35744708776473999023e-01) (116, -7.10389018058776855469e-01) (117, 8.87074947357177734375e-01) (118, 5.83936095237731933594e-01) (119, 1.68279901146888732910e-01) (120, -5.63967049121856689453e-01) (121, 1.72666758298873901367e-01) (122, -5.82991003990173339844e-01) (123, 1.82437792420387268066e-01) (124, -8.73855888843536376953e-01) (125, -3.86196553707122802734e-01) (126, -6.51817977428436279297e-01) (127, 4.48897212743759155273e-01) (128, -9.41777750849723815918e-02) (129, 2.97970354557037353516e-01) (130, 1.11101292073726654053e-01) (131, -6.97252511978149414062e-01) (132, -1.89024835824966430664e-01) (133, -3.40664684772491455078e-01) (134, -1.06469428539276123047e+00) (135, -5.04242330789566040039e-02) (136, 6.26573085784912109375e-01) (137, 8.89726758003234863281e-01) (138, -1.00217968225479125977e-01) (139, 7.31278002262115478516e-01) (140, 1.15288639068603515625e+00) (141, -4.64079558849334716797e-01) (142, -3.55063080787658691406e-01) (143, 7.96673715114593505859e-01) (144, -5.98162055015563964844e-01) (145, -1.94978088140487670898e-01) (146, -8.40959072113037109375e-01) (147, 9.74281877279281616211e-02) (148, -1.43040671944618225098e-01) (149, 1.07152783870697021484e+00) (150, 1.15021216869354248047e+00) (151, 4.83069270849227905273e-01) (152, 3.18970084190368652344e-01) (153, -3.33386719226837158203e-01) (154, 1.50000000000000000000e+03) (155, 1.50000000000000000000e+03) (156, -1.10416555404663085938e+00) (157, 2.12131366133689880371e-01) (158, -1.20546472072601318359e+00) (159, 2.12860417366027832031e+00) (160, 1.89284658432006835938e+00) (0, -2.98204350471496582031e+00) (1, -1.64915874600410461426e-01) (2, -3.28214854001998901367e-01) (3, -1.59050500392913818359e+00) (4, 1.13234102725982666016e+00) (5, -1.98411822319030761719e-01) (6, -1.28620159626007080078e+00) (7, -1.02172172069549560547e+00) (8, 7.36269950866699218750e-01) (9, -2.31421589851379394531e-01) (10, -1.35813668370246887207e-01) (11, 7.13815152645111083984e-01) (12, 1.94618493318557739258e-01) (13, -3.34714263677597045898e-01) (14, 3.18344943225383758545e-02) (15, -1.19898222386837005615e-01) (16, 1.04819977283477783203e+00) (17, -3.22644948959350585938e-01) (18, -8.89223217964172363281e-02) (19, 8.72146725654602050781e-01) (20, 6.04085862636566162109e-01) (21, -6.85238420963287353516e-01) (22, -4.72291707992553710938e-01) (23, -9.22175467014312744141e-01) (24, -7.71291851997375488281e-01) (25, -2.68382459878921508789e-01) (26, 4.79613877832889556885e-02) (27, 5.15257298946380615234e-01) (28, -5.50234735012054443359e-01) (29, 6.22167885303497314453e-01) (30, -1.76376485824584960938e+00) (31, 3.80271196365356445312e-01) (32, 6.87049806118011474609e-01) (33, -2.80850142240524291992e-01) (34, 8.61348271369934082031e-01) (35, 9.47311878204345703125e-01) (36, 5.62329709529876708984e-01) (37, -4.62176293134689331055e-01) (38, -1.71872389316558837891e+00) (39, -2.79747635126113891602e-01) (40, -8.25310289859771728516e-01) (41, -5.62700033187866210938e-01) (42, -3.73461127281188964844e-01) (43, -1.14616185426712036133e-01) (44, 1.95387184619903564453e-01) (45, -1.31200244650244712830e-02) (46, 2.28212904185056686401e-02) (47, 5.54258227348327636719e-01) (48, -8.46335291862487792969e-01) (49, -1.31894752383232116699e-01) (50, 2.13503584265708923340e-01) (51, -9.43898856639862060547e-01) (52, -8.99191975593566894531e-01) (53, -5.54335653781890869141e-01) (54, -9.98123958706855773926e-02) (55, -4.85007017850875854492e-01) (56, 5.47648131847381591797e-01) (57, -4.83901202678680419922e-02) (58, -1.25373852252960205078e+00) (59, 1.15062928199768066406e+00) (60, -8.92706930637359619141e-01) (61, -3.98183137178421020508e-01) (62, -5.25720834732055664062e-01) (63, -5.09782493114471435547e-01) (64, 4.97905105352401733398e-01) (65, 5.34569680690765380859e-01) (66, 7.13078796863555908203e-01) (67, -4.84010368585586547852e-01) (68, 1.80445700883865356445e-01) (69, -5.12570798397064208984e-01) (70, -9.92828249931335449219e-01) (71, 6.12014889717102050781e-01) (72, 6.57783746719360351562e-01) (73, 1.25395119190216064453e-01) (74, 5.77297091484069824219e-01) (75, -2.57349237799644470215e-02) (76, 4.07750964164733886719e-01) (77, 8.37529361248016357422e-01) (78, 1.11559629440307617188e-02) (79, 2.96856969594955444336e-01) (80, 3.87392520904541015625e-01) (81, 4.45197105407714843750e-01) (82, 2.42189481854438781738e-01) (83, 5.39436876773834228516e-01) (84, -8.57911884784698486328e-01) (85, 1.00232088565826416016e+00) (86, -5.42245149612426757812e-01) (87, 2.92091697454452514648e-01) (88, -2.18280076980590820312e-01) (89, -4.73964631557464599609e-01) (90, -1.10166020691394805908e-01) (91, -3.78166466951370239258e-01) (92, -2.05069139599800109863e-01) (93, -6.95696413516998291016e-01) (94, 2.99320220947265625000e-01) (95, -8.01079094409942626953e-01) (96, -5.90632334351539611816e-02) (97, 6.03617310523986816406e-01) (98, 4.68414783477783203125e-01) (99, -7.73724853992462158203e-01) (100, 5.06085097789764404297e-01) (101, 3.16006213426589965820e-01) (102, -7.62629687786102294922e-01) (103, -1.60446360707283020020e-01) (104, -6.48763060569763183594e-01) (105, 5.70751786231994628906e-01) (106, 6.64939105510711669922e-01) (107, 4.26608741283416748047e-01) (108, 2.83460140228271484375e-01) (109, -1.24980822205543518066e-01) (110, -6.19997680187225341797e-01) (111, -1.34983643889427185059e-01) (112, -3.88839989900588989258e-01) (113, 9.10275876522064208984e-01) (114, -5.10832250118255615234e-01) (115, 5.15144541859626770020e-02) (116, -4.51518714427947998047e-01) (117, -2.75496274232864379883e-01) (118, -9.98502254486083984375e-01) (119, 9.63222086429595947266e-01) (120, 3.19362021982669830322e-02) (121, -8.28404128551483154297e-02) (122, 1.69267833232879638672e-01) (123, 8.18518400192260742188e-01) (124, 4.60403680801391601562e-01) (125, -4.27760064601898193359e-01) (126, 8.58275413513183593750e-01) (127, -6.51342272758483886719e-01) (128, 1.32098340988159179688e+00) (129, -3.36435586214065551758e-02) (130, -1.46452143788337707520e-01) (131, 1.12198328971862792969e+00) (132, -5.33499717712402343750e-01) (133, -2.35426321625709533691e-01) (134, 1.11189365386962890625e+00) (135, 1.90121814608573913574e-01) (136, -5.18208205699920654297e-01) (137, 1.11238765716552734375e+00) (138, 1.23170208930969238281e+00) (139, 1.08240675926208496094e+00) (140, -4.38225805759429931641e-01) (141, -7.04432070255279541016e-01) (142, -6.02100670337677001953e-01) (143, 9.68711227178573608398e-02) (144, 1.15576672554016113281e+00) (145, -1.21302294731140136719e+00) (146, 5.78517854213714599609e-01) (147, 2.45476543903350830078e-01) (148, 1.16807770729064941406e+00) (149, 1.15163516998291015625e+00) (150, -4.85573299229145050049e-02) (151, 2.84830331802368164062e-01) (152, 3.35760325193405151367e-01) (153, 7.03562140464782714844e-01) (154, 1.50000000000000000000e+03) (155, 1.50000000000000000000e+03) (156, 2.20230102539062500000e-01) (157, 7.00307130813598632812e-01) (158, 4.49207991361618041992e-01) (159, 2.60141873359680175781e+00) (160, 3.45760917663574218750e+00) (161, 1.50778710842132568359e+00) (0, -7.29951560497283935547e-01) (1, -1.38636076450347900391e+00) (2, -1.58401414752006530762e-01) (3, -3.58136855065822601318e-02) (4, 5.26263773441314697266e-01) (5, 2.52632170915603637695e-01) (6, -9.95920658111572265625e-01) (7, -5.37448167800903320312e-01) (8, 9.17986035346984863281e-01) (9, -9.48877096176147460938e-01) (10, -6.99703216552734375000e-01) (11, 1.10170435905456542969e+00) (12, -2.38059496879577636719e+00) (13, 5.90572297573089599609e-01) (14, -2.10024267435073852539e-01) (15, -4.84556138515472412109e-01) (16, -1.82813495397567749023e-01) (17, -3.57333087921142578125e+00) (18, 2.60994017124176025391e-01) (19, -5.98996914923191070557e-02) (20, -9.09138143062591552734e-01) (21, 2.77918130159378051758e-01) (22, -1.05619537830352783203e+00) (23, -1.04523301124572753906e+00) (24, 1.83665692806243896484e-01) (25, -8.92895817756652832031e-01) (26, 5.14368414878845214844e-01) (27, -3.69668662548065185547e-01) (28, -4.71171617507934570312e+00) (29, -6.11737906932830810547e-01) (30, 4.26767081022262573242e-01) (31, 8.00857484340667724609e-01) (32, -4.62711751461029052734e-01) (33, 8.48226308822631835938e-01) (34, 1.96265235543251037598e-01) (35, -5.35478532314300537109e-01) (36, 1.02329373359680175781e+00) (37, -6.13179385662078857422e-01) (38, -1.42071998119354248047e+00) (39, 9.95700180530548095703e-01) (40, -2.99559682607650756836e-01) (41, -1.00695860385894775391e+00) (42, 4.25821274518966674805e-01) (43, -7.38283293321728706360e-03) (44, 1.05322170257568359375e+00) (45, -6.91225707530975341797e-01) (46, 1.12870740890502929688e+00) (47, -6.51598215103149414062e-01) (48, -1.81347322463989257812e+00) (49, 2.92341321706771850586e-01) (50, 2.48350188136100769043e-01) (51, -6.54513955116271972656e-01) (52, 4.39039379358291625977e-01) (53, 4.79921400547027587891e-01) (54, -6.66306793689727783203e-01) (55, 2.09279328584671020508e-01) (56, 6.99895858764648437500e-01) (57, 2.18074822425842285156e+00) (58, 7.57706403732299804688e-01) (59, -1.16546265780925750732e-01) (60, -1.06399476528167724609e+00) (61, 1.18338659405708312988e-01) (62, 1.00859299302101135254e-01) (63, 1.24405455589294433594e+00) (64, 1.24702505767345428467e-01) (65, 8.13337743282318115234e-01) (66, 1.00671517848968505859e+00) (67, -3.90023440122604370117e-01) (68, 2.09255546331405639648e-01) (69, 3.47693502902984619141e-01) (70, -2.33970180153846740723e-01) (71, 6.70086145401000976562e-01) (72, 7.88854718208312988281e-01) (73, -5.28958678245544433594e-01) (74, 3.36817577481269836426e-02) (75, 6.20768487453460693359e-01) (76, -2.37906193733215332031e+00) (77, -4.84527856111526489258e-01) (78, 8.45392107963562011719e-01) (79, -3.56512635946273803711e-01) (80, 7.36637771129608154297e-01) (81, 1.97000816464424133301e-01) (82, 8.17652642726898193359e-02) (83, 8.45984458923339843750e-01) (84, -1.14931285381317138672e+00) (85, -3.17052513360977172852e-01) (86, -2.72176086902618408203e-01) (87, 8.72593879699707031250e-01) (88, -4.50687170028686523438e-01) (89, -6.92405521869659423828e-01) (90, -2.15831741690635681152e-01) (91, 9.67083871364593505859e-01) (92, -5.40259838104248046875e-01) (93, -3.68221807479858398438e+00) (94, -8.18081021308898925781e-01) (95, -1.60339236259460449219e+00) (96, -8.84063601493835449219e-01) (97, 6.19932636618614196777e-03) (98, 3.95228803157806396484e-01) (99, -1.37496069073677062988e-01) (100, -9.44479107856750488281e-01) (101, 8.56597661972045898438e-01) (102, 1.26561030745506286621e-01) (103, -1.49858689308166503906e+00) (104, 1.00851655006408691406e+00) (105, -1.83653092384338378906e+00) (106, -2.63930827379226684570e-01) (107, -1.93245008587837219238e-01) (108, -1.37782841920852661133e-01) (109, -6.75031900405883789062e-01) (110, 9.22039031982421875000e-01) (111, 4.88092660903930664062e-01) (112, 6.63447320461273193359e-01) (113, -3.97700548171997070312e-01) (114, 6.21180355548858642578e-01) (115, -7.28612065315246582031e-01) (116, -7.36592531204223632812e-01) (117, -1.53771296143531799316e-01) (118, 4.14217114448547363281e-01) (119, -3.79995495080947875977e-01) (120, 1.49425148963928222656e-01) (121, -5.45952431857585906982e-02) (122, 8.41711997985839843750e-01) (123, 5.00827312469482421875e-01) (124, -8.31960514187812805176e-02) (125, -3.09649169445037841797e-01) (126, -3.51558566093444824219e-01) (127, 9.31060612201690673828e-01) (128, 2.26423573493957519531e+00) (129, 7.42916017770767211914e-02) (130, 7.35242664813995361328e-02) (131, 2.95302540063858032227e-01) (132, 1.08648824691772460938e+00) (133, 3.06161016225814819336e-01) (134, 1.60566031932830810547e-01) (135, -6.28062188625335693359e-01) (136, 5.51204860210418701172e-01) (137, -4.93502557277679443359e-01) (138, 9.84143912792205810547e-01) (139, 1.10174381732940673828e+00) (140, 4.82341676950454711914e-01) (141, 1.72503620386123657227e-01) (142, -1.03794944286346435547e+00) (143, 4.69427645206451416016e-01) (144, 7.91484057903289794922e-01) (145, -1.04440987110137939453e+00) (146, 2.73794502019882202148e-01) (147, 1.88208401203155517578e-01) (148, -8.66125524044036865234e-02) (149, 2.38525584340095520020e-01) (150, 5.81512749195098876953e-01) (151, 8.65522563457489013672e-01) (152, 1.03319263458251953125e+00) (153, 3.13761025667190551758e-01) (154, 1.50000000000000000000e+03) (155, 1.50000000000000000000e+03) (156, 6.02720439434051513672e-01) (157, 1.48558545112609863281e+00) (158, -5.57221412658691406250e-01) (159, 4.71927547454833984375e+00) (160, 3.58974456787109375000e+00) (161, 3.57825446128845214844e+00) (162, -2.48460698127746582031e+00) (0, -4.30538684129714965820e-01) (1, -8.51550698280334472656e-01) (2, 2.78906822204589843750e-01) (3, 4.24934327602386474609e-01) (4, 9.50275599956512451172e-01) (5, 2.80964285135269165039e-01) (6, 3.06386202573776245117e-01) (7, 3.50427627563476562500e-01) (8, 1.08781361579895019531e+00) (9, 3.38459879159927368164e-01) (10, -8.62365812063217163086e-02) (11, -9.19855475425720214844e-01) (12, 6.39103889465332031250e-01) (13, -8.91205549240112304688e-01) (14, -4.72473621368408203125e-01) (15, -5.83143830299377441406e-01) (16, -4.26786184310913085938e-01) (17, -1.65618866682052612305e-01) (18, -7.16064691543579101562e-01) (19, -3.60365435481071472168e-02) (20, 5.22533655166625976562e-01) (21, -3.84915679693222045898e-01) (22, 1.29973387718200683594e+00) (23, 6.89722239971160888672e-01) (24, -1.27504730224609375000e+00) (25, -4.44768100976943969727e-01) (26, 3.90332728624343872070e-01) (27, 2.88558483123779296875e-01) (28, 2.88229614496231079102e-01) (29, 1.72523170709609985352e-01) (30, 7.57342994213104248047e-01) (31, 4.16471570730209350586e-01) (32, -2.22963932901620864868e-02) (33, -4.56917941570281982422e-01) (34, 1.28353908658027648926e-01) (35, -2.49982595443725585938e-01) (36, 7.76772558689117431641e-01) (37, 7.74089097976684570312e-01) (38, 1.05388569831848144531e+00) (39, 1.09762936830520629883e-01) (40, -2.15109795331954956055e-01) (41, 4.65310484170913696289e-01) (42, 5.87486565113067626953e-01) (43, -3.95560532808303833008e-01) (44, 3.42037022113800048828e-01) (45, -9.85484719276428222656e-02) (46, -7.77073726058006286621e-02) (47, 5.25579489767551422119e-02) (48, -5.77956080436706542969e-01) (49, 6.57314062118530273438e-01) (50, -1.04317474365234375000e+00) (51, -2.18359101563692092896e-02) (52, -3.26698690652847290039e-01) (53, 6.63929283618927001953e-01) (54, -8.20777475833892822266e-01) (55, -8.82619738578796386719e-01) (56, -9.04458463191986083984e-01) (57, -2.45267346501350402832e-01) (58, -2.54259616136550903320e-01) (59, -1.75548720359802246094e+00) (60, -2.22472976893186569214e-02) (61, -3.98060917854309082031e-01) (62, 2.62497544288635253906e-01) (63, -3.23040366172790527344e-01) (64, -7.91447222232818603516e-01) (65, -1.73943746089935302734e+00) (66, 3.65895897150039672852e-01) (67, -4.56757515668869018555e-01) (68, 7.55900144577026367188e-01) (69, -2.71981477737426757812e-01) (70, -3.59548419713973999023e-01) (71, -1.20147198438644409180e-01) (72, -7.28714823722839355469e-01) (73, -3.22555512189865112305e-01) (74, 8.38075429201126098633e-02) (75, 2.29351073503494262695e-01) (76, -4.83342856168746948242e-01) (77, 4.65452849864959716797e-01) (78, 7.40407466888427734375e-01) (79, 2.82594472169876098633e-01) (80, 1.06223750114440917969e+00) (81, 6.13342404365539550781e-01) (82, -8.97011518478393554688e-01) (83, -9.19139802455902099609e-01) (84, 7.59475827217102050781e-01) (85, -7.02819824218750000000e-01) (86, -6.18279650807380676270e-02) (87, 4.71001386642456054688e-01) (88, 6.36679947376251220703e-01) (89, 4.31221455335617065430e-01) (90, 2.94020503759384155273e-01) (91, -2.21475720405578613281e-01) (92, 1.14930450916290283203e+00) (93, -5.10289430618286132812e-01) (94, 4.94425445795059204102e-01) (95, 1.17439076304435729980e-01) (96, -3.72090876102447509766e-01) (97, 1.85979917645454406738e-01) (98, 2.28393316268920898438e-01) (99, -4.57081168889999389648e-01) (100, -9.48006451129913330078e-01) (101, 9.34350669384002685547e-01) (102, 8.29256892204284667969e-01) (103, -3.64298373460769653320e-02) (104, 1.19592499732971191406e+00) (105, 1.04450654983520507812e+00) (106, -5.10134994983673095703e-01) (107, -1.15150086581707000732e-01) (108, 1.06193065643310546875e+00) (109, 2.48198807239532470703e-01) (110, 1.43302035331726074219e+00) (111, 5.96662521362304687500e-01) (112, 4.33611840009689331055e-01) (113, -1.37200534343719482422e+00) (114, 1.30431151390075683594e+00) (115, -1.74518093466758728027e-01) (116, -7.00276613235473632812e-01) (117, -9.54132899641990661621e-02) (118, -5.54441139101982116699e-02) (119, 5.76112568378448486328e-01) (120, -1.51475757360458374023e-01) (121, 9.69391345977783203125e-01) (122, -1.61427485942840576172e+00) (123, -7.45092391967773437500e-01) (124, -1.77429482340812683105e-01) (125, 5.41150450706481933594e-01) (126, -2.07799244672060012817e-02) (127, 1.65361851453781127930e-01) (128, -1.57975450158119201660e-01) (129, -4.22505706548690795898e-01) (130, 4.46462035179138183594e-01) (131, -1.72941654920578002930e-01) (132, -5.73758602142333984375e-01) (133, 3.13439741730690002441e-02) (134, 5.35495042800903320312e-01) (135, -1.33659958839416503906e+00) (136, 1.09269566833972930908e-01) (137, 9.68291163444519042969e-01) (138, -1.32734239101409912109e-01) (139, -1.08922675251960754395e-01) (140, 7.40123927593231201172e-01) (141, -2.49828919768333435059e-01) (142, -6.90460979938507080078e-01) (143, 3.49134266376495361328e-01) (144, -2.24954470992088317871e-01) (145, -4.36630934476852416992e-01) (146, -6.74471616744995117188e-01) (147, -1.29978340119123458862e-02) (148, 7.78767317533493041992e-02) (149, 1.96889578364789485931e-03) (150, -7.35896378755569458008e-02) (151, 5.01573562622070312500e-01) (152, -5.72710148990154266357e-02) (153, 1.95671007037162780762e-01) (154, 1.50000000000000000000e+03) (155, 1.50000000000000000000e+03) (156, -1.12153303623199462891e+00) (157, -3.19186039268970489502e-02) (158, -6.21506795287132263184e-02) (159, 2.96098732948303222656e+00) (160, 3.19051289558410644531e+00) (161, 3.28714442253112792969e+00) (162, 1.40060305595397949219e+00) (163, 3.45682263374328613281e+00) (0, -1.19241952896118164062e+00) (1, 5.52078604698181152344e-01) (2, 2.39666789770126342773e-01) (3, 4.38301771879196166992e-01) (4, 3.19301605224609375000e-01) (5, -7.30957686901092529297e-01) (6, 4.62176203727722167969e-02) (7, 4.53500777482986450195e-01) (8, 4.86599713563919067383e-01) (9, 7.41562128067016601562e-01) (10, 7.58159995079040527344e-01) (11, -5.18070220947265625000e-01) (12, 2.08054780960083007812e-01) (13, -3.03517356514930725098e-02) (14, 5.56594848632812500000e-01) (15, 5.75794279575347900391e-02) (16, -2.15064898133277893066e-01) (17, -3.49862188100814819336e-01) (18, 3.10350090265274047852e-01) (19, -5.16224682331085205078e-01) (20, 6.15719676017761230469e-01) (21, 8.40702474117279052734e-01) (22, 8.71042788028717041016e-01) (23, 3.51137846708297729492e-01) (24, 1.27065688371658325195e-01) (25, 8.05620551109313964844e-01) (26, -6.62665605545043945312e-01) (27, 3.91778498888015747070e-01) (28, -1.74259245395660400391e-01) (29, -1.27721831202507019043e-01) (30, 8.59932482242584228516e-01) (31, -8.49077105522155761719e-01) (32, -4.55195635557174682617e-01) (33, -5.97028911113739013672e-01) (34, 5.89977316558361053467e-02) (35, 1.37448385357856750488e-01) (36, 2.03870218247175216675e-02) (37, 7.92117476463317871094e-01) (38, -4.02579873800277709961e-01) (39, -7.24359691143035888672e-01) (40, -2.42569655179977416992e-01) (41, -8.30558001995086669922e-01) (42, 9.66927468776702880859e-01) (43, -4.54709678888320922852e-01) (44, 4.79753836989402770996e-02) (45, 3.96622577682137489319e-03) (46, 3.81736665964126586914e-01) (47, 4.68432039022445678711e-01) (48, 6.79898142814636230469e-01) (49, -7.58172035217285156250e-01) (50, 4.68181192874908447266e-01) (51, 1.81162610650062561035e-01) (52, -6.53793394565582275391e-01) (53, 1.00662243366241455078e+00) (54, -8.11207711696624755859e-01) (55, 3.47373187541961669922e-02) (56, 1.12250590324401855469e+00) (57, -7.24746286869049072266e-02) (58, -4.59971055388450622559e-02) (59, -5.21734666824340820312e+00) (60, 7.93758332729339599609e-02) (61, -8.58456671237945556641e-01) (62, -3.26366901397705078125e-01) (63, 2.77247250080108642578e-01) (64, -3.83552581071853637695e-01) (65, 5.79829037189483642578e-01) (66, -6.05190873146057128906e-01) (67, 3.15481543540954589844e-01) (68, 2.21351340413093566895e-01) (69, -3.61206471920013427734e-01) (70, -8.25715243816375732422e-01) (71, 4.77499328553676605225e-02) (72, 7.76118412613868713379e-02) (73, 5.47403395175933837891e-01) (74, 2.54472605884075164795e-02) (75, 8.69645893573760986328e-01) (76, -6.47251009941101074219e-01) (77, -6.66514635086059570312e-01) (78, -1.98427394032478332520e-01) (79, 8.40028107166290283203e-01) (80, -5.42860865592956542969e-01) (81, 1.11606396734714508057e-01) (82, -2.27692708373069763184e-01) (83, -7.25483536720275878906e-01) (84, -1.44707620143890380859e-01) (85, 2.64842761680483818054e-03) (86, 8.61197173595428466797e-01) (87, -3.00139993429183959961e-01) (88, 5.74697494506835937500e-01) (89, -2.40489304065704345703e-01) (90, -4.03945930302143096924e-02) (91, -4.16536688804626464844e-01) (92, 1.65248796343803405762e-01) (93, 3.10148328542709350586e-01) (94, 7.32044339179992675781e-01) (95, 1.55268475413322448730e-01) (96, -1.12956948578357696533e-01) (97, 9.72370266914367675781e-01) (98, -7.21012175083160400391e-01) (99, -7.47384488582611083984e-01) (100, -2.44871929287910461426e-01) (101, -5.27544617652893066406e-01) (102, -3.33981096744537353516e-01) (103, 2.00787950307130813599e-02) (104, 6.71496629714965820312e-01) (105, 7.71529257297515869141e-01) (106, 4.10538583993911743164e-01) (107, 9.26155209541320800781e-01) (108, 6.92757308483123779297e-01) (109, -7.05386281013488769531e-01) (110, 8.47436189651489257812e-01) (111, -8.13287854194641113281e-01) (112, 3.79882127046585083008e-01) (113, -5.91733336448669433594e-01) (114, -5.90816259384155273438e-01) (115, -9.24306750297546386719e-01) (116, 5.34477472305297851562e-01) (117, -7.59667634963989257812e-01) (118, -3.80966886878013610840e-02) (119, -2.02919155359268188477e-01) (120, -1.70218914747238159180e-01) (121, -1.55938968062400817871e-01) (122, 7.89664804935455322266e-01) (123, 3.69256526231765747070e-01) (124, -3.98664206266403198242e-01) (125, -2.94209104031324386597e-02) (126, -1.34110897779464721680e-01) (127, 3.11134040355682373047e-01) (128, -6.86469137668609619141e-01) (129, 1.21066652238368988037e-01) (130, 2.98863857984542846680e-01) (131, 3.72000694274902343750e-01) (132, 1.54507160186767578125e-01) (133, -6.31690442562103271484e-01) (134, -2.92895615100860595703e-01) (135, -1.36022299528121948242e-01) (136, 6.50277376174926757812e-01) (137, 3.77614140510559082031e-01) (138, -2.00827792286872863770e-01) (139, 6.67191267013549804688e-01) (140, 5.60850203037261962891e-01) (141, -3.27437698841094970703e-01) (142, 7.69718170166015625000e-01) (143, -3.28000932931900024414e-01) (144, 6.51183903217315673828e-01) (145, -8.25514316558837890625e-01) (146, -4.86261218786239624023e-01) (147, -4.69217121601104736328e-01) (148, -5.16588687896728515625e-01) (149, 2.57104873657226562500e-01) (150, 4.74538505077362060547e-01) (151, 3.26809883117675781250e-01) (152, -4.87061679363250732422e-01) (153, -2.28230550885200500488e-01) (154, 1.50000000000000000000e+03) (155, 1.50000000000000000000e+03) (156, 3.43528985977172851562e-01) (157, 1.35332632064819335938e+00) (158, -3.33534538745880126953e-01) (159, 2.24910664558410644531e+00) (160, 1.74049866199493408203e+00) (161, 9.21548753976821899414e-02) (162, 1.45775067806243896484e+00) (163, 3.14083218574523925781e+00) (164, -2.00632381439208984375e+00) (0, -2.15684127807617187500e+00) (1, -3.17690819501876831055e-01) (2, -5.22392988204956054688e-01) (3, 9.68410596251487731934e-02) (4, -3.58778744935989379883e-01) (5, -5.81932127475738525391e-01) (6, 4.44127917289733886719e-02) (7, -8.74727442860603332520e-02) (8, -5.04791498184204101562e-01) (9, 1.10641610622406005859e+00) (10, -6.39964461326599121094e-01) (11, -2.22814321517944335938e-01) (12, 2.02077731490135192871e-01) (13, -6.02302789688110351562e-01) (14, 7.19490721821784973145e-02) (15, 8.31370294094085693359e-01) (16, 6.02501571178436279297e-01) (17, -9.68562588095664978027e-02) (18, 3.93485993146896362305e-01) (19, -2.20286235213279724121e-01) (20, 3.78826439380645751953e-01) (21, 3.85913610458374023438e-01) (22, 8.37281346321105957031e-01) (23, 3.31116616725921630859e-02) (24, -4.12554889917373657227e-01) (25, 9.49745655059814453125e-01) (26, 7.08972096443176269531e-01) (27, -2.08223909139633178711e-01) (28, 6.88517570495605468750e-01) (29, 3.96465331315994262695e-01) (30, -7.81461715698242187500e-01) (31, -1.05941712856292724609e+00) (32, -1.06415963172912597656e+00) (33, 4.96516078710556030273e-01) (34, -3.66187281906604766846e-02) (35, -4.02277797460556030273e-01) (36, 2.53752052783966064453e-01) (37, 8.17284703254699707031e-01) (38, -2.93765682727098464966e-02) (39, -9.10385429859161376953e-01) (40, 3.18019509315490722656e-01) (41, 6.85725212097167968750e-01) (42, 2.83656120300292968750e-01) (43, -4.59702610969543457031e-01) (44, -4.88599359989166259766e-01) (45, -4.71667379140853881836e-01) (46, -9.25370335578918457031e-01) (47, 5.12400031089782714844e-01) (48, -1.45485997200012207031e-01) (49, 2.49517098069190979004e-01) (50, -4.07219827175140380859e-01) (51, -6.07508778572082519531e-01) (52, -4.77195709943771362305e-01) (53, -7.78749406337738037109e-01) (54, 5.06015658378601074219e-01) (55, -3.92874091863632202148e-01) (56, -3.99314701557159423828e-01) (57, -7.75724500417709350586e-02) (58, 5.42370975017547607422e-01) (59, 6.76943361759185791016e-01) (60, -3.76672774553298950195e-01) (61, -6.22709691524505615234e-01) (62, -6.79067134857177734375e-01) (63, 2.36596822738647460938e-01) (64, 3.25679451227188110352e-01) (65, 7.08999216556549072266e-01) (66, 1.05659079551696777344e+00) (67, 4.59786839783191680908e-02) (68, -1.22317433357238769531e-01) (69, -9.60727035999298095703e-02) (70, -1.37644305825233459473e-01) (71, 7.73350536823272705078e-01) (72, -2.35732659697532653809e-01) (73, -1.05025708675384521484e+00) (74, -5.91628134250640869141e-01) (75, 2.92350560426712036133e-01) (76, -4.58308130502700805664e-01) (77, -3.38459402322769165039e-01) (78, -4.01426374912261962891e-01) (79, 2.29345813393592834473e-01) (80, 8.23741257190704345703e-01) (81, 9.76403117179870605469e-01) (82, 6.49764418601989746094e-01) (83, 6.27781093120574951172e-01) (84, -5.00870227813720703125e-01) (85, 2.20525234937667846680e-01) (86, -1.27656355500221252441e-01) (87, -5.71449100971221923828e-01) (88, -5.65385162830352783203e-01) (89, -7.52932012081146240234e-01) (90, -1.05830395221710205078e+00) (91, -1.15788429975509643555e-01) (92, -5.75381696224212646484e-01) (93, -3.03039819002151489258e-01) (94, 7.31126070022583007812e-01) (95, 7.51121103763580322266e-01) (96, -5.90435445308685302734e-01) (97, 2.31598213315010070801e-01) (98, -3.88095855712890625000e-01) (99, 5.78522942960262298584e-02) (100, -2.79448330402374267578e-01) (101, 6.83234632015228271484e-01) (102, 1.20127074420452117920e-01) (103, -1.31871938705444335938e-01) (104, 9.46795821189880371094e-01) (105, 5.05050957202911376953e-01) (106, 2.46161192655563354492e-01) (107, -9.24898505210876464844e-01) (108, 4.84914213418960571289e-01) (109, -3.73585581779479980469e-01) (110, 2.95609861612319946289e-01) (111, -2.12789382785558700562e-02) (112, -5.20145416259765625000e-01) (113, 4.68036264181137084961e-01) (114, 3.47977317869663238525e-02) (115, -7.57695317268371582031e-01) (116, -5.46590328216552734375e-01) (117, 4.78438675403594970703e-01) (118, -1.36021375656127929688e-01) (119, 6.16682842373847961426e-02) (120, -1.10604357719421386719e+00) (121, 1.10293829441070556641e+00) (122, 5.76060295104980468750e-01) (123, -3.98550242185592651367e-01) (124, -1.07196517288684844971e-01) (125, 5.01184642314910888672e-01) (126, -8.51022839546203613281e-01) (127, 2.09694504737854003906e-01) (128, -3.20050209760665893555e-01) (129, -4.38011348247528076172e-01) (130, -5.41197061538696289062e-01) (131, -3.11135560274124145508e-01) (132, -6.89539313316345214844e-01) (133, -1.21274441480636596680e-01) (134, 8.06806921958923339844e-01) (135, -8.57849061489105224609e-01) (136, -9.19038474559783935547e-01) (137, 1.44360795617103576660e-01) (138, -7.80258417129516601562e-01) (139, 7.22537040710449218750e-01) (140, 4.86928880214691162109e-01) (141, 1.15918803215026855469e+00) (142, -1.29176989197731018066e-01) (143, 1.09412217140197753906e+00) (144, 4.33900468051433563232e-02) (145, 9.22590911388397216797e-01) (146, -4.80241030454635620117e-01) (147, 5.79203844070434570312e-01) (148, 5.86697578430175781250e-01) (149, 5.80483675003051757812e-01) (150, -7.07661747932434082031e-01) (151, 6.26817464828491210938e-01) (152, 4.10767287015914916992e-01) (153, 9.10201311111450195312e-01) (154, 1.50000000000000000000e+03) (155, 1.50000000000000000000e+03) (156, -3.96764844655990600586e-01) (157, 1.73880767822265625000e+00) (158, 1.26683998107910156250e+00) (159, 1.98516750335693359375e+00) (160, 2.42114639282226562500e+00) (161, 3.27716660499572753906e+00) (162, -9.27144289016723632812e-01) (163, 3.43268775939941406250e+00) (164, 4.36570197343826293945e-02) (165, -7.39398360252380371094e-01) (0, 7.01126530766487121582e-02) (1, 3.58911812305450439453e-01) (2, 7.62459099292755126953e-01) (3, 1.98425203561782836914e-01) (4, 7.97039985656738281250e-01) (5, -5.11413335800170898438e-01) (6, -5.22210717201232910156e-01) (7, -7.45836973190307617188e-01) (8, 1.36814475059509277344e-01) (9, -6.26783072948455810547e-01) (10, 3.22537690401077270508e-01) (11, 7.93873131275177001953e-01) (12, 5.45417129993438720703e-01) (13, -4.83573555946350097656e-01) (14, -5.50801038742065429688e-01) (15, -5.64658761024475097656e-01) (16, 6.51120185852050781250e-01) (17, 2.42683559656143188477e-01) (18, -4.05743509531021118164e-01) (19, 1.04635763168334960938e+00) (20, -7.77934372425079345703e-01) (21, 1.54816538095474243164e-01) (22, -1.45727796480059623718e-02) (23, 7.79708325862884521484e-01) (24, 3.66662412881851196289e-01) (25, 2.10009843111038208008e-01) (26, 8.93214121460914611816e-02) (27, 2.44462594389915466309e-01) (28, -3.57363134622573852539e-01) (29, -6.26405835151672363281e-01) (30, 4.37570899724960327148e-01) (31, 9.12733912467956542969e-01) (32, 2.22632586956024169922e-01) (33, -5.00730872154235839844e-02) (34, 2.18925938010215759277e-01) (35, 3.08477044105529785156e-01) (36, 9.26668405532836914062e-01) (37, 2.67039030790328979492e-01) (38, 4.47379976511001586914e-01) (39, -6.35204240679740905762e-02) (40, -1.99187263846397399902e-01) (41, -9.77100312709808349609e-01) (42, -8.55414927005767822266e-01) (43, -3.21228057146072387695e-01) (44, 7.81602561473846435547e-02) (45, 2.97481894493103027344e-01) (46, 3.06598126888275146484e-01) (47, -4.03852909803390502930e-01) (48, -2.94153034687042236328e-01) (49, -9.23668980598449707031e-01) (50, 3.22361886501312255859e-02) (51, -2.84466385841369628906e-01) (52, 2.47227534651756286621e-01) (53, 8.21691155433654785156e-01) (54, -5.96604406833648681641e-01) (55, -6.06439590454101562500e-01) (56, -3.08158487081527709961e-01) (57, 4.16982352733612060547e-01) (58, 1.69510349631309509277e-01) (59, -2.22246551513671875000e+00) (60, 5.14237701892852783203e-01) (61, -4.60611969232559204102e-01) (62, 5.98972029983997344971e-02) (63, 1.85261920094490051270e-01) (64, 5.25133013725280761719e-01) (65, 9.69811975955963134766e-01) (66, -4.86728608608245849609e-01) (67, 7.94846788048744201660e-02) (68, -3.18564057350158691406e-01) (69, 1.61345917731523513794e-02) (70, -1.13838434219360351562e+00) (71, -1.25962585210800170898e-01) (72, 9.81850624084472656250e-01) (73, -2.65229269862174987793e-02) (74, 3.85572016239166259766e-01) (75, -7.18774572014808654785e-02) (76, 1.00436651706695556641e+00) (77, 8.81142675876617431641e-01) (78, 4.58479106426239013672e-01) (79, -4.61613595485687255859e-01) (80, 5.53462862968444824219e-01) (81, -3.06416481733322143555e-01) (82, 8.45514610409736633301e-02) (83, -2.41094559431076049805e-01) (84, 1.07886421680450439453e+00) (85, 3.60689342021942138672e-01) (86, -3.06011512875556945801e-02) (87, -2.12061166763305664062e-01) (88, -2.14128300547599792480e-01) (89, -3.03068339824676513672e-01) (90, -6.08497560024261474609e-01) (91, -7.28100597858428955078e-01) (92, -1.20742157101631164551e-01) (93, -1.57184094190597534180e-01) (94, 3.61915647983551025391e-01) (95, -5.65725445747375488281e-01) (96, 7.00844004750251770020e-02) (97, 5.99105060100555419922e-01) (98, 2.46406257152557373047e-01) (99, 9.14973914623260498047e-01) (100, -4.16009664535522460938e-01) (101, -5.71075081825256347656e-01) (102, -7.74746298789978027344e-01) (103, -1.96982622146606445312e-01) (104, -8.85044872760772705078e-01) (105, -4.19711291790008544922e-01) (106, 4.81979697942733764648e-01) (107, -3.23877096176147460938e-01) (108, 1.06747579574584960938e+00) (109, -3.80832046270370483398e-01) (110, -8.39191898703575134277e-02) (111, 6.32455766201019287109e-01) (112, 2.85061240196228027344e-01) (113, -1.08772420883178710938e+00) (114, -3.04286628961563110352e-01) (115, 2.91250288486480712891e-01) (116, 7.91804730892181396484e-01) (117, -8.90186250209808349609e-01) (118, 3.02271306514739990234e-01) (119, -5.98229169845581054688e-01) (120, 1.21798586845397949219e+00) (121, 1.18685889244079589844e+00) (122, -5.97115159034729003906e-01) (123, -2.25923374295234680176e-01) (124, 3.13396126031875610352e-01) (125, 2.82379359006881713867e-01) (126, 5.58577179908752441406e-01) (127, 6.59610688686370849609e-01) (128, -3.35426002740859985352e-01) (129, 1.02412611246109008789e-01) (130, 6.97402715682983398438e-01) (131, 7.68763840198516845703e-01) (132, 8.80240574479103088379e-02) (133, -1.23153245449066162109e+00) (134, -5.12349188327789306641e-01) (135, -8.38650166988372802734e-01) (136, -3.81771177053451538086e-01) (137, 7.80992805957794189453e-01) (138, -6.09537288546562194824e-02) (139, -4.32674944400787353516e-01) (140, -2.61329531669616699219e-01) (141, 1.54306426644325256348e-01) (142, -9.09317493438720703125e-01) (143, 8.49152266979217529297e-01) (144, -1.23932468891143798828e+00) (145, -8.44351828098297119141e-01) (146, 1.32668111473321914673e-02) (147, 9.29721891880035400391e-01) (148, -8.39896738529205322266e-01) (149, -1.96715563535690307617e-01) (150, 1.13499784469604492188e+00) (151, 1.11413574218750000000e+00) (152, -3.29471290111541748047e-01) (153, -6.24176919460296630859e-01) (154, 1.50000000000000000000e+03) (155, 1.50000000000000000000e+03) (156, 3.94564151763916015625e-01) (157, -1.11624765396118164062e+00) (158, 2.41508930921554565430e-01) (159, 1.47886788845062255859e+00) (160, 3.05187892913818359375e+00) (161, 2.75669646263122558594e+00) (162, -1.10691976547241210938e+00) (163, 2.10108971595764160156e+00) (164, -1.92480421066284179688e+00) (165, -4.07915145158767700195e-01) (166, 2.75637555122375488281e+00) (0, -1.61795377731323242188e-01) (1, -6.73501431941986083984e-01) (2, -2.26107425987720489502e-02) (3, -7.00490117073059082031e-01) (4, -2.59648412466049194336e-01) (5, -3.03707867860794067383e-01) (6, -2.41062507033348083496e-01) (7, 8.22737514972686767578e-01) (8, 3.65609109401702880859e-01) (9, 6.96922140195965766907e-03) (10, 3.07231336832046508789e-01) (11, -3.71295511722564697266e-01) (12, -1.70809030532836914062e-03) (13, 8.66752147674560546875e-01) (14, -5.83702921867370605469e-01) (15, 4.74102169275283813477e-01) (16, -5.44184923171997070312e-01) (17, 1.14470213651657104492e-01) (18, -8.35870355367660522461e-02) (19, 5.60190021991729736328e-01) (20, -7.31040060520172119141e-01) (21, -6.65083885192871093750e-01) (22, -6.26662194728851318359e-01) (23, -4.36017602682113647461e-01) (24, 2.11227163672447204590e-01) (25, 8.93890678882598876953e-01) (26, 8.37833955883979797363e-02) (27, -7.42372810840606689453e-01) (28, 4.58819508552551269531e-01) (29, 3.83346170186996459961e-01) (30, 2.71438181400299072266e-01) (31, 2.83535271883010864258e-01) (32, 1.02773225307464599609e+00) (33, -2.74659305810928344727e-01) (34, -9.05881464481353759766e-01) (35, 4.17305946350097656250e-01) (36, 1.61611795425415039062e-01) (37, 3.49525123834609985352e-01) (38, -1.93929672241210937500e-01) (39, -3.07326048612594604492e-01) (40, -6.28231465816497802734e-01) (41, -5.91482639312744140625e-01) (42, 2.33107954263687133789e-01) (43, 4.78720307350158691406e-01) (44, -9.53777074813842773438e-01) (45, 4.53693494200706481934e-02) (46, -1.33681837469339370728e-02) (47, -2.92837500572204589844e-01) (48, -6.07813298702239990234e-01) (49, 6.47546887397766113281e-01) (50, -7.39661395549774169922e-01) (51, -4.52561795711517333984e-01) (52, 9.60761606693267822266e-01) (53, -6.26912236213684082031e-01) (54, 2.26493224501609802246e-01) (55, 5.90963482856750488281e-01) (56, -4.73140954971313476562e-01) (57, 7.34255731105804443359e-01) (58, 1.39425539970397949219e+00) (59, -1.14201700687408447266e+00) (60, 1.82289332151412963867e-01) (61, 1.53998926281929016113e-01) (62, 6.52374982833862304688e-01) (63, 4.05712395906448364258e-01) (64, 6.05741977691650390625e-01) (65, 1.03908610343933105469e+00) (66, -7.80881285667419433594e-01) (67, -3.55897217988967895508e-01) (68, 4.76670742034912109375e-01) (69, 1.19357615709304809570e-01) (70, 2.56564885377883911133e-01) (71, 3.01098376512527465820e-01) (72, 3.34680020809173583984e-01) (73, -4.41641807556152343750e-01) (74, -2.76559263467788696289e-01) (75, 1.39245375990867614746e-01) (76, 8.72616469860076904297e-01) (77, 6.32411181926727294922e-01) (78, -8.53629231452941894531e-01) (79, -7.68754482269287109375e-01) (80, 3.63698124885559082031e-01) (81, -9.07462835311889648438e-01) (82, -1.12042427062988281250e-01) (83, 1.81905299425125122070e-01) (84, 1.22184611856937408447e-01) (85, -1.29098236560821533203e+00) (86, -3.06491315364837646484e-01) (87, 9.26075994968414306641e-01) (88, 4.13263112306594848633e-01) (89, 1.14925897121429443359e+00) (90, -4.69652622938156127930e-01) (91, 1.79899230599403381348e-01) (92, 3.66128486348316073418e-04) (93, -2.80191123485565185547e-01) (94, -2.96141862869262695312e-01) (95, -3.46580483019351959229e-02) (96, -2.72412300109863281250e-01) (97, -1.08813434839248657227e-01) (98, 5.73733448982238769531e-01) (99, 8.78707110881805419922e-01) (100, 8.25869917869567871094e-01) (101, -3.74311864376068115234e-01) (102, 3.77941370010375976562e-01) (103, 2.33979538083076477051e-01) (104, 7.87625312805175781250e-02) (105, 7.93003201484680175781e-01) (106, -3.67498338222503662109e-01) (107, 2.06596612930297851562e-01) (108, -1.35102108120918273926e-01) (109, -1.26386538147926330566e-01) (110, 1.75450295209884643555e-01) (111, -5.11009991168975830078e-01) (112, 5.57890951633453369141e-01) (113, -7.55444705486297607422e-01) (114, -7.88122773170471191406e-01) (115, 1.20330655574798583984e+00) (116, -8.62307369709014892578e-01) (117, -4.03771907091140747070e-01) (118, 4.58899796009063720703e-01) (119, -7.36685335636138916016e-01) (120, -6.20899081230163574219e-01) (121, -9.42955851554870605469e-01) (122, 4.09598022699356079102e-01) (123, 4.03151422739028930664e-01) (124, 7.88614675402641296387e-02) (125, 4.60540205240249633789e-01) (126, -6.57421827316284179688e-01) (127, 4.79984849691390991211e-01) (128, -4.84315454959869384766e-02) (129, 3.18004161119461059570e-01) (130, 2.70601928234100341797e-01) (131, -7.41898894309997558594e-01) (132, -1.12778139114379882812e+00) (133, -4.80705976486206054688e-01) (134, 9.37002152204513549805e-02) (135, 4.13179814815521240234e-01) (136, -4.12873268127441406250e-01) (137, 9.58413958549499511719e-01) (138, -4.61048573255538940430e-01) (139, -9.30684626102447509766e-01) (140, -2.81186223030090332031e-01) (141, 7.69745469093322753906e-01) (142, -2.33299247920513153076e-02) (143, 9.48385417461395263672e-01) (144, 8.86724293231964111328e-01) (145, 2.30486705899238586426e-01) (146, 8.02554070949554443359e-01) (147, -9.24840986728668212891e-01) (148, 4.79572057723999023438e-01) (149, -1.20074570178985595703e-01) (150, -8.14512789249420166016e-01) (151, 9.09284055233001708984e-01) (152, 2.49526388943195343018e-02) (153, 5.09751677513122558594e-01) (154, 1.50000000000000000000e+03) (155, 1.50000000000000000000e+03) (156, -5.85433542728424072266e-01) (157, 7.51716971397399902344e-01) (158, 2.82549649477005004883e-01) (159, 3.96299290657043457031e+00) (160, 2.83205342292785644531e+00) (161, 1.72272157669067382812e+00) (162, 1.19721210002899169922e+00) (163, 3.02781796455383300781e+00) (164, 1.26395523548126220703e+00) (165, 3.83210331201553344727e-01) (166, 2.77690863609313964844e+00) (167, 4.31004166603088378906e-01) (0, -1.55511367321014404297e+00) (1, -9.25743281841278076172e-01) (2, -5.15747189521789550781e-01) (3, 3.64025026559829711914e-01) (4, -1.60984665155410766602e-01) (5, 3.07172954082489013672e-01) (6, 6.01405858993530273438e-01) (7, -3.04282248020172119141e-01) (8, -1.35238635540008544922e+00) (9, 1.60761356353759765625e-01) (10, 3.76127958297729492188e-01) (11, 3.79359215497970581055e-01) (12, 3.11688303947448730469e-01) (13, 1.44406929612159729004e-01) (14, -3.33974003791809082031e-01) (15, 2.34961919486522674561e-02) (16, 4.38533753156661987305e-01) (17, -8.39109003543853759766e-01) (18, -2.86825776100158691406e-01) (19, 1.41630008816719055176e-01) (20, -5.56015908718109130859e-01) (21, 1.35294938087463378906e+00) (22, -1.41914799809455871582e-01) (23, 1.35086715221405029297e-01) (24, 8.23627769947052001953e-01) (25, 3.89444798231124877930e-01) (26, -2.86802500486373901367e-01) (27, 9.34424847364425659180e-02) (28, -4.96521174907684326172e-01) (29, 5.03309488296508789062e-01) (30, -2.69009592011570930481e-03) (31, -1.71238318085670471191e-01) (32, 1.57485947012901306152e-01) (33, -3.13234269618988037109e-01) (34, 1.19671916961669921875e+00) (35, -6.21170759201049804688e-01) (36, -1.13477952778339385986e-01) (37, 1.41418755054473876953e-01) (38, 3.14994156360626220703e-01) (39, -6.56780362129211425781e-01) (40, 2.26775154471397399902e-01) (41, -7.89655148983001708984e-01) (42, -9.50385808944702148438e-01) (43, -9.24112856388092041016e-01) (44, 4.78518277406692504883e-01) (45, 1.17316879332065582275e-01) (46, -4.23935443162918090820e-01) (47, 2.00766056776046752930e-01) (48, 1.44423425197601318359e+00) (49, -5.85889875888824462891e-01) (50, -4.55402046442031860352e-01) (51, -3.16781014204025268555e-01) (52, 4.02304708957672119141e-01) (53, 7.49959826469421386719e-01) (54, -6.02590084075927734375e-01) (55, -2.90953457355499267578e-01) (56, 6.28935396671295166016e-01) (57, 8.88961613178253173828e-01) (58, 3.44458311796188354492e-01) (59, -1.00953996181488037109e+00) (60, -4.84240502119064331055e-01) (61, 4.19932991266250610352e-01) (62, -8.47353160381317138672e-01) (63, -2.75879085063934326172e-01) (64, 1.12047933042049407959e-01) (65, 7.77835309505462646484e-01) (66, -7.32821762561798095703e-01) (67, 1.01922297477722167969e+00) (68, 1.32207915186882019043e-01) (69, 2.04470708966255187988e-01) (70, -1.05923390388488769531e+00) (71, 6.45564198493957519531e-01) (72, 8.17491888999938964844e-01) (73, -5.34208178520202636719e-01) (74, 9.73803341388702392578e-01) (75, 9.09748598933219909668e-02) (76, -6.04881227016448974609e-01) (77, 5.51379323005676269531e-01) (78, 1.28753274679183959961e-01) (79, 4.85466539859771728516e-01) (80, -8.53172779083251953125e-01) (81, 3.28074306249618530273e-01) (82, -5.93348920345306396484e-01) (83, 1.41996562480926513672e-01) (84, -9.29100632667541503906e-01) (85, 3.89363735914230346680e-01) (86, -1.93302601575851440430e-01) (87, 1.38770744204521179199e-01) (88, -2.05293834209442138672e-01) (89, 2.68977135419845581055e-01) (90, -4.70888316631317138672e-02) (91, 7.72324442863464355469e-01) (92, -8.81168693304061889648e-02) (93, 7.99060761928558349609e-01) (94, 6.42853260040283203125e-01) (95, -3.90635251998901367188e-01) (96, -1.36356323957443237305e-01) (97, -1.77877888083457946777e-01) (98, -2.80453801155090332031e-01) (99, -7.51448273658752441406e-01) (100, -7.93584108352661132812e-01) (101, -3.36647853255271911621e-02) (102, 2.03366905450820922852e-01) (103, -8.39580744504928588867e-02) (104, -1.28410041332244873047e+00) (105, 1.28062823787331581116e-02) (106, -5.16927421092987060547e-01) (107, -1.01971352100372314453e+00) (108, 3.67546737194061279297e-01) (109, 1.39837861061096191406e-01) (110, 1.53394389152526855469e+00) (111, 1.13831007480621337891e+00) (112, 4.80723045766353607178e-02) (113, -2.51277685165405273438e-01) (114, 7.28546380996704101562e-01) (115, 2.50178396701812744141e-01) (116, 8.13579708337783813477e-02) (117, 1.91527888178825378418e-01) (118, 8.19743871688842773438e-01) (119, 5.07237732410430908203e-01) (120, -4.62828353047370910645e-02) (121, -8.57807397842407226562e-01) (122, -1.61929190158843994141e-01) (123, 8.59814643859863281250e-01) (124, 5.61723291873931884766e-01) (125, -3.14996838569641113281e-01) (126, 1.22320783138275146484e+00) (127, -1.18510112166404724121e-01) (128, -6.33590579032897949219e-01) (129, 2.13668644428253173828e-01) (130, 1.03237915039062500000e+00) (131, 4.46728505194187164307e-02) (132, -4.85729902982711791992e-01) (133, 5.02420604228973388672e-01) (134, 1.06484961509704589844e+00) (135, -1.08541584014892578125e+00) (136, 6.30142837762832641602e-02) (137, -8.05709242820739746094e-01) (138, -9.81983661651611328125e-01) (139, 5.09558916091918945312e-01) (140, 3.81791114807128906250e-01) (141, -3.29315930604934692383e-01) (142, 5.40449500083923339844e-01) (143, -8.08277726173400878906e-01) (144, -7.19229102134704589844e-01) (145, -2.91258543729782104492e-01) (146, 7.18929708003997802734e-01) (147, 3.80286037921905517578e-01) (148, 6.91809535026550292969e-01) (149, 7.49756842851638793945e-02) (150, 1.01416558027267456055e-01) (151, -3.19161266088485717773e-01) (152, 4.60951358079910278320e-01) (153, -8.36830139160156250000e-01) (154, 1.50000000000000000000e+03) (155, 1.50000000000000000000e+03) (156, -1.34015107154846191406e+00) (157, -1.10579097270965576172e+00) (158, -1.02547860145568847656e+00) (159, 3.22076296806335449219e+00) (160, 3.22335958480834960938e+00) (161, 2.54208040237426757812e+00) (162, 1.26518338918685913086e-01) (163, 3.16609477996826171875e+00) (164, -7.39513516426086425781e-01) (165, 1.84263214468955993652e-01) (166, 4.19595718383789062500e+00) (167, -2.41245850920677185059e-01) (168, 6.99139013886451721191e-02) (0, -7.43589341640472412109e-01) (1, 9.61826086044311523438e-01) (2, -6.28971040248870849609e-01) (3, -6.07052743434906005859e-01) (4, 7.72352993488311767578e-01) (5, -3.51387590169906616211e-01) (6, 6.77371740341186523438e-01) (7, -2.09622219204902648926e-01) (8, 8.18963646888732910156e-01) (9, 6.04418098926544189453e-01) (10, 7.79597818851470947266e-01) (11, 3.52648586034774780273e-01) (12, 1.92336976528167724609e-01) (13, 9.99479770660400390625e-01) (14, 2.23069250583648681641e-01) (15, 2.55870133638381958008e-01) (16, 9.39517393708229064941e-02) (17, 7.53520309925079345703e-01) (18, 1.19847655296325683594e+00) (19, 7.22241282463073730469e-01) (20, 5.54276883602142333984e-01) (21, -2.57325202226638793945e-01) (22, 6.07174754142761230469e-01) (23, -7.55420327186584472656e-01) (24, 2.48100191354751586914e-01) (25, -1.81640058755874633789e-01) (26, 1.90551981329917907715e-01) (27, 1.78684920072555541992e-01) (28, 7.20083594322204589844e-01) (29, -6.18934780359268188477e-02) (30, -2.68947601318359375000e-01) (31, 4.14863079786300659180e-01) (32, -1.15416154265403747559e-01) (33, 9.87081944942474365234e-01) (34, 4.80284392833709716797e-01) (35, -5.42520880699157714844e-01) (36, -7.47286260128021240234e-01) (37, 5.50134003162384033203e-01) (38, 1.45517572760581970215e-01) (39, -9.08124864101409912109e-01) (40, 2.67981570214033126831e-02) (41, -3.85136127471923828125e-01) (42, 3.55222880840301513672e-01) (43, 5.83588540554046630859e-01) (44, -7.74994432926177978516e-01) (45, -9.37021076679229736328e-02) (46, -2.50907331705093383789e-01) (47, 8.41375827789306640625e-01) (48, -2.04432949423789978027e-01) (49, 2.37786978483200073242e-01) (50, 2.70285844802856445312e-01) (51, -1.70634210109710693359e+00) (52, 3.76477718353271484375e-01) (53, 3.73471498489379882812e-01) (54, -7.03332662582397460938e-01) (55, -3.14762353897094726562e-01) (56, 4.48850154876708984375e-01) (57, 5.93967437744140625000e-01) (58, -5.94603955745697021484e-01) (59, 1.10325813293457031250e+00) (60, -7.16899573802947998047e-01) (61, 3.02663028240203857422e-01) (62, -3.22275906801223754883e-01) (63, 1.75440803170204162598e-01) (64, 4.38421294093132019043e-02) (65, 3.17887403070926666260e-02) (66, 4.30348336696624755859e-01) (67, 3.03811311721801757812e-01) (68, -5.33485174179077148438e-01) (69, -3.44417124986648559570e-01) (70, 4.74426031112670898438e-01) (71, 5.97221970558166503906e-01) (72, 1.48202469572424888611e-02) (73, 7.05266254954040050507e-04) (74, -1.25907599925994873047e-01) (75, 4.67744976282119750977e-01) (76, 9.69675898551940917969e-01) (77, -1.02136337757110595703e+00) (78, 3.13698589801788330078e-01) (79, -6.50529026985168457031e-01) (80, -4.25099700689315795898e-01) (81, -1.11204691231250762939e-01) (82, -2.41687312722206115723e-01) (83, -7.84970641136169433594e-01) (84, 3.75383615493774414062e-01) (85, -1.22311510145664215088e-01) (86, 1.24498099088668823242e-01) (87, 1.31261110305786132812e-01) (88, -9.37419056892395019531e-01) (89, 1.01893916726112365723e-01) (90, -2.44390323758125305176e-01) (91, -6.55897200107574462891e-01) (92, -1.06304848194122314453e+00) (93, 4.40497249364852905273e-01) (94, 7.01613843441009521484e-01) (95, -1.85021802783012390137e-01) (96, -5.61607003211975097656e-01) (97, -4.78666335344314575195e-01) (98, -2.01039269566535949707e-01) (99, -2.48078227043151855469e-01) (100, 4.19460445642471313477e-01) (101, -5.97083270549774169922e-01) (102, -1.17212963104248046875e+00) (103, -6.79675817489624023438e-01) (104, -5.60557842254638671875e-02) (105, -3.20548117160797119141e-01) (106, 6.24941766262054443359e-01) (107, -3.51634889841079711914e-01) (108, 3.05687069892883300781e-01) (109, -5.61803102493286132812e-01) (110, 9.77409556508064270020e-02) (111, -1.41255831718444824219e+00) (112, -3.88278998434543609619e-02) (113, 1.08374416828155517578e+00) (114, -2.85559177398681640625e-01) (115, -5.68927049636840820312e-01) (116, -8.92491042613983154297e-01) (117, 6.29364967346191406250e-01) (118, 5.80839037895202636719e-01) (119, -4.00611191987991333008e-01) (120, -2.23712399601936340332e-01) (121, -4.74008142948150634766e-01) (122, 1.28004044294357299805e-01) (123, -7.52092376351356506348e-02) (124, 6.47408485412597656250e-01) (125, -3.23299437761306762695e-01) (126, -7.10196793079376220703e-01) (127, -8.77730906009674072266e-01) (128, 5.98078131675720214844e-01) (129, -8.44056978821754455566e-02) (130, -2.52446413040161132812e-01) (131, -7.63594150543212890625e-01) (132, -3.09580683708190917969e-01) (133, -4.63763549923896789551e-02) (134, -4.54311370849609375000e-01) (135, -9.50773298740386962891e-01) (136, 1.08091282844543457031e+00) (137, 8.68459820747375488281e-01) (138, -1.99167519807815551758e-01) (139, 2.75436211377382278442e-02) (140, -7.06274807453155517578e-01) (141, -4.18785333633422851562e-01) (142, 2.08735272288322448730e-01) (143, 1.03064201772212982178e-01) (144, 9.14080440998077392578e-01) (145, 8.90952885150909423828e-01) (146, 2.31603980064392089844e-01) (147, -8.55672180652618408203e-01) (148, 1.09480723738670349121e-01) (149, 9.70876067876815795898e-02) (150, -2.56691485643386840820e-01) (151, 7.90295302867889404297e-01) (152, 2.19059795141220092773e-01) (153, 8.29906404018402099609e-01) (154, 1.50000000000000000000e+03) (155, 1.50000000000000000000e+03) (156, -2.23683643341064453125e+00) (157, 7.16342628002166748047e-01) (158, 1.06218206882476806641e+00) (159, 4.46414232254028320312e+00) (160, 3.90459966659545898438e+00) (161, 2.43314313888549804688e+00) (162, -2.13143610954284667969e+00) (163, 2.64618158340454101562e+00) (164, -3.03794771432876586914e-01) (165, -2.15604409575462341309e-01) (166, 1.32201325893402099609e+00) (167, 5.46027779579162597656e-01) (168, -1.35358750820159912109e+00) (169, 8.21195185184478759766e-01) (0, -9.78305757045745849609e-01) (1, -8.20222377777099609375e-01) (2, -2.68609702587127685547e-01) (3, -1.07930505275726318359e+00) (4, 2.40706294775009155273e-01) (5, -5.10377466678619384766e-01) (6, -8.50633263587951660156e-01) (7, 6.75723373889923095703e-01) (8, -6.00130915641784667969e-01) (9, -2.27642869949340820312e+00) (10, 4.15610432624816894531e-01) (11, 6.40742242336273193359e-01) (12, 1.36569523811340332031e+00) (13, -2.93377429246902465820e-01) (14, -8.09880554676055908203e-01) (15, 2.27437660098075866699e-01) (16, -3.84767383337020874023e-01) (17, -6.99793517589569091797e-01) (18, 6.63802206516265869141e-01) (19, 4.23521876335144042969e-01) (20, 9.41890418529510498047e-01) (21, 6.77574932575225830078e-01) (22, -2.65301555395126342773e-01) (23, -8.20722222328186035156e-01) (24, 1.97564676403999328613e-01) (25, -8.85453879833221435547e-01) (26, -7.27633416652679443359e-01) (27, 8.25468242168426513672e-01) (28, -1.75859645009040832520e-01) (29, -4.67533260583877563477e-01) (30, 4.73790392279624938965e-02) (31, -4.62211668491363525391e-01) (32, 4.15656855329871177673e-03) (33, 8.42592895030975341797e-01) (34, -1.39711555675603449345e-04) (35, -3.41860413551330566406e-01) (36, 1.08193242549896240234e+00) (37, 3.84594231843948364258e-01) (38, 1.11362552642822265625e+00) (39, 9.00273859500885009766e-01) (40, -5.34830689430236816406e-01) (41, 2.51923203468322753906e-01) (42, 5.14321923255920410156e-01) (43, -3.12361389398574829102e-01) (44, 1.12436103820800781250e+00) (45, -6.70416533946990966797e-01) (46, 7.56898820400238037109e-01) (47, 9.58635270595550537109e-01) (48, -5.09480476379394531250e-01) (49, 3.87007474899291992188e-01) (50, 4.49592471122741699219e-01) (51, 9.86850798130035400391e-01) (52, 1.09105832874774932861e-01) (53, 4.23536866903305053711e-01) (54, -8.22444021701812744141e-01) (55, -4.58875387907028198242e-01) (56, 8.96509766578674316406e-01) (57, -6.05023860931396484375e-01) (58, -4.30235087871551513672e-01) (59, -1.82723534107208251953e+00) (60, -2.81650125980377197266e-01) (61, 3.28561484813690185547e-01) (62, 1.03355366736650466919e-02) (63, -3.64968106150627136230e-02) (64, 1.06687024235725402832e-01) (65, 8.93089234828948974609e-01) (66, 6.14751815795898437500e-01) (67, -2.95711636543273925781e-01) (68, 9.93987023830413818359e-02) (69, -2.92030107229948043823e-02) (70, -5.07991373538970947266e-01) (71, 3.52855145931243896484e-01) (72, -5.59782624244689941406e-01) (73, 9.34467732906341552734e-01) (74, 5.64414680004119873047e-01) (75, -1.18995499610900878906e+00) (76, 6.92914247512817382812e-01) (77, 7.67575383186340332031e-01) (78, 1.27322900295257568359e+00) (79, -3.22457194328308105469e-01) (80, -8.89151298906654119492e-04) (81, 3.20995897054672241211e-02) (82, 1.00550460815429687500e+00) (83, 4.86766457557678222656e-01) (84, -3.51992994546890258789e-02) (85, -1.07829797267913818359e+00) (86, 1.15440332889556884766e+00) (87, -6.98368102312088012695e-02) (88, -6.61002635955810546875e-01) (89, -7.35514342784881591797e-01) (90, 6.53641581535339355469e-01) (91, 7.85975009202957153320e-02) (92, 3.77082601189613342285e-02) (93, -3.25012594461441040039e-01) (94, -6.61089479923248291016e-01) (95, -3.93526732921600341797e-01) (96, 1.22526109218597412109e+00) (97, 4.42478269338607788086e-01) (98, 1.20078593492507934570e-01) (99, -7.53002315759658813477e-02) (100, 3.38586717844009399414e-01) (101, 3.46120744943618774414e-01) (102, -1.14584136009216308594e+00) (103, 3.14552374184131622314e-02) (104, 1.03686705231666564941e-01) (105, -1.21718585491180419922e+00) (106, 5.34709393978118896484e-01) (107, 6.02499069646000862122e-03) (108, 6.43905937671661376953e-01) (109, 1.02486026287078857422e+00) (110, 9.89719945937395095825e-03) (111, -6.75565242767333984375e-01) (112, -3.56452435255050659180e-01) (113, -1.18115290999412536621e-01) (114, -3.73591780662536621094e-01) (115, 7.47856259346008300781e-01) (116, 1.64290010929107666016e-01) (117, 2.24061518907546997070e-01) (118, -4.79520320892333984375e-01) (119, 3.40890794992446899414e-01) (120, 9.55088138580322265625e-01) (121, 4.06543701887130737305e-01) (122, -5.54728031158447265625e-01) (123, -1.47648930549621582031e+00) (124, 1.36479961872100830078e+00) (125, 4.15269546210765838623e-02) (126, 7.71213293075561523438e-01) (127, 1.04558479785919189453e+00) (128, -5.27207076549530029297e-01) (129, -4.45908218622207641602e-01) (130, 3.52855920791625976562e-02) (131, 7.71149337291717529297e-01) (132, 5.02539873123168945312e-01) (133, -9.27838459610939025879e-02) (134, 4.48329567909240722656e-01) (135, -1.52848869562149047852e-01) (136, -2.40161597728729248047e-01) (137, -2.02150002121925354004e-01) (138, 7.09702372550964355469e-01) (139, -1.78740873932838439941e-01) (140, -7.52409398555755615234e-01) (141, -1.61441378295421600342e-02) (142, 2.46107637882232666016e-01) (143, -2.63971716165542602539e-01) (144, 8.43998312950134277344e-01) (145, -6.55397176742553710938e-02) (146, -5.84966003894805908203e-01) (147, -1.57392606139183044434e-01) (148, -1.58183261752128601074e-01) (149, -3.16152065992355346680e-01) (150, -8.28375697135925292969e-01) (151, -3.31074982881546020508e-01) (152, -6.25288844108581542969e-01) (153, -4.85972225666046142578e-01) (154, 1.50000000000000000000e+03) (155, 1.50000000000000000000e+03) (156, -6.40925168991088867188e-01) (157, -3.20928120613098144531e+00) (158, -1.35325706005096435547e+00) (159, 2.86636400222778320312e+00) (160, 3.50387644767761230469e+00) (161, 2.36374568939208984375e+00) (162, -4.71916049718856811523e-01) (163, 3.56117939949035644531e+00) (164, -1.77648842334747314453e-01) (165, -3.65323638916015625000e+00) (166, 3.20493030548095703125e+00) (167, -2.83885359764099121094e+00) (168, 9.00130748748779296875e-01) (169, 1.67419314384460449219e+00) (170, 3.78754687309265136719e+00) (0, 1.62838768959045410156e+00) (1, 5.93916714191436767578e-01) (2, -2.37472727894783020020e-01) (3, -6.97827696800231933594e-01) (4, 5.46520575881004333496e-02) (5, 8.98049116134643554688e-01) (6, -1.08458924293518066406e+00) (7, -1.07756817340850830078e+00) (8, 1.26135542988777160645e-01) (9, -1.64086788892745971680e-01) (10, 5.42404711246490478516e-01) (11, -4.20438557863235473633e-01) (12, -2.92506396770477294922e-01) (13, 1.77639331668615341187e-02) (14, -5.68112313747406005859e-01) (15, -4.80952486395835876465e-02) (16, 8.67258846759796142578e-01) (17, 5.48426926136016845703e-01) (18, -3.92010003328323364258e-01) (19, 1.71572491526603698730e-01) (20, 6.49173319339752197266e-01) (21, -4.94403481483459472656e-01) (22, 3.00065249204635620117e-01) (23, -6.72727644443511962891e-01) (24, -1.23586699366569519043e-01) (25, 8.09951364994049072266e-01) (26, -1.17240250110626220703e+00) (27, 7.82117068767547607422e-01) (28, -1.44050610065460205078e+00) (29, -2.14804679155349731445e-01) (30, 1.38397321105003356934e-01) (31, 7.34854340553283691406e-01) (32, 1.09519708156585693359e+00) (33, -2.21142187714576721191e-01) (34, -1.23409330844879150391e+00) (35, -1.66895613074302673340e-01) (36, -9.88257825374603271484e-02) (37, 1.41222909092903137207e-01) (38, -6.85547590255737304688e-01) (39, 4.24545377492904663086e-01) (40, 7.38916397094726562500e-01) (41, -1.00452256202697753906e+00) (42, -1.15930187702178955078e+00) (43, 1.17397733032703399658e-01) (44, -4.34281796216964721680e-01) (45, -1.84440016746520996094e-01) (46, 2.74073123931884765625e-01) (47, 5.37983238697052001953e-01) (48, 8.66527020931243896484e-01) (49, 6.40813887119293212891e-01) (50, -1.40953099727630615234e+00) (51, 5.32401382923126220703e-01) (52, 1.01146245002746582031e+00) (53, 4.57365304231643676758e-01) (54, -6.19347870349884033203e-01) (55, -2.66511917114257812500e-01) (56, -1.71916887164115905762e-01) (57, -8.78153979778289794922e-01) (58, 3.18194597959518432617e-01) (59, 1.08455348014831542969e+00) (60, 1.21031686663627624512e-01) (61, 3.10623914003372192383e-01) (62, -6.15433137863874435425e-03) (63, -6.23724937438964843750e-01) (64, -1.62629395723342895508e-01) (65, 9.37779024243354797363e-02) (66, 4.94843013584613800049e-02) (67, 2.82096508890390396118e-02) (68, -1.06821918487548828125e+00) (69, 4.97407585382461547852e-01) (70, -7.51199275255203247070e-02) (71, 9.25343573093414306641e-01) (72, 9.02130484580993652344e-01) (73, -1.07566840946674346924e-01) (74, -1.41268685460090637207e-01) (75, -3.19714099168777465820e-01) (76, 3.31384420394897460938e-01) (77, 1.14617443084716796875e+00) (78, -2.31225177645683288574e-01) (79, 6.19261264801025390625e-01) (80, 6.52673482894897460938e-01) (81, 7.78459072113037109375e-01) (82, 8.93384516239166259766e-02) (83, 8.73878955841064453125e-01) (84, -2.40521594882011413574e-01) (85, -2.47443281114101409912e-03) (86, -6.05568945407867431641e-01) (87, 1.15007781982421875000e+00) (88, 3.97312521934509277344e-01) (89, 5.72401821613311767578e-01) (90, 2.63370364904403686523e-01) (91, 1.11539304256439208984e+00) (92, 1.83651521801948547363e-01) (93, -4.48135405778884887695e-01) (94, -3.82159054279327392578e-01) (95, 4.55955743789672851562e-01) (96, 5.10537743568420410156e-01) (97, 5.86611211299896240234e-01) (98, 6.39604449272155761719e-01) (99, 4.70305144786834716797e-01) (100, -3.29301625490188598633e-01) (101, 9.24737274646759033203e-01) (102, 2.91952997446060180664e-01) (103, -1.00880491733551025391e+00) (104, -3.12181692570447921753e-02) (105, 6.14826202392578125000e-01) (106, -2.09643542766571044922e-01) (107, 5.50664782524108886719e-01) (108, 6.49642527103424072266e-01) (109, 1.03221595287322998047e+00) (110, 1.01705966517329216003e-02) (111, 3.36850434541702270508e-01) (112, 2.29484543204307556152e-01) (113, 4.07136827707290649414e-01) (114, -9.77763593196868896484e-01) (115, 1.24417281150817871094e+00) (116, -3.20692956447601318359e-01) (117, -1.10097444057464599609e+00) (118, 1.24159061908721923828e+00) (119, -5.33713996410369873047e-01) (120, 4.94231641292572021484e-01) (121, 2.34143391251564025879e-01) (122, -8.36408615112304687500e-01) (123, -5.82056224346160888672e-01) (124, 2.05878302454948425293e-01) (125, -1.90883591771125793457e-01) (126, -5.49947440624237060547e-01) (127, 1.42979592084884643555e-01) (128, -1.01647257804870605469e+00) (129, 3.78971874713897705078e-01) (130, 7.33852148056030273438e-01) (131, -1.87757089734077453613e-01) (132, 2.70369797945022583008e-02) (133, -1.81090831756591796875e-02) (134, 5.12165687978267669678e-02) (135, -7.72957652807235717773e-02) (136, -5.89264214038848876953e-01) (137, -1.86087101697921752930e-01) (138, -4.58023905754089355469e-01) (139, 4.10199701786041259766e-01) (140, -4.70144450664520263672e-01) (141, 8.84836852550506591797e-01) (142, -4.47565108537673950195e-01) (143, 1.13403522968292236328e+00) (144, 3.32481145858764648438e-01) (145, -7.48664617538452148438e-01) (146, 7.93041169643402099609e-01) (147, -9.63471233844757080078e-01) (148, -4.96647953987121582031e-01) (149, 4.98936474323272705078e-01) (150, -7.84264147281646728516e-01) (151, -9.96299743652343750000e-01) (152, -5.59174478054046630859e-01) (153, -6.79128706455230712891e-01) (154, 1.50000000000000000000e+03) (155, 1.50000000000000000000e+03) (156, -8.62472832202911376953e-01) (157, -2.09131553769111633301e-01) (158, 2.08417987823486328125e+00) (159, 2.34359455108642578125e+00) (160, 4.29353189468383789062e+00) (161, 1.54621732234954833984e+00) (162, 2.56559401750564575195e-01) (163, 2.50220179557800292969e+00) (164, -1.08888053894042968750e+00) (165, -5.07023155689239501953e-01) (166, 3.71229267120361328125e+00) (167, -2.34531611204147338867e-01) (168, -3.03703880310058593750e+00) (169, -4.25932139158248901367e-01) (170, 3.68327617645263671875e+00) (171, -3.65722090005874633789e-01) (0, 2.25869208574295043945e-01) (1, -3.31568598747253417969e-01) (2, 5.83319246768951416016e-01) (3, -6.20473265647888183594e-01) (4, 3.42566847801208496094e-01) (5, -1.47990763187408447266e-01) (6, -2.84747756086289882660e-03) (7, 1.04839682579040527344e-01) (8, 4.00603652000427246094e-01) (9, -7.15650141239166259766e-01) (10, -8.32620203495025634766e-01) (11, -7.59445667266845703125e-01) (12, 3.24868448078632354736e-02) (13, 5.55438339710235595703e-01) (14, 6.31169199943542480469e-01) (15, 2.00552210211753845215e-01) (16, -3.52410674095153808594e-01) (17, -9.83545303344726562500e-01) (18, -1.13617718219757080078e+00) (19, -4.60568904876708984375e-01) (20, -1.27419516444206237793e-01) (21, 4.06647175550460815430e-01) (22, 4.99958872795104980469e-01) (23, -9.76240411400794982910e-02) (24, 5.01614153385162353516e-01) (25, 6.04925071820616722107e-03) (26, 4.87263470888137817383e-01) (27, -1.34061291813850402832e-01) (28, -7.15224266052246093750e-01) (29, 1.21970474720001220703e-02) (30, 3.90159845352172851562e-01) (31, -6.81587755680084228516e-01) (32, 8.31129968166351318359e-01) (33, -8.25069606304168701172e-01) (34, -2.58498806506395339966e-02) (35, 3.21568936109542846680e-01) (36, -1.18067061901092529297e+00) (37, 7.65748858451843261719e-01) (38, -9.82547700405120849609e-01) (39, 4.03890788555145263672e-01) (40, -7.61446595191955566406e-01) (41, -3.64302158355712890625e-01) (42, 6.05295300483703613281e-01) (43, 6.20971798896789550781e-01) (44, -6.11988961696624755859e-01) (45, 3.23347926139831542969e-01) (46, -3.80963206291198730469e-01) (47, 6.49447813630104064941e-02) (48, 6.71541750431060791016e-01) (49, -7.13208168745040893555e-02) (50, 4.31222528219223022461e-01) (51, -3.87664824724197387695e-01) (52, -5.67231357097625732422e-01) (53, -4.43621397018432617188e-01) (54, 6.18373155593872070312e-01) (55, -8.67643237113952636719e-01) (56, -6.63738012313842773438e-01) (57, 3.30799184739589691162e-02) (58, -2.63036668300628662109e-01) (59, -2.21688866615295410156e+00) (60, -3.47242414951324462891e-01) (61, 