FANN_FLO_2.1
num_layers=2
learning_rate=0.700000
connection_rate=1.000000
network_type=1
learning_momentum=0.000000
training_algorithm=2
train_error_function=0
train_stop_function=1
cascade_output_change_fraction=0.010000
quickprop_decay=-0.000100
quickprop_mu=1.750000
rprop_increase_factor=1.200000
rprop_decrease_factor=0.500000
rprop_delta_min=0.000000
rprop_delta_max=50.000000
rprop_delta_zero=0.100000
cascade_output_stagnation_epochs=12
cascade_candidate_change_fraction=0.010000
cascade_candidate_stagnation_epochs=12
cascade_max_out_epochs=150
cascade_max_cand_epochs=150
cascade_num_candidate_groups=8
bit_fail_limit=8.99999976158142089844e-01
cascade_candidate_limit=1.00000000000000000000e+03
cascade_weight_multiplier=4.00000005960464477539e-01
cascade_activation_functions_count=1
cascade_activation_functions=5 
cascade_activation_steepnesses_count=1
cascade_activation_steepnesses=1.00000000000000000000e+00 
layer_sizes=157 10 
scale_included=0
neurons (num_inputs, activation_function, activation_steepness)=(0, 0, 0.00000000000000000000e+00) (0, 0, 0.00000000000000000000e+00) (0, 0, 0.00000000000000000000e+00) (0, 0, 0.00000000000000000000e+00) (0, 0, 0.00000000000000000000e+00) (0, 0, 0.00000000000000000000e+00) (0, 0, 0.00000000000000000000e+00) (0, 0, 0.00000000000000000000e+00) (0, 0, 0.00000000000000000000e+00) (0, 0, 0.00000000000000000000e+00) (0, 0, 0.00000000000000000000e+00) (0, 0, 0.00000000000000000000e+00) (0, 0, 0.00000000000000000000e+00) (0, 0, 0.00000000000000000000e+00) (0, 0, 0.00000000000000000000e+00) (0, 0, 0.00000000000000000000e+00) (0, 0, 0.00000000000000000000e+00) (0, 0, 0.00000000000000000000e+00) (0, 0, 0.00000000000000000000e+00) (0, 0, 0.00000000000000000000e+00) (0, 0, 0.00000000000000000000e+00) (0, 0, 0.00000000000000000000e+00) (0, 0, 0.00000000000000000000e+00) (0, 0, 0.00000000000000000000e+00) (0, 0, 0.00000000000000000000e+00) (0, 0, 0.00000000000000000000e+00) (0, 0, 0.00000000000000000000e+00) (0, 0, 0.00000000000000000000e+00) (0, 0, 0.00000000000000000000e+00) (0, 0, 0.00000000000000000000e+00) (0, 0, 0.00000000000000000000e+00) (0, 0, 0.00000000000000000000e+00) (0, 0, 0.00000000000000000000e+00) (0, 0, 0.00000000000000000000e+00) (0, 0, 0.00000000000000000000e+00) (0, 0, 0.00000000000000000000e+00) (0, 0, 0.00000000000000000000e+00) (0, 0, 0.00000000000000000000e+00) (0, 0, 0.00000000000000000000e+00) (0, 0, 0.00000000000000000000e+00) (0, 0, 0.00000000000000000000e+00) (0, 0, 0.00000000000000000000e+00) (0, 0, 0.00000000000000000000e+00) (0, 0, 0.00000000000000000000e+00) (0, 0, 0.00000000000000000000e+00) (0, 0, 0.00000000000000000000e+00) (0, 0, 0.00000000000000000000e+00) (0, 0, 0.00000000000000000000e+00) (0, 0, 0.00000000000000000000e+00) (0, 0, 0.00000000000000000000e+00) (0, 0, 0.00000000000000000000e+00) (0, 0, 0.00000000000000000000e+00) (0, 0, 0.00000000000000000000e+00) (0, 0, 0.00000000000000000000e+00) (0, 0, 0.00000000000000000000e+00) (0, 0, 0.00000000000000000000e+00) (0, 0, 0.00000000000000000000e+00) (0, 0, 0.00000000000000000000e+00) (0, 0, 0.00000000000000000000e+00) (0, 0, 0.00000000000000000000e+00) (0, 0, 0.00000000000000000000e+00) (0, 0, 0.00000000000000000000e+00) (0, 0, 0.00000000000000000000e+00) (0, 0, 0.00000000000000000000e+00) (0, 0, 0.00000000000000000000e+00) (0, 0, 0.00000000000000000000e+00) (0, 0, 0.00000000000000000000e+00) (0, 0, 0.00000000000000000000e+00) (0, 0, 0.00000000000000000000e+00) (0, 0, 0.00000000000000000000e+00) (0, 0, 0.00000000000000000000e+00) (0, 0, 0.00000000000000000000e+00) (0, 0, 0.00000000000000000000e+00) (0, 0, 0.00000000000000000000e+00) (0, 0, 0.00000000000000000000e+00) (0, 0, 0.00000000000000000000e+00) (0, 0, 0.00000000000000000000e+00) (0, 0, 0.00000000000000000000e+00) (0, 0, 0.00000000000000000000e+00) (0, 0, 0.00000000000000000000e+00) (0, 0, 0.00000000000000000000e+00) (0, 0, 0.00000000000000000000e+00) (0, 0, 0.00000000000000000000e+00) (0, 0, 0.00000000000000000000e+00) (0, 0, 0.00000000000000000000e+00) (0, 0, 0.00000000000000000000e+00) (0, 0, 0.00000000000000000000e+00) (0, 0, 0.00000000000000000000e+00) (0, 0, 0.00000000000000000000e+00) (0, 0, 0.00000000000000000000e+00) (0, 0, 0.00000000000000000000e+00) (0, 0, 0.00000000000000000000e+00) (0, 0, 0.00000000000000000000e+00) (0, 0, 0.00000000000000000000e+00) (0, 0, 0.00000000000000000000e+00) (0, 0, 0.00000000000000000000e+00) (0, 0, 0.00000000000000000000e+00) (0, 0, 0.00000000000000000000e+00) (0, 0, 0.00000000000000000000e+00) (0, 0, 0.00000000000000000000e+00) (0, 0, 0.00000000000000000000e+00) (0, 0, 0.00000000000000000000e+00) (0, 0, 0.00000000000000000000e+00) (0, 0, 0.00000000000000000000e+00) (0, 0, 0.00000000000000000000e+00) (0, 0, 0.00000000000000000000e+00) (0, 0, 0.00000000000000000000e+00) (0, 0, 0.00000000000000000000e+00) (0, 0, 0.00000000000000000000e+00) (0, 0, 0.00000000000000000000e+00) (0, 0, 0.00000000000000000000e+00) (0, 0, 0.00000000000000000000e+00) (0, 0, 0.00000000000000000000e+00) (0, 0, 0.00000000000000000000e+00) (0, 0, 0.00000000000000000000e+00) (0, 0, 0.00000000000000000000e+00) (0, 0, 0.00000000000000000000e+00) (0, 0, 0.00000000000000000000e+00) (0, 0, 0.00000000000000000000e+00) (0, 0, 0.00000000000000000000e+00) (0, 0, 0.00000000000000000000e+00) (0, 0, 0.00000000000000000000e+00) (0, 0, 0.00000000000000000000e+00) (0, 0, 0.00000000000000000000e+00) (0, 0, 0.00000000000000000000e+00) (0, 0, 0.00000000000000000000e+00) (0, 0, 0.00000000000000000000e+00) (0, 0, 0.00000000000000000000e+00) (0, 0, 0.00000000000000000000e+00) (0, 0, 0.00000000000000000000e+00) (0, 0, 0.00000000000000000000e+00) (0, 0, 0.00000000000000000000e+00) (0, 0, 0.00000000000000000000e+00) (0, 0, 0.00000000000000000000e+00) (0, 0, 0.00000000000000000000e+00) (0, 0, 0.00000000000000000000e+00) (0, 0, 0.00000000000000000000e+00) (0, 0, 0.00000000000000000000e+00) (0, 0, 0.00000000000000000000e+00) (0, 0, 0.00000000000000000000e+00) (0, 0, 0.00000000000000000000e+00) (0, 0, 0.00000000000000000000e+00) (0, 0, 0.00000000000000000000e+00) (0, 0, 0.00000000000000000000e+00) (0, 0, 0.00000000000000000000e+00) (0, 0, 0.00000000000000000000e+00) (0, 0, 0.00000000000000000000e+00) (0, 0, 0.00000000000000000000e+00) (0, 0, 0.00000000000000000000e+00) (0, 0, 0.00000000000000000000e+00) (0, 0, 0.00000000000000000000e+00) (0, 0, 0.00000000000000000000e+00) (0, 0, 0.00000000000000000000e+00) (0, 0, 0.00000000000000000000e+00) (0, 0, 0.00000000000000000000e+00) (0, 0, 0.00000000000000000000e+00) (0, 0, 0.00000000000000000000e+00) (157, 0, 5.00000000000000000000e-01) (157, 0, 5.00000000000000000000e-01) (157, 0, 5.00000000000000000000e-01) (157, 0, 5.00000000000000000000e-01) (157, 0, 5.00000000000000000000e-01) (157, 0, 5.00000000000000000000e-01) (157, 0, 5.00000000000000000000e-01) (157, 0, 5.00000000000000000000e-01) (157, 0, 5.00000000000000000000e-01) (157, 0, 5.00000000000000000000e-01) 
connections (connected_to_neuron, weight)=(0, -1.49128246307373046875e+00) (1, 7.40807914733886718750e+00) (2, -7.73874807357788085938e+00) (3, 3.28188800811767578125e+00) (4, 7.59779548645019531250e+00) (5, 1.16211509704589843750e+00) (6, -1.76749849319458007812e+00) (7, 2.04421520233154296875e+00) (8, 1.23144340515136718750e+00) (9, 1.52920532226562500000e+00) (10, 1.95590591430664062500e+00) (11, 1.85912322998046875000e+00) (12, 8.65328979492187500000e+00) (13, -5.00866889953613281250e+00) (14, 3.43944931030273437500e+00) (15, 3.16644287109375000000e+00) (16, 2.52075386047363281250e+00) (17, 6.91766548156738281250e+00) (18, -4.90455341339111328125e+00) (19, -1.87336921691894531250e-01) (20, -2.43161725997924804688e+00) (21, 8.38076210021972656250e+00) (22, -7.95062732696533203125e+00) (23, 7.89864158630371093750e+00) (24, -3.57280731201171875000e-01) (25, -6.90426874160766601562e+00) (26, -6.12735939025878906250e+00) (27, -8.24393081665039062500e+00) (28, 4.07438659667968750000e+00) (29, 6.86743545532226562500e+00) (30, 1.03909969329833984375e+00) (31, -6.41689586639404296875e+00) (32, 5.27551460266113281250e+00) (33, 2.30035114288330078125e+00) (34, 5.86499214172363281250e+00) (35, 3.87330913543701171875e+00) (36, -5.53753280639648437500e+00) (37, -4.90250635147094726562e+00) (38, -3.08247470855712890625e+00) (39, 4.69391059875488281250e+00) (40, 5.62669944763183593750e+00) (41, 7.87343025207519531250e+00) (42, -2.44696760177612304688e+00) (43, 5.27998828887939453125e+00) (44, -6.13523817062377929688e+00) (45, -8.00751781463623046875e+00) (46, -5.53568840026855468750e-01) (47, 5.38551616668701171875e+00) (48, 7.91014862060546875000e+00) (49, 3.54187774658203125000e+00) (50, -3.80182075500488281250e+00) (51, -3.52146911621093750000e+00) (52, 2.92264080047607421875e+00) (53, -2.75244855880737304688e+00) (54, -4.62282848358154296875e+00) (55, -6.43463993072509765625e+00) (56, -6.56717300415039062500e-01) (57, -1.75018739700317382812e+00) (58, -5.67857074737548828125e+00) (59, -5.58232975006103515625e+00) (60, -3.88275241851806640625e+00) (61, 4.36052799224853515625e+00) (62, -2.99922561645507812500e+00) (63, -7.60723829269409179688e+00) (64, -2.33911943435668945312e+00) (65, -6.13423347473144531250e+00) (66, 5.26607131958007812500e+00) (67, 1.12334823608398437500e+00) (68, -2.03674030303955078125e+00) (69, -6.81640243530273437500e+00) (70, -3.18274211883544921875e+00) (71, -5.41004133224487304688e+00) (72, -7.94297218322753906250e+00) (73, 3.37029075622558593750e+00) (74, 8.86994743347167968750e+00) (75, -5.07821083068847656250e+00) (76, 4.36277294158935546875e+00) (77, -6.83622360229492187500e-01) (78, -8.69269466400146484375e+00) (79, 3.27292060852050781250e+00) (80, -6.14174413681030273438e+00) (81, -3.49451541900634765625e+00) (82, 8.75145149230957031250e+00) (83, 5.78089618682861328125e+00) (84, 2.75303649902343750000e+00) (85, -4.87137746810913085938e+00) (86, 8.34625625610351562500e+00) (87, -6.90368080139160156250e+00) (88, 2.37843513488769531250e+00) (89, -6.33231449127197265625e+00) (90, -3.48601055145263671875e+00) (91, 7.49568176269531250000e+00) (92, 7.02821540832519531250e+00) (93, 2.51476287841796875000e+00) (94, 8.88844490051269531250e+00) (95, -4.31090545654296875000e+00) (96, 5.38052940368652343750e+00) (97, 5.15451622009277343750e+00) (98, 5.81244277954101562500e+00) (99, -5.65621042251586914062e+00) (100, 7.33811378479003906250e+00) (101, -6.37029981613159179688e+00) (102, -2.06625175476074218750e+00) (103, 8.39513969421386718750e+00) (104, 5.99999141693115234375e+00) (105, -2.19630479812622070312e+00) (106, -5.68306970596313476562e+00) (107, 1.36276435852050781250e+00) (108, 6.12007331848144531250e+00) (109, -5.37576389312744140625e+00) (110, -4.36431598663330078125e+00) (111, 8.97832870483398437500e+00) (112, 1.29720687866210937500e-01) (113, -4.61286449432373046875e+00) (114, 5.75922489166259765625e+00) (115, -6.11724328994750976562e+00) (116, -4.84241485595703125000e-01) (117, 5.10548210144042968750e+00) (118, -4.02092409133911132812e+00) (119, -7.10580682754516601562e+00) (120, 7.77316665649414062500e+00) (121, 1.49306583404541015625e+00) (122, -8.61012458801269531250e+00) (123, 5.80138206481933593750e+00) (124, -4.99217128753662109375e+00) (125, -8.72167968750000000000e+00) (126, -7.50952339172363281250e+00) (127, -8.61164188385009765625e+00) (128, 5.43283557891845703125e+00) (129, 7.30291938781738281250e+00) (130, -5.26785182952880859375e+00) (131, 3.77094841003417968750e+00) (132, -8.06737995147705078125e+00) (133, 1.66589641571044921875e+00) (134, 3.16608905792236328125e+00) (135, 6.93261051177978515625e+00) (136, 8.46959114074707031250e+00) (137, 6.48302078247070312500e+00) (138, -7.04626083374023437500e-01) (139, 5.58966445922851562500e+00) (140, -7.89274406433105468750e+00) (141, 3.93105888366699218750e+00) (142, 5.56799316406250000000e+00) (143, 1.23697662353515625000e+00) (144, 8.31819343566894531250e+00) (145, 2.32721900939941406250e+00) (146, 4.11973381042480468750e+00) (147, -1.16604900360107421875e+00) (148, -1.56729936599731445312e+00) (149, -8.90119075775146484375e+00) (150, 7.28144645690917968750e-01) (151, -2.79413175582885742188e+00) (152, 1.59187412261962890625e+00) (153, 1.11802005767822265625e+00) (154, -5.99275016784667968750e+00) (155, 5.59970378875732421875e+00) (156, 1.39633941650390625000e+00) (0, -4.50227308273315429688e+00) (1, 5.98806190490722656250e+00) (2, -2.17082452774047851562e+00) (3, -6.19935369491577148438e+00) (4, -8.27979087829589843750e+00) (5, -7.39987564086914062500e+00) (6, -5.26673412322998046875e+00) (7, 2.38610649108886718750e+00) (8, 4.76621341705322265625e+00) (9, -7.33412361145019531250e+00) (10, 1.85569667816162109375e+00) (11, 2.24923419952392578125e+00) (12, 9.61250305175781250000e-01) (13, -1.55463838577270507812e+00) (14, 3.35648918151855468750e+00) (15, -4.10769176483154296875e+00) (16, -4.98664474487304687500e+00) (17, -4.40653371810913085938e+00) (18, -4.78949832916259765625e+00) (19, 6.34057331085205078125e+00) (20, 8.71319961547851562500e+00) (21, 3.04445266723632812500e+00) (22, -4.22672557830810546875e+00) (23, 8.81200790405273437500e+00) (24, -5.22740316390991210938e+00) (25, 1.97914218902587890625e+00) (26, 1.40388298034667968750e+00) (27, 4.89061641693115234375e+00) (28, 4.98639297485351562500e+00) (29, -1.99641370773315429688e+00) (30, -2.71304368972778320312e+00) (31, -8.51588058471679687500e+00) (32, -5.00835227966308593750e+00) (33, 4.11613178253173828125e+00) (34, -5.71523427963256835938e+00) (35, -4.28814315795898437500e+00) (36, 5.71625614166259765625e+00) (37, -1.98196840286254882812e+00) (38, 7.09796333312988281250e+00) (39, 1.48246955871582031250e+00) (40, -3.16091537475585937500e-01) (41, -4.63409423828125000000e-02) (42, -5.26829624176025390625e+00) (43, -8.35484123229980468750e+00) (44, 7.39902114868164062500e+00) (45, 7.08819389343261718750e+00) (46, -3.46253299713134765625e+00) (47, -6.58762407302856445312e+00) (48, -6.31834030151367187500e+00) (49, 7.47968673706054687500e-01) (50, 8.75294876098632812500e+00) (51, -6.60514116287231445312e+00) (52, -5.20757865905761718750e+00) (53, -4.47377586364746093750e+00) (54, -6.79313278198242187500e+00) (55, -1.43498182296752929688e+00) (56, 6.50536632537841796875e+00) (57, 3.61075019836425781250e+00) (58, -5.54436540603637695312e+00) (59, 2.49175930023193359375e+00) (60, -7.38566350936889648438e+00) (61, 7.42590904235839843750e-01) (62, 2.97587871551513671875e+00) (63, -3.39401578903198242188e+00) (64, -4.14127779006958007812e+00) (65, 6.26064395904541015625e+00) (66, 1.31784152984619140625e+00) (67, -7.42502164840698242188e+00) (68, -4.72132444381713867188e+00) (69, -5.84196090698242187500e-01) (70, 3.05744743347167968750e+00) (71, 3.96258354187011718750e+00) (72, 8.36946296691894531250e+00) (73, 6.78915214538574218750e+00) (74, 4.60774230957031250000e+00) (75, 6.76848506927490234375e+00) (76, 4.87734508514404296875e+00) (77, -7.85479021072387695312e+00) (78, -8.81913948059082031250e+00) (79, 7.55900382995605468750e+00) (80, 1.89317798614501953125e+00) (81, 8.93380928039550781250e+00) (82, -8.04613590240478515625e+00) (83, 5.68559932708740234375e+00) (84, -4.53996610641479492188e+00) (85, -5.83926868438720703125e+00) (86, -4.74938201904296875000e+00) (87, -7.03459978103637695312e+00) (88, 6.77148151397705078125e+00) (89, -1.29374742507934570312e+00) (90, 4.45715904235839843750e+00) (91, 8.38581848144531250000e+00) (92, 8.44884300231933593750e+00) (93, -1.56696271896362304688e+00) (94, -4.00819778442382812500e+00) (95, -4.69243383407592773438e+00) (96, -4.30631875991821289062e+00) (97, 6.30964374542236328125e+00) (98, -3.11745595932006835938e+00) (99, -2.76432037353515625000e-02) (100, -3.27455282211303710938e+00) (101, 8.93999290466308593750e+00) (102, -5.06505918502807617188e+00) (103, -3.90508985519409179688e+00) (104, 6.72914409637451171875e+00) (105, 8.54268264770507812500e+00) (106, -6.13660573959350585938e+00) (107, 2.60648918151855468750e+00) (108, -8.31210708618164062500e+00) (109, -5.95574522018432617188e+00) (110, 1.16549491882324218750e+00) (111, 2.58107185363769531250e+00) (112, -6.02193546295166015625e+00) (113, 2.11935806274414062500e+00) (114, -7.33329772949218750000e-01) (115, -1.56190204620361328125e+00) (116, 5.28008937835693359375e+00) (117, 3.51728820800781250000e+00) (118, 4.03498649597167968750e-01) (119, 3.05157184600830078125e+00) (120, -6.77645921707153320312e+00) (121, -4.13934230804443359375e+00) (122, 2.43738937377929687500e+00) (123, -7.32761573791503906250e+00) (124, 3.29369449615478515625e+00) (125, 7.42919158935546875000e+00) (126, -3.02005004882812500000e+00) (127, 7.98737525939941406250e+00) (128, 4.73883438110351562500e+00) (129, 2.86249446868896484375e+00) (130, -1.04026651382446289062e+00) (131, -7.53571796417236328125e+00) (132, 2.80248641967773437500e+00) (133, 2.89467430114746093750e+00) (134, -2.44080829620361328125e+00) (135, 5.31631469726562500000e-01) (136, 2.43735790252685546875e+00) (137, 4.22586441040039062500e-01) (138, -5.86187934875488281250e+00) (139, 3.12525081634521484375e+00) (140, 3.46684074401855468750e+00) (141, 4.30361557006835937500e+00) (142, -3.29367876052856445312e+00) (143, 6.44490623474121093750e+00) (144, -2.57702684402465820312e+00) (145, 4.97299289703369140625e+00) (146, -4.11699628829956054688e+00) (147, -6.29693698883056640625e+00) (148, -5.09719848632812500000e-01) (149, 5.28650283813476562500e+00) (150, 5.75463485717773437500e+00) (151, 1.71382141113281250000e+00) (152, -7.85283994674682617188e+00) (153, -8.07974815368652343750e-01) (154, 3.38620662689208984375e+00) (155, 4.44085502624511718750e+00) (156, -2.37878370285034179688e+00) (0, -8.63384437561035156250e+00) (1, 3.42823219299316406250e+00) (2, -6.63994836807250976562e+00) (3, 3.22865009307861328125e+00) (4, -6.61203479766845703125e+00) (5, -5.17566633224487304688e+00) (6, -2.96886253356933593750e+00) (7, 5.28263950347900390625e+00) (8, 1.38352489471435546875e+00) (9, 6.56276798248291015625e+00) (10, -1.28000259399414062500e+00) (11, -7.19388771057128906250e+00) (12, -8.29911136627197265625e+00) (13, -7.15475225448608398438e+00) (14, 5.27295398712158203125e+00) (15, 5.00450420379638671875e+00) (16, -1.44843101501464843750e+00) (17, 2.71785926818847656250e+00) (18, -6.57252311706542968750e+00) (19, -5.47543811798095703125e+00) (20, 7.60086250305175781250e+00) (21, -3.86945915222167968750e+00) (22, 3.01484298706054687500e+00) (23, 3.88736629486083984375e+00) (24, -7.11482429504394531250e+00) (25, -4.27133655548095703125e+00) (26, 5.03452587127685546875e+00) (27, 1.07719993591308593750e+00) (28, 8.11486816406250000000e+00) (29, 4.75380897521972656250e-01) (30, 7.69841575622558593750e+00) (31, 8.48102569580078125000e+00) (32, -5.09638690948486328125e+00) (33, -7.94153213500976562500e+00) (34, 2.70967578887939453125e+00) (35, -2.70842170715332031250e+00) (36, -4.11719894409179687500e+00) (37, 8.74081230163574218750e+00) (38, -6.42578220367431640625e+00) (39, 6.26632690429687500000e+00) (40, 6.30358028411865234375e+00) (41, 1.29421520233154296875e+00) (42, 8.07243919372558593750e+00) (43, 7.00446891784667968750e+00) (44, 3.13946247100830078125e+00) (45, 4.34539222717285156250e+00) (46, 3.00897407531738281250e+00) (47, -7.30896806716918945312e+00) (48, -1.93674850463867187500e+00) (49, 5.43645095825195312500e+00) (50, -3.78440666198730468750e+00) (51, -3.33588552474975585938e+00) (52, -7.43300819396972656250e+00) (53, 8.23043632507324218750e+00) (54, -8.44851970672607421875e+00) (55, -5.54783296585083007812e+00) (56, -5.04090070724487304688e+00) (57, 5.58600616455078125000e+00) (58, 4.52936744689941406250e+00) (59, -5.92603111267089843750e+00) (60, -2.93861198425292968750e+00) (61, 3.22778320312500000000e+00) (62, -6.44500589370727539062e+00) (63, 9.65001106262207031250e-01) (64, 4.28625106811523437500e+00) (65, 5.26466941833496093750e+00) (66, 7.25657844543457031250e+00) (67, -8.83094787597656250000e+00) (68, 5.00548267364501953125e+00) (69, -8.16920375823974609375e+00) (70, 6.43537902832031250000e+00) (71, 2.30906295776367187500e+00) (72, 2.12501144409179687500e+00) (73, 5.50781822204589843750e+00) (74, 3.13532829284667968750e-01) (75, -3.73552608489990234375e+00) (76, 8.53210449218750000000e-01) (77, -5.67749261856079101562e+00) (78, -2.04449415206909179688e+00) (79, 7.91646194458007812500e+00) (80, 8.75895881652832031250e+00) (81, 3.17109966278076171875e+00) (82, -4.41942262649536132812e+00) (83, -7.67404985427856445312e+00) (84, 2.40153503417968750000e+00) (85, -3.86794185638427734375e+00) (86, -4.22188282012939453125e+00) (87, 6.36063480377197265625e+00) (88, -7.28193521499633789062e+00) (89, -8.69251537322998046875e+00) (90, -8.56539726257324218750e+00) (91, -1.22054767608642578125e+00) (92, 3.53526687622070312500e+00) (93, -6.01040315628051757812e+00) (94, 8.74445343017578125000e+00) (95, -1.17848110198974609375e+00) (96, 8.25426673889160156250e+00) (97, 7.00103187561035156250e+00) (98, -1.00942850112915039062e+00) (99, 4.25974941253662109375e+00) (100, 7.83182907104492187500e+00) (101, -3.57404899597167968750e+00) (102, -2.43118715286254882812e+00) (103, 9.56839561462402343750e-01) (104, -7.06623077392578125000e+00) (105, 6.88234710693359375000e+00) (106, 6.22131443023681640625e+00) (107, 2.78698062896728515625e+00) (108, -7.79514646530151367188e+00) (109, -4.82318019866943359375e+00) (110, 1.70344352722167968750e+00) (111, -8.03618812561035156250e+00) (112, 7.34791946411132812500e+00) (113, 6.28402137756347656250e+00) (114, -6.71023797988891601562e+00) (115, 7.49454498291015625000e-01) (116, -6.58392143249511718750e+00) (117, -1.93212080001831054688e+00) (118, -1.88991069793701171875e+00) (119, -4.86585664749145507812e+00) (120, -1.62463665008544921875e+00) (121, -1.45530796051025390625e+00) (122, 2.91359519958496093750e+00) (123, -7.08936882019042968750e+00) (124, 1.53428936004638671875e+00) (125, 2.65804862976074218750e+00) (126, 7.32150077819824218750e-01) (127, 7.88555145263671875000e-01) (128, 6.59080505371093750000e-01) (129, 8.72272109985351562500e+00) (130, -3.95169544219970703125e+00) (131, -5.09091377258300781250e-01) (132, -3.85132789611816406250e+00) (133, 2.61711692810058593750e+00) (134, -8.55225181579589843750e+00) (135, -1.91755867004394531250e+00) (136, 4.99464035034179687500e-01) (137, 6.66906166076660156250e+00) (138, -8.13057804107666015625e+00) (139, 1.70431709289550781250e+00) (140, -7.15411806106567382812e+00) (141, 2.57286453247070312500e+00) (142, 2.66812992095947265625e+00) (143, -8.80619812011718750000e+00) (144, -1.43115043640136718750e-01) (145, 4.95789146423339843750e+00) (146, 9.43255424499511718750e-01) (147, 2.27296447753906250000e+00) (148, -5.97422885894775390625e+00) (149, 8.05334472656250000000e+00) (150, 6.40710735321044921875e+00) (151, 1.40113449096679687500e+00) (152, -2.40196275711059570312e+00) (153, 3.20703506469726562500e-01) (154, 3.31176567077636718750e+00) (155, 8.13232612609863281250e+00) (156, -6.02124786376953125000e+00) (0, -4.95608520507812500000e+00) (1, -7.91177749633789062500e-02) (2, 3.63783264160156250000e+00) (3, -5.23336362838745117188e+00) (4, 4.96918678283691406250e+00) (5, -5.87125873565673828125e+00) (6, -8.46910476684570312500e-02) (7, -1.41369581222534179688e+00) (8, -5.42351007461547851562e+00) (9, 6.99775028228759765625e+00) (10, 8.08576774597167968750e+00) (11, -7.75444793701171875000e+00) (12, 7.86717224121093750000e+00) (13, 7.90086746215820312500e-01) (14, -5.90856552124023437500e+00) (15, 1.44003677368164062500e+00) (16, -5.54178380966186523438e+00) (17, -5.71476459503173828125e+00) (18, -7.70307779312133789062e+00) (19, 8.41610717773437500000e+00) (20, 4.22849178314208984375e+00) (21, 3.56988620758056640625e+00) (22, -6.55812120437622070312e+00) (23, 3.28183746337890625000e+00) (24, 9.76994514465332031250e-01) (25, 3.84301376342773437500e+00) (26, -8.12012577056884765625e+00) (27, -7.70230245590209960938e+00) (28, -1.84522151947021484375e+00) (29, -8.98779964447021484375e+00) (30, -4.72354984283447265625e+00) (31, 2.19869327545166015625e+00) (32, -6.69174194335937500000e-02) (33, 7.91428184509277343750e+00) (34, 5.96533012390136718750e+00) (35, -4.09773159027099609375e+00) (36, -6.95697593688964843750e+00) (37, -3.11936140060424804688e+00) (38, 3.48857307434082031250e+00) (39, -3.38048553466796875000e+00) (40, -5.12161159515380859375e+00) (41, 2.57434082031250000000e+00) (42, -2.13493394851684570312e+00) (43, -6.25443935394287109375e+00) (44, -5.63557243347167968750e+00) (45, 9.56500053405761718750e-01) (46, 4.18559837341308593750e+00) (47, -2.17735671997070312500e+00) (48, 4.24173545837402343750e+00) (49, 5.48252010345458984375e+00) (50, -2.76124858856201171875e+00) (51, -5.29771804809570312500e-01) (52, 5.24063110351562500000e-02) (53, -3.19369316101074218750e-01) (54, -6.24793529510498046875e+00) (55, -7.97059965133666992188e+00) (56, -5.47635650634765625000e+00) (57, -5.36806154251098632812e+00) (58, -6.67290210723876953125e+00) (59, 1.67842197418212890625e+00) (60, -5.35586166381835937500e+00) (61, -2.39645242691040039062e+00) (62, -5.12288427352905273438e+00) (63, 3.57721996307373046875e+00) (64, -3.48216962814331054688e+00) (65, -8.15755462646484375000e+00) (66, 8.47949028015136718750e+00) (67, -1.43914556503295898438e+00) (68, -2.27691555023193359375e+00) (69, 2.96806144714355468750e+00) (70, 4.18036842346191406250e+00) (71, 1.60147285461425781250e+00) (72, -3.45759677886962890625e+00) (73, -6.95456504821777343750e+00) (74, 4.34703350067138671875e+00) (75, -9.31692123413085937500e-02) (76, 3.00193500518798828125e+00) (77, -4.67369079589843750000e-01) (78, 6.72947502136230468750e+00) (79, -1.75632905960083007812e+00) (80, -3.98484945297241210938e+00) (81, -5.03177452087402343750e+00) (82, 6.71389865875244140625e+00) (83, 5.06755638122558593750e+00) (84, 3.64885520935058593750e+00) (85, -8.53403759002685546875e+00) (86, 6.09695720672607421875e+00) (87, 7.17249870300292968750e+00) (88, -4.90209865570068359375e+00) (89, 8.42405509948730468750e+00) (90, -1.49078369140625000000e-01) (91, -1.25796031951904296875e+00) (92, -2.97239780426025390625e+00) (93, 3.72803688049316406250e+00) (94, -6.68073940277099609375e+00) (95, 2.54543209075927734375e+00) (96, 4.57048320770263671875e+00) (97, -7.20125102996826171875e+00) (98, -7.89371299743652343750e+00) (99, -6.70643329620361328125e+00) (100, 4.76681137084960937500e+00) (101, 5.28665542602539062500e+00) (102, 3.89503955841064453125e+00) (103, -7.69078588485717773438e+00) (104, 7.33209037780761718750e+00) (105, -7.57925987243652343750e-01) (106, 1.21604537963867187500e+00) (107, 1.33402538299560546875e+00) (108, 7.77470397949218750000e+00) (109, -1.05448102951049804688e+00) (110, 8.57769584655761718750e+00) (111, -5.21014499664306640625e+00) (112, 2.91374492645263671875e+00) (113, 6.29159450531005859375e+00) (114, 8.85741233825683593750e+00) (115, -2.43739938735961914062e+00) (116, 6.75755691528320312500e+00) (117, 5.95436859130859375000e+00) (118, -4.26490020751953125000e+00) (119, -7.14454174041748046875e+00) (120, 5.37842369079589843750e+00) (121, 4.58602142333984375000e+00) (122, 5.97497940063476562500e-01) (123, -6.59397363662719726562e+00) (124, -6.85941696166992187500e-01) (125, 2.91675853729248046875e+00) (126, 4.95145893096923828125e+00) (127, -5.11545944213867187500e+00) (128, 4.71550655364990234375e+00) (129, 6.05774688720703125000e+00) (130, -2.82189178466796875000e+00) (131, 4.82317924499511718750e-01) (132, 2.34440231323242187500e+00) (133, -7.92685222625732421875e+00) (134, 1.79153251647949218750e+00) (135, 6.76491737365722656250e-01) (136, 3.15221786499023437500e-01) (137, -5.99242258071899414062e+00) (138, -6.98948240280151367188e+00) (139, -9.10074234008789062500e-01) (140, 1.95309638977050781250e+00) (141, -7.41178655624389648438e+00) (142, 2.87978172302246093750e+00) (143, -4.13315868377685546875e+00) (144, 7.87980842590332031250e+00) (145, 2.73719310760498046875e+00) (146, 2.42944145202636718750e+00) (147, 5.63736534118652343750e+00) (148, -3.08438301086425781250e-01) (149, 7.16454124450683593750e+00) (150, 7.49282264709472656250e+00) (151, -3.93001413345336914062e+00) (152, 2.75056362152099609375e+00) (153, -9.09678459167480468750e-01) (154, -1.52398777008056640625e+00) (155, -6.93537807464599609375e+00) (156, -6.99292087554931640625e+00) (0, -5.57252883911132812500e+00) (1, -3.05083751678466796875e+00) (2, 6.72258663177490234375e+00) (3, -8.51478290557861328125e+00) (4, 3.12726974487304687500e+00) (5, -1.79509544372558593750e+00) (6, 2.82961845397949218750e+00) (7, 4.20041847229003906250e+00) (8, 8.99643707275390625000e+00) (9, -5.49388885498046875000e+00) (10, -4.48436021804809570312e+00) (11, -5.99598503112792968750e+00) (12, -3.48337078094482421875e+00) (13, 3.60556602478027343750e+00) (14, 4.95711135864257812500e+00) (15, -1.89515781402587890625e+00) (16, -2.51465320587158203125e+00) (17, -8.17604732513427734375e+00) (18, -3.01534938812255859375e+00) (19, -8.77746009826660156250e+00) (20, 3.25339508056640625000e+00) (21, -6.37798500061035156250e+00) (22, -8.58974456787109375000e-02) (23, 1.41793727874755859375e+00) (24, -7.88516139984130859375e+00) (25, 4.98408794403076171875e+00) (26, -4.83149909973144531250e+00) (27, 2.05160140991210937500e-01) (28, -5.53989887237548828125e+00) (29, -2.76687765121459960938e+00) (30, 2.21223831176757812500e+00) (31, -2.11242771148681640625e+00) (32, 3.18228530883789062500e+00) (33, -6.51741027832031250000e-02) (34, -1.62721061706542968750e+00) (35, -2.69044446945190429688e+00) (36, 7.13973045349121093750e+00) (37, -7.79759073257446289062e+00) (38, -7.49002599716186523438e+00) (39, 7.13616752624511718750e+00) (40, -4.29147911071777343750e+00) (41, -2.97438621520996093750e+00) (42, -7.85981655120849609375e+00) (43, 1.22514915466308593750e+00) (44, -8.36882019042968750000e+00) (45, 6.09729480743408203125e+00) (46, 8.32999229431152343750e+00) (47, -1.88347339630126953125e+00) (48, 6.92124748229980468750e+00) (49, -3.68535709381103515625e+00) (50, -1.66093349456787109375e+00) (51, 1.17464256286621093750e+00) (52, -1.06334257125854492188e+00) (53, 7.25317001342773437500e+00) (54, -6.40742015838623046875e+00) (55, 5.14965057373046875000e-02) (56, 3.23725795745849609375e+00) (57, -2.23891973495483398438e+00) (58, -8.74334430694580078125e+00) (59, 6.69735908508300781250e+00) (60, 3.99420261383056640625e+00) (61, 2.46889495849609375000e+00) (62, -4.41506910324096679688e+00) (63, -1.82351207733154296875e+00) (64, -6.59628009796142578125e+00) (65, 2.95772171020507812500e+00) (66, 4.48604297637939453125e+00) (67, -8.45654964447021484375e+00) (68, 4.16013050079345703125e+00) (69, 5.99601745605468750000e+00) (70, 7.67961883544921875000e+00) (71, 8.86865043640136718750e+00) (72, -5.97836923599243164062e+00) (73, 8.81980133056640625000e+00) (74, 1.09380054473876953125e+00) (75, -5.34718990325927734375e+00) (76, 5.91709709167480468750e+00) (77, 4.23793792724609375000e-01) (78, 1.76933765411376953125e+00) (79, 3.83834457397460937500e+00) (80, 5.73843574523925781250e+00) (81, -8.89159584045410156250e+00) (82, -3.98701286315917968750e+00) (83, -4.32490634918212890625e+00) (84, 7.36157417297363281250e+00) (85, -1.39443302154541015625e+00) (86, 4.72659015655517578125e+00) (87, 1.59883117675781250000e+00) (88, 5.36664676666259765625e+00) (89, 4.98324489593505859375e+00) (90, -7.03809738159179687500e-01) (91, 3.60849380493164062500e-01) (92, -1.54786062240600585938e+00) (93, 3.88112068176269531250e+00) (94, 7.53733634948730468750e+00) (95, 8.55859756469726562500e-01) (96, -2.16115713119506835938e+00) (97, 3.02338027954101562500e+00) (98, 1.39931106567382812500e+00) (99, -7.00102710723876953125e+00) (100, 1.93977355957031250000e-02) (101, 7.89299011230468750000e-02) (102, -7.13237571716308593750e+00) (103, 3.04102897644042968750e+00) (104, -1.01268768310546875000e-01) (105, 2.96142578125000000000e+00) (106, 6.69383907318115234375e+00) (107, -3.18417167663574218750e+00) (108, -5.61478137969970703125e+00) (109, -5.36824226379394531250e-01) (110, -8.34582710266113281250e+00) (111, -8.87634563446044921875e+00) (112, -4.28421020507812500000e-01) (113, -3.33283996582031250000e+00) (114, -4.20125246047973632812e+00) (115, -2.06684732437133789062e+00) (116, 4.27272701263427734375e+00) (117, -8.47466278076171875000e+00) (118, 8.53198432922363281250e+00) (119, 6.39372825622558593750e-01) (120, 5.50858211517333984375e+00) (121, -1.17182588577270507812e+00) (122, -7.99977684020996093750e+00) (123, -5.03927803039550781250e+00) (124, -6.29070472717285156250e+00) (125, 8.53755950927734375000e+00) (126, 4.81658077239990234375e+00) (127, 5.48138618469238281250e-01) (128, 2.56093978881835937500e+00) (129, -2.78410768508911132812e+00) (130, 2.54711151123046875000e+00) (131, -6.41966247558593750000e+00) (132, 6.29482173919677734375e+00) (133, 4.41473579406738281250e+00) (134, 5.62136650085449218750e+00) (135, -2.80644702911376953125e+00) (136, -1.62383890151977539062e+00) (137, 3.31520462036132812500e+00) (138, 3.00938129425048828125e+00) (139, 1.76138019561767578125e+00) (140, -6.22162008285522460938e+00) (141, 3.66355514526367187500e+00) (142, 1.88503360748291015625e+00) (143, 2.34995937347412109375e+00) (144, -8.66928482055664062500e+00) (145, 6.68378257751464843750e+00) (146, -8.71688842773437500000e+00) (147, 4.60344219207763671875e+00) (148, 7.20911979675292968750e+00) (149, 8.81509399414062500000e+00) (150, -3.75718498229980468750e+00) (151, 3.71770191192626953125e+00) (152, -1.35673046112060546875e+00) (153, -2.75696182250976562500e+00) (154, 7.67842292785644531250e+00) (155, 1.35256481170654296875e+00) (156, -3.21940183639526367188e+00) (0, 3.49500560760498046875e+00) (1, -7.09929704666137695312e+00) (2, 8.34153938293457031250e+00) (3, -8.28910255432128906250e+00) (4, 4.44781398773193359375e+00) (5, -7.07812356948852539062e+00) (6, 7.00571823120117187500e+00) (7, -1.37450218200683593750e-01) (8, 7.54324150085449218750e+00) (9, -4.80072784423828125000e+00) (10, 7.23871231079101562500e+00) (11, 1.85844707489013671875e+00) (12, 7.20865440368652343750e+00) (13, 9.15527343750000000000e-05) (14, 4.63682746887207031250e+00) (15, 1.87220954895019531250e+00) (16, -7.11487436294555664062e+00) (17, -2.01321411132812500000e+00) (18, 2.20292472839355468750e+00) (19, 8.56890869140625000000e+00) (20, -1.73010206222534179688e+00) (21, -2.19363355636596679688e+00) (22, 6.77802658081054687500e+00) (23, -1.91500663757324218750e+00) (24, 3.04918289184570312500e+00) (25, 1.49572849273681640625e+00) (26, 5.72826290130615234375e+00) (27, -8.70777988433837890625e+00) (28, 1.74152374267578125000e-01) (29, -1.91917276382446289062e+00) (30, -2.92718124389648437500e+00) (31, -5.33084297180175781250e+00) (32, -1.84698104858398437500e-02) (33, -3.58564233779907226562e+00) (34, -4.61994552612304687500e+00) (35, -4.57065534591674804688e+00) (36, -1.66376590728759765625e+00) (37, -6.61422634124755859375e+00) (38, 4.29189491271972656250e+00) (39, -3.12052345275878906250e+00) (40, -2.41495418548583984375e+00) (41, 2.53060531616210937500e+00) (42, 7.73792266845703125000e+00) (43, -4.20629978179931640625e+00) (44, -6.46930313110351562500e+00) (45, 3.37475013732910156250e+00) (46, 6.66591072082519531250e+00) (47, -4.58417749404907226562e+00) (48, -7.63846397399902343750e+00) (49, -1.31164550781250000000e-01) (50, -5.01526975631713867188e+00) (51, -3.68566513061523437500e-01) (52, 6.67520141601562500000e+00) (53, -7.23724269866943359375e+00) (54, 6.71642684936523437500e+00) (55, 7.24384307861328125000e-01) (56, 3.25848579406738281250e+00) (57, 3.44469070434570312500e+00) (58, 1.01660442352294921875e+00) (59, -5.56736183166503906250e+00) (60, -7.47448253631591796875e+00) (61, 7.08942222595214843750e+00) (62, -1.89820432662963867188e+00) (63, 1.50704765319824218750e+00) (64, -5.49621915817260742188e+00) (65, 2.48184967041015625000e+00) (66, 5.93639183044433593750e+00) (67, 1.84001445770263671875e+00) (68, 4.86762332916259765625e+00) (69, 1.22828674316406250000e+00) (70, 7.71949195861816406250e+00) (71, -6.54733037948608398438e+00) (72, -5.24110794067382812500e+00) (73, 6.45741462707519531250e+00) (74, -1.75362968444824218750e+00) (75, -2.71041107177734375000e+00) (76, 8.32164764404296875000e-01) (77, -4.08771991729736328125e+00) (78, 1.70541191101074218750e+00) (79, 2.19370174407958984375e+00) (80, 4.78111457824707031250e+00) (81, 5.69014263153076171875e+00) (82, -7.17486476898193359375e+00) (83, 2.45631694793701171875e+00) (84, 7.45289993286132812500e+00) (85, 8.54156303405761718750e+00) (86, -5.81929922103881835938e+00) (87, 1.71138572692871093750e+00) (88, 2.98625278472900390625e+00) (89, 4.19730567932128906250e+00) (90, 5.14402389526367187500e+00) (91, 4.51176929473876953125e+00) (92, 2.28672790527343750000e+00) (93, -5.75418043136596679688e+00) (94, -2.98118305206298828125e+00) (95, 5.79050922393798828125e+00) (96, 5.72766971588134765625e+00) (97, -6.04479122161865234375e+00) (98, -1.36947584152221679688e+00) (99, 1.59529304504394531250e+00) (100, 4.18349456787109375000e+00) (101, -2.64998435974121093750e+00) (102, 4.04796218872070312500e+00) (103, 7.94238853454589843750e+00) (104, -5.19256973266601562500e+00) (105, -6.70566749572753906250e+00) (106, -3.76802349090576171875e+00) (107, 4.63959598541259765625e+00) (108, -1.79338788986206054688e+00) (109, 6.93738746643066406250e+00) (110, -2.16670274734497070312e+00) (111, -6.01227235794067382812e+00) (112, 3.62753009796142578125e+00) (113, -3.41567993164062500000e-01) (114, 5.44404411315917968750e+00) (115, 2.08042907714843750000e+00) (116, -8.00005912780761718750e-01) (117, 8.62474441528320312500e+00) (118, -5.20818567276000976562e+00) (119, -6.81375360488891601562e+00) (120, 3.82205009460449218750e+00) (121, 8.93583869934082031250e+00) (122, 6.69801521301269531250e+00) (123, -2.89122104644775390625e+00) (124, -5.81834268569946289062e+00) (125, -5.28316783905029296875e+00) (126, -6.10071229934692382812e+00) (127, 8.90932655334472656250e+00) (128, -2.32795906066894531250e+00) (129, 1.52981185913085937500e+00) (130, 1.50461959838867187500e+00) (131, -7.14446401596069335938e+00) (132, 7.87982749938964843750e+00) (133, -3.44741821289062500000e+00) (134, -8.20207691192626953125e+00) (135, -6.31274127960205078125e+00) (136, -1.15308523178100585938e+00) (137, -2.97010040283203125000e+00) (138, 7.32685470581054687500e+00) (139, 6.05352687835693359375e+00) (140, -5.03271198272705078125e+00) (141, -3.83984899520874023438e+00) (142, -8.95874500274658203125e+00) (143, 7.59481811523437500000e+00) (144, 4.81858348846435546875e+00) (145, 5.48529911041259765625e+00) (146, 6.75246238708496093750e-01) (147, -4.98142290115356445312e+00) (148, 5.11004352569580078125e+00) (149, 4.46706008911132812500e+00) (150, -2.79517602920532226562e+00) (151, -6.79054260253906250000e-02) (152, 4.40289878845214843750e+00) (153, -5.09716081619262695312e+00) (154, 6.04087352752685546875e+00) (155, 7.58455467224121093750e+00) (156, -1.38032865524291992188e+00) (0, 8.94016075134277343750e+00) (1, 7.49388122558593750000e+00) (2, 5.29171276092529296875e+00) (3, 1.46997261047363281250e+00) (4, -1.49822235107421875000e-03) (5, 7.14724922180175781250e+00) (6, 3.49801063537597656250e-01) (7, 5.55108356475830078125e+00) (8, 7.94517135620117187500e+00) (9, 3.03705978393554687500e+00) (10, -4.60200166702270507812e+00) (11, -4.02492809295654296875e+00) (12, 1.36391448974609375000e+00) (13, -7.54847478866577148438e+00) (14, -5.76400756835937500000e-02) (15, 6.52406501770019531250e+00) (16, -7.50722026824951171875e+00) (17, -1.46282291412353515625e+00) (18, 2.34264755249023437500e+00) (19, 6.97807884216308593750e+00) (20, 8.21242332458496093750e+00) (21, 6.36122512817382812500e+00) (22, 3.08812332153320312500e+00) (23, 3.67948341369628906250e+00) (24, -5.43395137786865234375e+00) (25, -5.97978210449218750000e+00) (26, -9.17618751525878906250e-01) (27, -1.53111171722412109375e+00) (28, -8.93890953063964843750e+00) (29, -2.33306312561035156250e+00) (30, 6.08856010437011718750e+00) (31, -8.99874877929687500000e+00) (32, -3.83918094635009765625e+00) (33, 2.38027286529541015625e+00) (34, 1.47122478485107421875e+00) (35, 5.15931987762451171875e+00) (36, 5.27521133422851562500e-01) (37, -7.17897462844848632812e+00) (38, 1.71040344238281250000e+00) (39, -5.27306556701660156250e-01) (40, 4.85808467864990234375e+00) (41, 6.10840225219726562500e+00) (42, 4.44776535034179687500e+00) (43, -2.77800130844116210938e+00) (44, 7.55992698669433593750e+00) (45, -4.60987520217895507812e+00) (46, -5.25393676757812500000e+00) (47, -8.94729232788085937500e+00) (48, 2.92730140686035156250e+00) (49, 6.08871078491210937500e+00) (50, 7.03078651428222656250e+00) (51, 2.13972473144531250000e+00) (52, 3.44993686676025390625e+00) (53, 1.11890983581542968750e+00) (54, -3.18079137802124023438e+00) (55, 7.01598548889160156250e+00) (56, 4.13912677764892578125e+00) (57, 4.90159034729003906250e+00) (58, -3.51512622833251953125e+00) (59, 4.20021820068359375000e+00) (60, -6.43147277832031250000e+00) (61, -6.42656612396240234375e+00) (62, 4.20147037506103515625e+00) (63, -1.27065372467041015625e+00) (64, 4.95370674133300781250e+00) (65, -3.32730531692504882812e+00) (66, -5.11133289337158203125e+00) (67, -3.51877307891845703125e+00) (68, -1.50628042221069335938e+00) (69, 5.59907054901123046875e+00) (70, 4.95392036437988281250e+00) (71, -5.64819526672363281250e+00) (72, 2.70747375488281250000e+00) (73, 4.01685714721679687500e-01) (74, 5.73802947998046875000e-01) (75, 1.26740074157714843750e+00) (76, 4.79181003570556640625e+00) (77, 4.31986618041992187500e+00) (78, 1.32010841369628906250e+00) (79, -1.28088760375976562500e+00) (80, 1.40857791900634765625e+00) (81, -6.49105072021484375000e-01) (82, -8.14116287231445312500e+00) (83, -4.14148521423339843750e+00) (84, -8.53019523620605468750e+00) (85, -2.32195377349853515625e+00) (86, -6.12549972534179687500e+00) (87, 4.60893249511718750000e+00) (88, -6.42036342620849609375e+00) (89, -6.40625000000000000000e-01) (90, -1.90849304199218750000e-01) (91, -3.85183620452880859375e+00) (92, 1.93280792236328125000e+00) (93, -4.98937988281250000000e+00) (94, 3.87751007080078125000e+00) (95, -2.11348533630371093750e+00) (96, 6.83314323425292968750e-01) (97, 7.76617622375488281250e+00) (98, 3.36774158477783203125e+00) (99, 8.17703437805175781250e+00) (100, 4.36524772644042968750e+00) (101, -6.78338050842285156250e-01) (102, -6.47116136550903320312e+00) (103, -1.92727947235107421875e+00) (104, 8.72334671020507812500e+00) (105, 3.10264205932617187500e+00) (106, 8.34012222290039062500e+00) (107, 4.51515769958496093750e+00) (108, -1.57749176025390625000e+00) (109, 6.60229682922363281250e-01) (110, -5.76572990417480468750e+00) (111, 8.83108711242675781250e+00) (112, -8.98887538909912109375e+00) (113, -4.90689229965209960938e+00) (114, -4.31039905548095703125e+00) (115, -8.51907062530517578125e+00) (116, 1.77115345001220703125e+00) (117, -1.43589782714843750000e+00) (118, 5.08986186981201171875e+00) (119, 4.35079097747802734375e+00) (120, 6.92347717285156250000e+00) (121, -4.10098838806152343750e+00) (122, -8.50104618072509765625e+00) (123, -1.43714904785156250000e-01) (124, -9.03682708740234375000e-02) (125, 4.37646389007568359375e+00) (126, 6.74279975891113281250e+00) (127, -8.40705299377441406250e+00) (128, 3.14264106750488281250e+00) (129, 1.11054229736328125000e+00) (130, 8.76998138427734375000e+00) (131, -1.49211120605468750000e+00) (132, -8.56779575347900390625e+00) (133, -6.70118045806884765625e+00) (134, 5.58060932159423828125e+00) (135, -8.84444808959960937500e+00) (136, 5.40146160125732421875e+00) (137, 4.92073154449462890625e+00) (138, 4.67070960998535156250e+00) (139, -5.17603063583374023438e+00) (140, -3.41903877258300781250e+00) (141, 7.90497970581054687500e+00) (142, -5.34494495391845703125e+00) (143, -3.40791320800781250000e+00) (144, -6.00191211700439453125e+00) (145, -6.55344009399414062500e-01) (146, -2.92698431015014648438e+00) (147, 4.76924228668212890625e+00) (148, 6.90875816345214843750e+00) (149, -6.83712244033813476562e+00) (150, 1.20032310485839843750e-01) (151, 4.83223438262939453125e+00) (152, -1.93811035156250000000e+00) (153, 6.18986129760742187500e-01) (154, -4.31148004531860351562e+00) (155, 6.97152137756347656250e+00) (156, -4.00454950332641601562e+00) (0, -6.56867980957031250000e+00) (1, 7.56446838378906250000e+00) (2, 8.13809204101562500000e+00) (3, 3.54186153411865234375e+00) (4, 7.33444976806640625000e+00) (5, -2.35401916503906250000e+00) (6, 3.97406578063964843750e+00) (7, -8.36673164367675781250e+00) (8, -5.77340984344482421875e+00) (9, 4.12961673736572265625e+00) (10, 6.03472995758056640625e+00) (11, 8.14732170104980468750e+00) (12, -1.99673652648925781250e-01) (13, -8.14130115509033203125e+00) (14, -4.27171659469604492188e+00) (15, -1.29469299316406250000e+00) (16, -4.48624563217163085938e+00) (17, 1.32036972045898437500e+00) (18, 1.70339488983154296875e+00) (19, 3.85841178894042968750e+00) (20, 7.39338493347167968750e+00) (21, -2.52736330032348632812e+00) (22, 1.76716899871826171875e+00) (23, -8.44373703002929687500e+00) (24, 6.59266948699951171875e+00) (25, -2.40059566497802734375e+00) (26, -1.38184738159179687500e+00) (27, -1.78834438323974609375e+00) (28, 2.28792381286621093750e+00) (29, -3.41032600402832031250e+00) (30, 3.20710659027099609375e+00) (31, 4.71924400329589843750e+00) (32, -4.84585714340209960938e+00) (33, 2.34519767761230468750e+00) (34, -7.38894462585449218750e-01) (35, -6.51140785217285156250e+00) (36, 8.99117851257324218750e+00) (37, -5.76482868194580078125e+00) (38, -5.87813949584960937500e+00) (39, -5.78223037719726562500e+00) (40, 7.36478805541992187500e+00) (41, -8.84340953826904296875e+00) (42, -6.63490819931030273438e+00) (43, -1.83488512039184570312e+00) (44, -7.98471069335937500000e+00) (45, -1.90662479400634765625e+00) (46, 5.87042236328125000000e+00) (47, -3.47095680236816406250e+00) (48, 8.41374588012695312500e+00) (49, -1.42618417739868164062e+00) (50, -8.61254596710205078125e+00) (51, 6.80713081359863281250e+00) (52, 5.04645252227783203125e+00) (53, 2.15462398529052734375e+00) (54, 7.36339378356933593750e+00) (55, 2.63912105560302734375e+00) (56, 8.75402832031250000000e+00) (57, -3.01845264434814453125e+00) (58, -8.14922332763671875000e+00) (59, 2.04195213317871093750e+00) (60, 2.57122135162353515625e+00) (61, 4.05788326263427734375e+00) (62, -2.23880386352539062500e+00) (63, 6.72536468505859375000e+00) (64, -2.59691858291625976562e+00) (65, 6.02230167388916015625e+00) (66, -8.78604316711425781250e+00) (67, -2.60573911666870117188e+00) (68, -8.74252700805664062500e+00) (69, -5.66418313980102539062e+00) (70, 6.12030982971191406250e-01) (71, 7.62226104736328125000e+00) (72, -5.50759315490722656250e+00) (73, 2.97712230682373046875e+00) (74, -3.21262407302856445312e+00) (75, -4.49230384826660156250e+00) (76, -7.92950248718261718750e+00) (77, -6.34220218658447265625e+00) (78, 1.03673934936523437500e+00) (79, -8.51575756072998046875e+00) (80, 1.23161315917968750000e+00) (81, 1.42419433593750000000e+00) (82, 7.29137229919433593750e+00) (83, -2.72193336486816406250e+00) (84, -5.42118263244628906250e+00) (85, 5.65476703643798828125e+00) (86, 8.91718673706054687500e+00) (87, -5.66715478897094726562e+00) (88, -6.36368513107299804688e+00) (89, -8.23203563690185546875e+00) (90, 5.37479686737060546875e+00) (91, 5.20753669738769531250e+00) (92, 4.82584762573242187500e+00) (93, -5.86400699615478515625e+00) (94, 2.93290138244628906250e+00) (95, -6.77107048034667968750e+00) (96, -8.84170532226562500000e+00) (97, 3.14685630798339843750e+00) (98, -3.76810073852539062500e-01) (99, -8.58423233032226562500e+00) (100, 6.48267364501953125000e+00) (101, -8.76477909088134765625e+00) (102, 8.03802871704101562500e+00) (103, -8.02491855621337890625e+00) (104, 3.21234321594238281250e+00) (105, -4.17459440231323242188e+00) (106, -3.51722288131713867188e+00) (107, 4.28283977508544921875e+00) (108, -1.51679658889770507812e+00) (109, 6.51951694488525390625e+00) (110, 4.76708221435546875000e+00) (111, 8.71481704711914062500e+00) (112, -1.05628919601440429688e+00) (113, 3.05845546722412109375e+00) (114, -3.00711631774902343750e+00) (115, 2.52252864837646484375e+00) (116, -2.86776542663574218750e-01) (117, -3.08992862701416015625e+00) (118, 5.85537338256835937500e+00) (119, 2.34953784942626953125e+00) (120, -2.32196378707885742188e+00) (121, 2.23017120361328125000e+00) (122, -1.44292545318603515625e+00) (123, -6.49611616134643554688e+00) (124, 5.36616325378417968750e+00) (125, -7.51002502441406250000e+00) (126, -4.26718616485595703125e+00) (127, 5.52445888519287109375e+00) (128, 4.63683223724365234375e+00) (129, 4.35600376129150390625e+00) (130, 5.94022750854492187500e+00) (131, 2.11950588226318359375e+00) (132, 4.59122467041015625000e+00) (133, 4.97825622558593750000e+00) (134, 3.09458732604980468750e+00) (135, -1.19643259048461914062e+00) (136, -8.19633865356445312500e+00) (137, 8.57736396789550781250e+00) (138, -5.91359233856201171875e+00) (139, -7.13134765625000000000e-01) (140, 6.09688091278076171875e+00) (141, 7.85348892211914062500e+00) (142, -9.98317718505859375000e-01) (143, -3.95940828323364257812e+00) (144, 1.91194629669189453125e+00) (145, 4.99456596374511718750e+00) (146, 7.56311988830566406250e+00) (147, -7.37483072280883789062e+00) (148, -7.09536170959472656250e+00) (149, 4.41849327087402343750e+00) (150, 3.97470760345458984375e+00) (151, -4.17325019836425781250e-01) (152, -2.35133600234985351562e+00) (153, -6.46821880340576171875e+00) (154, 2.08655929565429687500e+00) (155, -5.98517179489135742188e+00) (156, -4.97824335098266601562e+00) (0, 6.81937217712402343750e+00) (1, 8.53928756713867187500e+00) (2, 8.65858840942382812500e+00) (3, 2.17537593841552734375e+00) (4, 5.47951412200927734375e+00) (5, 1.77809524536132812500e+00) (6, -2.23339939117431640625e+00) (7, 1.45776939392089843750e+00) (8, -4.12731790542602539062e+00) (9, 5.57016849517822265625e+00) (10, 2.26143169403076171875e+00) (11, -4.54995346069335937500e+00) (12, 8.65657615661621093750e+00) (13, -7.45170354843139648438e+00) (14, -7.45307254791259765625e+00) (15, 7.51006698608398437500e+00) (16, 5.49978256225585937500e-01) (17, -2.41248130798339843750e+00) (18, 4.22012329101562500000e-01) (19, -3.45545434951782226562e+00) (20, -3.84936141967773437500e+00) (21, 2.04718112945556640625e+00) (22, -1.55081605911254882812e+00) (23, -8.43086814880371093750e+00) (24, -2.97811126708984375000e+00) (25, 7.03185844421386718750e+00) (26, -1.78220415115356445312e+00) (27, -4.46330070495605468750e-01) (28, 1.18417739868164062500e-01) (29, 1.23262405395507812500e+00) (30, 3.57542610168457031250e+00) (31, -2.06221055984497070312e+00) (32, 7.71910667419433593750e-01) (33, 3.23401546478271484375e+00) (34, -8.88683414459228515625e+00) (35, -2.74857521057128906250e+00) (36, -3.98789024353027343750e+00) (37, -2.12023353576660156250e+00) (38, 7.70919418334960937500e+00) (39, 8.84792327880859375000e-01) (40, -5.55006551742553710938e+00) (41, 9.70625877380371093750e-01) (42, 5.33483886718750000000e+00) (43, -5.89348936080932617188e+00) (44, 2.51892185211181640625e+00) (45, 6.88176631927490234375e+00) (46, -7.38342332839965820312e+00) (47, -5.93109941482543945312e+00) (48, -4.53071498870849609375e+00) (49, 2.03858947753906250000e+00) (50, -3.86553764343261718750e-01) (51, 6.19922637939453125000e-01) (52, -4.91422986984252929688e+00) (53, 7.06262969970703125000e+00) (54, 1.18905544281005859375e+00) (55, 1.10765933990478515625e+00) (56, 5.09448814392089843750e+00) (57, 8.40685081481933593750e+00) (58, -8.33867168426513671875e+00) (59, -3.78709459304809570312e+00) (60, 6.39474868774414062500e-01) (61, 4.23675537109375000000e+00) (62, 3.15069389343261718750e+00) (63, -7.58861446380615234375e+00) (64, -1.52922964096069335938e+00) (65, 3.26385974884033203125e+00) (66, -1.33718967437744140625e+00) (67, 3.48288059234619140625e+00) (68, -7.85637331008911132812e+00) (69, -2.62799501419067382812e+00) (70, -4.63232755661010742188e+00) (71, -4.40643882751464843750e+00) (72, 7.34263038635253906250e+00) (73, -8.29748916625976562500e+00) (74, -1.29992818832397460938e+00) (75, 8.61552238464355468750e-01) (76, 7.58427810668945312500e+00) (77, 3.16648483276367187500e-01) (78, 3.93045234680175781250e+00) (79, -5.94643783569335937500e+00) (80, -6.64476251602172851562e+00) (81, -5.45610094070434570312e+00) (82, 3.67348480224609375000e+00) (83, -2.55899238586425781250e+00) (84, -7.39347124099731445312e+00) (85, -4.13745975494384765625e+00) (86, 7.54866600036621093750e+00) (87, 6.70101737976074218750e+00) (88, -4.73060846328735351562e+00) (89, 8.20999526977539062500e+00) (90, -6.08607769012451171875e+00) (91, 4.90886592864990234375e+00) (92, 3.44674873352050781250e+00) (93, 6.06461715698242187500e+00) (94, 6.32025241851806640625e+00) (95, -7.08248043060302734375e+00) (96, 3.28477859497070312500e-01) (97, -4.01693725585937500000e+00) (98, 5.40039920806884765625e+00) (99, 1.47210502624511718750e+00) (100, 2.35506725311279296875e+00) (101, -8.23192787170410156250e+00) (102, 6.06566524505615234375e+00) (103, 6.97697639465332031250e-01) (104, -7.52941656112670898438e+00) (105, -4.23426246643066406250e+00) (106, -7.44075059890747070312e+00) (107, -8.94513988494873046875e+00) (108, 5.08238601684570312500e+00) (109, 5.48970222473144531250e+00) (110, -5.89157772064208984375e+00) (111, 7.43762397766113281250e+00) (112, -8.96639919281005859375e+00) (113, 6.78190803527832031250e+00) (114, -4.12136840820312500000e+00) (115, -7.35986995697021484375e+00) (116, -6.35555171966552734375e+00) (117, -5.57270240783691406250e+00) (118, 8.34114837646484375000e+00) (119, -2.08616065979003906250e+00) (120, -6.36270809173583984375e+00) (121, -6.74493026733398437500e+00) (122, -6.17729425430297851562e+00) (123, 6.08404159545898437500e+00) (124, 8.31968688964843750000e+00) (125, -8.85704231262207031250e+00) (126, 8.00156211853027343750e+00) (127, -3.51834297180175781250e-01) (128, -3.87397956848144531250e+00) (129, 4.40196132659912109375e+00) (130, -7.87972974777221679688e+00) (131, 7.48108673095703125000e+00) (132, 5.17003250122070312500e+00) (133, 7.18593597412109375000e+00) (134, -8.21214675903320312500e-01) (135, 6.64061641693115234375e+00) (136, -6.04832649230957031250e+00) (137, 7.38034248352050781250e-01) (138, 6.69547748565673828125e+00) (139, 8.03405952453613281250e+00) (140, -2.77226305007934570312e+00) (141, -8.19610118865966796875e+00) (142, 6.47168350219726562500e+00) (143, -2.73866176605224609375e+00) (144, 7.58580589294433593750e+00) (145, -6.64968490600585937500e+00) (146, -1.09853267669677734375e+00) (147, -7.76974487304687500000e+00) (148, -3.22238779067993164062e+00) (149, -1.75738477706909179688e+00) (150, -8.55905532836914062500e-01) (151, -5.85095405578613281250e-01) (152, 4.97684478759765625000e-01) (153, 1.96680068969726562500e+00) (154, -3.50105381011962890625e+00) (155, -1.82627677917480468750e-01) (156, 2.10975837707519531250e+00) (0, -4.49949264526367187500e+00) (1, 8.46553802490234375000e+00) (2, 7.23577880859375000000e+00) (3, 8.90246772766113281250e+00) (4, -8.41419219970703125000e+00) (5, 5.71686553955078125000e+00) (6, 5.07250118255615234375e+00) (7, 7.77174377441406250000e+00) (8, -4.10434913635253906250e+00) (9, 2.71311759948730468750e+00) (10, -7.27658224105834960938e+00) (11, 5.63368606567382812500e+00) (12, 4.08595085144042968750e-01) (13, -8.24252223968505859375e+00) (14, -6.13857746124267578125e+00) (15, 1.21249389648437500000e+00) (16, 7.22916221618652343750e+00) (17, 1.22760772705078125000e-01) (18, -2.01699256896972656250e-01) (19, -8.42052364349365234375e+00) (20, 8.02422904968261718750e+00) (21, 1.02855491638183593750e+00) (22, -2.64291143417358398438e+00) (23, -2.73315715789794921875e+00) (24, -8.82735061645507812500e+00) (25, 5.77199363708496093750e+00) (26, 6.76452827453613281250e+00) (27, 2.13945007324218750000e+00) (28, -6.72906064987182617188e+00) (29, -2.41810035705566406250e+00) (30, -4.75079202651977539062e+00) (31, -2.22855281829833984375e+00) (32, -2.95256280899047851562e+00) (33, -6.51501369476318359375e+00) (34, -2.32608461380004882812e+00) (35, -2.36675500869750976562e+00) (36, 8.20185279846191406250e+00) (37, -6.25358295440673828125e+00) (38, -3.59501075744628906250e+00) (39, -4.90249633789062500000e+00) (40, 5.45953559875488281250e+00) (41, -1.87159347534179687500e+00) (42, -8.26881027221679687500e+00) (43, -3.13187026977539062500e+00) (44, -1.11411571502685546875e+00) (45, -5.40738773345947265625e+00) (46, 7.08062362670898437500e+00) (47, -2.88495445251464843750e+00) (48, 3.71537208557128906250e+00) (49, -2.12107515335083007812e+00) (50, -2.30547809600830078125e+00) (51, 2.73960113525390625000e+00) (52, 7.90748023986816406250e+00) (53, 4.05160999298095703125e+00) (54, -8.99355602264404296875e+00) (55, 8.08012962341308593750e+00) (56, 8.23603630065917968750e-01) (57, 6.77097129821777343750e+00) (58, 1.21957969665527343750e+00) (59, 3.09454250335693359375e+00) (60, -4.64712858200073242188e+00) (61, 5.46878814697265625000e+00) (62, -8.13401031494140625000e+00) (63, 1.40030860900878906250e+00) (64, 7.95377349853515625000e+00) (65, -1.46009492874145507812e+00) (66, 8.03355407714843750000e+00) (67, 7.15562820434570312500e+00) (68, 1.28632164001464843750e+00) (69, -4.56145668029785156250e+00) (70, -6.74686908721923828125e+00) (71, -2.25414228439331054688e+00) (72, 2.56694984436035156250e+00) (73, -6.01567935943603515625e+00) (74, 3.61398696899414062500e+00) (75, -7.54716539382934570312e+00) (76, -2.42306756973266601562e+00) (77, 1.69461059570312500000e+00) (78, -1.43211984634399414062e+00) (79, -7.70769453048706054688e+00) (80, 8.57353591918945312500e+00) (81, 5.26240158081054687500e+00) (82, 4.03190612792968750000e+00) (83, 7.48101615905761718750e+00) (84, 3.14011573791503906250e-01) (85, 4.03835010528564453125e+00) (86, 6.56114673614501953125e+00) (87, -7.86238479614257812500e+00) (88, 1.80932140350341796875e+00) (89, -1.21927309036254882812e+00) (90, 4.23215770721435546875e+00) (91, 6.16219425201416015625e+00) (92, -4.75048542022705078125e+00) (93, 5.09814739227294921875e+00) (94, -1.43749761581420898438e+00) (95, -5.79671096801757812500e+00) (96, -5.36194705963134765625e+00) (97, -2.40394306182861328125e+00) (98, -7.64108371734619140625e+00) (99, 4.92437458038330078125e+00) (100, 2.03460025787353515625e+00) (101, -5.38795328140258789062e+00) (102, -6.32976722717285156250e+00) (103, -4.39844989776611328125e+00) (104, -2.40363311767578125000e+00) (105, 6.28421974182128906250e+00) (106, -2.94561529159545898438e+00) (107, 4.17329978942871093750e+00) (108, -1.02116918563842773438e+00) (109, 4.62226486206054687500e+00) (110, 5.46560478210449218750e+00) (111, -1.44763278961181640625e+00) (112, 8.84666442871093750000e-01) (113, 4.97510910034179687500e-01) (114, -2.96661615371704101562e+00) (115, -7.80132102966308593750e+00) (116, -4.46413803100585937500e+00) (117, -5.40546941757202148438e+00) (118, -6.66370582580566406250e+00) (119, 6.34518432617187500000e+00) (120, 2.37525749206542968750e+00) (121, 6.56845188140869140625e+00) (122, 3.50737762451171875000e+00) (123, 6.62477207183837890625e+00) (124, 2.66659927368164062500e+00) (125, -6.93011951446533203125e+00) (126, -8.17193889617919921875e+00) (127, 6.30465221405029296875e+00) (128, -3.34063529968261718750e-01) (129, -6.81302261352539062500e+00) (130, 2.22902870178222656250e+00) (131, -7.29946327209472656250e+00) (132, -3.20097637176513671875e+00) (133, 4.89926052093505859375e+00) (134, -2.69791316986083984375e+00) (135, 3.39539051055908203125e+00) (136, 2.18348026275634765625e+00) (137, 3.35647106170654296875e+00) (138, -1.43130970001220703125e+00) (139, -7.83768844604492187500e+00) (140, -1.02126359939575195312e+00) (141, -4.96570444107055664062e+00) (142, -2.85320281982421875000e-01) (143, 8.86340332031250000000e+00) (144, 4.53180694580078125000e+00) (145, 5.74806308746337890625e+00) (146, -7.93791818618774414062e+00) (147, -8.93233108520507812500e+00) (148, -8.65740680694580078125e+00) (149, -5.60162448883056640625e+00) (150, 6.41285419464111328125e+00) (151, 2.71785163879394531250e+00) (152, -8.03317260742187500000e+00) (153, 9.20231819152832031250e-01) (154, 3.42622756958007812500e-01) (155, 3.63342761993408203125e+00) (156, 2.99011135101318359375e+00) 
