FANN_FLO_2.1
num_layers=2
learning_rate=0.700000
connection_rate=1.000000
network_type=1
learning_momentum=0.000000
training_algorithm=2
train_error_function=0
train_stop_function=1
cascade_output_change_fraction=0.010000
quickprop_decay=-0.000100
quickprop_mu=1.750000
rprop_increase_factor=1.200000
rprop_decrease_factor=0.500000
rprop_delta_min=0.000000
rprop_delta_max=50.000000
rprop_delta_zero=0.100000
cascade_output_stagnation_epochs=12
cascade_candidate_change_fraction=0.010000
cascade_candidate_stagnation_epochs=12
cascade_max_out_epochs=150
cascade_max_cand_epochs=150
cascade_num_candidate_groups=8
bit_fail_limit=8.99999976158142089844e-01
cascade_candidate_limit=1.00000000000000000000e+03
cascade_weight_multiplier=4.00000005960464477539e-01
cascade_activation_functions_count=1
cascade_activation_functions=5 
cascade_activation_steepnesses_count=1
cascade_activation_steepnesses=1.00000000000000000000e+00 
layer_sizes=157 10 
scale_included=0
neurons (num_inputs, activation_function, activation_steepness)=(0, 0, 0.00000000000000000000e+00) (0, 0, 0.00000000000000000000e+00) (0, 0, 0.00000000000000000000e+00) (0, 0, 0.00000000000000000000e+00) (0, 0, 0.00000000000000000000e+00) (0, 0, 0.00000000000000000000e+00) (0, 0, 0.00000000000000000000e+00) (0, 0, 0.00000000000000000000e+00) (0, 0, 0.00000000000000000000e+00) (0, 0, 0.00000000000000000000e+00) (0, 0, 0.00000000000000000000e+00) (0, 0, 0.00000000000000000000e+00) (0, 0, 0.00000000000000000000e+00) (0, 0, 0.00000000000000000000e+00) (0, 0, 0.00000000000000000000e+00) (0, 0, 0.00000000000000000000e+00) (0, 0, 0.00000000000000000000e+00) (0, 0, 0.00000000000000000000e+00) (0, 0, 0.00000000000000000000e+00) (0, 0, 0.00000000000000000000e+00) (0, 0, 0.00000000000000000000e+00) (0, 0, 0.00000000000000000000e+00) (0, 0, 0.00000000000000000000e+00) (0, 0, 0.00000000000000000000e+00) (0, 0, 0.00000000000000000000e+00) (0, 0, 0.00000000000000000000e+00) (0, 0, 0.00000000000000000000e+00) (0, 0, 0.00000000000000000000e+00) (0, 0, 0.00000000000000000000e+00) (0, 0, 0.00000000000000000000e+00) (0, 0, 0.00000000000000000000e+00) (0, 0, 0.00000000000000000000e+00) (0, 0, 0.00000000000000000000e+00) (0, 0, 0.00000000000000000000e+00) (0, 0, 0.00000000000000000000e+00) (0, 0, 0.00000000000000000000e+00) (0, 0, 0.00000000000000000000e+00) (0, 0, 0.00000000000000000000e+00) (0, 0, 0.00000000000000000000e+00) (0, 0, 0.00000000000000000000e+00) (0, 0, 0.00000000000000000000e+00) (0, 0, 0.00000000000000000000e+00) (0, 0, 0.00000000000000000000e+00) (0, 0, 0.00000000000000000000e+00) (0, 0, 0.00000000000000000000e+00) (0, 0, 0.00000000000000000000e+00) (0, 0, 0.00000000000000000000e+00) (0, 0, 0.00000000000000000000e+00) (0, 0, 0.00000000000000000000e+00) (0, 0, 0.00000000000000000000e+00) (0, 0, 0.00000000000000000000e+00) (0, 0, 0.00000000000000000000e+00) (0, 0, 0.00000000000000000000e+00) (0, 0, 0.00000000000000000000e+00) (0, 0, 0.00000000000000000000e+00) (0, 0, 0.00000000000000000000e+00) (0, 0, 0.00000000000000000000e+00) (0, 0, 0.00000000000000000000e+00) (0, 0, 0.00000000000000000000e+00) (0, 0, 0.00000000000000000000e+00) (0, 0, 0.00000000000000000000e+00) (0, 0, 0.00000000000000000000e+00) (0, 0, 0.00000000000000000000e+00) (0, 0, 0.00000000000000000000e+00) (0, 0, 0.00000000000000000000e+00) (0, 0, 0.00000000000000000000e+00) (0, 0, 0.00000000000000000000e+00) (0, 0, 0.00000000000000000000e+00) (0, 0, 0.00000000000000000000e+00) (0, 0, 0.00000000000000000000e+00) (0, 0, 0.00000000000000000000e+00) (0, 0, 0.00000000000000000000e+00) (0, 0, 0.00000000000000000000e+00) (0, 0, 0.00000000000000000000e+00) (0, 0, 0.00000000000000000000e+00) (0, 0, 0.00000000000000000000e+00) (0, 0, 0.00000000000000000000e+00) (0, 0, 0.00000000000000000000e+00) (0, 0, 0.00000000000000000000e+00) (0, 0, 0.00000000000000000000e+00) (0, 0, 0.00000000000000000000e+00) (0, 0, 0.00000000000000000000e+00) (0, 0, 0.00000000000000000000e+00) (0, 0, 0.00000000000000000000e+00) (0, 0, 0.00000000000000000000e+00) (0, 0, 0.00000000000000000000e+00) (0, 0, 0.00000000000000000000e+00) (0, 0, 0.00000000000000000000e+00) (0, 0, 0.00000000000000000000e+00) (0, 0, 0.00000000000000000000e+00) (0, 0, 0.00000000000000000000e+00) (0, 0, 0.00000000000000000000e+00) (0, 0, 0.00000000000000000000e+00) (0, 0, 0.00000000000000000000e+00) (0, 0, 0.00000000000000000000e+00) (0, 0, 0.00000000000000000000e+00) (0, 0, 0.00000000000000000000e+00) (0, 0, 0.00000000000000000000e+00) (0, 0, 0.00000000000000000000e+00) (0, 0, 0.00000000000000000000e+00) (0, 0, 0.00000000000000000000e+00) (0, 0, 0.00000000000000000000e+00) (0, 0, 0.00000000000000000000e+00) (0, 0, 0.00000000000000000000e+00) (0, 0, 0.00000000000000000000e+00) (0, 0, 0.00000000000000000000e+00) (0, 0, 0.00000000000000000000e+00) (0, 0, 0.00000000000000000000e+00) (0, 0, 0.00000000000000000000e+00) (0, 0, 0.00000000000000000000e+00) (0, 0, 0.00000000000000000000e+00) (0, 0, 0.00000000000000000000e+00) (0, 0, 0.00000000000000000000e+00) (0, 0, 0.00000000000000000000e+00) (0, 0, 0.00000000000000000000e+00) (0, 0, 0.00000000000000000000e+00) (0, 0, 0.00000000000000000000e+00) (0, 0, 0.00000000000000000000e+00) (0, 0, 0.00000000000000000000e+00) (0, 0, 0.00000000000000000000e+00) (0, 0, 0.00000000000000000000e+00) (0, 0, 0.00000000000000000000e+00) (0, 0, 0.00000000000000000000e+00) (0, 0, 0.00000000000000000000e+00) (0, 0, 0.00000000000000000000e+00) (0, 0, 0.00000000000000000000e+00) (0, 0, 0.00000000000000000000e+00) (0, 0, 0.00000000000000000000e+00) (0, 0, 0.00000000000000000000e+00) (0, 0, 0.00000000000000000000e+00) (0, 0, 0.00000000000000000000e+00) (0, 0, 0.00000000000000000000e+00) (0, 0, 0.00000000000000000000e+00) (0, 0, 0.00000000000000000000e+00) (0, 0, 0.00000000000000000000e+00) (0, 0, 0.00000000000000000000e+00) (0, 0, 0.00000000000000000000e+00) (0, 0, 0.00000000000000000000e+00) (0, 0, 0.00000000000000000000e+00) (0, 0, 0.00000000000000000000e+00) (0, 0, 0.00000000000000000000e+00) (0, 0, 0.00000000000000000000e+00) (0, 0, 0.00000000000000000000e+00) (0, 0, 0.00000000000000000000e+00) (0, 0, 0.00000000000000000000e+00) (0, 0, 0.00000000000000000000e+00) (0, 0, 0.00000000000000000000e+00) (0, 0, 0.00000000000000000000e+00) (0, 0, 0.00000000000000000000e+00) (0, 0, 0.00000000000000000000e+00) (0, 0, 0.00000000000000000000e+00) (0, 0, 0.00000000000000000000e+00) (0, 0, 0.00000000000000000000e+00) (0, 0, 0.00000000000000000000e+00) (0, 0, 0.00000000000000000000e+00) (0, 0, 0.00000000000000000000e+00) (0, 0, 0.00000000000000000000e+00) (157, 0, 5.00000000000000000000e-01) (157, 0, 5.00000000000000000000e-01) (157, 0, 5.00000000000000000000e-01) (157, 0, 5.00000000000000000000e-01) (157, 0, 5.00000000000000000000e-01) (157, 0, 5.00000000000000000000e-01) (157, 0, 5.00000000000000000000e-01) (157, 0, 5.00000000000000000000e-01) (157, 0, 5.00000000000000000000e-01) (157, 0, 5.00000000000000000000e-01) 
connections (connected_to_neuron, weight)=(0, 7.52309036254882812500e+00) (1, -6.72437286376953125000e+00) (2, 3.06689834594726562500e+00) (3, 7.14279937744140625000e+00) (4, -6.75313949584960937500e-01) (5, -9.69880104064941406250e-01) (6, 4.98873996734619140625e+00) (7, -3.90916728973388671875e+00) (8, -3.47111749649047851562e+00) (9, -7.23145008087158203125e+00) (10, 1.21357822418212890625e+00) (11, -5.07684326171875000000e+00) (12, 7.46564483642578125000e+00) (13, -5.71637058258056640625e+00) (14, 1.04796791076660156250e+00) (15, -5.09329414367675781250e+00) (16, 4.93441295623779296875e+00) (17, -1.40938663482666015625e+00) (18, -3.55920600891113281250e+00) (19, 4.09965038299560546875e+00) (20, -4.07998371124267578125e+00) (21, 1.05075359344482421875e+00) (22, -8.87099933624267578125e+00) (23, 3.67481517791748046875e+00) (24, -7.00787258148193359375e+00) (25, -7.57020187377929687500e+00) (26, -3.33742666244506835938e+00) (27, 5.05738449096679687500e+00) (28, 3.57077789306640625000e+00) (29, 7.09368896484375000000e+00) (30, 5.20800018310546875000e+00) (31, 2.09386825561523437500e+00) (32, -8.63068389892578125000e+00) (33, -7.25101470947265625000e-01) (34, 2.36668586730957031250e-01) (35, -3.05997848510742187500e-01) (36, 7.30501747131347656250e+00) (37, -3.77459192276000976562e+00) (38, 4.78483486175537109375e+00) (39, -5.16609954833984375000e+00) (40, -2.00604200363159179688e+00) (41, -3.00158643722534179688e+00) (42, -1.24294328689575195312e+00) (43, -3.54039669036865234375e+00) (44, 2.82042503356933593750e-01) (45, 8.80502510070800781250e+00) (46, 3.66309165954589843750e-01) (47, -3.78354501724243164062e+00) (48, -1.60436153411865234375e+00) (49, 5.80710220336914062500e+00) (50, -8.68389415740966796875e+00) (51, 3.31565475463867187500e+00) (52, -2.14214420318603515625e+00) (53, -8.55489349365234375000e+00) (54, -2.00952959060668945312e+00) (55, -1.50016784667968750000e-01) (56, -7.12509536743164062500e+00) (57, 3.65304279327392578125e+00) (58, -4.09263134002685546875e+00) (59, 5.44568252563476562500e+00) (60, 1.74673271179199218750e+00) (61, -7.88463115692138671875e+00) (62, -1.46044874191284179688e+00) (63, 2.11604976654052734375e+00) (64, 3.90266418457031250000e-01) (65, 7.77622032165527343750e+00) (66, -7.18994855880737304688e+00) (67, -1.30471563339233398438e+00) (68, -4.99837255477905273438e+00) (69, 6.59488677978515625000e+00) (70, 2.52918434143066406250e+00) (71, 1.99558639526367187500e+00) (72, -5.40670061111450195312e+00) (73, -7.71375846862792968750e+00) (74, 7.45518875122070312500e+00) (75, 3.87534236907958984375e+00) (76, -7.90873336791992187500e+00) (77, -1.17850255966186523438e+00) (78, -8.90820312500000000000e+00) (79, -5.13094902038574218750e-01) (80, -4.37139987945556640625e+00) (81, -8.59209728240966796875e+00) (82, -6.19744062423706054688e+00) (83, 2.48645591735839843750e+00) (84, -8.14699077606201171875e+00) (85, 7.93029785156250000000e-01) (86, -6.66355991363525390625e+00) (87, -6.27208614349365234375e+00) (88, -4.55392646789550781250e+00) (89, -1.75619125366210937500e+00) (90, 8.17359542846679687500e+00) (91, 6.19280624389648437500e+00) (92, -6.40822410583496093750e-01) (93, -2.28685235977172851562e+00) (94, -6.91144943237304687500e-01) (95, 8.74944496154785156250e+00) (96, -3.51063346862792968750e+00) (97, 1.11890697479248046875e+00) (98, -1.55527210235595703125e+00) (99, 4.90994453430175781250e-01) (100, -1.28620672225952148438e+00) (101, -8.02608680725097656250e+00) (102, -6.51342058181762695312e+00) (103, 2.30709266662597656250e+00) (104, -6.73984527587890625000e+00) (105, -8.05823135375976562500e+00) (106, -2.81756496429443359375e+00) (107, -5.64857864379882812500e+00) (108, -2.36734390258789062500e-01) (109, -2.72576808929443359375e+00) (110, 2.83832645416259765625e+00) (111, 4.39186668395996093750e+00) (112, -2.31786537170410156250e+00) (113, 5.64088535308837890625e+00) (114, -2.12167787551879882812e+00) (115, -1.46485614776611328125e+00) (116, -2.56608438491821289062e+00) (117, 2.14762687683105468750e-01) (118, 1.26305770874023437500e+00) (119, 1.87998962402343750000e+00) (120, 7.45857048034667968750e+00) (121, 4.36654090881347656250e-01) (122, -9.27205085754394531250e-01) (123, -2.18225240707397460938e+00) (124, 7.14980125427246093750e+00) (125, 7.38165092468261718750e+00) (126, -2.43280887603759765625e+00) (127, -5.36083173751831054688e+00) (128, -4.99443054199218750000e-01) (129, 5.01191997528076171875e+00) (130, 4.13016223907470703125e+00) (131, 7.21434974670410156250e+00) (132, 5.98583221435546875000e+00) (133, 6.61674118041992187500e+00) (134, 5.21442413330078125000e-01) (135, 8.24598693847656250000e+00) (136, 7.55850982666015625000e+00) (137, 6.70387744903564453125e+00) (138, -6.40259170532226562500e+00) (139, -1.67822456359863281250e+00) (140, -5.02189064025878906250e+00) (141, 5.43573474884033203125e+00) (142, -6.28635835647583007812e+00) (143, 1.66024398803710937500e+00) (144, 2.07662010192871093750e+00) (145, 5.91963768005371093750e-01) (146, -8.80461215972900390625e+00) (147, 8.51053619384765625000e+00) (148, -8.19327354431152343750e+00) (149, 1.45844554901123046875e+00) (150, 1.39052486419677734375e+00) (151, 8.26529693603515625000e+00) (152, -7.10489940643310546875e+00) (153, -8.53668022155761718750e+00) (154, -2.91695547103881835938e+00) (155, -8.95509815216064453125e+00) (156, 7.84497070312500000000e+00) (0, 3.65023612976074218750e+00) (1, -5.31592941284179687500e+00) (2, -1.65447282791137695312e+00) (3, -3.37843894958496093750e-01) (4, 7.81423377990722656250e+00) (5, -3.44012260437011718750e+00) (6, -3.35201120376586914062e+00) (7, 5.43097400665283203125e+00) (8, 6.08132076263427734375e+00) (9, -4.10602378845214843750e+00) (10, 3.98948478698730468750e+00) (11, 3.78519916534423828125e+00) (12, -1.50861549377441406250e+00) (13, -6.68874025344848632812e+00) (14, 7.76330757141113281250e+00) (15, -5.07288074493408203125e+00) (16, -3.97509860992431640625e+00) (17, 4.23551559448242187500e-01) (18, 6.00373935699462890625e+00) (19, 5.61686515808105468750e+00) (20, 6.18940353393554687500e-01) (21, 5.51427555084228515625e+00) (22, 6.42359161376953125000e+00) (23, -6.92261457443237304688e+00) (24, -2.09520053863525390625e+00) (25, 5.68888854980468750000e+00) (26, -5.02751398086547851562e+00) (27, -1.63188123703002929688e+00) (28, -6.22806739807128906250e+00) (29, -4.98261213302612304688e+00) (30, -2.78691101074218750000e+00) (31, 6.42216873168945312500e+00) (32, -1.29854202270507812500e+00) (33, 4.55861568450927734375e+00) (34, -2.91567516326904296875e+00) (35, -2.48430919647216796875e+00) (36, -7.88150644302368164062e+00) (37, 2.73231410980224609375e+00) (38, -6.05333518981933593750e+00) (39, 7.19981384277343750000e+00) (40, 7.62628936767578125000e+00) (41, 6.93614959716796875000e+00) (42, 1.98501300811767578125e+00) (43, -2.88232517242431640625e+00) (44, -8.75259113311767578125e+00) (45, 7.48320579528808593750e-01) (46, 1.04479312896728515625e+00) (47, -3.72768974304199218750e+00) (48, -7.82812786102294921875e+00) (49, -1.95146751403808593750e+00) (50, -7.11082458496093750000e+00) (51, 1.79081249237060546875e+00) (52, -5.43719244003295898438e+00) (53, 8.31276702880859375000e+00) (54, 3.86819839477539062500e+00) (55, 1.46760749816894531250e+00) (56, 5.00165462493896484375e+00) (57, 7.84068298339843750000e+00) (58, 8.83572578430175781250e+00) (59, 7.77358818054199218750e+00) (60, -6.14192867279052734375e+00) (61, -2.95118570327758789062e+00) (62, 5.19575786590576171875e+00) (63, 1.55952930450439453125e+00) (64, -7.39257001876831054688e+00) (65, -6.71991777420043945312e+00) (66, 8.07522010803222656250e+00) (67, -6.27407646179199218750e+00) (68, 5.01239585876464843750e+00) (69, -6.97811508178710937500e+00) (70, -8.07426261901855468750e+00) (71, 3.63868618011474609375e+00) (72, 8.95803451538085937500e+00) (73, 2.91075038909912109375e+00) (74, -8.24363994598388671875e+00) (75, -8.79455661773681640625e+00) (76, -5.34092903137207031250e+00) (77, 1.80115413665771484375e+00) (78, -3.52224636077880859375e+00) (79, -4.16905593872070312500e+00) (80, 8.84968566894531250000e+00) (81, -1.63307094573974609375e+00) (82, 6.62175559997558593750e+00) (83, -5.58750629425048828125e+00) (84, -2.32030391693115234375e+00) (85, 1.48995304107666015625e+00) (86, 4.88010025024414062500e+00) (87, -6.31864881515502929688e+00) (88, 3.30636978149414062500e-01) (89, 4.71582603454589843750e+00) (90, -7.54506063461303710938e+00) (91, 3.18870735168457031250e+00) (92, -7.23536014556884765625e+00) (93, 6.65069580078125000000e+00) (94, -4.25176239013671875000e+00) (95, -5.62792968750000000000e+00) (96, 8.93077850341796875000e+00) (97, -5.17654228210449218750e+00) (98, -2.90200614929199218750e+00) (99, 4.94317531585693359375e+00) (100, -3.15465736389160156250e+00) (101, -1.97626829147338867188e+00) (102, -4.18139457702636718750e-01) (103, -3.19662332534790039062e+00) (104, -8.06551742553710937500e+00) (105, 3.38221549987792968750e-01) (106, -2.99118041992187500000e+00) (107, -4.40644645690917968750e+00) (108, -6.86062526702880859375e+00) (109, 2.48657321929931640625e+00) (110, 4.24497604370117187500e-01) (111, -7.01093912124633789062e+00) (112, -8.14649772644042968750e+00) (113, -1.95374679565429687500e+00) (114, -3.59844493865966796875e+00) (115, -1.46680212020874023438e+00) (116, 8.53620719909667968750e+00) (117, -7.71834468841552734375e+00) (118, 1.21454906463623046875e+00) (119, -1.33156776428222656250e-01) (120, 5.99748039245605468750e+00) (121, 2.66948890686035156250e+00) (122, -5.94444847106933593750e+00) (123, 7.76212120056152343750e+00) (124, 3.20184707641601562500e-01) (125, -1.19621086120605468750e+00) (126, -6.86580896377563476562e+00) (127, 2.50963211059570312500e-01) (128, 2.62724590301513671875e+00) (129, -7.67814636230468750000e-01) (130, -3.80586147308349609375e+00) (131, 8.47258949279785156250e+00) (132, 6.25591659545898437500e+00) (133, 4.77599906921386718750e+00) (134, -3.72403430938720703125e+00) (135, 7.19039916992187500000e+00) (136, -3.88577985763549804688e+00) (137, 2.28478527069091796875e+00) (138, -6.21604776382446289062e+00) (139, -1.74640512466430664062e+00) (140, -4.22864151000976562500e+00) (141, 3.20845031738281250000e+00) (142, 2.42656707763671875000e-01) (143, -3.37513875961303710938e+00) (144, -7.74529743194580078125e+00) (145, 5.64420986175537109375e+00) (146, 4.15805912017822265625e+00) (147, -8.20909118652343750000e+00) (148, 6.92586612701416015625e+00) (149, -3.62739086151123046875e+00) (150, 6.57752990722656250000e-01) (151, 3.92334651947021484375e+00) (152, 8.04209709167480468750e+00) (153, 3.71330356597900390625e+00) (154, 2.68546772003173828125e+00) (155, -6.37718200683593750000e-01) (156, -6.48290681838989257812e+00) (0, 4.81965827941894531250e+00) (1, 8.61324501037597656250e+00) (2, 5.14433956146240234375e+00) (3, -4.94815683364868164062e+00) (4, -4.19261598587036132812e+00) (5, 4.61692905426025390625e+00) (6, -7.69224023818969726562e+00) (7, -8.41661739349365234375e+00) (8, -8.10710525512695312500e+00) (9, 8.49815940856933593750e+00) (10, -3.30239677429199218750e+00) (11, 3.17767906188964843750e+00) (12, -6.71788883209228515625e+00) (13, 3.95119762420654296875e+00) (14, 7.94903945922851562500e+00) (15, 5.49056053161621093750e+00) (16, -4.80614614486694335938e+00) (17, -4.42610025405883789062e+00) (18, 6.74526309967041015625e+00) (19, -8.16193580627441406250e+00) (20, 8.73196029663085937500e+00) (21, 7.53617286682128906250e+00) (22, 7.76392936706542968750e+00) (23, -3.89543247222900390625e+00) (24, -8.06075096130371093750e-01) (25, 2.68727588653564453125e+00) (26, -4.85333490371704101562e+00) (27, -6.09277105331420898438e+00) (28, -3.62725639343261718750e+00) (29, 3.50894737243652343750e+00) (30, -3.57567787170410156250e+00) (31, -7.80759763717651367188e+00) (32, 3.12219333648681640625e+00) (33, -7.43133831024169921875e+00) (34, -3.75575399398803710938e+00) (35, 7.92957687377929687500e+00) (36, 6.18559074401855468750e+00) (37, -2.44799423217773437500e+00) (38, 8.51296043395996093750e+00) (39, 7.07848548889160156250e+00) (40, -2.94983577728271484375e+00) (41, -3.78943681716918945312e+00) (42, 1.25616550445556640625e+00) (43, -6.67724609375000000000e-01) (44, -8.83823871612548828125e+00) (45, 2.05204010009765625000e-01) (46, -4.17716455459594726562e+00) (47, -4.64438533782958984375e+00) (48, 4.77910327911376953125e+00) (49, -6.43190097808837890625e+00) (50, -3.80632114410400390625e+00) (51, 4.51106262207031250000e+00) (52, -7.89572906494140625000e+00) (53, -5.04239177703857421875e+00) (54, -8.38436985015869140625e+00) (55, 2.98194885253906250000e-01) (56, 6.64488410949707031250e+00) (57, -4.23770523071289062500e+00) (58, 3.20542430877685546875e+00) (59, -5.98237133026123046875e+00) (60, 8.27124214172363281250e+00) (61, 8.62974739074707031250e+00) (62, -4.78996896743774414062e+00) (63, 2.39343452453613281250e+00) (64, -7.80159139633178710938e+00) (65, 4.54277038574218750000e-01) (66, 1.32301235198974609375e+00) (67, 7.38399887084960937500e+00) (68, 7.00628280639648437500e+00) (69, 8.35972785949707031250e-01) (70, 5.46248531341552734375e+00) (71, -4.94355344772338867188e+00) (72, 6.04653549194335937500e+00) (73, -2.28135013580322265625e+00) (74, 3.38872146606445312500e+00) (75, 6.20829677581787109375e+00) (76, 6.92385292053222656250e+00) (77, 8.21155738830566406250e+00) (78, -7.43608903884887695312e+00) (79, 2.70295619964599609375e+00) (80, -7.22034454345703125000e+00) (81, -2.24241065979003906250e+00) (82, -1.78598117828369140625e+00) (83, -6.11607360839843750000e+00) (84, 1.71519756317138671875e+00) (85, -1.17035150527954101562e+00) (86, 3.18212223052978515625e+00) (87, -6.39917373657226562500e-01) (88, 3.59194374084472656250e+00) (89, -2.61245346069335937500e+00) (90, 2.37771034240722656250e+00) (91, 2.86318588256835937500e+00) (92, -2.98270654678344726562e+00) (93, 6.58774185180664062500e+00) (94, -3.74337816238403320312e+00) (95, -1.78429794311523437500e+00) (96, -1.95798158645629882812e+00) (97, 6.57963371276855468750e+00) (98, -3.40029859542846679688e+00) (99, -3.95169925689697265625e+00) (100, -1.58439350128173828125e+00) (101, -6.93781423568725585938e+00) (102, 1.04746818542480468750e-01) (103, -4.53785848617553710938e+00) (104, -2.19163894653320312500e-01) (105, -5.50653123855590820312e+00) (106, -7.32956171035766601562e+00) (107, -2.29531097412109375000e+00) (108, -6.29497432708740234375e+00) (109, -5.76565074920654296875e+00) (110, -8.59235477447509765625e+00) (111, -4.51531839370727539062e+00) (112, 9.91938591003417968750e-01) (113, -1.37833595275878906250e+00) (114, -1.63139200210571289062e+00) (115, -6.29286336898803710938e+00) (116, 6.45131206512451171875e+00) (117, -7.44926929473876953125e+00) (118, 2.06721878051757812500e+00) (119, 1.04325675964355468750e+00) (120, -1.06172275543212890625e+00) (121, -4.55506992340087890625e+00) (122, -5.09355735778808593750e+00) (123, 4.95557117462158203125e+00) (124, -6.96732807159423828125e+00) (125, 1.63064002990722656250e-01) (126, -5.82872724533081054688e+00) (127, 7.46908187866210937500e-02) (128, -2.25730228424072265625e+00) (129, -2.29025840759277343750e-01) (130, 5.12299156188964843750e+00) (131, 5.15830421447753906250e+00) (132, 1.83316040039062500000e+00) (133, -3.77226161956787109375e+00) (134, -8.37955379486083984375e+00) (135, -7.38600444793701171875e+00) (136, -2.78792381286621093750e-01) (137, -6.70911598205566406250e+00) (138, -6.81316375732421875000e-01) (139, 2.42623329162597656250e+00) (140, -3.47476625442504882812e+00) (141, -2.73670196533203125000e-01) (142, 6.91091537475585937500e+00) (143, 6.51717281341552734375e+00) (144, 7.34799385070800781250e+00) (145, -3.72047710418701171875e+00) (146, -8.77569103240966796875e+00) (147, 4.79930686950683593750e+00) (148, -2.16974687576293945312e+00) (149, 2.29152774810791015625e+00) (150, -3.15743684768676757812e+00) (151, 5.76852989196777343750e+00) (152, 6.73645782470703125000e+00) (153, 7.49006271362304687500e-01) (154, 1.72410106658935546875e+00) (155, 8.76913070678710937500e+00) (156, -8.08792972564697265625e+00) (0, 4.89537334442138671875e+00) (1, -1.56179428100585937500e-01) (2, -1.34523200988769531250e+00) (3, -4.33365154266357421875e+00) (4, -4.03318786621093750000e+00) (5, -5.18692779541015625000e+00) (6, 6.49950885772705078125e+00) (7, 1.19455051422119140625e+00) (8, -4.56648159027099609375e+00) (9, 8.11350440979003906250e+00) (10, -8.08424186706542968750e+00) (11, -2.27559757232666015625e+00) (12, -1.56781196594238281250e+00) (13, 3.34199142456054687500e+00) (14, 3.24963569641113281250e+00) (15, 7.15851783752441406250e+00) (16, 1.25290584564208984375e+00) (17, 7.66808509826660156250e-01) (18, 5.50651168823242187500e+00) (19, 6.53242874145507812500e+00) (20, 9.91117477416992187500e-01) (21, 1.30581855773925781250e+00) (22, -4.63731718063354492188e+00) (23, -5.71735572814941406250e+00) (24, 7.14838027954101562500e+00) (25, -7.86878681182861328125e+00) (26, -7.98089694976806640625e+00) (27, -1.10261249542236328125e+00) (28, 2.85531425476074218750e+00) (29, -8.21176719665527343750e+00) (30, -1.90542221069335937500e-01) (31, -1.24931049346923828125e+00) (32, 6.32054328918457031250e-01) (33, 7.46422576904296875000e+00) (34, 3.41703796386718750000e+00) (35, 5.59886646270751953125e+00) (36, -6.72270202636718750000e+00) (37, 9.16545867919921875000e-01) (38, -2.20658302307128906250e+00) (39, -2.28918457031250000000e+00) (40, 3.00502777099609375000e-02) (41, -1.29082489013671875000e+00) (42, 4.43521785736083984375e+00) (43, 7.46223831176757812500e+00) (44, -6.94883346557617187500e+00) (45, -1.31514596939086914062e+00) (46, 5.62075614929199218750e+00) (47, 3.30407238006591796875e+00) (48, 8.45166206359863281250e+00) (49, 2.12726783752441406250e+00) (50, 8.36503028869628906250e-01) (51, 4.42777633666992187500e-01) (52, -5.56691455841064453125e+00) (53, 5.19918537139892578125e+00) (54, 3.72542285919189453125e+00) (55, -7.41853332519531250000e+00) (56, 6.33039855957031250000e+00) (57, 4.74452590942382812500e+00) (58, 4.78855133056640625000e-01) (59, 1.85713768005371093750e-01) (60, 5.53275871276855468750e+00) (61, -8.71168804168701171875e+00) (62, 7.93640136718750000000e+00) (63, -2.83518695831298828125e+00) (64, 7.75253677368164062500e+00) (65, 2.35344028472900390625e+00) (66, -6.23632097244262695312e+00) (67, -7.97016525268554687500e+00) (68, -5.73001384735107421875e+00) (69, 5.57095527648925781250e-01) (70, -1.25934982299804687500e+00) (71, 3.30003547668457031250e+00) (72, 8.26627159118652343750e+00) (73, -5.82413196563720703125e+00) (74, 1.76227474212646484375e+00) (75, -7.68256187438964843750e+00) (76, 1.86072254180908203125e+00) (77, -1.61696958541870117188e+00) (78, 4.62151145935058593750e+00) (79, 1.31238365173339843750e+00) (80, -8.48970222473144531250e+00) (81, -3.54198646545410156250e+00) (82, -7.24483776092529296875e+00) (83, -5.05661678314208984375e+00) (84, -7.34280061721801757812e+00) (85, 5.48058509826660156250e+00) (86, -3.47515010833740234375e+00) (87, 7.98759841918945312500e+00) (88, 1.22511100769042968750e+00) (89, 6.00370407104492187500e+00) (90, -8.26688766479492187500e-01) (91, -2.24213027954101562500e+00) (92, 6.29201602935791015625e+00) (93, -1.89028549194335937500e+00) (94, 3.92268276214599609375e+00) (95, 5.04455280303955078125e+00) (96, -8.53684520721435546875e+00) (97, 6.68636226654052734375e+00) (98, 6.07438850402832031250e+00) (99, -5.26685953140258789062e+00) (100, -1.75654220581054687500e+00) (101, -4.18496227264404296875e+00) (102, 7.03317642211914062500e+00) (103, -2.49027061462402343750e+00) (104, -1.00909376144409179688e+00) (105, -2.04549789428710937500e-01) (106, -1.17283248901367187500e+00) (107, -8.14837169647216796875e+00) (108, 7.17848014831542968750e+00) (109, -5.55132102966308593750e+00) (110, 2.16401290893554687500e+00) (111, 7.68877792358398437500e+00) (112, -9.33074951171875000000e-02) (113, 3.91917419433593750000e+00) (114, -6.36783838272094726562e+00) (115, 1.56389236450195312500e+00) (116, 3.99759292602539062500e-01) (117, -8.42988014221191406250e-01) (118, 5.51489830017089843750e-01) (119, -7.37512922286987304688e+00) (120, -3.83928346633911132812e+00) (121, 8.72480201721191406250e+00) (122, -6.17259025573730468750e-01) (123, -6.54726743698120117188e+00) (124, -2.16548395156860351562e+00) (125, -5.69457674026489257812e+00) (126, 7.49728584289550781250e+00) (127, -1.70232963562011718750e+00) (128, -8.00821495056152343750e+00) (129, 4.57167243957519531250e+00) (130, 2.03081130981445312500e+00) (131, -7.64757156372070312500e-01) (132, -8.61328887939453125000e+00) (133, 6.39867782592773437500e-02) (134, 5.74497222900390625000e+00) (135, -6.22383117675781250000e-01) (136, 8.85943794250488281250e+00) (137, -4.42786026000976562500e+00) (138, 2.29245185852050781250e-01) (139, 7.03791809082031250000e+00) (140, -9.79181289672851562500e-01) (141, -6.60674238204956054688e+00) (142, 5.72669601440429687500e+00) (143, 7.92751312255859375000e+00) (144, 6.31243228912353515625e+00) (145, 8.35885810852050781250e+00) (146, 4.91404533386230468750e-01) (147, -2.28780841827392578125e+00) (148, -1.48412990570068359375e+00) (149, -7.95710563659667968750e+00) (150, -6.62937164306640625000e-01) (151, 3.67658615112304687500e+00) (152, -8.23230361938476562500e+00) (153, 7.71980285644531250000e+00) (154, 6.12931823730468750000e+00) (155, -1.39778757095336914062e+00) (156, -6.97477340698242187500e+00) (0, 4.62660408020019531250e+00) (1, 5.89988231658935546875e+00) (2, -5.98298835754394531250e+00) (3, 1.98277473449707031250e-01) (4, -1.06930589675903320312e+00) (5, 2.25225448608398437500e+00) (6, 5.84988594055175781250e-01) (7, 7.99468040466308593750e+00) (8, -1.00277376174926757812e+00) (9, 8.96260643005371093750e+00) (10, 7.85411834716796875000e+00) (11, 3.56936550140380859375e+00) (12, 1.91851615905761718750e-01) (13, 5.89203739166259765625e+00) (14, -6.40981531143188476562e+00) (15, 2.58510875701904296875e+00) (16, 2.61873435974121093750e+00) (17, -7.48230361938476562500e+00) (18, -1.02458953857421875000e-01) (19, 1.97759151458740234375e+00) (20, 2.00909996032714843750e+00) (21, 6.60973262786865234375e+00) (22, -8.50653839111328125000e+00) (23, 3.05199432373046875000e+00) (24, -3.05320453643798828125e+00) (25, 4.17004871368408203125e+00) (26, 3.81969070434570312500e+00) (27, -4.33340167999267578125e+00) (28, 1.29936695098876953125e+00) (29, -6.57809638977050781250e+00) (30, -2.30817556381225585938e+00) (31, -3.07402753829956054688e+00) (32, 8.32178688049316406250e+00) (33, 7.08835601806640625000e-01) (34, 6.12425041198730468750e+00) (35, -1.74751996994018554688e+00) (36, -6.03890991210937500000e+00) (37, -2.29076099395751953125e+00) (38, -2.75283908843994140625e+00) (39, 1.95831584930419921875e+00) (40, -2.32815456390380859375e+00) (41, -3.89872026443481445312e+00) (42, -3.47231769561767578125e+00) (43, 6.86369705200195312500e+00) (44, -7.00668334960937500000e+00) (45, -8.82132530212402343750e-01) (46, 4.48805809020996093750e-01) (47, 4.61205101013183593750e+00) (48, 6.35562896728515625000e-01) (49, -8.65365314483642578125e+00) (50, -2.41035747528076171875e+00) (51, -6.35533618927001953125e+00) (52, 6.95607948303222656250e+00) (53, -1.91689586639404296875e+00) (54, 5.69665908813476562500e+00) (55, -5.09712505340576171875e+00) (56, -6.74684762954711914062e+00) (57, 5.16349792480468750000e-01) (58, -4.30526733398437500000e-01) (59, 3.55252075195312500000e+00) (60, 2.93825340270996093750e+00) (61, 6.26129817962646484375e+00) (62, -8.52150821685791015625e+00) (63, 2.26004028320312500000e+00) (64, -2.02986574172973632812e+00) (65, 6.60274219512939453125e+00) (66, -8.48748016357421875000e+00) (67, 9.31224822998046875000e-01) (68, -4.68801879882812500000e+00) (69, -2.24031877517700195312e+00) (70, -6.11045932769775390625e+00) (71, 1.98382568359375000000e+00) (72, 2.86096096038818359375e+00) (73, -5.82777023315429687500e-01) (74, -1.52476310729980468750e-01) (75, 4.85427761077880859375e+00) (76, 7.53508949279785156250e+00) (77, -8.70367050170898437500e+00) (78, 4.66328620910644531250e-01) (79, -8.29346656799316406250e-01) (80, -8.35732364654541015625e+00) (81, 7.05597114562988281250e+00) (82, 1.81531715393066406250e+00) (83, 7.59875679016113281250e+00) (84, -3.86092519760131835938e+00) (85, -1.48802423477172851562e+00) (86, -6.49836874008178710938e+00) (87, -1.60777235031127929688e+00) (88, 8.02832603454589843750e+00) (89, 2.07110404968261718750e+00) (90, -7.05525255203247070312e+00) (91, 1.96657943725585937500e+00) (92, -6.67597770690917968750e-01) (93, -6.57676076889038085938e+00) (94, -4.77338123321533203125e+00) (95, 6.30253696441650390625e+00) (96, -8.97401905059814453125e+00) (97, -4.26086139678955078125e+00) (98, -1.76623964309692382812e+00) (99, -4.66203737258911132812e+00) (100, 2.49882030487060546875e+00) (101, 1.12330150604248046875e+00) (102, 6.32178878784179687500e+00) (103, -3.64021873474121093750e+00) (104, -8.45947551727294921875e+00) (105, -2.83068752288818359375e+00) (106, -7.78594112396240234375e+00) (107, 8.07561492919921875000e+00) (108, -2.53435802459716796875e+00) (109, 1.68038749694824218750e+00) (110, -1.75373220443725585938e+00) (111, -1.89168214797973632812e+00) (112, -2.63641357421875000000e-01) (113, -8.93841552734375000000e+00) (114, -3.29292583465576171875e+00) (115, 4.87543296813964843750e+00) (116, -1.42643928527832031250e+00) (117, -7.91295051574707031250e-01) (118, -5.73233985900878906250e+00) (119, -2.39811372756958007812e+00) (120, -7.72019052505493164062e+00) (121, -3.78759241104125976562e+00) (122, 8.56846427917480468750e+00) (123, 6.12212181091308593750e-01) (124, -1.36435270309448242188e+00) (125, -5.20491600036621093750e+00) (126, -2.08525180816650390625e+00) (127, -1.33837127685546875000e+00) (128, -4.65776443481445312500e-01) (129, 5.14850902557373046875e+00) (130, 2.99959182739257812500e+00) (131, -6.96695709228515625000e+00) (132, -2.72818994522094726562e+00) (133, 3.21380615234375000000e-01) (134, -1.60717535018920898438e+00) (135, -2.18766593933105468750e+00) (136, 6.49069213867187500000e+00) (137, -3.93115997314453125000e-01) (138, -3.11205196380615234375e+00) (139, -5.04366540908813476562e+00) (140, -7.71272897720336914062e+00) (141, 4.13421535491943359375e+00) (142, 2.06465148925781250000e+00) (143, 1.02363014221191406250e+00) (144, 4.19580078125000000000e+00) (145, 7.77172660827636718750e+00) (146, -3.10093736648559570312e+00) (147, -6.23063898086547851562e+00) (148, -2.01956844329833984375e+00) (149, 1.66723251342773437500e-01) (150, 3.71246337890625000000e-01) (151, -7.39759445190429687500e-01) (152, 5.37913036346435546875e+00) (153, -6.02874755859375000000e-02) (154, 8.87245178222656250000e+00) (155, -4.98522186279296875000e+00) (156, 3.73479652404785156250e+00) (0, -2.21279954910278320312e+00) (1, 2.67640686035156250000e+00) (2, -5.73097991943359375000e+00) (3, -6.06429052352905273438e+00) (4, -3.32400226593017578125e+00) (5, -3.69793701171875000000e+00) (6, 2.07519531250000000000e-01) (7, 5.99737834930419921875e+00) (8, 3.69488811492919921875e+00) (9, 7.01985359191894531250e+00) (10, 3.48807144165039062500e+00) (11, -5.69822883605957031250e+00) (12, -5.09219837188720703125e+00) (13, 7.44440460205078125000e+00) (14, -4.41095781326293945312e+00) (15, 8.04201889038085937500e+00) (16, 5.09057998657226562500e-01) (17, 5.61267185211181640625e+00) (18, 3.23781776428222656250e+00) (19, -7.19216346740722656250e-01) (20, -6.48826599121093750000e+00) (21, 6.00717926025390625000e+00) (22, 6.26121520996093750000e+00) (23, 2.67845726013183593750e+00) (24, -2.62157392501831054688e+00) (25, -3.47854328155517578125e+00) (26, -9.42412376403808593750e-01) (27, 6.31813812255859375000e+00) (28, -3.60609054565429687500e+00) (29, 3.07236671447753906250e+00) (30, 1.05293560028076171875e+00) (31, 3.18110942840576171875e+00) (32, -3.25122737884521484375e+00) (33, 4.32195472717285156250e+00) (34, 6.11681938171386718750e+00) (35, 2.42477035522460937500e+00) (36, -8.37598228454589843750e+00) (37, -2.67566156387329101562e+00) (38, -5.77852249145507812500e-01) (39, 4.31890487670898437500e+00) (40, -4.65580797195434570312e+00) (41, -6.08978080749511718750e+00) (42, 7.62067604064941406250e+00) (43, -7.48006820678710937500e-01) (44, -7.64537572860717773438e+00) (45, -5.79028224945068359375e+00) (46, -1.70598888397216796875e+00) (47, 1.86368179321289062500e+00) (48, 8.82238960266113281250e+00) (49, -7.46817111968994140625e+00) (50, -7.85553455352783203125e+00) (51, -6.66587638854980468750e+00) (52, 7.53900909423828125000e+00) (53, 7.40568161010742187500e+00) (54, 5.01258087158203125000e+00) (55, -4.08256578445434570312e+00) (56, -5.07286262512207031250e+00) (57, -4.92983150482177734375e+00) (58, -6.76442718505859375000e+00) (59, 3.21046829223632812500e-01) (60, 7.14253425598144531250e+00) (61, 3.28850841522216796875e+00) (62, -5.49784374237060546875e+00) (63, -5.10869312286376953125e+00) (64, -1.38953733444213867188e+00) (65, -8.38102436065673828125e+00) (66, 6.31607723236083984375e+00) (67, -7.65520095825195312500e-01) (68, -2.05668544769287109375e+00) (69, -3.26177406311035156250e+00) (70, -5.44661474227905273438e+00) (71, 2.28750610351562500000e+00) (72, -3.51555824279785156250e-01) (73, -6.82593917846679687500e+00) (74, -7.46050024032592773438e+00) (75, 1.00306892395019531250e+00) (76, -3.61622047424316406250e+00) (77, -1.66489601135253906250e-01) (78, -6.13324975967407226562e+00) (79, -3.79383134841918945312e+00) (80, 1.36534023284912109375e+00) (81, -4.98878431320190429688e+00) (82, -1.45970726013183593750e+00) (83, -9.56516265869140625000e-02) (84, -6.58310317993164062500e+00) (85, -5.44712686538696289062e+00) (86, 4.82178211212158203125e+00) (87, -2.65596580505371093750e+00) (88, -1.37695789337158203125e+00) (89, 7.05735588073730468750e+00) (90, 6.66508007049560546875e+00) (91, -3.23442363739013671875e+00) (92, 1.34586334228515625000e+00) (93, -7.83276271820068359375e+00) (94, 6.56882286071777343750e-01) (95, 8.95632553100585937500e+00) (96, -7.21378707885742187500e+00) (97, -2.02703952789306640625e+00) (98, -8.09193611145019531250e-01) (99, -2.70472526550292968750e-01) (100, 3.71118545532226562500e+00) (101, 2.74419212341308593750e+00) (102, -6.98296642303466796875e+00) (103, -5.64036941528320312500e+00) (104, 4.91825294494628906250e+00) (105, -5.44346666336059570312e+00) (106, 4.36269855499267578125e+00) (107, -7.69796800613403320312e+00) (108, 3.39004421234130859375e+00) (109, 7.22944831848144531250e+00) (110, -2.49179887771606445312e+00) (111, -4.24461603164672851562e+00) (112, -6.75933456420898437500e+00) (113, 5.04849338531494140625e+00) (114, 4.65973186492919921875e+00) (115, -4.34243774414062500000e+00) (116, 8.60136604309082031250e+00) (117, 4.81513977050781250000e-01) (118, 2.00159645080566406250e+00) (119, -1.77559185028076171875e+00) (120, -1.46113061904907226562e+00) (121, -3.33323478698730468750e-01) (122, 3.98998451232910156250e+00) (123, 8.88473320007324218750e+00) (124, 8.33913803100585937500e-01) (125, -4.35313320159912109375e+00) (126, 8.84105873107910156250e+00) (127, 2.62012672424316406250e+00) (128, 2.61982727050781250000e+00) (129, -9.68134880065917968750e-01) (130, -6.65034580230712890625e+00) (131, -2.66898679733276367188e+00) (132, -7.22394323348999023438e+00) (133, -4.63331270217895507812e+00) (134, 6.90644264221191406250e-01) (135, 6.69431018829345703125e+00) (136, -1.07677984237670898438e+00) (137, -3.94665718078613281250e+00) (138, 7.99634170532226562500e+00) (139, -6.68673610687255859375e+00) (140, -5.71720743179321289062e+00) (141, -3.49545764923095703125e+00) (142, -1.93135213851928710938e+00) (143, -3.47654199600219726562e+00) (144, -7.44696426391601562500e+00) (145, -6.27162027359008789062e+00) (146, 1.18101978302001953125e+00) (147, -7.84559822082519531250e+00) (148, 3.20989418029785156250e+00) (149, -5.81738376617431640625e+00) (150, -6.21190071105957031250e-01) (151, -7.25123691558837890625e+00) (152, 2.84929275512695312500e+00) (153, -5.63120555877685546875e+00) (154, -7.36650419235229492188e+00) (155, -5.31679391860961914062e+00) (156, -9.84338760375976562500e-01) (0, -7.52544546127319335938e+00) (1, 6.30333328247070312500e+00) (2, -7.36451101303100585938e+00) (3, 5.06419181823730468750e-01) (4, 8.65298652648925781250e+00) (5, -1.03349733352661132812e+00) (6, 2.28247642517089843750e+00) (7, -4.98032617568969726562e+00) (8, 8.65714645385742187500e+00) (9, -2.32143402099609375000e-02) (10, 2.94289493560791015625e+00) (11, -4.28951025009155273438e+00) (12, -1.02687311172485351562e+00) (13, 5.25615882873535156250e+00) (14, -1.00671768188476562500e+00) (15, 4.47766876220703125000e+00) (16, -5.67519330978393554688e+00) (17, 4.51673984527587890625e+00) (18, 6.03070449829101562500e+00) (19, -2.94681358337402343750e+00) (20, -3.30223989486694335938e+00) (21, 7.18510627746582031250e+00) (22, -8.73691940307617187500e+00) (23, -1.19624137878417968750e-01) (24, -2.43608283996582031250e+00) (25, -6.98815679550170898438e+00) (26, -6.27033138275146484375e+00) (27, 9.32711601257324218750e-01) (28, -5.35466098785400390625e+00) (29, -2.58712482452392578125e+00) (30, 8.94837188720703125000e+00) (31, -3.88010644912719726562e+00) (32, -5.28379201889038085938e+00) (33, -7.41613817214965820312e+00) (34, 5.62631320953369140625e+00) (35, -5.63080549240112304688e+00) (36, 5.50364494323730468750e-01) (37, -1.09121131896972656250e+00) (38, -1.61113119125366210938e+00) (39, 2.07510948181152343750e-01) (40, 7.88557434082031250000e+00) (41, -7.66823673248291015625e+00) (42, 4.91799926757812500000e+00) (43, -2.14129877090454101562e+00) (44, 6.58792304992675781250e+00) (45, -5.08871746063232421875e+00) (46, -6.66362953186035156250e+00) (47, -8.08727073669433593750e+00) (48, 8.42802238464355468750e+00) (49, 8.36707496643066406250e+00) (50, -2.03408432006835937500e+00) (51, -3.87421751022338867188e+00) (52, 6.55218124389648437500e+00) (53, -1.77100419998168945312e+00) (54, 5.00615882873535156250e+00) (55, -4.88390111923217773438e+00) (56, 2.40839004516601562500e-01) (57, 7.73582839965820312500e+00) (58, 5.04881000518798828125e+00) (59, 3.88617706298828125000e+00) (60, -3.85129737854003906250e+00) (61, 4.99718284606933593750e+00) (62, -8.99392890930175781250e+00) (63, -1.35089874267578125000e-01) (64, 6.58104419708251953125e+00) (65, 5.63238430023193359375e+00) (66, 3.23410606384277343750e+00) (67, -1.86859083175659179688e+00) (68, -4.45882701873779296875e+00) (69, -7.37702560424804687500e+00) (70, 7.33892059326171875000e+00) (71, -5.57325267791748046875e+00) (72, -6.04526233673095703125e+00) (73, 3.25691986083984375000e+00) (74, 1.28544902801513671875e+00) (75, -8.45734024047851562500e+00) (76, 7.16820144653320312500e+00) (77, 3.62182044982910156250e+00) (78, -7.54461097717285156250e+00) (79, 6.59622383117675781250e+00) (80, 2.98889541625976562500e+00) (81, -5.78695297241210937500e-01) (82, -6.27799320220947265625e+00) (83, 5.41076660156250000000e-01) (84, 6.65030002593994140625e+00) (85, 7.72816467285156250000e+00) (86, 4.65717601776123046875e+00) (87, -2.10886049270629882812e+00) (88, 6.46399307250976562500e+00) (89, 7.05986022949218750000e-01) (90, -7.22268247604370117188e+00) (91, -6.38730478286743164062e+00) (92, -3.29683065414428710938e+00) (93, -7.21661090850830078125e+00) (94, 2.47760581970214843750e+00) (95, -5.71578645706176757812e+00) (96, 7.41577339172363281250e+00) (97, -3.28828859329223632812e+00) (98, 1.41562271118164062500e+00) (99, -6.04305362701416015625e+00) (100, -1.66531372070312500000e+00) (101, -2.45457649230957031250e-01) (102, -2.61630630493164062500e+00) (103, 1.28942394256591796875e+00) (104, -5.98853778839111328125e+00) (105, 7.66914367675781250000e+00) (106, 1.83208370208740234375e+00) (107, -7.82033538818359375000e+00) (108, 2.29096221923828125000e+00) (109, 3.28747272491455078125e+00) (110, 7.77588844299316406250e+00) (111, -3.72014236450195312500e+00) (112, -6.29122257232666015625e+00) (113, -7.50210523605346679688e+00) (114, 5.82093429565429687500e+00) (115, -8.64092254638671875000e+00) (116, -8.77394008636474609375e+00) (117, 1.47811031341552734375e+00) (118, -1.74978303909301757812e+00) (119, 6.69005298614501953125e+00) (120, -6.81590318679809570312e+00) (121, 2.75344848632812500000e-02) (122, -8.69725227355957031250e+00) (123, -1.11273431777954101562e+00) (124, 1.81092357635498046875e+00) (125, 2.78035449981689453125e+00) (126, 2.17148017883300781250e+00) (127, 2.26696968078613281250e-01) (128, 8.49206542968750000000e+00) (129, -5.41289758682250976562e+00) (130, 3.18364238739013671875e+00) (131, -2.17324876785278320312e+00) (132, 3.34164524078369140625e+00) (133, -8.43266296386718750000e+00) (134, 8.11617660522460937500e+00) (135, 6.35310745239257812500e+00) (136, 8.23648071289062500000e+00) (137, 9.48258399963378906250e-01) (138, 7.53277206420898437500e+00) (139, 1.52744293212890625000e+00) (140, -4.76426887512207031250e+00) (141, 6.30865955352783203125e+00) (142, 6.80730056762695312500e+00) (143, -2.05549144744873046875e+00) (144, 7.80655479431152343750e+00) (145, 3.62823486328125000000e+00) (146, -1.69641351699829101562e+00) (147, 8.03261566162109375000e+00) (148, -3.89365386962890625000e+00) (149, 5.55380344390869140625e+00) (150, 5.72266769409179687500e+00) (151, -1.70955753326416015625e+00) (152, -3.41866207122802734375e+00) (153, 6.02541542053222656250e+00) (154, 6.17770862579345703125e+00) (155, 7.39226150512695312500e+00) (156, -1.94231033325195312500e-01) (0, -6.50812149047851562500e-01) (1, -1.38104200363159179688e+00) (2, -7.02164649963378906250e-01) (3, 2.93629074096679687500e+00) (4, -7.19739913940429687500e+00) (5, 6.12458705902099609375e+00) (6, -2.72206449508666992188e+00) (7, -6.63006210327148437500e+00) (8, 5.24076175689697265625e+00) (9, -5.36895751953125000000e+00) (10, -7.39358186721801757812e+00) (11, -2.81097936630249023438e+00) (12, -6.83618545532226562500e+00) (13, 3.13386058807373046875e+00) (14, 1.42475223541259765625e+00) (15, 8.47247505187988281250e+00) (16, 9.41162109375000000000e-01) (17, 8.36926078796386718750e+00) (18, 7.27902984619140625000e+00) (19, -4.43060255050659179688e+00) (20, -2.32715320587158203125e+00) (21, 6.31164455413818359375e+00) (22, 6.75744056701660156250e-01) (23, -5.77334976196289062500e+00) (24, 3.03431224822998046875e+00) (25, 7.96618652343750000000e+00) (26, -1.92011833190917968750e-01) (27, 5.97286224365234375000e-02) (28, 5.14389419555664062500e+00) (29, -1.79975032806396484375e+00) (30, 8.86549758911132812500e+00) (31, -4.50691747665405273438e+00) (32, 5.81920814514160156250e+00) (33, -8.36667060852050781250e-01) (34, 7.42937278747558593750e+00) (35, 7.62180709838867187500e+00) (36, -3.71208000183105468750e+00) (37, -4.29269218444824218750e+00) (38, -8.00825309753417968750e+00) (39, -7.47131824493408203125e+00) (40, -6.61649703979492187500e-01) (41, -6.40183496475219726562e+00) (42, -1.28229761123657226562e+00) (43, 1.50216579437255859375e+00) (44, 5.73202705383300781250e+00) (45, -8.85754585266113281250e+00) (46, 9.74639892578125000000e-01) (47, -2.32681131362915039062e+00) (48, 8.51171493530273437500e+00) (49, -7.46330261230468750000e-01) (50, 2.24258518218994140625e+00) (51, -2.81543874740600585938e+00) (52, -3.43468570709228515625e+00) (53, -6.08167076110839843750e+00) (54, 4.11211967468261718750e-01) (55, 8.59962654113769531250e+00) (56, -7.11548471450805664062e+00) (57, -8.78079986572265625000e+00) (58, -3.40645790100097656250e-01) (59, 7.02840995788574218750e+00) (60, -1.58055067062377929688e+00) (61, -4.75147247314453125000e-01) (62, -6.47850751876831054688e+00) (63, -4.76134300231933593750e+00) (64, 7.68818473815917968750e+00) (65, -8.04913520812988281250e+00) (66, -6.13953447341918945312e+00) (67, -5.02389478683471679688e+00) (68, -3.34182643890380859375e+00) (69, -5.14778804779052734375e+00) (70, -3.49521350860595703125e+00) (71, 4.99652385711669921875e+00) (72, -2.54962301254272460938e+00) (73, 4.22248935699462890625e+00) (74, -2.50131082534790039062e+00) (75, -5.81759643554687500000e+00) (76, 4.36494350433349609375e+00) (77, 7.47332954406738281250e+00) (78, 8.55591773986816406250e-01) (79, 3.87665748596191406250e+00) (80, -2.27300119400024414062e+00) (81, -5.90182304382324218750e+00) (82, -7.93878078460693359375e+00) (83, 3.29231262207031250000e+00) (84, -2.98349332809448242188e+00) (85, 1.47243118286132812500e+00) (86, 2.89194107055664062500e+00) (87, -1.09897804260253906250e+00) (88, 1.69163036346435546875e+00) (89, -6.44870471954345703125e+00) (90, -3.07056808471679687500e+00) (91, -8.88891983032226562500e+00) (92, 2.07614803314208984375e+00) (93, -5.49076080322265625000e-01) (94, -4.65026330947875976562e+00) (95, 7.64332771301269531250e-01) (96, 4.01789665222167968750e-01) (97, -1.78979778289794921875e+00) (98, 4.74043846130371093750e+00) (99, 6.05996322631835937500e+00) (100, 2.06241416931152343750e+00) (101, -7.75477504730224609375e+00) (102, 2.05648708343505859375e+00) (103, 8.51279258728027343750e+00) (104, 5.46771430969238281250e+00) (105, 8.55517578125000000000e+00) (106, -6.30480527877807617188e+00) (107, 8.32657814025878906250e-01) (108, 7.02850532531738281250e+00) (109, 3.55078697204589843750e+00) (110, -4.29068470001220703125e+00) (111, -4.24449491500854492188e+00) (112, 6.64896297454833984375e+00) (113, -3.22946548461914062500e+00) (114, 8.04781723022460937500e+00) (115, -5.33452987670898437500e+00) (116, 7.24296569824218750000e+00) (117, 1.93975830078125000000e+00) (118, 2.56649208068847656250e+00) (119, -6.54039382934570312500e-02) (120, 4.49105358123779296875e+00) (121, 8.49592399597167968750e+00) (122, 4.56762313842773437500e-02) (123, -2.43279886245727539062e+00) (124, -1.05315208435058593750e+00) (125, 4.39541339874267578125e+00) (126, 7.33153343200683593750e+00) (127, 8.34863662719726562500e+00) (128, -6.39438486099243164062e+00) (129, 3.07197284698486328125e+00) (130, 5.40860080718994140625e+00) (131, 4.66802978515625000000e+00) (132, 4.31719779968261718750e+00) (133, -1.53491306304931640625e+00) (134, 4.18082046508789062500e+00) (135, 7.84912109375000000000e-01) (136, -1.97973632812500000000e+00) (137, 6.87601566314697265625e+00) (138, -7.38243055343627929688e+00) (139, -3.95123100280761718750e+00) (140, 1.42680168151855468750e+00) (141, -2.67311525344848632812e+00) (142, 8.04274559020996093750e-01) (143, -9.24234390258789062500e-01) (144, 3.09741973876953125000e+00) (145, -1.47907257080078125000e-01) (146, 2.74123573303222656250e+00) (147, 1.34038543701171875000e+00) (148, -7.20814895629882812500e+00) (149, -3.69227218627929687500e+00) (150, -7.72501850128173828125e+00) (151, 6.28290367126464843750e+00) (152, -4.19634866714477539062e+00) (153, 1.32065773010253906250e+00) (154, -5.14989471435546875000e+00) (155, 3.75049877166748046875e+00) (156, -3.28392934799194335938e+00) (0, -6.81836032867431640625e+00) (1, 3.09913635253906250000e+00) (2, -6.78314208984375000000e-01) (3, 5.25361251831054687500e+00) (4, -4.92263793945312500000e-01) (5, -5.01028537750244140625e+00) (6, 5.70810317993164062500e-01) (7, 6.97282314300537109375e+00) (8, 8.17053604125976562500e+00) (9, -7.64427757263183593750e+00) (10, -4.00691318511962890625e+00) (11, 6.04655075073242187500e+00) (12, -6.02670860290527343750e+00) (13, 1.04185581207275390625e+00) (14, -1.52664756774902343750e+00) (15, 3.00176620483398437500e-01) (16, -7.15387010574340820312e+00) (17, 6.54911899566650390625e+00) (18, -5.60240364074707031250e+00) (19, 1.69822216033935546875e+00) (20, 2.90354728698730468750e-01) (21, 4.73798179626464843750e+00) (22, 3.49007320404052734375e+00) (23, 5.59808158874511718750e+00) (24, 6.01296329498291015625e+00) (25, 7.72976875305175781250e-01) (26, -7.59826660156250000000e+00) (27, -1.66637849807739257812e+00) (28, 4.62308311462402343750e+00) (29, 5.15223121643066406250e+00) (30, 4.04969120025634765625e+00) (31, 6.80472278594970703125e+00) (32, -7.48631477355957031250e-01) (33, -5.62862253189086914062e+00) (34, 3.05833530426025390625e+00) (35, 7.75910377502441406250e+00) (36, -1.63890743255615234375e+00) (37, -5.37085485458374023438e+00) (38, 5.73192787170410156250e+00) (39, -2.46837186813354492188e+00) (40, -4.01513290405273437500e+00) (41, -7.27498626708984375000e+00) (42, -5.42182111740112304688e+00) (43, -1.04184055328369140625e+00) (44, 2.76686954498291015625e+00) (45, 2.05153179168701171875e+00) (46, 8.25833511352539062500e+00) (47, 4.61299896240234375000e+00) (48, -3.99350166320800781250e-01) (49, -6.34406757354736328125e+00) (50, -2.68877840042114257812e+00) (51, 8.89100265502929687500e+00) (52, 7.39391326904296875000e+00) (53, -8.19870471954345703125e+00) (54, 5.48908615112304687500e+00) (55, 4.40687656402587890625e+00) (56, 1.57427310943603515625e+00) (57, 6.89081954956054687500e+00) (58, -6.25950145721435546875e+00) (59, -2.80264377593994140625e+00) (60, 3.04305076599121093750e+00) (61, 6.79018974304199218750e+00) (62, -4.99792098999023437500e+00) (63, -6.70558071136474609375e+00) (64, -7.83843231201171875000e+00) (65, 7.06041336059570312500e+00) (66, -7.94647598266601562500e+00) (67, -4.77339744567871093750e-01) (68, -7.31044101715087890625e+00) (69, 6.78545093536376953125e+00) (70, 6.05428886413574218750e+00) (71, -2.32557344436645507812e+00) (72, 8.51046371459960937500e+00) (73, -8.36753273010253906250e+00) (74, 5.63258552551269531250e+00) (75, 2.27733516693115234375e+00) (76, 2.68400001525878906250e+00) (77, 4.89092159271240234375e+00) (78, -2.10966587066650390625e+00) (79, -6.71535062789916992188e+00) (80, 7.54685401916503906250e+00) (81, 4.20155620574951171875e+00) (82, -6.82434654235839843750e+00) (83, 5.94076728820800781250e+00) (84, 5.00285053253173828125e+00) (85, 7.66473960876464843750e+00) (86, 1.34764480590820312500e+00) (87, -2.42287588119506835938e+00) (88, 5.55555915832519531250e+00) (89, 4.08814239501953125000e+00) (90, 3.77448081970214843750e+00) (91, -4.01390075683593750000e-01) (92, 1.87833404541015625000e+00) (93, 7.77655982971191406250e+00) (94, 1.89302921295166015625e+00) (95, 3.03990077972412109375e+00) (96, 5.83697414398193359375e+00) (97, 2.94655227661132812500e+00) (98, -6.43743848800659179688e+00) (99, 7.52653312683105468750e+00) (100, 7.32004165649414062500e-01) (101, 8.61684989929199218750e+00) (102, -3.79904079437255859375e+00) (103, 2.42468833923339843750e-01) (104, -8.75068283081054687500e+00) (105, -7.16645479202270507812e+00) (106, -6.48019647598266601562e+00) (107, 2.93331623077392578125e+00) (108, 6.72446632385253906250e+00) (109, 4.10137176513671875000e-01) (110, 5.21796607971191406250e+00) (111, 5.27131938934326171875e+00) (112, -4.38830709457397460938e+00) (113, 7.39361953735351562500e+00) (114, 2.21208667755126953125e+00) (115, -8.38545513153076171875e+00) (116, 6.05835914611816406250e+00) (117, -5.44026851654052734375e+00) (118, -1.80833148956298828125e+00) (119, 2.61391639709472656250e+00) (120, 7.64787292480468750000e+00) (121, -7.03385066986083984375e+00) (122, -6.78747320175170898438e+00) (123, 5.26207923889160156250e-01) (124, -8.25729084014892578125e+00) (125, 4.10555553436279296875e+00) (126, -5.43389129638671875000e+00) (127, 6.57968330383300781250e+00) (128, -1.94789171218872070312e+00) (129, -2.87132978439331054688e+00) (130, 5.10621547698974609375e+00) (131, 7.78411293029785156250e+00) (132, -3.25447988510131835938e+00) (133, -7.69282436370849609375e+00) (134, -9.73419189453125000000e-01) (135, -3.00516271591186523438e+00) (136, -5.85927963256835937500e+00) (137, 1.54638481140136718750e+00) (138, 8.92815399169921875000e+00) (139, -8.13481330871582031250e+00) (140, -7.04347753524780273438e+00) (141, 5.14612007141113281250e+00) (142, 6.13650608062744140625e+00) (143, -2.43178462982177734375e+00) (144, 3.53973960876464843750e+00) (145, -6.51407241821289062500e-01) (146, -1.81723976135253906250e+00) (147, 5.98098754882812500000e-01) (148, 2.90832328796386718750e+00) (149, 5.37442874908447265625e+00) (150, -5.78798484802246093750e+00) (151, 1.55619812011718750000e+00) (152, 7.34057807922363281250e+00) (153, -3.57545804977416992188e+00) (154, -6.91759443283081054688e+00) (155, 8.08328819274902343750e+00) (156, -8.46990203857421875000e+00) (0, -3.35148572921752929688e+00) (1, 5.66297054290771484375e+00) (2, -1.41779327392578125000e+00) (3, 2.77718353271484375000e+00) (4, 1.76918601989746093750e+00) (5, -2.63368082046508789062e+00) (6, 8.52270507812500000000e+00) (7, 3.07636165618896484375e+00) (8, 5.39290046691894531250e+00) (9, -3.48245811462402343750e+00) (10, 6.21708106994628906250e+00) (11, -2.06071424484252929688e+00) (12, -3.55430412292480468750e+00) (13, 7.08226966857910156250e+00) (14, -1.04191780090332031250e-01) (15, -7.40818405151367187500e+00) (16, 4.21877479553222656250e+00) (17, 6.46402359008789062500e+00) (18, 5.13155555725097656250e+00) (19, -5.43263244628906250000e+00) (20, -4.35321617126464843750e+00) (21, -3.27034616470336914062e+00) (22, 6.47569179534912109375e+00) (23, -7.97878694534301757812e+00) (24, -5.83314895629882812500e-02) (25, -9.68111038208007812500e-01) (26, 8.36179161071777343750e+00) (27, 5.36621093750000000000e+00) (28, 1.11429500579833984375e+00) (29, 7.44507980346679687500e+00) (30, 5.89630889892578125000e+00) (31, 6.76280879974365234375e+00) (32, 4.10804939270019531250e+00) (33, -4.52148437500000000000e+00) (34, 5.39993286132812500000e-01) (35, -3.12276458740234375000e+00) (36, 1.84483528137207031250e+00) (37, 6.26983642578125000000e-02) (38, 8.95359611511230468750e+00) (39, -1.76226425170898437500e+00) (40, 5.58023929595947265625e+00) (41, 6.17067909240722656250e+00) (42, 5.17702198028564453125e+00) (43, -6.97406435012817382812e+00) (44, 4.25294685363769531250e+00) (45, -3.92717027664184570312e+00) (46, -5.38224840164184570312e+00) (47, -5.28278350830078125000e-01) (48, -6.46314716339111328125e+00) (49, 8.74930763244628906250e+00) (50, 3.03908920288085937500e+00) (51, -1.81636285781860351562e+00) (52, -3.52103948593139648438e+00) (53, 5.14780044555664062500e-01) (54, -7.95149803161621093750e-01) (55, 5.42062950134277343750e+00) (56, 8.54666900634765625000e+00) (57, -1.43335819244384765625e+00) (58, 1.78684139251708984375e+00) (59, 6.60964012145996093750e-01) (60, -2.98827838897705078125e+00) (61, -1.31684970855712890625e+00) (62, -1.57622718811035156250e+00) (63, -7.88022899627685546875e+00) (64, 3.16166591644287109375e+00) (65, 7.96376609802246093750e+00) (66, -2.00299310684204101562e+00) (67, -3.99349927902221679688e+00) (68, -9.73535537719726562500e-01) (69, -2.04939651489257812500e+00) (70, 3.24423694610595703125e+00) (71, -4.39329576492309570312e+00) (72, -4.87871742248535156250e+00) (73, -5.78742027282714843750e-01) (74, -2.36736011505126953125e+00) (75, 8.37422943115234375000e+00) (76, 4.49408721923828125000e+00) (77, 1.25039196014404296875e+00) (78, -1.15404891967773437500e+00) (79, 7.03094100952148437500e+00) (80, 9.99698638916015625000e-01) (81, -7.11496019363403320312e+00) (82, -3.78542184829711914062e+00) (83, 6.47866058349609375000e+00) (84, 2.39981937408447265625e+00) (85, 4.41942882537841796875e+00) (86, 2.89929008483886718750e+00) (87, 1.94648838043212890625e+00) (88, -6.01392936706542968750e+00) (89, -4.31386852264404296875e+00) (90, -6.39254713058471679688e+00) (91, -2.20870971679687500000e-03) (92, 3.36928176879882812500e+00) (93, 1.03122520446777343750e+00) (94, 1.11756324768066406250e+00) (95, -2.46905231475830078125e+00) (96, -5.00679016113281250000e-03) (97, 8.11456871032714843750e+00) (98, 2.53744888305664062500e+00) (99, 8.02145767211914062500e+00) (100, -2.93482732772827148438e+00) (101, -3.21831464767456054688e+00) (102, -5.37183856964111328125e+00) (103, 1.18645477294921875000e+00) (104, 5.20294380187988281250e+00) (105, 1.26080131530761718750e+00) (106, 5.60684204101562500000e-01) (107, 6.97031974792480468750e-01) (108, -6.48880672454833984375e+00) (109, 8.40663528442382812500e+00) (110, -1.27202749252319335938e+00) (111, 3.51089286804199218750e+00) (112, -7.70832443237304687500e+00) (113, 3.94255065917968750000e+00) (114, 9.89551544189453125000e-01) (115, 3.69149494171142578125e+00) (116, -6.38020515441894531250e-01) (117, -5.11115837097167968750e+00) (118, -3.36201524734497070312e+00) (119, 2.34805011749267578125e+00) (120, -4.25026893615722656250e-01) (121, -7.54562377929687500000e-01) (122, -6.65415954589843750000e+00) (123, -6.05574512481689453125e+00) (124, -8.72333621978759765625e+00) (125, 3.46340370178222656250e+00) (126, 4.75202560424804687500e-01) (127, 2.71656036376953125000e-01) (128, 2.57797241210937500000e+00) (129, -5.98734855651855468750e+00) (130, -7.06886291503906250000e-01) (131, 8.64314460754394531250e+00) (132, -2.05662727355957031250e-01) (133, 2.92127418518066406250e+00) (134, 8.29599380493164062500e-01) (135, -4.00271844863891601562e+00) (136, -4.81792402267456054688e+00) (137, -7.60971641540527343750e+00) (138, 5.69431304931640625000e+00) (139, -2.30673074722290039062e+00) (140, -8.20308017730712890625e+00) (141, -4.57771444320678710938e+00) (142, -7.79583883285522460938e+00) (143, -6.91140460968017578125e+00) (144, 8.36483764648437500000e+00) (145, 2.19371318817138671875e+00) (146, 5.78009033203125000000e+00) (147, -1.27318477630615234375e+00) (148, 6.08255481719970703125e+00) (149, -6.58192491531372070312e+00) (150, -7.92513513565063476562e+00) (151, -3.34247159957885742188e+00) (152, 1.66351222991943359375e+00) (153, -5.57929420471191406250e+00) (154, -3.98217201232910156250e-01) (155, 1.94017601013183593750e+00) (156, 6.88410854339599609375e+00) 
