FANN_FLO_2.1
num_layers=3
learning_rate=0.700000
connection_rate=0.400000
network_type=0
learning_momentum=0.000000
training_algorithm=2
train_error_function=1
train_stop_function=0
cascade_output_change_fraction=0.010000
quickprop_decay=-0.000100
quickprop_mu=1.750000
rprop_increase_factor=1.200000
rprop_decrease_factor=0.500000
rprop_delta_min=0.000000
rprop_delta_max=50.000000
rprop_delta_zero=0.100000
cascade_output_stagnation_epochs=12
cascade_candidate_change_fraction=0.010000
cascade_candidate_stagnation_epochs=12
cascade_max_out_epochs=150
cascade_max_cand_epochs=150
cascade_num_candidate_groups=2
bit_fail_limit=3.49999994039535522461e-01
cascade_candidate_limit=1.00000000000000000000e+03
cascade_weight_multiplier=4.00000005960464477539e-01
cascade_activation_functions_count=10
cascade_activation_functions=3 5 7 8 10 11 14 15 16 17 
cascade_activation_steepnesses_count=4
cascade_activation_steepnesses=2.50000000000000000000e-01 5.00000000000000000000e-01 7.50000000000000000000e-01 1.00000000000000000000e+00 
layer_sizes=157 103 11 
scale_included=0
neurons (num_inputs, activation_function, activation_steepness)=(0, 0, 0.00000000000000000000e+00) (0, 0, 0.00000000000000000000e+00) (0, 0, 0.00000000000000000000e+00) (0, 0, 0.00000000000000000000e+00) (0, 0, 0.00000000000000000000e+00) (0, 0, 0.00000000000000000000e+00) (0, 0, 0.00000000000000000000e+00) (0, 0, 0.00000000000000000000e+00) (0, 0, 0.00000000000000000000e+00) (0, 0, 0.00000000000000000000e+00) (0, 0, 0.00000000000000000000e+00) (0, 0, 0.00000000000000000000e+00) (0, 0, 0.00000000000000000000e+00) (0, 0, 0.00000000000000000000e+00) (0, 0, 0.00000000000000000000e+00) (0, 0, 0.00000000000000000000e+00) (0, 0, 0.00000000000000000000e+00) (0, 0, 0.00000000000000000000e+00) (0, 0, 0.00000000000000000000e+00) (0, 0, 0.00000000000000000000e+00) (0, 0, 0.00000000000000000000e+00) (0, 0, 0.00000000000000000000e+00) (0, 0, 0.00000000000000000000e+00) (0, 0, 0.00000000000000000000e+00) (0, 0, 0.00000000000000000000e+00) (0, 0, 0.00000000000000000000e+00) (0, 0, 0.00000000000000000000e+00) (0, 0, 0.00000000000000000000e+00) (0, 0, 0.00000000000000000000e+00) (0, 0, 0.00000000000000000000e+00) (0, 0, 0.00000000000000000000e+00) (0, 0, 0.00000000000000000000e+00) (0, 0, 0.00000000000000000000e+00) (0, 0, 0.00000000000000000000e+00) (0, 0, 0.00000000000000000000e+00) (0, 0, 0.00000000000000000000e+00) (0, 0, 0.00000000000000000000e+00) (0, 0, 0.00000000000000000000e+00) (0, 0, 0.00000000000000000000e+00) (0, 0, 0.00000000000000000000e+00) (0, 0, 0.00000000000000000000e+00) (0, 0, 0.00000000000000000000e+00) (0, 0, 0.00000000000000000000e+00) (0, 0, 0.00000000000000000000e+00) (0, 0, 0.00000000000000000000e+00) (0, 0, 0.00000000000000000000e+00) (0, 0, 0.00000000000000000000e+00) (0, 0, 0.00000000000000000000e+00) (0, 0, 0.00000000000000000000e+00) (0, 0, 0.00000000000000000000e+00) (0, 0, 0.00000000000000000000e+00) (0, 0, 0.00000000000000000000e+00) (0, 0, 0.00000000000000000000e+00) (0, 0, 0.00000000000000000000e+00) (0, 0, 0.00000000000000000000e+00) (0, 0, 0.00000000000000000000e+00) (0, 0, 0.00000000000000000000e+00) (0, 0, 0.00000000000000000000e+00) (0, 0, 0.00000000000000000000e+00) (0, 0, 0.00000000000000000000e+00) (0, 0, 0.00000000000000000000e+00) (0, 0, 0.00000000000000000000e+00) (0, 0, 0.00000000000000000000e+00) (0, 0, 0.00000000000000000000e+00) (0, 0, 0.00000000000000000000e+00) (0, 0, 0.00000000000000000000e+00) (0, 0, 0.00000000000000000000e+00) (0, 0, 0.00000000000000000000e+00) (0, 0, 0.00000000000000000000e+00) (0, 0, 0.00000000000000000000e+00) (0, 0, 0.00000000000000000000e+00) (0, 0, 0.00000000000000000000e+00) (0, 0, 0.00000000000000000000e+00) (0, 0, 0.00000000000000000000e+00) (0, 0, 0.00000000000000000000e+00) (0, 0, 0.00000000000000000000e+00) (0, 0, 0.00000000000000000000e+00) (0, 0, 0.00000000000000000000e+00) (0, 0, 0.00000000000000000000e+00) (0, 0, 0.00000000000000000000e+00) (0, 0, 0.00000000000000000000e+00) (0, 0, 0.00000000000000000000e+00) (0, 0, 0.00000000000000000000e+00) (0, 0, 0.00000000000000000000e+00) (0, 0, 0.00000000000000000000e+00) (0, 0, 0.00000000000000000000e+00) (0, 0, 0.00000000000000000000e+00) (0, 0, 0.00000000000000000000e+00) (0, 0, 0.00000000000000000000e+00) (0, 0, 0.00000000000000000000e+00) (0, 0, 0.00000000000000000000e+00) (0, 0, 0.00000000000000000000e+00) (0, 0, 0.00000000000000000000e+00) (0, 0, 0.00000000000000000000e+00) (0, 0, 0.00000000000000000000e+00) (0, 0, 0.00000000000000000000e+00) (0, 0, 0.00000000000000000000e+00) (0, 0, 0.00000000000000000000e+00) (0, 0, 0.00000000000000000000e+00) (0, 0, 0.00000000000000000000e+00) (0, 0, 0.00000000000000000000e+00) (0, 0, 0.00000000000000000000e+00) (0, 0, 0.00000000000000000000e+00) (0, 0, 0.00000000000000000000e+00) (0, 0, 0.00000000000000000000e+00) (0, 0, 0.00000000000000000000e+00) (0, 0, 0.00000000000000000000e+00) (0, 0, 0.00000000000000000000e+00) (0, 0, 0.00000000000000000000e+00) (0, 0, 0.00000000000000000000e+00) (0, 0, 0.00000000000000000000e+00) (0, 0, 0.00000000000000000000e+00) (0, 0, 0.00000000000000000000e+00) (0, 0, 0.00000000000000000000e+00) (0, 0, 0.00000000000000000000e+00) (0, 0, 0.00000000000000000000e+00) (0, 0, 0.00000000000000000000e+00) (0, 0, 0.00000000000000000000e+00) (0, 0, 0.00000000000000000000e+00) (0, 0, 0.00000000000000000000e+00) (0, 0, 0.00000000000000000000e+00) (0, 0, 0.00000000000000000000e+00) (0, 0, 0.00000000000000000000e+00) (0, 0, 0.00000000000000000000e+00) (0, 0, 0.00000000000000000000e+00) (0, 0, 0.00000000000000000000e+00) (0, 0, 0.00000000000000000000e+00) (0, 0, 0.00000000000000000000e+00) (0, 0, 0.00000000000000000000e+00) (0, 0, 0.00000000000000000000e+00) (0, 0, 0.00000000000000000000e+00) (0, 0, 0.00000000000000000000e+00) (0, 0, 0.00000000000000000000e+00) (0, 0, 0.00000000000000000000e+00) (0, 0, 0.00000000000000000000e+00) (0, 0, 0.00000000000000000000e+00) (0, 0, 0.00000000000000000000e+00) (0, 0, 0.00000000000000000000e+00) (0, 0, 0.00000000000000000000e+00) (0, 0, 0.00000000000000000000e+00) (0, 0, 0.00000000000000000000e+00) (0, 0, 0.00000000000000000000e+00) (0, 0, 0.00000000000000000000e+00) (0, 0, 0.00000000000000000000e+00) (0, 0, 0.00000000000000000000e+00) (0, 0, 0.00000000000000000000e+00) (0, 0, 0.00000000000000000000e+00) (0, 0, 0.00000000000000000000e+00) (0, 0, 0.00000000000000000000e+00) (0, 0, 0.00000000000000000000e+00) (0, 0, 0.00000000000000000000e+00) (0, 0, 0.00000000000000000000e+00) (0, 0, 0.00000000000000000000e+00) (0, 0, 0.00000000000000000000e+00) (0, 0, 0.00000000000000000000e+00) (0, 0, 0.00000000000000000000e+00) (0, 0, 0.00000000000000000000e+00) (63, 4, 5.00000000000000000000e-01) (63, 4, 5.00000000000000000000e-01) (64, 4, 5.00000000000000000000e-01) (63, 4, 5.00000000000000000000e-01) (64, 4, 5.00000000000000000000e-01) (63, 4, 5.00000000000000000000e-01) (63, 4, 5.00000000000000000000e-01) (64, 4, 5.00000000000000000000e-01) (63, 4, 5.00000000000000000000e-01) (64, 4, 5.00000000000000000000e-01) (63, 4, 5.00000000000000000000e-01) (63, 4, 5.00000000000000000000e-01) (64, 4, 5.00000000000000000000e-01) (63, 4, 5.00000000000000000000e-01) (64, 4, 5.00000000000000000000e-01) (63, 4, 5.00000000000000000000e-01) (63, 4, 5.00000000000000000000e-01) (64, 4, 5.00000000000000000000e-01) (63, 4, 5.00000000000000000000e-01) (64, 4, 5.00000000000000000000e-01) (63, 4, 5.00000000000000000000e-01) (63, 4, 5.00000000000000000000e-01) (64, 4, 5.00000000000000000000e-01) (63, 4, 5.00000000000000000000e-01) (64, 4, 5.00000000000000000000e-01) (63, 4, 5.00000000000000000000e-01) (63, 4, 5.00000000000000000000e-01) (64, 4, 5.00000000000000000000e-01) (63, 4, 5.00000000000000000000e-01) (64, 4, 5.00000000000000000000e-01) (63, 4, 5.00000000000000000000e-01) (63, 4, 5.00000000000000000000e-01) (64, 4, 5.00000000000000000000e-01) (63, 4, 5.00000000000000000000e-01) (64, 4, 5.00000000000000000000e-01) (63, 4, 5.00000000000000000000e-01) (63, 4, 5.00000000000000000000e-01) (64, 4, 5.00000000000000000000e-01) (63, 4, 5.00000000000000000000e-01) (64, 4, 5.00000000000000000000e-01) (63, 4, 5.00000000000000000000e-01) (63, 4, 5.00000000000000000000e-01) (64, 4, 5.00000000000000000000e-01) (63, 4, 5.00000000000000000000e-01) (64, 4, 5.00000000000000000000e-01) (63, 4, 5.00000000000000000000e-01) (63, 4, 5.00000000000000000000e-01) (64, 4, 5.00000000000000000000e-01) (63, 4, 5.00000000000000000000e-01) (64, 4, 5.00000000000000000000e-01) (63, 4, 5.00000000000000000000e-01) (63, 4, 5.00000000000000000000e-01) (64, 4, 5.00000000000000000000e-01) (63, 4, 5.00000000000000000000e-01) (64, 4, 5.00000000000000000000e-01) (63, 4, 5.00000000000000000000e-01) (63, 4, 5.00000000000000000000e-01) (64, 4, 5.00000000000000000000e-01) (63, 4, 5.00000000000000000000e-01) (64, 4, 5.00000000000000000000e-01) (63, 4, 5.00000000000000000000e-01) (63, 4, 5.00000000000000000000e-01) (64, 4, 5.00000000000000000000e-01) (63, 4, 5.00000000000000000000e-01) (64, 4, 5.00000000000000000000e-01) (63, 4, 5.00000000000000000000e-01) (63, 4, 5.00000000000000000000e-01) (64, 4, 5.00000000000000000000e-01) (63, 4, 5.00000000000000000000e-01) (64, 4, 5.00000000000000000000e-01) (63, 4, 5.00000000000000000000e-01) (63, 4, 5.00000000000000000000e-01) (64, 4, 5.00000000000000000000e-01) (63, 4, 5.00000000000000000000e-01) (64, 4, 5.00000000000000000000e-01) (63, 4, 5.00000000000000000000e-01) (63, 4, 5.00000000000000000000e-01) (64, 4, 5.00000000000000000000e-01) (63, 4, 5.00000000000000000000e-01) (64, 4, 5.00000000000000000000e-01) (63, 4, 5.00000000000000000000e-01) (63, 4, 5.00000000000000000000e-01) (64, 4, 5.00000000000000000000e-01) (63, 4, 5.00000000000000000000e-01) (64, 4, 5.00000000000000000000e-01) (63, 4, 5.00000000000000000000e-01) (63, 4, 5.00000000000000000000e-01) (64, 4, 5.00000000000000000000e-01) (63, 4, 5.00000000000000000000e-01) (64, 4, 5.00000000000000000000e-01) (63, 4, 5.00000000000000000000e-01) (63, 4, 5.00000000000000000000e-01) (64, 4, 5.00000000000000000000e-01) (63, 4, 5.00000000000000000000e-01) (64, 4, 5.00000000000000000000e-01) (63, 4, 5.00000000000000000000e-01) (63, 4, 5.00000000000000000000e-01) (64, 4, 5.00000000000000000000e-01) (63, 4, 5.00000000000000000000e-01) (64, 4, 5.00000000000000000000e-01) (63, 4, 5.00000000000000000000e-01) (64, 4, 5.00000000000000000000e-01) (0, 0, 0.00000000000000000000e+00) (41, 4, 5.00000000000000000000e-01) (42, 4, 5.00000000000000000000e-01) (42, 4, 5.00000000000000000000e-01) (42, 4, 5.00000000000000000000e-01) (42, 4, 5.00000000000000000000e-01) (41, 4, 5.00000000000000000000e-01) (42, 4, 5.00000000000000000000e-01) (42, 4, 5.00000000000000000000e-01) (42, 4, 5.00000000000000000000e-01) (42, 4, 5.00000000000000000000e-01) (0, 0, 0.00000000000000000000e+00) 
connections (connected_to_neuron, weight)=(156, -3.89105230569839477539e-01) (128, 2.21328496932983398438e+00) (6, 9.44435834884643554688e-01) (137, 4.52533811330795288086e-01) (27, -1.17590355873107910156e+00) (117, -3.60434919595718383789e-01) (92, -1.15786242485046386719e+00) (52, 2.22842499613761901855e-01) (89, -1.68283855915069580078e+00) (123, -1.26890265941619873047e+00) (135, 1.18254864215850830078e+00) (112, -9.11588490009307861328e-01) (68, -7.74090528488159179688e-01) (154, 1.50000000000000000000e+03) (144, -1.25457811355590820312e+00) (108, 2.97788172960281372070e-01) (54, -5.23840725421905517578e-01) (142, -1.40595054626464843750e+00) (127, -6.98637604713439941406e-01) (141, 5.11325061321258544922e-01) (114, 2.35713720321655273438e+00) (26, 3.15811216831207275391e-01) (20, 1.23718798160552978516e-01) (67, 1.64668127894401550293e-01) (56, 2.58389770984649658203e-01) (86, 8.30361962318420410156e-01) (94, 1.52305626869201660156e+00) (106, -7.25892186164855957031e-01) (105, -1.56899631023406982422e+00) (11, 1.95293378829956054688e+00) (76, -3.82222920656204223633e-01) (15, 6.20114386081695556641e-01) (107, 9.97241213917732238770e-02) (88, 7.52941608428955078125e-01) (47, -1.26947045326232910156e-01) (149, 4.56400662660598754883e-01) (81, 2.78681349754333496094e+00) (33, 3.61899405717849731445e-01) (73, -2.25235390663146972656e+00) (126, -1.26807880401611328125e+00) (23, -6.33944392204284667969e-01) (57, 5.82467734813690185547e-01) (36, 1.05134963989257812500e+00) (100, -4.48688077926635742188e+00) (41, 6.99694812297821044922e-01) (2, -2.51358628273010253906e-01) (19, -4.11186844110488891602e-01) (44, -2.21042776107788085938e+00) (38, 1.24968695640563964844e+00) (83, -4.43923354148864746094e-01) (28, -2.45765283703804016113e-01) (103, 7.37932324409484863281e-01) (74, -1.03384459018707275391e+00) (75, -3.59638869762420654297e-01) (98, 2.38351196050643920898e-01) (132, 8.84576678276062011719e-01) (109, -1.11079907417297363281e+00) (10, 3.07770133018493652344e-01) (8, 4.99651849269866943359e-01) (71, 1.66213169693946838379e-01) (115, -1.16230511665344238281e+00) (110, -4.39311802387237548828e-01) (30, 1.52708113193511962891e+00) (156, -4.58058013916015625000e+01) (20, -1.50000000000000000000e+03) (91, -1.50000000000000000000e+03) (119, 8.89008712768554687500e+01) (154, 1.50000000000000000000e+03) (4, -1.50000000000000000000e+03) (142, -1.50000000000000000000e+03) (155, 1.50000000000000000000e+03) (36, -1.46715905761718750000e+03) (11, -1.49410803222656250000e+03) (76, -1.50000000000000000000e+03) (122, -1.49660046386718750000e+03) (135, -1.50000000000000000000e+03) (7, 1.50000000000000000000e+03) (33, -1.50000000000000000000e+03) (101, -1.49737316894531250000e+03) (127, -9.50638413429260253906e-01) (148, -4.43876457214355468750e+01) (93, -1.50000000000000000000e+03) (60, -1.50000000000000000000e+03) (24, -8.40958535671234130859e-01) (18, -1.50000000000000000000e+03) (99, -1.49999853515625000000e+03) (116, -1.50000000000000000000e+03) (73, 3.02499103546142578125e+00) (80, -1.50000000000000000000e+03) (35, -1.46272998046875000000e+03) (1, -1.50000000000000000000e+03) (53, -1.49410803222656250000e+03) (28, -1.50000000000000000000e+03) (54, -1.49059753417968750000e+03) (50, -1.50000000000000000000e+03) (133, -1.50000000000000000000e+03) (86, -2.69274187088012695312e+00) (104, 7.74060440063476562500e+01) (42, -1.50000000000000000000e+03) (112, -1.50000000000000000000e+03) (83, -1.50000000000000000000e+03) (59, 1.50000000000000000000e+03) (41, 9.51573486328125000000e+02) (95, 1.50000000000000000000e+03) (106, -1.49987158203125000000e+03) (10, -1.48903747558593750000e+03) (144, -1.49842431640625000000e+03) (153, -4.50831413269042968750e+01) (14, -1.48903747558593750000e+03) (123, -1.50000000000000000000e+03) (136, -1.50000000000000000000e+03) (22, -1.50000000000000000000e+03) (6, -1.50000000000000000000e+03) (46, -1.08379357910156250000e+03) (45, -1.50000000000000000000e+03) (3, -1.50000000000000000000e+03) (48, 4.24545097351074218750e+01) (69, -1.42487182617187500000e+03) (114, 1.46889392089843750000e+03) (118, -1.50000000000000000000e+03) (132, -1.50000000000000000000e+03) (147, -4.41884689331054687500e+01) (128, -1.50000000000000000000e+03) (67, -1.50000000000000000000e+03) (72, 1.50000000000000000000e+03) (71, -1.43666455078125000000e+03) (156, -2.27363795042037963867e-01) (64, 3.25063556432723999023e-01) (100, -2.65121549367904663086e-01) (90, 1.89768493175506591797e+00) (22, -8.19439888000488281250e-01) (47, -2.72601914405822753906e+00) (79, -8.65810096263885498047e-01) (128, -2.39555045962333679199e-01) (19, 7.19656411092728376389e-04) (150, -2.00791254639625549316e-01) (67, 2.27133721113204956055e-01) (36, 9.01336610317230224609e-01) (109, 1.36209690570831298828e+00) (4, -2.67205983400344848633e-01) (76, -1.14118778705596923828e+00) (26, 6.82365119457244873047e-01) (101, 4.01482313871383666992e-01) (40, 5.42414128780364990234e-01) (31, -2.75994658470153808594e-01) (27, -1.35574722290039062500e+00) (97, 2.65892148017883300781e-01) (147, -2.23968625068664550781e-01) (117, -1.05800187587738037109e+00) (5, -9.29043650627136230469e-01) (55, -2.94990849494934082031e+00) (149, -5.26327848434448242188e-01) (99, 3.20315957069396972656e-01) (127, -8.52827608585357666016e-01) (107, 1.67452618479728698730e-01) (13, 1.65088415145874023438e+00) (68, 4.34576213359832763672e-01) (93, -4.88753259181976318359e-01) (108, -5.99600732326507568359e-01) (43, -1.80754005908966064453e-01) (113, -2.19803243875503540039e-01) (118, 1.00861334800720214844e+00) (12, 1.03232455253601074219e+00) (103, -7.99565136432647705078e-01) (15, -2.54527658224105834961e-01) (134, -7.65359163284301757812e-01) (80, 1.48776781558990478516e+00) (81, 3.81359964609146118164e-01) (125, 5.89272141456604003906e-01) (110, -1.28948673605918884277e-01) (63, 1.57431542873382568359e+00) (143, 1.23334705829620361328e+00) (60, -8.63360881805419921875e-01) (73, -1.22150218486785888672e+00) (137, -7.13168382644653320312e-01) (25, -8.63418638706207275391e-01) (1, 1.55459428206086158752e-02) (135, -4.94230449199676513672e-01) (59, -1.28541908264160156250e+01) (62, 1.39317914843559265137e-01) (133, -6.83280587196350097656e-01) (33, -7.97714710235595703125e-01) (21, -1.19696068763732910156e+00) (111, -3.98572646081447601318e-02) (75, 2.59798049926757812500e-01) (114, -4.17074590921401977539e-01) (148, -8.21632504463195800781e-01) (46, 4.58499848842620849609e-01) (44, 9.55100774765014648438e-01) (129, 4.41754609346389770508e-01) (156, -1.60755813121795654297e-01) (69, -1.61524856090545654297e+00) (124, -8.51483106613159179688e-01) (84, -2.30340576171875000000e+00) (75, -5.36393463611602783203e-01) (125, -2.32942605018615722656e+00) (8, 1.09101510047912597656e+00) (132, -1.01028001308441162109e+00) (34, 5.18106818199157714844e-01) (109, -1.19516216218471527100e-01) (56, 4.35098707675933837891e-01) (131, -2.76119977235794067383e-01) (14, 2.92235660552978515625e+00) (39, -9.19762492179870605469e-01) (143, 3.57040452957153320312e+00) (136, 1.75317481160163879395e-01) (64, -7.10630342364311218262e-02) (27, 7.75523722171783447266e-01) (97, 1.68513047695159912109e+00) (139, 1.37705162167549133301e-01) (1, -6.74668025970458984375e+00) (68, 8.26707422733306884766e-01) (81, -9.08411800861358642578e-01) (22, -1.96550440788269042969e+00) (117, 1.77433478832244873047e+00) (100, -2.85534453392028808594e+00) (53, 1.05805718898773193359e+00) (32, -2.77051657438278198242e-01) (44, 1.26151192188262939453e+00) (36, 2.51135826110839843750e-01) (18, -1.31746172904968261719e+00) (128, 5.39694726467132568359e-01) (43, 1.21757900714874267578e+00) (146, 2.13685836642980575562e-02) (147, 2.11849100887775421143e-02) (49, -3.33957463502883911133e-01) (24, -1.79572510719299316406e+00) (59, 3.92004489898681640625e+00) (4, 1.86406791210174560547e+00) (122, -3.33726882934570312500e-01) (16, -1.06744432449340820312e+00) (33, 7.80545234680175781250e-01) (96, 1.18278610706329345703e+00) (42, 1.35862874984741210938e+00) (35, 7.26640760898590087891e-01) (141, -5.61582612991333007812e+00) (26, -8.13803613185882568359e-01) (142, -3.17310959100723266602e-01) (108, -1.34905648231506347656e+00) (11, -8.58839929103851318359e-01) (58, 1.46455776691436767578e+00) (72, 3.44888687133789062500e-01) (79, 2.69562512636184692383e-01) (77, 1.64240872859954833984e+00) (92, -1.38988327980041503906e+00) (7, -5.31228423118591308594e-01) (106, -1.87670826911926269531e+00) (5, -2.97428369522094726562e+00) (98, -1.21163356304168701172e+00) (71, 2.68874716758728027344e+00) (9, 1.32858622074127197266e+00) (67, 4.17779356241226196289e-01) (55, 1.21724021434783935547e+00) (156, 8.48534643650054931641e-01) (80, 1.49536633300781250000e+03) (75, 1.04910546875000000000e+03) (120, -1.50000000000000000000e+03) (116, 1.50000000000000000000e+03) (59, -1.50000000000000000000e+03) (64, 1.75810050964355468750e+01) (136, 1.11196482181549072266e+00) (72, -1.50000000000000000000e+03) (118, 1.32115100097656250000e+03) (126, 1.49992871093750000000e+03) (71, 8.78996154785156250000e+02) (145, 1.49999987792968750000e+03) (66, -1.50000000000000000000e+03) (77, -1.50000000000000000000e+03) (65, 6.76310539245605468750e-01) (152, 5.34245312213897705078e-01) (56, -1.50000000000000000000e+03) (149, 1.46106445789337158203e+00) (69, 1.02126622200012207031e+00) (78, -1.50000000000000000000e+03) (124, -9.99968322753906250000e+02) (94, 9.93356800079345703125e+00) (100, 2.94971895217895507812e+00) (88, 1.49960253906250000000e+03) (139, 1.46115243434906005859e+00) (113, -1.50000000000000000000e+03) (13, 1.50000000000000000000e+03) (140, 9.70959305763244628906e-01) (81, 1.50000000000000000000e+03) (112, 1.50000000000000000000e+03) (17, -1.49994555664062500000e+03) (38, 2.04986929893493652344e+00) (20, -1.13734649658203125000e+02) (70, -1.49962768554687500000e+03) (104, -1.49967187500000000000e+03) (49, 9.75218017578125000000e+02) (28, 1.50000000000000000000e+03) (87, 1.50000000000000000000e+03) (34, -1.50000000000000000000e+03) (47, 1.50000000000000000000e+03) (121, 1.50000000000000000000e+03) (83, 1.50000000000000000000e+03) (52, 1.50000000000000000000e+03) (146, -1.50000000000000000000e+03) (137, 1.51386940479278564453e+00) (3, -1.46238720703125000000e+03) (50, 1.50000000000000000000e+03) (99, -1.50000000000000000000e+03) (26, 7.17565596103668212891e-01) (35, -2.48955574035644531250e+01) (21, 7.20730781555175781250e-01) (106, 6.29505126953125000000e+02) (76, 1.50000000000000000000e+03) (11, 1.17005395889282226562e+00) (150, 4.97336238622665405273e-01) (95, -1.42901565551757812500e+02) (24, -1.50000000000000000000e+03) (15, 3.41796422004699707031e+00) (89, 6.63806152343750000000e+02) (144, 1.47608789062500000000e+03) (54, -1.50000000000000000000e+03) (42, 1.50000000000000000000e+03) (147, 1.52714514732360839844e+00) (156, -1.43000000000000000000e+03) (65, -1.49972521972656250000e+03) (41, 1.23518915176391601562e+01) (123, -1.49823754882812500000e+03) (99, 1.50000000000000000000e+03) (117, -1.50000000000000000000e+03) (146, 1.49633825683593750000e+03) (12, -1.50000000000000000000e+03) (52, -1.46368688964843750000e+03) (67, -1.50000000000000000000e+03) (31, 1.50000000000000000000e+03) (131, 1.50000000000000000000e+03) (29, 1.50000000000000000000e+03) (83, -1.50000000000000000000e+03) (91, 1.50000000000000000000e+03) (40, -1.50000000000000000000e+03) (28, -1.49992016601562500000e+03) (150, -1.43000000000000000000e+03) (128, 1.50000000000000000000e+03) (20, -1.50000000000000000000e+03) (39, -1.50000000000000000000e+03) (30, -1.50000000000000000000e+03) (95, 1.50000000000000000000e+03) (147, -1.43000000000000000000e+03) (140, -1.43000000000000000000e+03) (142, 1.50000000000000000000e+03) (9, -1.22613501548767089844e+00) (15, -1.49989245605468750000e+03) (97, 1.50000000000000000000e+03) (116, -1.50000000000000000000e+03) (148, -1.43000000000000000000e+03) (88, -1.49975341796875000000e+03) (59, 1.50000000000000000000e+03) (106, -1.50000000000000000000e+03) (132, -1.58837556838989257812e+01) (61, -1.50000000000000000000e+03) (21, -1.50000000000000000000e+03) (155, 1.50000000000000000000e+03) (111, -1.16483044624328613281e+00) (26, -1.50000000000000000000e+03) (66, -1.43707482910156250000e+03) (5, -1.50000000000000000000e+03) (10, -1.43000000000000000000e+03) (23, 1.49997949218750000000e+03) (112, 3.26651916503906250000e+01) (69, 1.80505466461181640625e+00) (94, 1.50000000000000000000e+03) (8, -1.46777526855468750000e+03) (153, -1.43000000000000000000e+03) (37, -1.50000000000000000000e+03) (36, 2.81748065948486328125e+01) (139, -1.43000000000000000000e+03) (38, -1.50000000000000000000e+03) (90, -1.47530480957031250000e+03) (46, -1.50000000000000000000e+03) (57, 1.50000000000000000000e+03) (53, -1.50000000000000000000e+03) (48, 1.50000000000000000000e+03) (47, 1.50000000000000000000e+03) (103, 1.50000000000000000000e+03) (85, 1.50000000000000000000e+03) (109, -1.50000000000000000000e+03) (11, -1.50000000000000000000e+03) (156, -1.12073361873626708984e+00) (104, 5.06992220878601074219e-01) (67, 1.65035820007324218750e+00) (86, 1.03181278705596923828e+00) (39, 1.73913323879241943359e+00) (62, -6.85589981079101562500e+00) (72, -1.62808752059936523438e+00) (69, -1.77748394012451171875e+00) (10, 1.14760231971740722656e+00) (154, 1.50000000000000000000e+03) (53, -7.89972543716430664062e-01) (34, 9.13417637348175048828e-01) (56, -1.75952219963073730469e+00) (49, 2.96481776237487792969e+00) (94, 7.01019525527954101562e-01) (29, 2.03475856781005859375e+00) (54, 1.27334463596343994141e+00) (21, 5.68730592727661132812e+00) (88, 9.39512372016906738281e-01) (17, 1.07424721121788024902e-01) (74, -5.50064265727996826172e-01) (101, -3.04699516296386718750e+00) (32, -2.92165231704711914062e+00) (92, 2.82646083831787109375e+00) (20, 6.80248856544494628906e-01) (30, 1.92162978649139404297e+00) (148, 1.06768536567687988281e+00) (122, -9.03360784053802490234e-01) (47, 3.17957472801208496094e+00) (103, 2.18896818161010742188e+00) (149, 3.61921548843383789062e-01) (33, 2.70457839965820312500e+00) (14, -1.63396465778350830078e+00) (5, -1.46206879615783691406e+00) (77, 1.37726926803588867188e+00) (111, 3.31700587272644042969e+00) (71, 4.59112644195556640625e-01) (38, 6.18262514472007751465e-02) (59, 7.65490417480468750000e+01) (132, -7.97833859920501708984e-01) (123, -2.00357031822204589844e+00) (141, 5.05073666572570800781e-01) (114, 7.58479595184326171875e-01) (155, 1.50000000000000000000e+03) (66, -3.27395081520080566406e+00) (2, 4.41675996780395507812e+00) (87, 6.26722931861877441406e-01) (48, -1.23178228735923767090e-01) (4, 2.44224166870117187500e+00) (146, -3.09945821762084960938e-01) (96, 1.28965711593627929688e+00) (75, -6.10200524330139160156e-01) (79, -4.39877182245254516602e-01) (151, 5.28794705867767333984e-01) (110, -2.31608413159847259521e-02) (61, -3.36618709564208984375e+00) (118, -4.56770181655883789062e-01) (46, 2.05705380439758300781e+00) (82, 1.42312824726104736328e+00) (119, -2.00748944282531738281e+00) (136, 7.61102557182312011719e-01) (12, 1.35950505733489990234e-01) (126, -5.53722476959228515625e+00) (156, -1.32344710826873779297e+00) (42, 1.22868275642395019531e+00) (110, -7.94210255146026611328e-01) (9, 2.54112631082534790039e-01) (103, 5.10790824890136718750e-01) (71, 5.95469295978546142578e-01) (25, 6.98429644107818603516e-01) (150, -2.48164281249046325684e-01) (24, 1.24576106667518615723e-01) (40, -2.06181192398071289062e+00) (14, -1.15934491157531738281e+00) (26, -5.82243919372558593750e-01) (50, -1.11570525169372558594e+00) (7, -5.24202942848205566406e-01) (17, 1.29953753948211669922e+00) (153, -1.07686705887317657471e-01) (19, 5.82040429115295410156e-01) (87, -5.33596813678741455078e-01) (75, -4.99543040990829467773e-01) (149, 4.22654390335083007812e-01) (148, 3.05355399847030639648e-01) (144, -9.52226817607879638672e-01) (136, -1.20285832881927490234e+00) (21, -3.68767492473125457764e-02) (107, 9.47801768779754638672e-01) (92, 1.31012618541717529297e+00) (74, 4.16278168559074401855e-02) (39, 3.45039397478103637695e-01) (55, 9.76033926010131835938e-01) (138, -5.33594965934753417969e-01) (70, -6.13911569118499755859e-01) (120, -1.34255635738372802734e+00) (115, -8.37858259677886962891e-01) (142, 2.84706503152847290039e-01) (99, 9.13905680179595947266e-01) (88, -4.34943884611129760742e-01) (36, 7.30002045631408691406e-01) (147, 4.25333436578512191772e-03) (133, -1.13831019401550292969e+00) (20, -1.35448098182678222656e+00) (59, -1.05756044387817382812e+01) (81, 1.22758753597736358643e-01) (154, 1.50000000000000000000e+03) (63, -2.20114421844482421875e+00) (0, -2.42434668540954589844e+00) (38, -3.09874955564737319946e-02) (126, 2.56938695907592773438e-01) (104, 6.05013251304626464844e-01) (56, -3.29041868448257446289e-01) (49, 1.10621631145477294922e+00) (137, 9.48137938976287841797e-02) (97, -2.18394204974174499512e-01) (58, 7.55898207426071166992e-02) (127, 1.84513196349143981934e-01) (79, 7.05587565898895263672e-01) (141, -1.45418316125869750977e-01) (119, -6.58110558986663818359e-01) (134, 5.57419121265411376953e-01) (84, 5.00864326953887939453e-01) (131, 9.13875550031661987305e-02) (106, -1.74817070364952087402e-01) (128, -1.14648044109344482422e+00) (62, -6.01024687290191650391e-01) (145, 8.25161576271057128906e-01) (156, -6.09537184238433837891e-01) (49, -1.72185349464416503906e+00) (136, 1.90807402133941650391e+00) (123, 3.32824349403381347656e+00) (98, 5.33576583862304687500e+00) (32, -2.52964526414871215820e-01) (45, -2.43009328842163085938e+00) (145, 3.68391489982604980469e+00) (90, -4.95405584573745727539e-01) (151, -1.48642852902412414551e-01) (113, -2.32028126716613769531e+00) (140, 1.21802529320120811462e-02) (135, 6.41976296901702880859e-01) (26, 2.30267620086669921875e+00) (141, -1.64831757545471191406e+00) (19, -3.80604118108749389648e-01) (69, -6.19325637817382812500e-01) (125, 1.01429641246795654297e+00) (46, 2.40417376160621643066e-01) (20, -4.53564882278442382812e-01) (60, 7.82925248146057128906e-01) (104, -4.34927082061767578125e+00) (89, -8.44669759273529052734e-01) (131, -1.32976496219635009766e+00) (72, -1.10913947224617004395e-01) (36, -9.91577327251434326172e-01) (42, -3.46683979034423828125e+00) (127, -3.69737863540649414062e+00) (139, 5.98343551158905029297e-01) (80, 1.25119388103485107422e+00) (71, 3.59245109558105468750e+00) (110, 8.02340090274810791016e-01) (144, -7.63309657573699951172e-01) (106, 4.72827911376953125000e-01) (27, -2.50100135803222656250e-01) (153, 7.32990682125091552734e-01) (77, -1.22387909889221191406e+00) (115, -4.23422241210937500000e+00) (111, -2.89182543754577636719e-01) (108, 9.85964596271514892578e-01) (47, 3.00404787063598632812e+00) (59, -1.33004274368286132812e+01) (51, 6.83921754360198974609e-01) (29, 1.51894843578338623047e+00) (22, 4.18782532215118408203e-01) (87, 1.45135760307312011719e-01) (5, 8.87758374214172363281e-01) (56, 4.69046741724014282227e-01) (17, 3.53697514533996582031e+00) (43, -2.32901859283447265625e+00) (21, -7.96771109104156494141e-01) (62, 4.46661300957202911377e-02) (41, -3.48242330551147460938e+00) (149, 2.45442539453506469727e-01) (81, 3.72205853462219238281e+00) (133, -8.76692682504653930664e-03) (85, -7.12702870368957519531e-02) (12, 2.99712210893630981445e-01) (116, 2.29032278060913085938e+00) (120, 3.13662719726562500000e+00) (102, -5.45424938201904296875e-01) (2, -2.66367554664611816406e+00) (3, -2.36269259452819824219e+00) (156, -4.21907520294189453125e+00) (70, 4.03671386718750000000e+02) (59, -1.48574169921875000000e+03) (115, 4.40460853576660156250e+01) (65, 2.48894775390625000000e+02) (147, -3.15421462059020996094e+00) (31, 8.74430908203125000000e+02) (36, 8.23813476562500000000e+02) (88, 8.49201782226562500000e+02) (97, 9.94422302246093750000e+02) (19, -7.77590576171875000000e+02) (77, 1.65210151672363281250e+00) (64, -3.46642351150512695312e+00) (18, -1.47708374023437500000e+03) (6, -2.96193146705627441406e+00) (144, -4.10233421325683593750e+01) (74, 1.14071445465087890625e+01) (55, 8.32604736328125000000e+02) (15, 1.78728439331054687500e+02) (102, 1.50787185668945312500e+02) (143, -9.31229492187500000000e+02) (62, -1.51875770092010498047e+00) (154, 1.50000000000000000000e+03) (113, 7.04154253005981445312e+00) (60, 1.12582519531250000000e+02) (44, -3.58018310546875000000e+02) (104, -2.76261687278747558594e+00) (3, 1.49873571777343750000e+03) (137, -3.27654957771301269531e+00) (86, -1.13727879524230957031e+00) (5, -5.37258911132812500000e+02) (73, 1.44560317993164062500e+01) (47, -1.45267724609375000000e+03) (92, 1.49998864746093750000e+03) (89, -3.35915327072143554688e+00) (9, -1.36828112792968750000e+03) (127, -8.39344406127929687500e+00) (68, -3.12382141113281250000e+02) (46, -1.87441436767578125000e+02) (66, -3.39017882943153381348e-02) (117, -5.20277500152587890625e+00) (58, 1.21558605957031250000e+03) (76, -1.49802075195312500000e+03) (149, -3.95592379570007324219e+00) (82, -3.44565200805664062500e+01) (30, -1.48176525878906250000e+03) (39, 1.38824853897094726562e+01) (119, 1.09240747070312500000e+03) (33, -2.73918090820312500000e+02) (145, -6.67626037597656250000e+02) (56, 1.50000000000000000000e+03) (50, -4.77435363769531250000e+02) (103, 5.56450805664062500000e+01) (124, -1.75350006103515625000e+02) (151, -2.88417363166809082031e+00) (32, 4.54482421875000000000e+02) (101, -1.49860119628906250000e+03) (120, 5.30846672058105468750e+01) (112, -1.49927246093750000000e+03) (72, 1.32986096191406250000e+03) (109, -1.99195747375488281250e+01) (142, 2.42210510253906250000e+02) (0, 1.50000000000000000000e+03) (13, -8.80049255371093750000e+02) (156, -9.37551617622375488281e-01) (40, -2.27530539035797119141e-01) (139, -2.96651035547256469727e-01) (73, -2.06105783581733703613e-01) (63, 1.32401779294013977051e-01) (56, -4.95525524020195007324e-02) (112, -2.03452438116073608398e-01) (127, -6.95669651031494140625e-02) (46, 1.05338346958160400391e+00) (78, 2.22270235419273376465e-01) (9, 5.50063431262969970703e-01) (147, 7.97411978244781494141e-01) (108, 5.29891312122344970703e-01) (51, -1.24225981533527374268e-01) (120, -7.04442679882049560547e-01) (98, -1.40969145298004150391e+00) (1, -8.31369906663894653320e-02) (74, 5.30405759811401367188e-01) (64, 1.04071527719497680664e-01) (50, -2.45884943008422851562e+00) (52, -5.45772850513458251953e-01) (28, -4.68705832958221435547e-01) (106, -1.15557312965393066406e+00) (97, 4.79731827974319458008e-01) (96, 4.31929945945739746094e-01) (99, 1.12160243093967437744e-01) (33, 4.39300745725631713867e-01) (100, -1.46544337272644042969e+00) (110, -1.39690369367599487305e-01) (10, -8.64760205149650573730e-02) (152, 7.84497976303100585938e-01) (45, 1.50755628943443298340e-01) (115, 1.94038796424865722656e+00) (15, 3.56844663619995117188e-01) (113, -9.36238229274749755859e-01) (62, -4.25680011510848999023e-01) (81, -2.91548222303390502930e-01) (130, -6.85490012168884277344e-01) (149, 6.08622968196868896484e-01) (118, -3.92799556255340576172e-01) (11, -1.50909852981567382812e+00) (105, -1.09962403774261474609e+00) (60, -1.38479411602020263672e+00) (122, -7.99698606133460998535e-02) (88, -8.11031907796859741211e-02) (22, -3.19484651088714599609e-01) (104, 4.27094995975494384766e-01) (59, -8.37935180664062500000e+02) (121, -6.10500872135162353516e-01) (47, -2.57541537284851074219e-01) (26, -4.84345972537994384766e-01) (42, 1.54981136322021484375e-01) (54, -9.65773880481719970703e-01) (107, 5.12022376060485839844e-01) (12, -6.50340378284454345703e-01) (117, 5.92470645904541015625e-01) (111, 3.29620361328125000000e-01) (4, 5.47079205513000488281e-01) (70, -5.21858215332031250000e-01) (76, 6.12860977649688720703e-01) (148, -9.10349488258361816406e-02) (136, -9.60626974701881408691e-02) (24, 1.54401278495788574219e+00) (156, -7.30432748794555664062e-01) (8, -5.17821013927459716797e-01) (36, -7.51648485660552978516e-01) (135, 3.24973255395889282227e-01) (70, -4.75256666541099548340e-02) (0, 7.72432231903076171875e+00) (58, -2.22599244117736816406e+00) (81, 1.18247830867767333984e+00) (74, -1.60614800453186035156e+00) (17, 1.37816107273101806641e+00) (123, -4.85059589147567749023e-01) (101, -8.45606088638305664062e-01) (109, -1.62008076906204223633e-01) (4, -3.15806716680526733398e-01) (88, 1.83516705036163330078e+00) (21, -1.06921054422855377197e-01) (31, 1.41723501682281494141e+00) (105, -2.52254098653793334961e-01) (114, 4.03874069452285766602e-01) (56, -2.81240910291671752930e-01) (119, -1.46984338760375976562e+00) (52, -3.93555760383605957031e-02) (18, 2.23397076129913330078e-01) (35, -2.24831056594848632812e+00) (140, 2.09460914134979248047e-01) (71, -1.59323036670684814453e+00) (132, -6.85179650783538818359e-01) (146, 2.46675133705139160156e-01) (10, -1.02461099624633789062e+00) (116, 5.89654147624969482422e-01) (136, -1.69157826900482177734e+00) (22, -4.20401394367218017578e-02) (90, 6.10211312770843505859e-01) (46, 7.81095147132873535156e-01) (15, 5.62951147556304931641e-01) (68, 9.56079304218292236328e-01) (64, 4.30501133203506469727e-01) (67, 4.97904002666473388672e-01) (32, -7.53052890300750732422e-01) (72, 1.27838027477264404297e+00) (97, 6.02228939533233642578e-01) (131, 6.91736996173858642578e-01) (99, -6.66351795196533203125e-01) (143, 7.97210559248924255371e-02) (118, 1.54202952980995178223e-01) (53, -2.65900284051895141602e-01) (151, -2.53729224205017089844e-01) (75, -1.97147941589355468750e+00) (60, -1.12727999687194824219e+00) (153, 2.12270289659500122070e-01) (111, -2.47472122311592102051e-01) (103, 4.35579240322113037109e-01) (112, 1.88078463077545166016e-01) (144, -5.57061284780502319336e-02) (93, -6.18515573441982269287e-02) (77, 6.88802897930145263672e-01) (104, 1.86561793088912963867e-01) (76, -3.04393559694290161133e-01) (12, 1.49381697177886962891e+00) (61, 7.95870959758758544922e-01) (24, 1.96130824089050292969e+00) (80, 1.42151698470115661621e-01) (40, -6.24202489852905273438e-01) (156, 2.84777253866195678711e-01) (16, 2.22438311576843261719e+00) (21, 2.32648342847824096680e-01) (8, -3.28139252960681915283e-02) (56, 1.49704825878143310547e+00) (103, 1.72832393646240234375e+00) (140, 2.34850168228149414062e-01) (18, -6.85110211372375488281e-01) (49, -1.31773620843887329102e-01) (100, -3.83087539672851562500e+00) (74, -6.62280201911926269531e-01) (128, 1.77047893404960632324e-01) (97, -2.15914011001586914062e+00) (115, -2.70234632492065429688e+00) (88, -2.32090968638658523560e-02) (19, -1.50427445769309997559e-01) (79, -1.03531026840209960938e+00) (55, -3.00731100142002105713e-02) (84, 4.21054983139038085938e+00) (2, -2.28644505143165588379e-01) (27, -8.36423635482788085938e-01) (143, 3.12972098588943481445e-01) (10, 1.04932099580764770508e-01) (58, 6.81632105261087417603e-03) (119, 1.42031335830688476562e+00) (91, 4.00607973337173461914e-01) (102, 1.47929120063781738281e+00) (63, -9.07608032226562500000e-01) (35, 9.64218676090240478516e-01) (5, 4.76428538560867309570e-01) (9, 6.32012605667114257812e-01) (46, -5.86131401360034942627e-02) (33, -5.34042954444885253906e-01) (130, -1.89367461204528808594e+00) (136, 2.01442432403564453125e+00) (7, 6.33152306079864501953e-01) (89, -7.32326328754425048828e-01) (13, 7.32090651988983154297e-01) (17, -2.42948219180107116699e-01) (96, 1.42133772373199462891e+00) (44, -4.03244066238403320312e+00) (75, -2.33132219314575195312e+00) (87, 8.22021961212158203125e-01) (36, 1.91684052348136901855e-01) (45, 1.79124042391777038574e-01) (148, 5.48462450504302978516e-01) (93, 5.84304690361022949219e-01) (72, 1.59718251228332519531e+00) (77, 3.63203668594360351562e+00) (113, 5.56595206260681152344e-01) (155, 1.50000000000000000000e+03) (67, 2.84659409523010253906e+00) (134, -8.34134161472320556641e-01) (122, 1.47102248668670654297e+00) (11, -1.26574015617370605469e+00) (24, 2.07098126411437988281e+00) (144, -4.07988786697387695312e-01) (64, 9.30639863014221191406e-01) (3, -2.79104328155517578125e+00) (76, 1.09099829196929931641e+00) (127, -1.23844468593597412109e+00) (60, -8.23077976703643798828e-01) (82, 5.96367001533508300781e-01) (0, -2.31323165893554687500e+01) (156, 3.02874028682708740234e-01) (106, 1.70154607295989990234e+00) (121, 3.07427430152893066406e+00) (107, 1.03110432624816894531e+00) (67, -8.72775852680206298828e-01) (13, 6.84815216064453125000e+00) (42, 2.03804988414049148560e-02) (82, -3.73775696754455566406e+00) (115, 1.73494553565979003906e+00) (133, 2.39446449279785156250e+00) (85, 2.83639502525329589844e+00) (98, -3.72523604892194271088e-03) (45, 4.34078931808471679688e+00) (9, -1.18835222721099853516e+00) (119, -3.62970256805419921875e+00) (52, -2.94356989860534667969e+00) (18, 1.47006177902221679688e+00) (154, 1.50000000000000000000e+03) (39, -7.01544880867004394531e-01) (64, -3.97059369087219238281e+00) (137, -1.46521151065826416016e-01) (86, 5.08412539958953857422e-01) (12, -3.31352663040161132812e+00) (127, 1.24065434932708740234e+00) (147, 3.56744050979614257812e-01) (17, 2.69953429698944091797e-01) (48, -1.27476036548614501953e+00) (79, 1.80101799964904785156e+00) (113, 1.95143711566925048828e+00) (4, 2.49244356155395507812e+00) (122, -1.13347649574279785156e+00) (54, -4.65710498392581939697e-02) (93, -4.32460975646972656250e+00) (149, 2.26748213171958923340e-02) (116, -4.89757061004638671875e+00) (130, -1.85977041721343994141e+00) (84, 1.45014852285385131836e-01) (153, -2.96267867088317871094e-01) (74, 8.94066274166107177734e-01) (5, -9.45637583732604980469e-01) (24, 5.77477037906646728516e-01) (41, 1.21904969215393066406e+00) (155, 1.50000000000000000000e+03) (97, 2.04878687858581542969e+00) (141, -2.07259654998779296875e-01) (40, 1.22293555736541748047e+00) (46, 6.08949720859527587891e-01) (134, 3.26474756002426147461e-02) (22, -1.47880721092224121094e+00) (111, 3.50010895729064941406e+00) (81, 2.93467164039611816406e+00) (139, 2.24351152777671813965e-01) (95, -4.53706979751586914062e-01) (69, -8.31567585468292236328e-01) (150, -1.27948373556137084961e-01) (37, -6.32582521438598632812e+00) (92, -1.75793804228305816650e-02) (60, -1.36458265781402587891e+00) (6, -2.53169560432434082031e+00) (140, 3.82194727659225463867e-01) (87, -1.41245317459106445312e+00) (7, 2.39230680465698242188e+00) (66, 6.70131397247314453125e+00) (156, -1.21282116699218750000e+03) (30, -1.50000000000000000000e+03) (56, 1.50000000000000000000e+03) (129, -1.44959997558593750000e+03) (1, 1.50000000000000000000e+03) (121, 1.50000000000000000000e+03) (10, -1.44959997558593750000e+03) (136, -1.44959997558593750000e+03) (39, -1.50000000000000000000e+03) (135, -1.50000000000000000000e+03) (88, -1.46602722167968750000e+03) (16, -1.50000000000000000000e+03) (147, -1.21177307128906250000e+03) (82, -1.42935217285156250000e+03) (84, -1.50000000000000000000e+03) (58, 1.50000000000000000000e+03) (96, -1.50000000000000000000e+03) (143, -1.50000000000000000000e+03) (152, -1.21163781738281250000e+03) (134, 1.50000000000000000000e+03) (65, -1.50000000000000000000e+03) (93, -1.48760339355468750000e+03) (103, 1.50000000000000000000e+03) (21, -1.44959997558593750000e+03) (116, -1.50000000000000000000e+03) (112, -1.50000000000000000000e+03) (142, 1.50000000000000000000e+03) (67, -1.50000000000000000000e+03) (81, -1.50000000000000000000e+03) (110, -1.50000000000000000000e+03) (7, 1.50000000000000000000e+03) (26, -1.50000000000000000000e+03) (78, 1.50000000000000000000e+03) (75, -1.50000000000000000000e+03) (91, -1.50000000000000000000e+03) (133, -1.50000000000000000000e+03) (11, -1.50000000000000000000e+03) (140, -1.21214782714843750000e+03) (74, 3.97713241577148437500e+01) (46, -1.50000000000000000000e+03) (94, -8.03965698242187500000e+02) (57, 1.50000000000000000000e+03) (40, -1.50000000000000000000e+03) (155, 1.50000000000000000000e+03) (148, -1.21244885253906250000e+03) (8, -1.44959997558593750000e+03) (87, -1.06929656982421875000e+02) (101, -1.50000000000000000000e+03) (80, -1.50000000000000000000e+03) (132, -4.37230453491210937500e+01) (51, 1.50000000000000000000e+03) (126, 3.65057983398437500000e+02) (6, -1.44959997558593750000e+03) (139, -1.21241931152343750000e+03) (73, -1.43212451171875000000e+03) (12, -1.50000000000000000000e+03) (115, -1.02161871337890625000e+03) (77, -1.50000000000000000000e+03) (9, 1.50000000000000000000e+03) (43, -1.44959997558593750000e+03) (36, 1.50000000000000000000e+03) (32, -1.50000000000000000000e+03) (108, -1.44240478515625000000e+03) (64, -5.49232053756713867188e+00) (156, 4.46829646825790405273e-02) (4, -1.65742802619934082031e+00) (47, -7.19864130020141601562e-01) (80, -2.81354618072509765625e+00) (130, -2.93569827079772949219e+00) (120, 1.01938843727111816406e-01) (33, 1.51268029212951660156e+00) (69, 6.23117744922637939453e-01) (138, 4.57063883543014526367e-01) (139, 5.10129451751708984375e-01) (55, -6.73288047313690185547e-01) (13, -1.62101650238037109375e+00) (78, 1.67282670736312866211e-01) (141, -2.17663741111755371094e+00) (27, 3.68405580520629882812e+00) (70, 2.75615954399108886719e+00) (83, 3.81411385536193847656e+00) (129, -5.04431128501892089844e-01) (107, 1.06080102920532226562e+00) (6, 2.95946979522705078125e+00) (147, -2.91057020425796508789e-01) (90, 6.91419839859008789062e-01) (110, 2.52132844924926757812e+00) (101, 7.22253513336181640625e+00) (92, -2.03718948364257812500e+00) (152, 1.13994382321834564209e-01) (109, 9.33228254318237304688e-01) (113, 4.30856466293334960938e+00) (115, -7.63518065214157104492e-02) (122, -1.83146023750305175781e+00) (94, -2.23869621753692626953e-01) (59, -1.05693572998046875000e+02) (36, 2.15023446083068847656e+00) (119, 3.26817202568054199219e+00) (60, -1.68223571777343750000e+00) (45, -1.51243579387664794922e+00) (11, -6.02732038497924804688e+00) (15, 7.50165641307830810547e-01) (88, 1.82702517509460449219e+00) (62, 1.92898765206336975098e-01) (57, 2.45798420906066894531e+00) (19, 6.32308602333068847656e-01) (148, 4.57300037145614624023e-01) (74, 3.37298512458801269531e-01) (112, -7.64300167560577392578e-01) (28, -7.27428317070007324219e-01) (136, -5.37077128887176513672e-01) (117, 2.43492555618286132812e+00) (2, 6.76273441314697265625e+00) (18, 2.50353872776031494141e-01) (134, -8.99943470954895019531e-01) (118, 7.56484316661953926086e-03) (61, 2.00560641288757324219e+00) (48, 3.13416048884391784668e-02) (42, 1.73238769173622131348e-01) (86, -7.86343097686767578125e+00) (40, 5.75814294815063476562e+00) (30, -8.91991913318634033203e-01) (142, -2.67914032936096191406e+00) (97, -1.21157538890838623047e+00) (50, -4.16428089141845703125e+00) (68, 2.43997550010681152344e+00) (84, -8.28683555126190185547e-01) (156, -1.24488748610019683838e-01) (10, -7.88329005241394042969e-01) (29, 1.63106024265289306641e+00) (116, -1.16018176078796386719e+00) (2, 3.01235556602478027344e-01) (96, -1.62470340728759765625e-01) (50, 2.42719984054565429688e+00) (70, -6.82421475648880004883e-02) (34, -1.13582766056060791016e+00) (104, -9.57446157932281494141e-01) (37, -2.55238938331604003906e+00) (24, -1.83334636688232421875e+00) (137, 1.09850674867630004883e-01) (49, -2.52686882019042968750e+00) (142, 1.40462052822113037109e+00) (147, -9.44048017263412475586e-02) (69, 2.90231895446777343750e+00) (117, 9.09625709056854248047e-01) (45, 2.54939413070678710938e+00) (151, 3.05188119411468505859e-01) (71, -1.05105471611022949219e+00) (3, 7.85783827304840087891e-02) (74, 6.64768755435943603516e-01) (46, 1.72753393650054931641e+00) (130, -1.27602314949035644531e+00) (84, 9.54961031675338745117e-02) (102, 4.23576402664184570312e+00) (145, -6.04922831058502197266e-01) (27, -5.27907133102416992188e-01) (13, 3.37215828895568847656e+00) (94, -9.67373371124267578125e-01) (12, -4.11404752731323242188e+00) (153, -1.35033473372459411621e-01) (149, 4.27097201347351074219e-01) (20, -3.85378694534301757812e+00) (120, 2.16303181648254394531e+00) (6, 1.90091878175735473633e-01) (32, -1.33702766895294189453e+00) (26, 3.91229130327701568604e-02) (129, 7.88665235042572021484e-01) (14, -8.41704070568084716797e-01) (23, 1.34322866797447204590e-01) (5, 2.19198369979858398438e+00) (150, -3.93662154674530029297e-01) (7, 1.70997858047485351562e+00) (93, 1.17594730854034423828e+00) (42, -7.67313599586486816406e-01) (154, 1.50000000000000000000e+03) (86, 4.15035963058471679688e-01) (47, -1.09830486774444580078e+00) (79, 1.16981714963912963867e-01) (15, -3.50595176219940185547e-01) (39, 1.44736969470977783203e+00) (91, -7.77368366718292236328e-01) (114, 4.13058280944824218750e-01) (141, -1.16612224578857421875e+01) (101, 2.46993947029113769531e+00) (108, 1.89794039726257324219e+00) (18, 1.26390218734741210938e-01) (90, -1.13037562370300292969e+00) (112, 1.03088662028312683105e-01) (121, 1.23039400577545166016e+00) (53, -2.33382844924926757812e+00) (156, -1.05623102188110351562e+00) (85, -7.36460030078887939453e-01) (101, -7.80367374420166015625e-01) (103, -2.04219126701354980469e+00) (135, 2.17640328407287597656e+00) (92, -4.01013195514678955078e-01) (69, 7.19771265983581542969e-01) (126, 1.40079855918884277344e+00) (121, 2.25965046882629394531e+00) (6, 7.89813399314880371094e-01) (21, -1.69202506542205810547e+00) (89, -5.84976196289062500000e-01) (57, 8.26432555913925170898e-02) (96, -2.10841012001037597656e+00) (73, 9.57368969917297363281e-01) (123, -1.76664456725120544434e-01) (18, 4.37764215469360351562e+00) (97, -7.22398400306701660156e-01) (149, -6.49668693542480468750e-01) (49, -1.51583206653594970703e+00) (134, -9.49628114700317382812e-01) (132, 9.51965034008026123047e-01) (72, 2.34857368469238281250e+00) (11, -4.17683899402618408203e-01) (46, -4.02720093727111816406e-01) (34, 3.04740101099014282227e-01) (48, -8.53916585445404052734e-01) (154, 1.50000000000000000000e+03) (102, -2.56603264808654785156e+00) (70, 9.92529153823852539062e-01) (120, -3.38023483753204345703e-01) (104, 4.84229214489459991455e-02) (16, -1.89199316501617431641e+00) (65, -2.54101538658142089844e+00) (37, 9.82567131519317626953e-01) (29, -3.37091517448425292969e+00) (100, 3.17408740520477294922e-01) (5, 7.68135190010070800781e-01) (4, -1.50190186500549316406e+00) (58, -2.61003565788269042969e+00) (84, -1.10520768165588378906e+00) (138, -5.48087477684020996094e-01) (55, -3.80515307188034057617e-01) (140, 1.46617725491523742676e-01) (0, -3.94869804382324218750e+00) (36, 9.43240821361541748047e-01) (81, 1.01072502136230468750e+00) (77, -1.72102153301239013672e+00) (88, -5.13759791851043701172e-01) (47, -3.35297375917434692383e-01) (78, -3.57161089777946472168e-02) (112, 9.90289509296417236328e-01) (35, -2.08853816986083984375e+00) (130, -1.93949058651924133301e-01) (114, 1.67324161529541015625e+00) (83, 1.08142673969268798828e+00) (118, -2.83984208106994628906e+00) (53, -2.22431039810180664062e+00) (91, 3.57121872901916503906e+00) (7, 1.01006686687469482422e+00) (95, -1.73587512969970703125e+00) (142, -3.86457920074462890625e-01) (82, 3.71253520250320434570e-01) (116, -1.23418104648590087891e+00) (156, 8.03264796733856201172e-01) (52, -1.94154813885688781738e-01) (73, 1.32818567752838134766e+00) (38, -4.45579338073730468750e+00) (116, -7.23661363124847412109e-01) (10, -7.77928888797760009766e-01) (62, 7.39602327346801757812e-01) (127, 4.20106506347656250000e+00) (110, -6.06298267841339111328e-01) (30, -3.11332607269287109375e+00) (120, 3.56368565559387207031e+00) (51, -2.45032712817192077637e-01) (129, -5.40743231773376464844e-01) (133, -3.68102359771728515625e+00) (66, -5.23403835296630859375e+00) (16, -3.19940519332885742188e+00) (123, 2.60269570350646972656e+00) (29, 3.73578786849975585938e+00) (26, 4.00017786026000976562e+00) (115, 5.61383605003356933594e-01) (85, -1.51186370849609375000e+01) (98, 3.67995548248291015625e+00) (124, -9.93859320878982543945e-02) (153, 1.06776082515716552734e+00) (142, 6.64954304695129394531e-01) (113, 1.11063647270202636719e+00) (96, -8.72443020343780517578e-01) (3, -7.36287653446197509766e-01) (7, 7.91950285434722900391e-01) (23, 1.43934679031372070312e+00) (92, 2.24360138177871704102e-01) (125, 1.33877253532409667969e+00) (138, 1.24031686782836914062e+00) (58, 4.78271389007568359375e+00) (45, -2.59496718645095825195e-01) (117, 1.24575853347778320312e+00) (25, 1.12253248691558837891e+00) (131, 1.29671859741210937500e+00) (109, 1.82684397697448730469e+00) (141, 7.02205777168273925781e-01) (155, 1.50000000000000000000e+03) (154, 1.50000000000000000000e+03) (64, 1.99837601184844970703e+00) (33, -2.88816952705383300781e+00) (94, -9.98557507991790771484e-01) (68, -1.60105228424072265625e+00) (24, -1.72322821617126464844e+00) (18, 1.38020193576812744141e+00) (136, -4.18197780847549438477e-01) (2, 5.86029672622680664062e+00) (74, -2.78199958801269531250e+00) (39, 1.17816770076751708984e+00) (143, 4.83523339033126831055e-01) (67, -2.51446676254272460938e+00) (87, 7.39955855533480644226e-03) (71, 2.69408750534057617188e+00) (5, 3.60571414232254028320e-01) (91, 1.36886942386627197266e+00) (19, -4.60130572319030761719e-02) (11, -1.01309180259704589844e+00) (112, 7.40369701385498046875e+00) (20, 4.16695117950439453125e+00) (0, -2.94023094177246093750e+01) (156, -2.09680087864398956299e-02) (108, -3.37618589401245117188e+00) (18, -1.02595531940460205078e+00) (21, 2.94361019134521484375e+00) (110, -2.46482706069946289062e+00) (7, 4.90942448377609252930e-01) (128, -3.01046639680862426758e-01) (11, 2.39424300193786621094e+00) (91, 1.95762825012207031250e+00) (13, 2.67053341865539550781e+00) (143, -2.48574805259704589844e+00) (45, 4.30967450141906738281e-01) (69, -2.15959739685058593750e+00) (39, 3.81069564819335937500e+00) (34, 2.73785859346389770508e-01) (65, -3.23303890228271484375e+00) (38, 4.45376300811767578125e+00) (60, -1.14641785621643066406e+00) (88, -3.97198343276977539062e+00) (146, 4.40982848405838012695e-01) (50, -1.71910536289215087891e+00) (119, -1.43928718566894531250e+00) (15, 5.10236263275146484375e-01) (16, 2.50079780817031860352e-01) (144, 1.91949680447578430176e-01) (140, -5.46701662242412567139e-02) (79, -6.38394176959991455078e-01) (120, -5.21919131278991699219e-01) (31, 8.31049144268035888672e-01) (81, -3.67805927991867065430e-01) (12, 5.83508193492889404297e-01) (57, -1.29146993160247802734e+00) (106, 7.32791543006896972656e-01) (3, -4.72894620895385742188e+00) (33, -3.12316131591796875000e+00) (95, 1.21570372581481933594e+00) (75, 4.03851222991943359375e+00) (127, -9.78461146354675292969e-01) (62, -1.16198885440826416016e+00) (47, 7.42014288902282714844e-01) (43, 6.93221271038055419922e-01) (35, -2.79960131645202636719e+00) (61, -2.40426838397979736328e-01) (17, 7.49149084091186523438e-01) (107, 2.21455359458923339844e+00) (123, 5.06130993366241455078e-01) (109, 3.18987512588500976562e+00) (154, 1.50000000000000000000e+03) (32, -3.88313555717468261719e+00) (112, 5.05773127079010009766e-01) (84, -3.46629786491394042969e+00) (1, -1.96401059627532958984e-01) (129, 4.46457922458648681641e-01) (139, -2.94997066259384155273e-01) (54, 1.96232512593269348145e-01) (97, -4.32454586029052734375e+00) (22, 2.91971623897552490234e-01) (90, 3.18597602844238281250e+00) (100, 1.89984416961669921875e+00) (138, 2.01380737125873565674e-02) (132, 1.53797817230224609375e+00) (10, 1.96621101349592208862e-02) (14, -1.75718218088150024414e-01) (105, 2.81371808052062988281e+00) (156, -1.50000000000000000000e+03) (88, -1.50000000000000000000e+03) (103, 4.69557195901870727539e-01) (45, -1.50000000000000000000e+03) (147, -1.50000000000000000000e+03) (106, -1.50000000000000000000e+03) (62, -1.50000000000000000000e+03) (110, -1.50000000000000000000e+03) (39, -1.50000000000000000000e+03) (36, -4.28183423355221748352e-03) (72, 1.49898132324218750000e+03) (17, -6.66794955730438232422e-01) (19, -1.50000000000000000000e+03) (7, -1.28714562988281250000e+03) (82, -1.50000000000000000000e+03) (16, -1.50000000000000000000e+03) (59, 1.50000000000000000000e+03) (124, 1.50000000000000000000e+03) (116, -1.49999975585937500000e+03) (123, -1.15652819824218750000e+03) (18, -1.50000000000000000000e+03) (84, -1.50000000000000000000e+03) (140, -1.50000000000000000000e+03) (73, -1.49998278808593750000e+03) (6, -1.50000000000000000000e+03) (23, -1.50000000000000000000e+03) (101, -1.50000000000000000000e+03) (102, 1.50000000000000000000e+03) (83, 3.55864644050598144531e-01) (122, -5.49906253814697265625e-01) (22, -6.83937438964843750000e+02) (4, -1.50000000000000000000e+03) (33, -1.50000000000000000000e+03) (1, 1.50000000000000000000e+03) (139, -1.50000000000000000000e+03) (112, 1.49988537597656250000e+03) (132, 1.50000000000000000000e+03) (141, -1.60749688744544982910e-01) (5, 1.50000000000000000000e+03) (104, -1.49998083496093750000e+03) (32, -1.50000000000000000000e+03) (68, -1.50000000000000000000e+03) (92, -1.50000000000000000000e+03) (70, 1.50000000000000000000e+03) (117, -1.49999792480468750000e+03) (148, -1.50000000000000000000e+03) (129, -1.50000000000000000000e+03) (64, -1.49975585937500000000e+03) (78, 1.50000000000000000000e+03) (109, -1.50000000000000000000e+03) (128, 1.50000000000000000000e+03) (81, -1.50000000000000000000e+03) (58, -1.50000000000000000000e+03) (37, -1.50000000000000000000e+03) (52, -1.50000000000000000000e+03) (85, 1.50000000000000000000e+03) (60, 1.50000000000000000000e+03) (150, -1.50000000000000000000e+03) (66, -1.49137792968750000000e+03) (44, 1.50000000000000000000e+03) (54, -1.70686709880828857422e+00) (75, -1.50000000000000000000e+03) (71, 1.50000000000000000000e+03) (156, -1.50771732330322265625e+01) (96, -1.50000000000000000000e+03) (71, 1.50000000000000000000e+03) (25, 1.50000000000000000000e+03) (39, -1.50000000000000000000e+03) (132, -7.96390891075134277344e-01) (155, 1.50000000000000000000e+03) (108, -1.47857287597656250000e+03) (97, 1.50000000000000000000e+03) (61, 1.50000000000000000000e+03) (66, 1.50000000000000000000e+03) (153, -1.39629917144775390625e+01) (122, -1.02480384826660156250e+02) (37, -1.49939123535156250000e+03) (113, 1.50000000000000000000e+03) (143, 4.70651031494140625000e+02) (60, 1.50000000000000000000e+03) (24, -1.50000000000000000000e+03) (73, 1.50000000000000000000e+03) (27, 2.15184283256530761719e+00) (134, -7.67820179462432861328e-01) (131, -2.74422192573547363281e+00) (10, -1.73150146007537841797e+00) (28, -1.49920373535156250000e+03) (14, 1.50000000000000000000e+03) (136, -1.50000000000000000000e+03) (88, -1.50000000000000000000e+03) (107, -2.09779426455497741699e-01) (95, 1.50000000000000000000e+03) (19, -1.50000000000000000000e+03) (20, -1.48843261718750000000e+03) (85, -7.50780344009399414062e+00) (106, -1.49914611816406250000e+03) (144, -1.49027600097656250000e+03) (139, -1.47646961212158203125e+01) (16, -1.49998889160156250000e+03) (45, -1.50000000000000000000e+03) (74, -1.50000000000000000000e+03) (4, -1.49882543945312500000e+03) (41, -1.49602905273437500000e+03) (35, -1.50000000000000000000e+03) (148, -1.46241016387939453125e+01) (119, -1.49962133789062500000e+03) (78, 1.50000000000000000000e+03) (62, -2.70851612091064453125e-01) (110, -4.71229248046875000000e+01) (123, -1.47011901855468750000e+03) (151, -1.48396606445312500000e+01) (87, -1.49326586914062500000e+03) (128, -2.49788188934326171875e+01) (31, -2.78836399316787719727e-01) (105, -1.50000000000000000000e+03) (55, -1.50000000000000000000e+03) (2, -2.72006597369909286499e-02) (6, 1.24628837585449218750e+02) (50, -1.50000000000000000000e+03) (40, -1.50000000000000000000e+03) (121, -1.50000000000000000000e+03) (86, -1.73860912322998046875e+01) (129, -5.93767285346984863281e-01) (77, 6.26277923583984375000e-01) (52, -1.50000000000000000000e+03) (142, -1.50000000000000000000e+03) (156, -1.48903747558593750000e+03) (94, 7.34995361328125000000e+02) (152, -1.48903747558593750000e+03) (78, -1.49493249511718750000e+03) (120, -4.87250375747680664062e+00) (20, -1.43893383789062500000e+03) (56, -3.78796267509460449219e+00) (95, 1.50000000000000000000e+03) (144, -1.49999499511718750000e+03) (75, -1.50000000000000000000e+03) (145, -1.50000000000000000000e+03) (122, -1.74671030044555664062e+00) (126, -2.51045455932617187500e+02) (150, -1.48903747558593750000e+03) (39, -1.50000000000000000000e+03) (62, 1.50000000000000000000e+03) (36, -1.48731188964843750000e+03) (33, -1.50000000000000000000e+03) (98, -1.50000000000000000000e+03) (106, -1.58250875473022460938e+01) (18, -1.49359558105468750000e+03) (53, -2.94440994262695312500e+01) (136, -1.48903747558593750000e+03) (101, -1.48903747558593750000e+03) (9, -1.50000000000000000000e+03) (96, -1.50000000000000000000e+03) (68, -1.50000000000000000000e+03) (19, -1.00526580810546875000e+03) (118, -1.47465649414062500000e+03) (82, -1.82817306518554687500e+01) (4, -1.50000000000000000000e+03) (74, -1.50000000000000000000e+03) (151, -1.48903747558593750000e+03) (149, -1.48903747558593750000e+03) (119, 1.50000000000000000000e+03) (50, -1.50000000000000000000e+03) (123, -1.47571228027343750000e+03) (69, 1.50000000000000000000e+03) (115, -1.50000000000000000000e+03) (79, 1.50000000000000000000e+03) (83, -1.47076892089843750000e+03) (26, -1.43974780273437500000e+03) (22, -1.50000000000000000000e+03) (14, -3.47256927490234375000e+02) (146, 1.50000000000000000000e+03) (142, -1.50000000000000000000e+03) (17, -1.48731188964843750000e+03) (2, 1.50000000000000000000e+03) (147, -1.48903747558593750000e+03) (153, -1.48903747558593750000e+03) (104, 1.50000000000000000000e+03) (66, 1.50000000000000000000e+03) (44, -1.50000000000000000000e+03) (71, -1.06144332885742187500e+01) (97, 1.50000000000000000000e+03) (28, -1.50000000000000000000e+03) (100, -1.50000000000000000000e+03) (47, -3.05293102264404296875e+01) (25, 1.50000000000000000000e+03) (23, 1.50000000000000000000e+03) (7, 1.50000000000000000000e+03) (6, -1.50000000000000000000e+03) (61, -1.50000000000000000000e+03) (11, -1.49636462402343750000e+03) (156, -5.75896263122558593750e-01) (50, -2.17704963684082031250e+00) (87, 5.60308790206909179688e+00) (47, -7.02723264694213867188e-01) (15, 1.49232459068298339844e+00) (41, -4.34703397750854492188e+00) (78, 3.89538139104843139648e-01) (118, -1.44292366504669189453e+00) (40, 3.97809505462646484375e+00) (133, 1.79382932186126708984e+00) (11, -2.19294118881225585938e+00) (104, 3.14650845527648925781e+00) (80, -2.20754027366638183594e+00) (139, 5.97484350204467773438e-01) (94, 4.32643842697143554688e+00) (2, 2.46100735664367675781e+00) (19, 1.31041836738586425781e+00) (76, -1.32596421241760253906e+00) (123, 9.99965786933898925781e-01) (66, -4.03111428022384643555e-02) (8, -5.77910661697387695312e+00) (24, 1.95611357688903808594e+00) (99, 1.57707110047340393066e-01) (64, 2.34633660316467285156e+00) (111, 7.67948102951049804688e+00) (106, -4.05814945697784423828e-01) (95, -5.16911923885345458984e-01) (65, 1.83057904243469238281e+00) (126, 6.57668161392211914062e+00) (128, -7.73050725460052490234e-01) (36, -8.18090534210205078125e+00) (136, -3.17289978265762329102e-02) (21, -1.40110445022583007812e+00) (152, 7.82012879848480224609e-01) (112, 2.59094285964965820312e+00) (145, -3.65417647361755371094e+00) (124, 3.29336643218994140625e-01) (37, -8.52388286590576171875e+00) (39, 6.75506651401519775391e-01) (93, -2.01287078857421875000e+00) (42, 1.63879621028900146484e+00) (46, -8.96877944469451904297e-01) (23, -1.85969996452331542969e+00) (84, 7.02315092086791992188e-01) (75, 5.67455005645751953125e+00) (146, -1.89896237850189208984e+00) (14, -4.00102901458740234375e+00) (62, 1.17655336856842041016e+00) (122, 1.88236129283905029297e+00) (101, -3.64809346199035644531e+00) (35, 2.02322006225585937500e+00) (53, -1.34744179248809814453e+00) (115, 8.86130988597869873047e-01) (151, 6.42317116260528564453e-01) (43, 5.90456545352935791016e-01) (34, 2.54112005233764648438e+00) (4, -2.66578006744384765625e+00) (45, -2.14109158515930175781e+00) (98, 4.89784431457519531250e+00) (119, -1.89695671200752258301e-01) (100, -2.19175726175308227539e-01) (135, -4.09469634294509887695e-01) (108, 1.94945847988128662109e+00) (156, -5.60500669479370117188e+00) (98, -3.94991760253906250000e+02) (126, 1.49656542968750000000e+03) (21, 5.09992122650146484375e+00) (75, 1.45999108886718750000e+03) (122, 1.19643859863281250000e+03) (88, -1.25439282226562500000e+03) (101, 4.44503723144531250000e+02) (38, -2.58267631530761718750e+01) (113, -1.49894238281250000000e+03) (3, 1.11355751037597656250e+02) (16, -3.06170578002929687500e+01) (97, -1.49999694824218750000e+03) (65, 1.19322131347656250000e+03) (130, 1.11238098144531250000e+03) (132, 2.04526335000991821289e-01) (25, 1.49993811035156250000e+03) (62, 1.50000000000000000000e+03) (120, -6.96603012084960937500e+01) (60, -4.66974792480468750000e+02) (1, -1.50000000000000000000e+03) (18, -2.85614132881164550781e+00) (64, -4.07439184188842773438e+00) (87, -1.50000000000000000000e+03) (105, -1.50000000000000000000e+03) (48, -1.50000000000000000000e+03) (145, -1.48957910537719726562e+01) (55, -4.41455802917480468750e+01) (71, 6.80520812988281250000e+02) (107, 1.49517321777343750000e+03) (94, 1.50000000000000000000e+03) (0, -1.48182495117187500000e+03) (28, 7.80047546386718750000e+02) (103, -1.49857348632812500000e+03) (96, 1.50000000000000000000e+03) (78, -1.49895861816406250000e+03) (146, -1.17754592895507812500e+01) (80, -3.00243774414062500000e+02) (51, -1.50000000000000000000e+03) (147, -4.99063444137573242188e+00) (15, -1.49977819824218750000e+03) (129, 1.49594409179687500000e+03) (11, -1.49344860839843750000e+03) (10, -1.35947436523437500000e+03) (69, -1.47459497070312500000e+03) (39, 1.07820129394531250000e+03) (31, -1.48892761230468750000e+03) (109, -8.05386447906494140625e+00) (151, -5.20855665206909179688e+00) (138, -5.66920518875122070312e+00) (112, 9.67526321411132812500e+01) (44, -5.69424972534179687500e+01) (14, -2.50002624511718750000e+02) (61, 1.49203625488281250000e+03) (32, -7.76646375656127929688e+00) (139, -4.95510625839233398438e+00) (23, -1.49993664550781250000e+03) (141, -4.99173402786254882812e+00) (26, -1.16985083007812500000e+03) (6, -1.50000000000000000000e+03) (84, -5.28837871551513671875e+00) (68, 1.50000000000000000000e+03) (7, -1.50000000000000000000e+03) (119, -1.00711257934570312500e+02) (156, -5.04752993583679199219e-01) (35, -2.56440579891204833984e-01) (87, -3.80491900444030761719e+00) (150, 3.64011406898498535156e-01) (23, -4.83330547809600830078e-01) (66, 6.31695413589477539062e+00) (37, -4.54308986663818359375e+00) (1, -4.35941457748413085938e+00) (26, -1.58216238021850585938e+00) (48, 4.56814622879028320312e+00) (97, -5.50180315971374511719e-01) (116, -1.94509434700012207031e+00) (139, 6.97665512561798095703e-01) (27, 1.06680035591125488281e+00) (100, 2.97087645530700683594e+00) (129, 1.35645544528961181641e+00) (152, 8.72883200645446777344e-01) (113, 5.43498945236206054688e+00) (128, -2.65370106697082519531e+00) (78, 8.34498941898345947266e-01) (136, -5.20793962478637695312e+00) (2, 3.79758548736572265625e+00) (3, 3.64098930358886718750e+00) (104, 1.03932595252990722656e+00) (89, -1.37026393413543701172e+00) (133, -2.31139826774597167969e+00) (47, -1.55138480663299560547e+00) (127, -1.08266937732696533203e+00) (120, 1.74904012680053710938e+00) (84, 1.00437283515930175781e-01) (147, 9.17925834655761718750e-01) (92, -2.07896637916564941406e+00) (124, -1.30031943321228027344e+00) (59, -3.28665084838867187500e+01) (60, 4.08279991149902343750e+00) (62, -4.76245611906051635742e-01) (65, -3.73141169548034667969e-01) (101, 2.94913315773010253906e+00) (148, -7.32215493917465209961e-02) (21, -1.87796324491500854492e-01) (16, 4.09038591384887695312e+00) (24, 1.63225948810577392578e+00) (103, -1.74507176876068115234e+00) (31, 4.09505337476730346680e-01) (64, 2.49675974249839782715e-01) (50, 1.22431793212890625000e+01) (33, 2.27825164794921875000e+00) (93, -1.30826973915100097656e+00) (155, 1.50000000000000000000e+03) (71, -3.31410169601440429688e+00) (134, -2.64248251914978027344e-01) (29, -3.55908846855163574219e+00) (11, -1.88114023208618164062e+00) (42, -1.33468973636627197266e+00) (85, -1.09348464012145996094e+00) (142, -1.07374978065490722656e+00) (18, 2.69871854782104492188e+00) (137, 8.37274909019470214844e-01) (86, 1.08278907835483551025e-01) (36, 4.03691053390502929688e+00) (108, 2.06536197662353515625e+00) (119, -4.84962415695190429688e+00) (102, 4.49423283338546752930e-01) (156, -1.90371647477149963379e-01) (6, -1.50000000000000000000e+03) (83, -1.49318811035156250000e+03) (93, -2.94304428100585937500e+01) (4, -1.26388952636718750000e+03) (141, 8.13979804515838623047e-01) (113, -1.49870471191406250000e+03) (130, -1.50000000000000000000e+03) (55, 1.50000000000000000000e+03) (126, 2.41326069831848144531e+00) (153, 5.81118464469909667969e-02) (78, -5.52644226074218750000e+02) (48, -6.45052552223205566406e-01) (87, -1.50000000000000000000e+03) (43, 1.74549064636230468750e+01) (110, 1.49892932128906250000e+03) (21, 4.75562191009521484375e+00) (139, 2.16211646795272827148e-01) (60, 1.50000000000000000000e+03) (2, -9.34363746643066406250e+00) (124, -1.47924694824218750000e+03) (42, 5.23208160400390625000e+01) (58, 4.11502122879028320312e+00) (115, -1.32032470703125000000e+03) (88, 4.82200175523757934570e-01) (116, 1.49926599121093750000e+03) (9, 1.49994250488281250000e+03) (117, -2.97373294830322265625e+01) (37, 1.50000000000000000000e+03) (64, 3.63131254911422729492e-01) (128, 4.61640119552612304688e+00) (114, 1.50000000000000000000e+03) (32, 1.50000000000000000000e+03) (30, 1.49995605468750000000e+03) (76, 6.79859101772308349609e-01) (11, -1.49995617675781250000e+03) (72, -1.74540271759033203125e+01) (84, 5.61134719848632812500e+00) (82, -1.22358728027343750000e+03) (1, -1.50000000000000000000e+03) (125, 1.37039899826049804688e+01) (145, 7.99234542846679687500e+01) (133, -1.74151901245117187500e+02) (123, 1.50000000000000000000e+03) (103, -1.49999084472656250000e+03) (140, 6.45923137664794921875e-01) (15, 3.05766969919204711914e-01) (119, 1.49878649902343750000e+03) (22, 1.50000000000000000000e+03) (5, 7.53973815917968750000e+02) (77, 1.50000000000000000000e+03) (147, 7.24197104573249816895e-02) (34, 1.50000000000000000000e+03) (104, 1.49887060546875000000e+03) (94, 1.50000000000000000000e+03) (101, -1.50000000000000000000e+03) (134, 1.49995605468750000000e+03) (96, 1.50000000000000000000e+03) (105, -1.50000000000000000000e+03) (68, 1.10686731338500976562e+00) (143, 1.18369531250000000000e+03) (17, -3.29499006271362304688e+00) (18, 9.35145974159240722656e-01) (156, -4.73353415727615356445e-01) (17, 1.04577026367187500000e+03) (67, 6.52691364288330078125e+00) (116, 1.50000000000000000000e+03) (14, 1.49999975585937500000e+03) (85, 1.50000000000000000000e+03) (61, 1.50000000000000000000e+03) (82, 1.50000000000000000000e+03) (75, 1.50000000000000000000e+03) (151, 1.26183331012725830078e+00) (16, 1.50000000000000000000e+03) (86, 1.50000000000000000000e+03) (127, 1.49420117187500000000e+03) (119, 1.50000000000000000000e+03) (42, 1.50000000000000000000e+03) (132, 1.50000000000000000000e+03) (112, 1.50000000000000000000e+03) (47, -1.47120373535156250000e+03) (146, -1.50000000000000000000e+03) (5, 1.50000000000000000000e+03) (15, 1.50000000000000000000e+03) (93, 1.49882409667968750000e+03) (69, 1.50000000000000000000e+03) (30, 1.50000000000000000000e+03) (144, -1.50000000000000000000e+03) (65, -1.50000000000000000000e+03) (97, -1.50000000000000000000e+03) (32, 1.50000000000000000000e+03) (96, -1.39920263671875000000e+03) (138, 1.45143043994903564453e+00) (58, -1.50000000000000000000e+03) (111, 1.50000000000000000000e+03) (59, -1.50000000000000000000e+03) (31, 1.50000000000000000000e+03) (45, 1.50000000000000000000e+03) (1, -1.47857470703125000000e+03) (22, 1.49958642578125000000e+03) (91, 1.50000000000000000000e+03) (140, 1.02074289321899414062e+00) (56, 1.49999975585937500000e+03) (136, 1.49936938476562500000e+03) (27, 1.49999975585937500000e+03) (94, -1.50000000000000000000e+03) (77, -1.41805493164062500000e+03) (152, 7.86114513874053955078e-01) (78, -1.50000000000000000000e+03) (148, 9.19734060764312744141e-01) (68, 1.50000000000000000000e+03) (84, 1.50000000000000000000e+03) (125, 1.50000000000000000000e+03) (4, 1.50000000000000000000e+03) (145, 1.49680737304687500000e+03) (66, -1.40515063476562500000e+03) (102, 1.86014831542968750000e+02) (60, 1.50000000000000000000e+03) (90, 1.50000000000000000000e+03) (118, 1.50000000000000000000e+03) (150, 7.69939482212066650391e-01) (135, -1.50000000000000000000e+03) (18, 1.49640625000000000000e+03) (8, -1.50000000000000000000e+03) (48, -1.47320642089843750000e+03) (79, -1.50000000000000000000e+03) (143, 1.50000000000000000000e+03) (156, 1.75627365708351135254e-01) (51, 1.50000000000000000000e+03) (150, 8.31071734428405761719e-01) (87, 1.50000000000000000000e+03) (67, 1.50000000000000000000e+03) (39, -1.13364392089843750000e+03) (38, 1.50000000000000000000e+03) (125, 1.49978283691406250000e+03) (43, 1.49978234863281250000e+03) (32, 1.50000000000000000000e+03) (7, -1.77425651550292968750e+01) (140, 1.17679309844970703125e+00) (8, 1.49997888183593750000e+03) (127, -2.64200496673583984375e+00) (119, -1.50000000000000000000e+03) (74, 1.50000000000000000000e+03) (3, 1.50000000000000000000e+03) (14, 1.50000000000000000000e+03) (124, 1.49999121093750000000e+03) (83, -1.50000000000000000000e+03) (79, 1.49948010253906250000e+03) (71, -1.49172839355468750000e+03) (47, -1.50000000000000000000e+03) (153, 7.47801244258880615234e-01) (30, -1.49997607421875000000e+03) (94, -1.24698743224143981934e-01) (99, 1.50000000000000000000e+03) (6, 1.50000000000000000000e+03) (135, -1.50000000000000000000e+03) (118, 1.50000000000000000000e+03) (76, 1.50000000000000000000e+03) (128, 1.87503829956054687500e+02) (77, 1.03061306476593017578e+00) (81, 1.34603259277343750000e+03) (22, 1.50000000000000000000e+03) (69, 3.88448547363281250000e+02) (117, 1.50000000000000000000e+03) (105, 1.50000000000000000000e+03) (24, 1.50000000000000000000e+03) (46, 1.50000000000000000000e+03) (33, 1.49449902343750000000e+03) (40, 1.50000000000000000000e+03) (21, 1.50000000000000000000e+03) (114, 1.50000000000000000000e+03) (2, -1.50000000000000000000e+03) (115, -1.50000000000000000000e+03) (80, 1.50000000000000000000e+03) (52, -1.50000000000000000000e+03) (121, -1.50000000000000000000e+03) (145, -6.82501907348632812500e+01) (1, 1.50000000000000000000e+03) (42, -1.50000000000000000000e+03) (137, 1.10067391395568847656e+00) (98, 1.45140258789062500000e+03) (111, 3.84946868896484375000e+02) (70, -7.04465515136718750000e+02) (44, 1.50000000000000000000e+03) (63, -1.49987109375000000000e+03) (29, 1.49930468750000000000e+03) (49, 1.50000000000000000000e+03) (101, -1.49473291015625000000e+03) (142, 1.50000000000000000000e+03) (107, -7.98544311523437500000e+01) (156, -4.17493134737014770508e-02) (41, 2.69122987985610961914e-01) (66, 1.21706237792968750000e+01) (37, -2.22516489028930664062e+00) (105, -3.20711374282836914062e-01) (62, 1.76619184017181396484e+00) (28, 8.66891324520111083984e-01) (136, -6.84163689613342285156e-01) (125, 1.13054379820823669434e-01) (94, 3.50413155555725097656e+00) (2, 1.64557409286499023438e+00) (33, 4.61718893051147460938e+00) (102, -9.42344474792480468750e+00) (87, -5.32857418060302734375e-01) (103, -2.54868578910827636719e+00) (25, 3.20570707321166992188e+00) (129, -1.89251458644866943359e+00) (90, -3.34207844734191894531e+00) (17, 8.52246761322021484375e+00) (96, -3.16814845427870750427e-03) (65, 4.16082668304443359375e+00) (7, 8.16070437431335449219e-01) (115, -2.00011587142944335938e+00) (98, 8.55591773986816406250e+00) (147, 9.80825901031494140625e-01) (55, 7.80652582645416259766e-01) (130, 7.36329779028892517090e-02) (106, 5.57270348072052001953e-01) (133, -1.47473108768463134766e+00) (10, -3.63860034942626953125e+00) (15, -7.92652177810668945312e+00) (46, -3.17916893959045410156e+00) (126, 1.94132670760154724121e-01) (123, 1.95365452766418457031e+00) (154, 1.50000000000000000000e+03) (76, -4.21903043985366821289e-01) (54, -3.19016861915588378906e+00) (82, -2.66080164909362792969e+00) (23, 9.33767914772033691406e-01) (47, -4.02847623825073242188e+00) (40, -1.48273742198944091797e+00) (26, 8.47717940807342529297e-01) (132, 8.00638437271118164062e-01) (139, 4.65215444564819335938e-01) (31, -3.04367929697036743164e-01) (95, -1.26608264446258544922e+00) (153, 1.97604015469551086426e-01) (3, 3.30836749076843261719e+00) (151, 5.68108975887298583984e-01) (120, -5.00523090362548828125e-01) (81, 1.08979549407958984375e+01) (104, 1.65438818931579589844e+00) (150, 3.45135003328323364258e-01) (79, 6.62831544876098632812e-01) (64, 1.09381937980651855469e+00) (84, 3.87980675697326660156e+00) (5, -5.03938007354736328125e+00) (114, -1.54895246028900146484e+00) (111, 3.82972455024719238281e+00) (0, 1.26342681884765625000e+02) (30, -4.29766833782196044922e-01) (61, -9.07322692871093750000e+00) (74, 9.34722602367401123047e-01) (21, -4.25543975830078125000e+00) (156, 8.64807665348052978516e-01) (34, 8.97532284259796142578e-01) (90, 7.21761733293533325195e-02) (42, -3.68040237426757812500e+01) (12, 2.77805113792419433594e+00) (83, 3.62845468521118164062e+00) (70, 3.87041449546813964844e+00) (87, -6.66276264190673828125e+00) (84, -2.91539639234542846680e-01) (130, -4.84642639160156250000e+01) (119, 7.57026195526123046875e-01) (136, 4.70445919036865234375e+00) (57, 5.54016208648681640625e+00) (86, -7.89566659927368164062e+00) (144, 4.22826919555664062500e+01) (29, 4.77020800113677978516e-01) (133, -3.55096936225891113281e+00) (125, 1.26305329799652099609e+00) (89, -7.44375610351562500000e+00) (32, -3.59074044227600097656e+00) (110, -2.50443625450134277344e+00) (21, 7.71345043182373046875e+00) (126, 5.22168934345245361328e-01) (101, 1.41974580287933349609e+00) (48, 6.75055007934570312500e+01) (19, -1.36873495578765869141e+00) (132, 4.17135119438171386719e-01) (63, 1.82584838867187500000e+01) (115, 1.04949973523616790771e-01) (52, -1.74393253326416015625e+01) (69, -4.24708843231201171875e+00) (124, -8.93362522125244140625e+00) (76, -1.57829296588897705078e+00) (68, 9.63971233367919921875e+00) (61, -3.79963696002960205078e-01) (103, 1.54053747653961181641e+00) (65, -2.43592739105224609375e+00) (85, -6.07778120040893554688e+00) (80, 3.44925765991210937500e+01) (122, -5.94055795669555664062e+00) (139, 1.11054956912994384766e+00) (75, 5.10692596435546875000e-01) (58, -5.32148265838623046875e+00) (24, -2.66743707656860351562e+00) (143, 9.62474060058593750000e+00) (73, 8.90694260597229003906e-02) (106, -5.01612901687622070312e-01) (152, 9.67604577541351318359e-01) (97, 9.91040229797363281250e+00) (22, 4.31869792938232421875e+00) (109, 3.69942754507064819336e-01) (14, 3.90069732666015625000e+01) (138, 1.04199028015136718750e+00) (59, -5.88504257202148437500e+01) (0, 4.79923553466796875000e+01) (71, 9.45228397846221923828e-01) (78, 1.29206442832946777344e+00) (67, 6.26425313949584960938e+00) (27, 2.12464356422424316406e+00) (45, 1.54221725463867187500e+00) (114, 1.07603340148925781250e+01) (2, 4.09511232376098632812e+00) (3, -1.05019691467285156250e+02) (156, -4.99510496854782104492e-01) (55, 7.18214333057403564453e-01) (118, -1.56981253623962402344e+00) (97, 8.79172384738922119141e-01) (59, 9.97431259155273437500e+01) (42, 2.65797781944274902344e+00) (92, -1.35412347316741943359e+00) (111, -1.87629532814025878906e+00) (74, 1.17684113979339599609e+00) (9, -8.02102744579315185547e-01) (77, -1.88183510303497314453e+00) (38, -4.78204816579818725586e-01) (105, 1.02719440460205078125e+01) (119, 5.54149508476257324219e-01) (63, -5.98461516201496124268e-02) (25, -2.00752139091491699219e+00) (13, 9.16880786418914794922e-01) (72, -1.15822303295135498047e+00) (79, -2.89749264717102050781e+00) (67, 1.10984456539154052734e+00) (18, -4.53904151916503906250e+00) (129, -3.23922586441040039062e+00) (141, -9.68086600303649902344e-01) (101, 3.53404432535171508789e-01) (88, 1.17236994206905364990e-01) (26, -3.77105379104614257812e+00) (145, -3.37433648109436035156e+00) (0, 1.35592880249023437500e+01) (45, 4.85752522945404052734e-01) (93, -2.63507747650146484375e+00) (148, 2.94232189655303955078e-01) (137, 2.80069828033447265625e-01) (50, 3.52144539356231689453e-01) (5, 5.68602204322814941406e-01) (153, -1.15747436881065368652e-01) (43, 3.61529612541198730469e+00) (68, -9.46938276290893554688e-01) (56, 3.87360525131225585938e+00) (73, -4.32537317276000976562e-01) (112, -5.81427589058876037598e-02) (142, 6.75982892513275146484e-01) (4, -8.31250429153442382812e-01) (15, 4.16910028457641601562e+00) (107, -2.58516192436218261719e+00) (36, 1.65056407451629638672e-01) (83, 1.88184916973114013672e+00) (30, -1.31350569427013397217e-03) (54, 5.72531521320343017578e-01) (81, 1.41818046569824218750e+00) (91, 4.92377489805221557617e-01) (76, 3.66467499732971191406e+00) (131, 8.25296223163604736328e-01) (128, -2.47586727142333984375e+00) (150, -3.04377496242523193359e-01) (20, -2.06416678428649902344e+00) (154, 1.50000000000000000000e+03) (155, 1.50000000000000000000e+03) (127, -1.14006316661834716797e+00) (8, -3.72728377580642700195e-01) (151, 5.27848824858665466309e-02) (34, -5.27122437953948974609e-01) (115, 1.95030617713928222656e+00) (126, -1.80518954992294311523e-01) (156, 4.18148726224899291992e-01) (63, -6.28158807754516601562e-01) (149, -7.31819868087768554688e-02) (74, 5.45377135276794433594e-01) (11, -1.39715456962585449219e+00) (12, -2.14528155326843261719e+00) (107, -6.46316409111022949219e-01) (69, -8.39582979679107666016e-02) (143, -1.11780607700347900391e+00) (102, -1.80971014499664306641e+00) (67, 1.16537451744079589844e+00) (101, 3.36295574903488159180e-01) (5, 1.09443640708923339844e+00) (1, 1.06316633522510528564e-01) (34, 8.93735826015472412109e-01) (35, -1.14634871482849121094e+00) (49, -2.69182652235031127930e-01) (21, 3.02193369716405868530e-02) (86, -2.28776478767395019531e+00) (117, -2.08123040199279785156e+00) (99, 1.01086795330047607422e+00) (89, -1.78583669662475585938e+00) (15, 8.47643494606018066406e-01) (94, -2.31157153844833374023e-01) (7, -1.02633893489837646484e-01) (150, 2.78326719999313354492e-01) (13, 2.51081395149230957031e+00) (124, 9.51754823327064514160e-02) (104, 1.19485235214233398438e+00) (29, 2.03203156590461730957e-01) (16, 6.48416340351104736328e-01) (134, 1.83535790443420410156e+00) (85, -1.05986893177032470703e+00) (32, 2.59115147590637207031e+00) (95, -3.31815028190612792969e+00) (147, -4.32152003049850463867e-02) (82, -3.07335686683654785156e+00) (90, -1.11758255958557128906e+00) (40, 2.66119480133056640625e-01) (73, -5.00186562538146972656e-01) (92, -4.84526336193084716797e-01) (142, 4.25888478755950927734e-01) (93, 2.15696424245834350586e-01) (55, 4.32895459234714508057e-02) (9, 2.11004471778869628906e+00) (80, 7.40557968616485595703e-01) (30, -4.26038312911987304688e+00) (17, 2.34197601675987243652e-02) (138, 5.48489928245544433594e-01) (120, 1.79603800177574157715e-01) (54, -2.54265725612640380859e-01) (119, -2.10331588983535766602e-01) (148, 1.29955694079399108887e-01) (76, 1.35965776443481445312e+00) (44, -3.31590151786804199219e+00) (4, -1.44365119934082031250e+00) (56, 7.42405533790588378906e-01) (136, 1.05212306976318359375e+00) (71, -7.66182780265808105469e-01) (50, 1.28110408782958984375e+00) (87, 7.89499223232269287109e-01) (135, 1.17895603179931640625e+00) (113, -2.62808513641357421875e+00) (77, -1.22751343250274658203e+00) (156, -7.86945343017578125000e-01) (96, 4.85823488235473632812e+00) (112, -2.93874287605285644531e+00) (74, 3.90794730186462402344e+00) (141, 5.14700055122375488281e-01) (45, 7.45687961578369140625e+00) (59, 8.84463882446289062500e+01) (3, -2.87404537200927734375e+00) (81, -8.51840317249298095703e-01) (98, -4.52267378568649291992e-01) (129, 2.42434233427047729492e-01) (132, -1.78552877902984619141e+00) (87, -1.61167144775390625000e+00) (124, -2.77765464782714843750e+00) (2, 1.34356796741485595703e+00) (46, 1.92984735965728759766e+00) (26, 8.64863336086273193359e-01) (151, 2.97247499227523803711e-01) (149, 5.73409616947174072266e-01) (60, 6.87369537353515625000e+00) (150, 2.65341341495513916016e-01) (92, 4.19553709030151367188e+00) (54, -1.48788005113601684570e-01) (21, 2.48251169919967651367e-01) (97, -2.43430399894714355469e+00) (85, 3.66409033536911010742e-01) (80, -1.32492327690124511719e+00) (29, 2.25046992301940917969e+00) (43, 1.78859400749206542969e+00) (99, -5.71436941623687744141e-01) (83, -9.03513133525848388672e-01) (25, 1.79043918848037719727e-01) (44, 3.75783354043960571289e-01) (104, 1.20295047760009765625e-01) (24, 2.64338459819555282593e-02) (143, 8.93860757350921630859e-01) (53, 1.88058361411094665527e-01) (139, -1.19538933038711547852e-01) (94, -1.45445048809051513672e+00) (12, 3.95383858680725097656e+00) (56, -8.76580297946929931641e-01) (69, -1.07502937316894531250e+00) (101, 1.58288002014160156250e+00) (109, 9.05358135700225830078e-01) (137, 1.45479738712310791016e-01) (153, 1.28290235996246337891e-01) (130, -7.39923477172851562500e+00) (7, -4.59980869293212890625e+00) (37, -2.51836013793945312500e+00) (110, 2.60240221023559570312e+00) (42, -3.99192714691162109375e+00) (38, 1.66502475738525390625e+01) (107, -8.06983375549316406250e+00) (146, -2.79074382781982421875e+00) (114, 8.13413143157958984375e-01) (93, -3.25079393386840820312e+00) (127, 5.49631237983703613281e-01) (113, 2.30234408378601074219e+00) (140, -2.14116591960191726685e-02) (76, -1.56114923954010009766e+00) (90, 2.52905225753784179688e+00) (47, 2.46092844009399414062e+00) (138, 3.78512650728225708008e-01) (156, -1.02917110919952392578e+00) (2, -1.01463592052459716797e+00) (28, -8.48508238792419433594e-01) (58, -8.79321277141571044922e-01) (112, 1.26205253601074218750e+00) (86, 8.97825658321380615234e-01) (140, 2.46689885854721069336e-01) (101, -2.19414029270410537720e-02) (139, -1.68926432728767395020e-01) (130, -4.87628877162933349609e-01) (137, 7.46840059757232666016e-01) (103, 8.52275848388671875000e-01) (41, -2.12378144264221191406e-01) (133, 1.04550147056579589844e+00) (132, -1.56227529048919677734e+00) (116, -9.65851962566375732422e-01) (56, 2.32436075806617736816e-01) (145, 8.71970593929290771484e-01) (31, -1.00611519813537597656e+00) (122, -8.11355352401733398438e-01) (120, -1.31046605110168457031e+00) (18, 2.69796028733253479004e-02) (26, 1.73477143049240112305e-01) (88, -1.71945345401763916016e+00) (17, -3.99341315031051635742e-01) (0, 8.68628311157226562500e+00) (24, -1.57647114247083663940e-02) (152, 6.56041502952575683594e-01) (10, -1.21960031986236572266e+00) (73, -1.16997003555297851562e+00) (3, -1.83955395221710205078e+00) (7, -1.02043569087982177734e+00) (147, 7.70489215850830078125e-01) (154, 1.50000000000000000000e+03) (51, 1.44776284694671630859e+00) (39, 2.69221276044845581055e-01) (68, 7.81065300107002258301e-02) (110, 3.97508412599563598633e-01) (83, 1.63705313205718994141e+00) (77, 1.63030683994293212891e-01) (79, 2.69495621323585510254e-02) (90, -1.90095946192741394043e-01) (142, 1.49422359466552734375e+00) (55, 2.14536547660827636719e+00) (81, 8.80568325519561767578e-01) (59, -1.50380887985229492188e+01) (109, -2.85149359703063964844e+00) (57, 4.80027914047241210938e-01) (113, -4.94179069995880126953e-01) (104, 6.60879969596862792969e-01) (32, 1.75446510314941406250e+00) (64, 4.21729147434234619141e-01) (46, -1.46482408046722412109e+00) (119, -1.50384056568145751953e+00) (98, -3.19176721572875976562e+00) (19, 1.64480602741241455078e+00) (6, -5.15728712081909179688e-01) (43, 3.81729513406753540039e-01) (97, 5.51149427890777587891e-01) (129, 7.37224102020263671875e-01) (20, 6.84126764535903930664e-02) (121, -2.99885183572769165039e-01) (45, -1.47546422481536865234e+00) (80, -2.31364309787750244141e-01) (156, 1.77158460021018981934e-01) (76, 3.70418787002563476562e+00) (135, -7.51574873924255371094e-01) (57, 2.47219228744506835938e+00) (54, -2.92800068855285644531e+00) (137, -1.44337356090545654297e-01) (154, 1.50000000000000000000e+03) (41, 1.72763681411743164062e+00) (108, 2.16505312919616699219e+00) (85, 1.78337645530700683594e+00) (69, -8.12800049781799316406e-01) (129, 3.22390890121459960938e+00) (144, -4.08164203166961669922e-01) (87, 2.78788097202777862549e-02) (94, -2.41502952575683593750e+00) (120, -6.75774812698364257812e-01) (33, 6.37227296829223632812e-01) (103, -5.61429786682128906250e+00) (107, -3.60968542098999023438e+00) (104, 2.28765749931335449219e+00) (86, 7.49904811382293701172e-01) (40, -1.10690869390964508057e-01) (146, 7.74604022502899169922e-01) (17, -7.76441621780395507812e+00) (6, -2.04449987411499023438e+00) (64, -1.88069701194763183594e+00) (153, 3.56819182634353637695e-02) (47, 3.61595940589904785156e+00) (2, 1.15990996360778808594e+00) (139, -5.37885054945945739746e-02) (61, 8.14454406499862670898e-02) (111, -1.80665206909179687500e+00) (98, 9.21729278564453125000e+00) (96, 2.85788011550903320312e+00) (37, 3.44903779029846191406e+00) (38, -5.81599140167236328125e+00) (90, -1.12221443653106689453e+00) (50, 2.06241154670715332031e+00) (141, 1.11768507957458496094e+00) (77, -1.01961231231689453125e+00) (12, -2.48627495765686035156e+00) (140, -6.12581193447113037109e-01) (84, 6.15749657154083251953e-01) (79, 2.00970172882080078125e+00) (63, -8.30463826656341552734e-01) (155, 1.50000000000000000000e+03) (48, 3.39636230468750000000e+00) (138, 3.49193304777145385742e-01) (145, -4.05452013015747070312e+00) (105, -1.35292947292327880859e+00) (21, 2.84880447387695312500e+00) (83, -1.46220862865447998047e+00) (68, -9.33248281478881835938e-01) (59, -6.62514266967773437500e+01) (88, 3.09693336486816406250e+00) (26, 1.64182555675506591797e+00) (89, -2.10623097419738769531e+00) (13, 4.08119916915893554688e+00) (65, 1.79187405109405517578e+00) (113, -2.21741390228271484375e+00) (102, -2.95652262866497039795e-02) (52, 5.27796864509582519531e-01) (128, 3.80519890785217285156e+00) (156, -7.73675918579101562500e+01) (43, -1.50000000000000000000e+03) (75, 1.05092552185058593750e+02) (152, -7.74092483520507812500e+01) (57, 1.49992272949218750000e+03) (125, 1.49951184082031250000e+03) (134, -1.50000000000000000000e+03) (112, 1.50000000000000000000e+03) (143, 1.50000000000000000000e+03) (77, 1.49600109863281250000e+03) (88, 1.45853674316406250000e+03) (65, -1.37768371582031250000e+03) (129, -3.17642852783203125000e+02) (115, -1.50000000000000000000e+03) (71, 1.17100274562835693359e+00) (34, -1.48862744140625000000e+03) (118, 1.50000000000000000000e+03) (146, 1.50000000000000000000e+03) (24, -1.50000000000000000000e+03) (133, -1.40886108398437500000e+02) (18, 1.39136511230468750000e+03) (40, -1.50000000000000000000e+03) (144, -1.45382543945312500000e+03) (145, 1.49848339843750000000e+03) (66, -1.49945825195312500000e+03) (78, 6.40726196289062500000e+02) (25, 1.50000000000000000000e+03) (105, -1.17360900878906250000e+03) (131, 1.50000000000000000000e+03) (56, -1.50000000000000000000e+03) (72, -1.50000000000000000000e+03) (104, -8.93387390136718750000e+02) (64, -1.45284277343750000000e+03) (27, -1.45416723632812500000e+03) (130, -1.50000000000000000000e+03) (48, 1.46341674804687500000e+03) (37, 1.50000000000000000000e+03) (109, -9.02918040752410888672e-01) (84, -1.50000000000000000000e+03) (79, 1.46511999511718750000e+03) (153, -7.77952346801757812500e+01) (73, -1.37935290527343750000e+03) (41, -1.49991564941406250000e+03) (126, -1.47126733398437500000e+03) (148, -7.75154647827148437500e+01) (30, 3.08239040374755859375e+01) (147, -7.77277908325195312500e+01) (122, 1.49995739746093750000e+03) (38, -1.47364575195312500000e+03) (35, 1.49998632812500000000e+03) (100, -1.50000000000000000000e+03) (50, 7.97537353515625000000e+02) (101, -1.23712878417968750000e+03) (98, -1.50000000000000000000e+03) (29, 1.49920959472656250000e+03) (70, 1.50000000000000000000e+03) (123, -1.49168054199218750000e+03) (3, -1.48725109863281250000e+03) (150, -7.81788558959960937500e+01) (7, -1.50000000000000000000e+03) (99, 1.49991992187500000000e+03) (120, 1.50000000000000000000e+03) (12, 1.48174047851562500000e+03) (156, 1.48111402988433837891e-01) (134, -1.64615368843078613281e+00) (12, 2.11519777774810791016e-01) (13, -2.50550299882888793945e-01) (57, -4.12962466478347778320e-01) (127, -5.47423064708709716797e-01) (111, 1.74269664287567138672e+00) (21, 2.66554236412048339844e+00) (131, -3.35491108894348144531e+00) (106, 1.63261562585830688477e-01) (19, 1.41210210323333740234e+00) (1, 1.19023382663726806641e+00) (33, -2.98006892204284667969e-01) (80, 1.35417592525482177734e+00) (11, 3.06086629629135131836e-01) (91, -1.59384071826934814453e+00) (153, 3.53339016437530517578e-01) (39, -1.85207533836364746094e+00) (62, 7.99270510673522949219e-01) (121, 5.00223398208618164062e-01) (94, -1.26488757133483886719e+00) (17, -4.77806568145751953125e-01) (71, -7.66762673854827880859e-01) (66, 8.19093763828277587891e-01) (61, -4.31821584701538085938e-01) (41, 6.05888187885284423828e-01) (42, -3.55106091499328613281e+00) (139, 3.16747248172760009766e-01) (142, 1.13489103317260742188e+00) (100, -2.84114193916320800781e+00) (87, -3.70233559608459472656e+00) (35, -1.76603889465332031250e+00) (45, 1.84654772281646728516e+00) (36, 7.36191645264625549316e-02) (130, 1.07192456722259521484e+00) (78, -1.28906893730163574219e+00) (20, -2.51065564155578613281e+00) (67, -6.40918195247650146484e-01) (108, 3.21265840530395507812e+00) (102, -4.75971281528472900391e-01) (150, -1.50092625990509986877e-02) (44, -3.90663117170333862305e-01) (40, -3.52371644973754882812e+00) (31, 5.06960153579711914062e-01) (128, 1.27899527549743652344e+00) (8, 2.01691031455993652344e-01) (148, -5.27598083019256591797e-01) (123, -1.36680579185485839844e+00) (90, -9.19336676597595214844e-02) (92, -2.52345895767211914062e+00) (84, 1.34481787681579589844e+00) (72, 1.39387941360473632812e+00) (112, 9.97826159000396728516e-02) (97, -6.09882593154907226562e-01) (28, 1.71235454082489013672e+00) (23, 2.68804860115051269531e+00) (63, -3.29407066106796264648e-01) (154, 1.50000000000000000000e+03) (120, 1.07941532135009765625e+00) (76, 5.59513807296752929688e-01) (141, -3.04228723049163818359e-01) (126, -1.40962767601013183594e+00) (115, 6.38154745101928710938e-01) (52, 3.03975641727447509766e-01) (156, -1.46365416049957275391e+00) (18, -2.02607212066650390625e+01) (127, -2.63575622558593750000e+02) (31, 1.12814971923828125000e+02) (28, 3.74926971435546875000e+02) (13, -1.44185912609100341797e+00) (11, -2.08879302978515625000e+02) (75, -1.27859859466552734375e+01) (0, -1.13394091796875000000e+03) (24, -2.68334693908691406250e+01) (152, -1.37745988368988037109e+00) (100, -1.50529365539550781250e+01) (30, 3.02776870727539062500e+01) (38, 4.81059226989746093750e+01) (78, 1.44460083007812500000e+02) (113, -1.44688623046875000000e+03) (42, -1.33530303955078125000e+02) (134, 1.11974372863769531250e+02) (130, -6.34156188964843750000e+01) (150, -1.17147886753082275391e+00) (9, -2.70799040794372558594e+00) (88, -9.51541366577148437500e+01) (126, -9.09590959548950195312e-01) (129, 9.88086547851562500000e+01) (109, -7.26084947586059570312e+00) (66, -2.49859962463378906250e+01) (138, -1.21601855754852294922e+00) (6, 1.44541759490966796875e+01) (67, -1.15451002120971679688e+00) (154, 1.50000000000000000000e+03) (107, -2.81527352333068847656e+00) (35, -3.96405670166015625000e+02) (101, -1.11593353271484375000e+02) (124, 3.53408355712890625000e+02) (96, -3.17890796661376953125e+01) (155, 1.50000000000000000000e+03) (106, 1.78015060424804687500e+02) (115, -3.21806564331054687500e+01) (40, 3.31709623336791992188e+00) (119, -6.13141479492187500000e+01) (46, -2.84933662414550781250e+01) (52, -1.81065551757812500000e+02) (21, 1.32191514968872070312e+01) (153, -1.79669475555419921875e+00) (74, -4.56568412780761718750e+01) (60, -2.39959025382995605469e+00) (70, 9.86142395019531250000e+02) (17, -1.76449890136718750000e+01) (20, -1.91335239410400390625e+01) (19, 9.97101516723632812500e+01) (145, -5.31494750976562500000e+01) (26, 4.69411621093750000000e+01) (136, 8.80325412750244140625e+00) (91, -1.35425000000000000000e+03) (45, 3.06344699859619140625e+01) (34, -2.59004139900207519531e+00) (12, -3.14802978515625000000e+02) (14, 1.37889127731323242188e+01) (125, -2.75851130485534667969e+00) (23, -1.98904476165771484375e+01) (82, 7.72849578857421875000e+01) (140, -9.98722374439239501953e-01) (137, -9.36181128025054931641e-01) (156, -1.34666681289672851562e+00) (154, 1.50000000000000000000e+03) (105, 6.96123504638671875000e+00) (34, -2.16767692565917968750e+00) (69, 1.10836470127105712891e+00) (1, 7.53455936908721923828e-01) (43, -5.79560361802577972412e-02) (14, -4.22153425216674804688e+00) (133, 1.31947135925292968750e+00) (148, 2.39397734403610229492e-01) (88, -1.70890495181083679199e-01) (30, 1.20813977718353271484e+00) (109, -4.60944205522537231445e-01) (57, -1.25663447380065917969e+00) (66, 1.68487787246704101562e+00) (56, -2.74588847160339355469e+00) (54, -4.37264800071716308594e-01) (44, -1.81211805343627929688e+00) (117, 3.21027731895446777344e+00) (102, 1.50280073285102844238e-01) (93, 1.36281681060791015625e+00) (84, -4.81638765335083007812e+00) (124, 1.73016881942749023438e+00) (70, 1.35520994663238525391e+00) (4, -7.57723629474639892578e-01) (99, 3.70054364204406738281e+00) (96, -2.07419604063034057617e-01) (138, 2.89394646883010864258e-01) (91, -6.78179785609245300293e-02) (45, 4.46506619453430175781e-01) (86, 2.20917987823486328125e+00) (112, 3.60496044158935546875e+00) (74, -3.51135897636413574219e+00) (38, -1.45404481887817382812e+00) (149, -2.55901783704757690430e-01) (132, 4.62954729795455932617e-01) (29, -1.27565574645996093750e+00) (80, -1.90466737747192382812e+00) (51, 1.46835005283355712891e+00) (42, -1.01216149330139160156e+00) (9, 2.43218374252319335938e+00) (116, 2.51597404479980468750e-01) (76, -1.49558603763580322266e+00) (40, 1.65527784824371337891e+00) (125, -2.55939054489135742188e+00) (72, 2.40176033973693847656e+00) (15, 3.14553618431091308594e+00) (32, 4.35938167572021484375e+00) (151, 1.68284654617309570312e-01) (25, 2.17328000068664550781e+00) (123, -2.74302124977111816406e+00) (10, 1.63201117515563964844e+00) (150, -4.58226412534713745117e-01) (128, 2.06945466995239257812e+00) (12, -1.29682791233062744141e+00) (41, 8.22456739842891693115e-03) (19, -4.82578366994857788086e-01) (82, 3.11621761322021484375e+00) (104, -4.31642913818359375000e+00) (53, -4.66389089822769165039e-01) (16, 1.15088872611522674561e-01) (129, -7.77536571025848388672e-01) (100, -1.21007993817329406738e-01) (106, 1.37081837654113769531e+00) (156, -2.11293554306030273438e+00) (148, -9.61309850215911865234e-01) (133, 3.46175885200500488281e+00) (47, -1.13943109512329101562e+01) (130, 1.98100032806396484375e+01) (44, -9.71930503845214843750e+00) (32, -1.16578137874603271484e+00) (95, -1.45018231868743896484e+00) (123, 6.80579066276550292969e-01) (97, 1.48112607002258300781e+00) (3, 5.27281284332275390625e+00) (55, -3.06122273206710815430e-01) (71, 5.13148486614227294922e-01) (110, 1.36511230468750000000e+00) (10, 9.25797522068023681641e-01) (94, 2.83161067962646484375e+00) (76, 3.11879754066467285156e+00) (24, 8.35545635223388671875e+00) (105, 1.30413174629211425781e+00) (26, -9.37541484832763671875e+00) (90, -5.33003091812133789062e-01) (134, -3.41635417938232421875e+00) (19, -7.34727501869201660156e-01) (136, -3.66112828254699707031e+00) (128, -1.44001426696777343750e+01) (144, 2.37802100181579589844e+00) (112, -2.08006477355957031250e+00) (11, -4.16318088769912719727e-01) (14, -1.06061506271362304688e+00) (20, 4.25867843627929687500e+00) (132, -6.22285509109497070312e+00) (154, 1.50000000000000000000e+03) (149, -1.04472112655639648438e+00) (29, 2.01167559623718261719e+00) (9, -1.91805079579353332520e-01) (109, 1.14813041687011718750e+00) (57, -5.29007005691528320312e+00) (86, 3.69692057371139526367e-01) (145, 2.37454026937484741211e-01) (141, -9.05494034290313720703e-01) (74, 2.19246292114257812500e+00) (77, -8.77145004272460937500e+00) (140, -2.55570113658905029297e-01) (28, -6.80638027191162109375e+00) (12, 1.55025053024291992188e+00) (6, -7.33173704147338867188e+00) (122, 1.08645191192626953125e+01) (37, -1.55529606342315673828e+00) (99, -4.48019218444824218750e+00) (18, 9.25769209861755371094e-01) (104, -1.29771244525909423828e+00) (34, -2.48893007636070251465e-01) (66, -1.02116193771362304688e+01) (4, -3.14391231536865234375e+00) (58, -2.25058603286743164062e+00) (70, -8.35929584503173828125e+00) (101, -1.47630631923675537109e+00) (53, -1.12144923210144042969e+00) (68, -6.51247549057006835938e+00) (38, 2.41877126693725585938e+00) (61, -2.66243624687194824219e+00) (46, 3.94743514060974121094e+00) (1, 1.20212039947509765625e+01) (156, -1.50000000000000000000e+03) (35, -1.50000000000000000000e+03) (151, -1.50000000000000000000e+03) (140, -1.50000000000000000000e+03) (91, 1.50000000000000000000e+03) (21, -1.50000000000000000000e+03) (87, -6.55946731567382812500e-01) (52, -1.50000000000000000000e+03) (121, -1.42709582519531250000e+03) (43, -1.50000000000000000000e+03) (18, -1.50000000000000000000e+03) (110, -1.50000000000000000000e+03) (127, -1.50000000000000000000e+03) (41, -1.50000000000000000000e+03) (5, -1.50000000000000000000e+03) (130, -1.50000000000000000000e+03) (1, 1.50000000000000000000e+03) (72, 1.50000000000000000000e+03) (59, 1.50000000000000000000e+03) (152, -1.50000000000000000000e+03) (101, -1.49902990722656250000e+03) (33, -1.50000000000000000000e+03) (53, -1.45685620117187500000e+03) (40, -1.50000000000000000000e+03) (45, -1.50000000000000000000e+03) (50, -1.50000000000000000000e+03) (78, 1.50000000000000000000e+03) (51, -1.50000000000000000000e+03) (22, -1.49537573242187500000e+03) (89, -1.50000000000000000000e+03) (6, -1.50000000000000000000e+03) (94, 1.50000000000000000000e+03) (88, -1.50000000000000000000e+03) (37, -1.50000000000000000000e+03) (42, -1.50000000000000000000e+03) (142, -1.64068069458007812500e+01) (145, 1.49805175781250000000e+03) (36, 7.21705484390258789062e+00) (108, 