FANN_FLO_2.1
num_layers=3
learning_rate=0.700000
connection_rate=1.000000
network_type=0
learning_momentum=0.000000
training_algorithm=3
train_error_function=1
train_stop_function=0
cascade_output_change_fraction=0.010000
quickprop_decay=-0.000100
quickprop_mu=1.750000
rprop_increase_factor=1.200000
rprop_decrease_factor=0.500000
rprop_delta_min=0.000000
rprop_delta_max=50.000000
rprop_delta_zero=0.100000
cascade_output_stagnation_epochs=12
cascade_candidate_change_fraction=0.010000
cascade_candidate_stagnation_epochs=12
cascade_max_out_epochs=150
cascade_max_cand_epochs=150
cascade_num_candidate_groups=2
bit_fail_limit=3.49999994039535522461e-01
cascade_candidate_limit=1.00000000000000000000e+03
cascade_weight_multiplier=4.00000005960464477539e-01
cascade_activation_functions_count=10
cascade_activation_functions=3 5 7 8 10 11 14 15 16 17 
cascade_activation_steepnesses_count=4
cascade_activation_steepnesses=2.50000000000000000000e-01 5.00000000000000000000e-01 7.50000000000000000000e-01 1.00000000000000000000e+00 
layer_sizes=157 69 11 
scale_included=0
neurons (num_inputs, activation_function, activation_steepness)=(0, 0, 0.00000000000000000000e+00) (0, 0, 0.00000000000000000000e+00) (0, 0, 0.00000000000000000000e+00) (0, 0, 0.00000000000000000000e+00) (0, 0, 0.00000000000000000000e+00) (0, 0, 0.00000000000000000000e+00) (0, 0, 0.00000000000000000000e+00) (0, 0, 0.00000000000000000000e+00) (0, 0, 0.00000000000000000000e+00) (0, 0, 0.00000000000000000000e+00) (0, 0, 0.00000000000000000000e+00) (0, 0, 0.00000000000000000000e+00) (0, 0, 0.00000000000000000000e+00) (0, 0, 0.00000000000000000000e+00) (0, 0, 0.00000000000000000000e+00) (0, 0, 0.00000000000000000000e+00) (0, 0, 0.00000000000000000000e+00) (0, 0, 0.00000000000000000000e+00) (0, 0, 0.00000000000000000000e+00) (0, 0, 0.00000000000000000000e+00) (0, 0, 0.00000000000000000000e+00) (0, 0, 0.00000000000000000000e+00) (0, 0, 0.00000000000000000000e+00) (0, 0, 0.00000000000000000000e+00) (0, 0, 0.00000000000000000000e+00) (0, 0, 0.00000000000000000000e+00) (0, 0, 0.00000000000000000000e+00) (0, 0, 0.00000000000000000000e+00) (0, 0, 0.00000000000000000000e+00) (0, 0, 0.00000000000000000000e+00) (0, 0, 0.00000000000000000000e+00) (0, 0, 0.00000000000000000000e+00) (0, 0, 0.00000000000000000000e+00) (0, 0, 0.00000000000000000000e+00) (0, 0, 0.00000000000000000000e+00) (0, 0, 0.00000000000000000000e+00) (0, 0, 0.00000000000000000000e+00) (0, 0, 0.00000000000000000000e+00) (0, 0, 0.00000000000000000000e+00) (0, 0, 0.00000000000000000000e+00) (0, 0, 0.00000000000000000000e+00) (0, 0, 0.00000000000000000000e+00) (0, 0, 0.00000000000000000000e+00) (0, 0, 0.00000000000000000000e+00) (0, 0, 0.00000000000000000000e+00) (0, 0, 0.00000000000000000000e+00) (0, 0, 0.00000000000000000000e+00) (0, 0, 0.00000000000000000000e+00) (0, 0, 0.00000000000000000000e+00) (0, 0, 0.00000000000000000000e+00) (0, 0, 0.00000000000000000000e+00) (0, 0, 0.00000000000000000000e+00) (0, 0, 0.00000000000000000000e+00) (0, 0, 0.00000000000000000000e+00) (0, 0, 0.00000000000000000000e+00) (0, 0, 0.00000000000000000000e+00) (0, 0, 0.00000000000000000000e+00) (0, 0, 0.00000000000000000000e+00) (0, 0, 0.00000000000000000000e+00) (0, 0, 0.00000000000000000000e+00) (0, 0, 0.00000000000000000000e+00) (0, 0, 0.00000000000000000000e+00) (0, 0, 0.00000000000000000000e+00) (0, 0, 0.00000000000000000000e+00) (0, 0, 0.00000000000000000000e+00) (0, 0, 0.00000000000000000000e+00) (0, 0, 0.00000000000000000000e+00) (0, 0, 0.00000000000000000000e+00) (0, 0, 0.00000000000000000000e+00) (0, 0, 0.00000000000000000000e+00) (0, 0, 0.00000000000000000000e+00) (0, 0, 0.00000000000000000000e+00) (0, 0, 0.00000000000000000000e+00) (0, 0, 0.00000000000000000000e+00) (0, 0, 0.00000000000000000000e+00) (0, 0, 0.00000000000000000000e+00) (0, 0, 0.00000000000000000000e+00) (0, 0, 0.00000000000000000000e+00) (0, 0, 0.00000000000000000000e+00) (0, 0, 0.00000000000000000000e+00) (0, 0, 0.00000000000000000000e+00) (0, 0, 0.00000000000000000000e+00) (0, 0, 0.00000000000000000000e+00) (0, 0, 0.00000000000000000000e+00) (0, 0, 0.00000000000000000000e+00) (0, 0, 0.00000000000000000000e+00) (0, 0, 0.00000000000000000000e+00) (0, 0, 0.00000000000000000000e+00) (0, 0, 0.00000000000000000000e+00) (0, 0, 0.00000000000000000000e+00) (0, 0, 0.00000000000000000000e+00) (0, 0, 0.00000000000000000000e+00) (0, 0, 0.00000000000000000000e+00) (0, 0, 0.00000000000000000000e+00) (0, 0, 0.00000000000000000000e+00) (0, 0, 0.00000000000000000000e+00) (0, 0, 0.00000000000000000000e+00) (0, 0, 0.00000000000000000000e+00) (0, 0, 0.00000000000000000000e+00) (0, 0, 0.00000000000000000000e+00) (0, 0, 0.00000000000000000000e+00) (0, 0, 0.00000000000000000000e+00) (0, 0, 0.00000000000000000000e+00) (0, 0, 0.00000000000000000000e+00) (0, 0, 0.00000000000000000000e+00) (0, 0, 0.00000000000000000000e+00) (0, 0, 0.00000000000000000000e+00) (0, 0, 0.00000000000000000000e+00) (0, 0, 0.00000000000000000000e+00) (0, 0, 0.00000000000000000000e+00) (0, 0, 0.00000000000000000000e+00) (0, 0, 0.00000000000000000000e+00) (0, 0, 0.00000000000000000000e+00) (0, 0, 0.00000000000000000000e+00) (0, 0, 0.00000000000000000000e+00) (0, 0, 0.00000000000000000000e+00) (0, 0, 0.00000000000000000000e+00) (0, 0, 0.00000000000000000000e+00) (0, 0, 0.00000000000000000000e+00) (0, 0, 0.00000000000000000000e+00) (0, 0, 0.00000000000000000000e+00) (0, 0, 0.00000000000000000000e+00) (0, 0, 0.00000000000000000000e+00) (0, 0, 0.00000000000000000000e+00) (0, 0, 0.00000000000000000000e+00) (0, 0, 0.00000000000000000000e+00) (0, 0, 0.00000000000000000000e+00) (0, 0, 0.00000000000000000000e+00) (0, 0, 0.00000000000000000000e+00) (0, 0, 0.00000000000000000000e+00) (0, 0, 0.00000000000000000000e+00) (0, 0, 0.00000000000000000000e+00) (0, 0, 0.00000000000000000000e+00) (0, 0, 0.00000000000000000000e+00) (0, 0, 0.00000000000000000000e+00) (0, 0, 0.00000000000000000000e+00) (0, 0, 0.00000000000000000000e+00) (0, 0, 0.00000000000000000000e+00) (0, 0, 0.00000000000000000000e+00) (0, 0, 0.00000000000000000000e+00) (0, 0, 0.00000000000000000000e+00) (0, 0, 0.00000000000000000000e+00) (0, 0, 0.00000000000000000000e+00) (0, 0, 0.00000000000000000000e+00) (0, 0, 0.00000000000000000000e+00) (0, 0, 0.00000000000000000000e+00) (0, 0, 0.00000000000000000000e+00) (0, 0, 0.00000000000000000000e+00) (0, 0, 0.00000000000000000000e+00) (0, 0, 0.00000000000000000000e+00) (0, 0, 0.00000000000000000000e+00) (0, 0, 0.00000000000000000000e+00) (0, 0, 0.00000000000000000000e+00) (0, 0, 0.00000000000000000000e+00) (0, 0, 0.00000000000000000000e+00) (0, 0, 0.00000000000000000000e+00) (0, 0, 0.00000000000000000000e+00) (157, 4, 5.00000000000000000000e-01) (157, 4, 5.00000000000000000000e-01) (157, 4, 5.00000000000000000000e-01) (157, 4, 5.00000000000000000000e-01) (157, 4, 5.00000000000000000000e-01) (157, 4, 5.00000000000000000000e-01) (157, 4, 5.00000000000000000000e-01) (157, 4, 5.00000000000000000000e-01) (157, 4, 5.00000000000000000000e-01) (157, 4, 5.00000000000000000000e-01) (157, 4, 5.00000000000000000000e-01) (157, 4, 5.00000000000000000000e-01) (157, 4, 5.00000000000000000000e-01) (157, 4, 5.00000000000000000000e-01) (157, 4, 5.00000000000000000000e-01) (157, 4, 5.00000000000000000000e-01) (157, 4, 5.00000000000000000000e-01) (157, 4, 5.00000000000000000000e-01) (157, 4, 5.00000000000000000000e-01) (157, 4, 5.00000000000000000000e-01) (157, 4, 5.00000000000000000000e-01) (157, 4, 5.00000000000000000000e-01) (157, 4, 5.00000000000000000000e-01) (157, 4, 5.00000000000000000000e-01) (157, 4, 5.00000000000000000000e-01) (157, 4, 5.00000000000000000000e-01) (157, 4, 5.00000000000000000000e-01) (157, 4, 5.00000000000000000000e-01) (157, 4, 5.00000000000000000000e-01) (157, 4, 5.00000000000000000000e-01) (157, 4, 5.00000000000000000000e-01) (157, 4, 5.00000000000000000000e-01) (157, 4, 5.00000000000000000000e-01) (157, 4, 5.00000000000000000000e-01) (157, 4, 5.00000000000000000000e-01) (157, 4, 5.00000000000000000000e-01) (157, 4, 5.00000000000000000000e-01) (157, 4, 5.00000000000000000000e-01) (157, 4, 5.00000000000000000000e-01) (157, 4, 5.00000000000000000000e-01) (157, 4, 5.00000000000000000000e-01) (157, 4, 5.00000000000000000000e-01) (157, 4, 5.00000000000000000000e-01) (157, 4, 5.00000000000000000000e-01) (157, 4, 5.00000000000000000000e-01) (157, 4, 5.00000000000000000000e-01) (157, 4, 5.00000000000000000000e-01) (157, 4, 5.00000000000000000000e-01) (157, 4, 5.00000000000000000000e-01) (157, 4, 5.00000000000000000000e-01) (157, 4, 5.00000000000000000000e-01) (157, 4, 5.00000000000000000000e-01) (157, 4, 5.00000000000000000000e-01) (157, 4, 5.00000000000000000000e-01) (157, 4, 5.00000000000000000000e-01) (157, 4, 5.00000000000000000000e-01) (157, 4, 5.00000000000000000000e-01) (157, 4, 5.00000000000000000000e-01) (157, 4, 5.00000000000000000000e-01) (157, 4, 5.00000000000000000000e-01) (157, 4, 5.00000000000000000000e-01) (157, 4, 5.00000000000000000000e-01) (157, 4, 5.00000000000000000000e-01) (157, 4, 5.00000000000000000000e-01) (157, 4, 5.00000000000000000000e-01) (157, 4, 5.00000000000000000000e-01) (157, 4, 5.00000000000000000000e-01) (157, 4, 5.00000000000000000000e-01) (0, 0, 0.00000000000000000000e+00) (69, 4, 5.00000000000000000000e-01) (69, 4, 5.00000000000000000000e-01) (69, 4, 5.00000000000000000000e-01) (69, 4, 5.00000000000000000000e-01) (69, 4, 5.00000000000000000000e-01) (69, 4, 5.00000000000000000000e-01) (69, 4, 5.00000000000000000000e-01) (69, 4, 5.00000000000000000000e-01) (69, 4, 5.00000000000000000000e-01) (69, 4, 5.00000000000000000000e-01) (0, 0, 0.00000000000000000000e+00) 
connections (connected_to_neuron, weight)=(0, -2.13504303246736526489e-02) (1, 3.74761037528514862061e-02) (2, 2.10832133889198303223e-02) (3, 4.88649085164070129395e-02) (4, -8.99570584297180175781e-02) (5, -2.33199391514062881470e-02) (6, 8.29783827066421508789e-02) (7, -7.47322142124176025391e-02) (8, 2.52380897291004657745e-03) (9, -7.64122605323791503906e-02) (10, -6.06444329023361206055e-02) (11, 1.25049082562327384949e-02) (12, 3.05027551949024200439e-02) (13, 4.66236397624015808105e-02) (14, -1.05976626276969909668e-01) (15, -4.36181761324405670166e-03) (16, -2.97180581837892532349e-02) (17, -1.08018154278397560120e-02) (18, 6.26310780644416809082e-02) (19, -2.34529413282871246338e-02) (20, 7.04541131854057312012e-02) (21, 9.41519159823656082153e-03) (22, 6.31025880575180053711e-02) (23, 5.72613216936588287354e-02) (24, -1.13133005797863006592e-01) (25, -8.21211263537406921387e-02) (26, -3.95326688885688781738e-02) (27, -4.98644672334194183350e-02) (28, 3.69460321962833404541e-02) (29, -3.46809700131416320801e-02) (30, 8.68608206510543823242e-02) (31, -6.71586841344833374023e-02) (32, 4.06325384974479675293e-02) (33, -3.27686183154582977295e-02) (34, 6.13065920770168304443e-02) (35, 1.05623178184032440186e-01) (36, 9.17067602276802062988e-02) (37, 3.11918985098600387573e-02) (38, -7.95781835913658142090e-02) (39, 5.36947883665561676025e-03) (40, 2.07960382103919982910e-02) (41, -1.00016973912715911865e-01) (42, 9.29999873042106628418e-02) (43, -5.01615367829799652100e-02) (44, 8.83598402142524719238e-02) (45, 7.19337612390518188477e-02) (46, 4.57082912325859069824e-02) (47, -4.68451008200645446777e-02) (48, -1.74527987837791442871e-02) (49, 5.36029078066349029541e-02) (50, -2.17970255762338638306e-02) (51, -1.33564481511712074280e-02) (52, -6.13332027569413185120e-03) (53, -6.65703490376472473145e-02) (54, -4.62464466691017150879e-02) (55, -1.68072283267974853516e-02) (56, -2.93501373380422592163e-02) (57, 2.09373682737350463867e-02) (58, 1.92871093750000000000e-02) (59, -8.04195329546928405762e-02) (60, 4.73360829055309295654e-02) (61, 3.25421765446662902832e-02) (62, -9.66894403100013732910e-02) (63, 3.05940043181180953979e-02) (64, 1.16335555911064147949e-01) (65, 8.67591500282287597656e-02) (66, 1.53694245964288711548e-02) (67, 4.00481857359409332275e-02) (68, 4.83615230768918991089e-03) (69, 5.70479407906532287598e-02) (70, -1.01457864046096801758e-01) (71, -7.98775702714920043945e-02) (72, 8.14769566059112548828e-02) (73, -1.06956511735916137695e-01) (74, 7.22309853881597518921e-03) (75, 1.14162988960742950439e-01) (76, -5.62137737870216369629e-02) (77, -2.01169904321432113647e-02) (78, -8.66963416337966918945e-02) (79, -8.51072464138269424438e-03) (80, -8.51379632949829101562e-02) (81, 1.78059227764606475830e-02) (82, -1.00296914577484130859e-01) (83, -1.67840570211410522461e-02) (84, 5.11639937758445739746e-02) (85, -1.39296120032668113708e-02) (86, -8.24665799736976623535e-02) (87, -1.83848403394222259521e-02) (88, -1.00148260593414306641e-01) (89, 3.95469628274440765381e-02) (90, -2.63336598873138427734e-02) (91, 7.70363882184028625488e-02) (92, -3.05407922714948654175e-02) (93, -1.91968157887458801270e-02) (94, -1.01295560598373413086e-02) (95, -6.38634059578180313110e-03) (96, 7.67970457673072814941e-03) (97, -2.81532783992588520050e-03) (98, -6.28714859485626220703e-02) (99, -1.11481241881847381592e-01) (100, 1.08365163207054138184e-01) (101, -3.08491121977567672729e-02) (102, -3.17111834883689880371e-02) (103, 9.58191007375717163086e-02) (104, 3.84684465825557708740e-02) (105, 5.38754463195800781250e-02) (106, 4.44494560360908508301e-02) (107, -7.96948373317718505859e-03) (108, -4.05247062444686889648e-02) (109, 7.87715464830398559570e-02) (110, -5.04883639514446258545e-02) (111, -1.67141929268836975098e-02) (112, -1.24925412237644195557e-02) (113, -4.20960709452629089355e-02) (114, 7.61026293039321899414e-02) (115, -3.40158604085445404053e-02) (116, 2.10881959646940231323e-02) (117, -1.26655340194702148438e-01) (118, 1.64022538810968399048e-02) (119, 2.69628390669822692871e-02) (120, 7.17403739690780639648e-02) (121, 1.12848021090030670166e-01) (122, 3.15722823143005371094e-02) (123, -7.45478942990303039551e-02) (124, -3.13804969191551208496e-02) (125, -2.62260641902685165405e-02) (126, -1.98324080556631088257e-02) (127, 6.77362009882926940918e-02) (128, 3.62132452428340911865e-02) (129, -3.10478638857603073120e-02) (130, -7.74900242686271667480e-02) (131, 3.12862284481525421143e-02) (132, 6.14617466926574707031e-02) (133, -4.90256845951080322266e-02) (134, -1.89593702089041471481e-03) (135, -6.81498274207115173340e-02) (136, -7.09384679794311523438e-02) (137, -5.86119256913661956787e-02) (138, 7.14043900370597839355e-02) (139, -5.50148151814937591553e-02) (140, -8.63704755902290344238e-02) (141, -9.22872796654701232910e-02) (142, 7.56682232022285461426e-02) (143, 5.75157674029469490051e-03) (144, -7.26833045482635498047e-02) (145, 6.29652217030525207520e-02) (146, 6.38824626803398132324e-02) (147, -9.02070403099060058594e-02) (148, 7.11999982595443725586e-02) (149, -6.17807134985923767090e-02) (150, 6.36985450983047485352e-02) (151, 1.99317708611488342285e-02) (152, -5.27097284793853759766e-02) (153, -2.55669048056006431580e-03) (154, 4.10110130906105041504e-02) (155, 6.86556622385978698730e-02) (156, 1.03761233389377593994e-01) (0, -8.58959853649139404297e-02) (1, 1.03735119104385375977e-01) (2, 6.50755316019058227539e-02) (3, 2.20627095550298690796e-02) (4, 7.57702961564064025879e-02) (5, -7.72430747747421264648e-02) (6, 1.86685728840529918671e-03) (7, -1.19059167802333831787e-01) (8, -1.89058408141136169434e-02) (9, 1.94259434938430786133e-02) (10, -3.64063344895839691162e-02) (11, 6.30758181214332580566e-02) (12, 6.80042849853634834290e-03) (13, 7.44085311889648437500e-02) (14, 8.35534036159515380859e-02) (15, 7.05908089876174926758e-02) (16, 3.90829667448997497559e-02) (17, 1.46521544083952903748e-02) (18, 1.12230598926544189453e-01) (19, 2.00947653502225875854e-03) (20, -2.32010763138532638550e-02) (21, -7.03384876251220703125e-02) (22, 1.83319728821516036987e-02) (23, -7.56100146099925041199e-03) (24, 1.15342989563941955566e-01) (25, -1.44595056772232055664e-01) (26, -9.12999585270881652832e-02) (27, -5.38858734071254730225e-02) (28, 6.06892853975296020508e-02) (29, 1.25821039080619812012e-01) (30, -6.42693135887384414673e-03) (31, 5.39999194443225860596e-02) (32, 1.11637294292449951172e-01) (33, 5.31641133129596710205e-02) (34, -6.45885467529296875000e-02) (35, -7.53329135477542877197e-04) (36, 1.02764949202537536621e-01) (37, 3.86425964534282684326e-02) (38, 9.05062109231948852539e-02) (39, 1.45564367994666099548e-03) (40, -3.09011014178395271301e-03) (41, -6.95724114775657653809e-02) (42, 7.93675612658262252808e-03) (43, -9.81807559728622436523e-02) (44, 5.41435554623603820801e-02) (45, -9.17822215706110000610e-03) (46, 4.81049306690692901611e-02) (47, 2.62955669313669204712e-03) (48, 8.22580829262733459473e-02) (49, 4.56106923520565032959e-02) (50, -6.00543357431888580322e-02) (51, -2.03323904424905776978e-02) (52, 6.92010521888732910156e-02) (53, -3.67433740757405757904e-03) (54, -1.43516182899475097656e-01) (55, 4.37912764027714729309e-03) (56, -1.01145403459668159485e-03) (57, -1.10649928450584411621e-01) (58, -6.90532252192497253418e-02) (59, -4.71547134220600128174e-02) (60, -7.67608508467674255371e-02) (61, 6.72334199771285057068e-03) (62, -7.81359672546386718750e-02) (63, 1.01131133735179901123e-01) (64, -7.97794386744499206543e-02) (65, -2.51931231468915939331e-02) (66, 5.69915445521473884583e-03) (67, -4.83990833163261413574e-02) (68, -2.57867909967899322510e-02) (69, -7.38420989364385604858e-03) (70, 6.42168447375297546387e-02) (71, 1.45654054358601570129e-02) (72, -2.81978864222764968872e-03) (73, -2.40363664925098419189e-02) (74, 3.87530960142612457275e-02) (75, -6.20492510497570037842e-02) (76, 5.71230687201023101807e-02) (77, -6.69391676783561706543e-02) (78, 9.08581912517547607422e-02) (79, 3.98645438253879547119e-02) (80, 9.50029864907264709473e-02) (81, -6.50420784950256347656e-02) (82, 6.66030123829841613770e-02) (83, 4.17914427816867828369e-02) (84, 4.60726097226142883301e-02) (85, 1.23344801366329193115e-01) (86, -5.72227276861667633057e-02) (87, -8.54329466819763183594e-02) (88, -7.77596831321716308594e-02) (89, -6.82700723409652709961e-02) (90, -2.92634628713130950928e-02) (91, -6.93064108490943908691e-02) (92, 4.97319996356964111328e-02) (93, 6.00819140672683715820e-02) (94, -1.11709862947463989258e-01) (95, 1.17219328880310058594e-01) (96, 3.79908829927444458008e-02) (97, 4.86255101859569549561e-02) (98, -9.52570363879203796387e-02) (99, 1.04279734194278717041e-01) (100, -9.28077101707458496094e-02) (101, -8.34106579422950744629e-02) (102, -1.22947832569479942322e-02) (103, -2.08702199161052703857e-02) (104, 1.42774600535631179810e-02) (105, -1.27406477928161621094e-01) (106, 7.14295282959938049316e-02) (107, -1.80197730660438537598e-02) (108, -3.18432301282882690430e-02) (109, 7.81074240803718566895e-02) (110, 8.28536003828048706055e-02) (111, -1.73175968229770660400e-02) (112, 8.33481475710868835449e-02) (113, 3.81916165351867675781e-02) (114, 1.53799399733543395996e-01) (115, 7.48800113797187805176e-03) (116, -2.44858139194548130035e-03) (117, -1.00987523794174194336e-01) (118, -5.07092662155628204346e-02) (119, 4.00392226874828338623e-02) (120, 1.33006763644516468048e-03) (121, 8.70234891772270202637e-02) (122, 3.13286259770393371582e-02) (123, -9.32776629924774169922e-02) (124, -8.60807448625564575195e-02) (125, 3.43520082533359527588e-02) (126, 7.05795809626579284668e-02) (127, -9.66296643018722534180e-02) (128, -4.30392771959304809570e-02) (129, -2.81785242259502410889e-02) (130, -6.78548961877822875977e-02) (131, -8.54198262095451354980e-03) (132, -2.13553756475448608398e-02) (133, -1.26479854807257652283e-02) (134, 1.16514146327972412109e-01) (135, 8.71074497699737548828e-02) (136, 6.43552094697952270508e-02) (137, 6.11614026129245758057e-02) (138, -9.45388078689575195312e-02) (139, -6.45750537514686584473e-02) (140, 1.95876117795705795288e-02) (141, 7.93785899877548217773e-02) (142, -1.34142814204096794128e-02) (143, -2.50144712626934051514e-02) (144, 1.10939927399158477783e-01) (145, -1.58922504633665084839e-02) (146, 5.89713864028453826904e-02) (147, -5.89162223041057586670e-02) (148, -3.29352729022502899170e-02) (149, -3.79064120352268218994e-02) (150, 5.91094009578227996826e-02) (151, 3.73948328197002410889e-02) (152, -7.77129828929901123047e-02) (153, 3.51877743378281593323e-03) (154, 3.95673140883445739746e-02) (155, -4.55479584634304046631e-02) (156, -3.58251333236694335938e-02) (0, 3.49975414574146270752e-02) (1, 4.17428603395819664001e-03) (2, 9.97583419084548950195e-02) (3, 8.19354578852653503418e-02) (4, -7.64164328575134277344e-02) (5, -7.11057111620903015137e-02) (6, -1.09948385506868362427e-02) (7, 7.41271898150444030762e-02) (8, -1.04480355978012084961e-01) (9, -1.03481747210025787354e-01) (10, 3.54421474039554595947e-02) (11, 7.31367394328117370605e-02) (12, -1.13085426390171051025e-01) (13, 6.55337944626808166504e-02) (14, 1.98696833103895187378e-02) (15, 8.33363607525825500488e-02) (16, -6.65262788534164428711e-02) (17, 7.24888592958450317383e-02) (18, 7.46865058317780494690e-03) (19, 1.39495162293314933777e-02) (20, 4.06193174421787261963e-02) (21, 6.45561367273330688477e-02) (22, 9.81133282184600830078e-02) (23, 5.30370734632015228271e-02) (24, 5.27042709290981292725e-03) (25, -2.44833379983901977539e-02) (26, -1.03967271745204925537e-01) (27, 9.14815589785575866699e-02) (28, -9.30748879909515380859e-02) (29, 3.12060359865427017212e-02) (30, -3.48838083446025848389e-02) (31, 8.02164599299430847168e-02) (32, 3.25935520231723785400e-02) (33, 9.30611789226531982422e-02) (34, 4.13507036864757537842e-02) (35, 7.80170485377311706543e-02) (36, -1.09297670423984527588e-01) (37, 9.48332473635673522949e-02) (38, 1.07165172696113586426e-01) (39, -8.72500836849212646484e-02) (40, -9.33241546154022216797e-02) (41, 3.26934270560741424561e-02) (42, -9.65169146656990051270e-02) (43, -1.02741762995719909668e-01) (44, -1.03172175586223602295e-01) (45, 5.80231100320816040039e-02) (46, -8.61329138278961181641e-02) (47, -6.82186633348464965820e-02) (48, -9.77708306163549423218e-03) (49, 3.46544906497001647949e-02) (50, 6.01789690554141998291e-02) (51, 2.37123798578977584839e-02) (52, -3.54578308761119842529e-02) (53, -2.08810921758413314819e-02) (54, -1.27762034535408020020e-01) (55, 2.22049932926893234253e-02) (56, -1.08211182057857513428e-01) (57, -6.60234764218330383301e-02) (58, 3.32297757267951965332e-02) (59, -6.20491765439510345459e-02) (60, 1.60710159689188003540e-02) (61, 1.41866117715835571289e-01) (62, -1.12457044422626495361e-01) (63, -6.94116875529289245605e-02) (64, 7.60532766580581665039e-02) (65, 3.84532324969768524170e-02) (66, -6.73921406269073486328e-02) (67, 1.06649003922939300537e-01) (68, 1.10559418797492980957e-01) (69, 8.31989496946334838867e-02) (70, -8.05566906929016113281e-02) (71, 1.48543752729892730713e-02) (72, -4.95461188256740570068e-02) (73, -4.43570315837860107422e-02) (74, 7.20786750316619873047e-02) (75, 2.75351032614707946777e-02) (76, 4.83620874583721160889e-02) (77, 5.71723692119121551514e-02) (78, 1.18337139487266540527e-01) (79, -1.23000361025333404541e-01) (80, -1.76748144440352916718e-03) (81, 7.56243988871574401855e-02) (82, -4.79144044220447540283e-02) (83, 1.97959188371896743774e-02) (84, 1.17621580138802528381e-02) (85, 8.37604689877480268478e-04) (86, 3.36029846221208572388e-03) (87, -1.87331791967153549194e-02) (88, 9.98831763863563537598e-02) (89, -1.18304759263992309570e-01) (90, 5.92620261013507843018e-02) (91, -4.94837686419486999512e-02) (92, -5.99007569253444671631e-02) (93, 1.18182569742202758789e-01) (94, -9.44174174219369888306e-03) (95, 1.29663616418838500977e-01) (96, -1.29702417179942131042e-02) (97, 6.86661689542233943939e-04) (98, 1.08538836240768432617e-01) (99, -1.03285104036331176758e-01) (100, -2.19996809028089046478e-03) (101, -6.12430423498153686523e-02) (102, 1.07599318027496337891e-01) (103, -9.92747768759727478027e-02) (104, 2.20752973109483718872e-03) (105, 1.96178909391164779663e-02) (106, 4.78909499943256378174e-02) (107, 1.30692929029464721680e-01) (108, 4.17609885334968566895e-02) (109, 6.05468042194843292236e-02) (110, -5.41813746094703674316e-02) (111, -1.75656266510486602783e-02) (112, -8.63513071089982986450e-03) (113, -7.07757484633475542068e-04) (114, 6.38272613286972045898e-02) (115, 1.10366135835647583008e-01) (116, 5.69480992853641510010e-02) (117, -1.91381480544805526733e-02) (118, -1.29894122481346130371e-01) (119, 7.37335160374641418457e-02) (120, -4.58085536956787109375e-02) (121, 1.17215454578399658203e-01) (122, 9.06617864966392517090e-02) (123, 5.74880046769976615906e-03) (124, 6.67117163538932800293e-03) (125, -4.68386635184288024902e-02) (126, -5.81062771379947662354e-02) (127, 1.50570631027221679688e-01) (128, -1.10195696353912353516e-01) (129, -4.24723476171493530273e-02) (130, -2.24397312849760055542e-02) (131, 3.71548756957054138184e-02) (132, 4.91561852395534515381e-02) (133, -7.58518055081367492676e-02) (134, 3.90131697058677673340e-02) (135, 3.42164412140846252441e-02) (136, -7.90688768029212951660e-02) (137, -4.13363426923751831055e-02) (138, 2.22119279205799102783e-02) (139, 2.24044024944305419922e-02) (140, 8.39498341083526611328e-02) (141, 4.40293960273265838623e-02) (142, 9.29410755634307861328e-02) (143, -2.40950100123882293701e-02) (144, -5.26868514716625213623e-02) (145, 7.99792408943176269531e-02) (146, -5.56927174329757690430e-02) (147, -8.33041518926620483398e-02) (148, -9.05167236924171447754e-02) (149, -3.52975092828273773193e-02) (150, 4.81393225491046905518e-02) (151, -1.26082096248865127563e-02) (152, 1.73900872468948364258e-02) (153, 5.05334883928298950195e-03) (154, 7.28814825415611267090e-02) (155, 9.47235599160194396973e-02) (156, -4.06044237315654754639e-02) (0, 3.10620591044425964355e-02) (1, 2.82852292060852050781e-01) (2, 1.14661334082484245300e-02) (3, 4.21838492155075073242e-01) (4, -3.61581034958362579346e-02) (5, 1.58501733094453811646e-02) (6, 3.65102514624595642090e-02) (7, -9.71614897251129150391e-01) (8, 2.45870232582092285156e-01) (9, 2.89561659097671508789e-01) (10, -1.64199650287628173828e-01) (11, -2.25114569067955017090e-01) (12, 1.31397768855094909668e-02) (13, -1.10132955014705657959e-01) (14, 2.52848833799362182617e-01) (15, -3.60663682222366333008e-02) (16, -1.03154154494404792786e-02) (17, 5.02471923828125000000e-01) (18, 2.88132559508085250854e-02) (19, -4.82523106038570404053e-02) (20, -2.23127249628305435181e-02) (21, -1.59322321414947509766e-01) (22, 8.37490484118461608887e-02) (23, 3.82115989923477172852e-01) (24, 3.73983323574066162109e-01) (25, -1.99063479900360107422e-01) (26, 1.67263835668563842773e-01) (27, 4.77933615446090698242e-01) (28, 3.66629987955093383789e-01) (29, 5.00143691897392272949e-02) (30, -1.85549154877662658691e-01) (31, 2.98271715641021728516e-01) (32, 1.14801667630672454834e-01) (33, -1.78386598825454711914e-01) (34, -3.49482372403144836426e-02) (35, -8.27548727393150329590e-02) (36, -3.29309180378913879395e-02) (37, -6.95111602544784545898e-02) (38, -3.00862252712249755859e-01) (39, -2.46989369392395019531e-01) (40, 1.96265697479248046875e-01) (41, 2.90113091468811035156e-01) (42, 6.10102489590644836426e-02) (43, 1.72544807195663452148e-01) (44, 4.19865883886814117432e-02) (45, -6.14539504051208496094e-01) (46, 9.66771226376295089722e-03) (47, 8.31204116344451904297e-01) (48, 1.45394489169120788574e-01) (49, -3.16032290458679199219e-01) (50, 2.95858591794967651367e-01) (51, -4.10284608602523803711e-01) (52, 1.21081002056598663330e-01) (53, -3.56407225131988525391e-01) (54, 7.52260163426399230957e-02) (55, 4.68581020832061767578e-02) (56, 1.51521369814872741699e-01) (57, -2.01970845460891723633e-01) (58, -8.92935246229171752930e-02) (59, 3.13590541481971740723e-02) (60, 3.17745149135589599609e-01) (61, -6.50653839111328125000e-01) (62, -8.36586281657218933105e-02) (63, -7.27721452713012695312e-02) (64, -1.28538072109222412109e-01) (65, 2.88371652364730834961e-01) (66, -2.43465453386306762695e-02) (67, -1.27589687705039978027e-01) (68, -2.68926382064819335938e-01) (69, -6.63470402359962463379e-02) (70, 1.22644692659378051758e-01) (71, 9.70523878931999206543e-02) (72, 1.67432114481925964355e-01) (73, 3.32654714584350585938e-01) (74, 9.12025496363639831543e-02) (75, -3.47866892814636230469e-01) (76, -3.30725759267807006836e-01) (77, 2.83030301332473754883e-01) (78, 2.49064266681671142578e-01) (79, 1.90863475203514099121e-01) (80, -2.01631262898445129395e-01) (81, 3.85603234171867370605e-02) (82, 9.74626466631889343262e-02) (83, -2.20392681658267974854e-02) (84, -2.57005430757999420166e-02) (85, -2.59452193975448608398e-01) (86, -6.71178176999092102051e-02) (87, 4.59775328636169433594e-01) (88, 2.07338035106658935547e-01) (89, 3.15203934907913208008e-01) (90, -2.83312976360321044922e-01) (91, 5.76942920684814453125e-01) (92, 2.30254292488098144531e-01) (93, 1.63377448916435241699e-01) (94, 9.14224386215209960938e-02) (95, -1.36110186576843261719e-01) (96, -2.60643154382705688477e-01) (97, 1.81242808699607849121e-01) (98, -1.10160581767559051514e-01) (99, -3.36367636919021606445e-01) (100, -4.51280698180198669434e-02) (101, 3.31983298063278198242e-01) (102, 8.43823403120040893555e-02) (103, -2.57974237203598022461e-01) (104, -1.68594092130661010742e-01) (105, 2.54936397075653076172e-01) (106, -9.05451476573944091797e-02) (107, -1.07582080364227294922e+00) (108, 4.32271324098110198975e-02) (109, -1.08593642711639404297e+00) (110, -1.02882213890552520752e-01) (111, 2.47732754796743392944e-02) (112, -1.57288517802953720093e-02) (113, 5.10120950639247894287e-02) (114, 6.71628192067146301270e-02) (115, -1.35141715407371520996e-01) (116, 2.60239034891128540039e-01) (117, 4.91075543686747550964e-03) (118, 5.28201878070831298828e-01) (119, -1.12366616725921630859e+00) (120, 2.05199822783470153809e-01) (121, 2.48192455619573593140e-02) (122, 2.00259327888488769531e-01) (123, 2.53835003823041915894e-02) (124, -8.56489837169647216797e-02) (125, 2.57309913635253906250e-01) (126, -4.57649767398834228516e-01) (127, -4.64975416660308837891e-01) (128, -4.05252546072006225586e-01) (129, -1.63839235901832580566e-01) (130, -5.79813003540039062500e-01) (131, -1.36981934309005737305e-01) (132, -3.70328545570373535156e-01) (133, -8.96182656288146972656e-02) (134, 1.20384819805622100830e-01) (135, -2.16294333338737487793e-01) (136, -7.48709589242935180664e-02) (137, -2.81875524669885635376e-02) (138, -1.97811834514141082764e-02) (139, -1.36212155222892761230e-01) (140, 8.22285842150449752808e-03) (141, 4.87201549112796783447e-02) (142, 1.82885807007551193237e-02) (143, 3.60196083784103393555e-01) (144, 2.39563181996345520020e-01) (145, -1.51087969541549682617e-01) (146, 8.93811509013175964355e-02) (147, 5.51765002310276031494e-02) (148, -8.36443006992340087891e-02) (149, -3.82435731589794158936e-02) (150, -8.86063203215599060059e-02) (151, -3.24718169867992401123e-02) (152, 3.30672293901443481445e-01) (153, 1.13054521381855010986e-01) (154, -4.70955632627010345459e-02) (155, 8.31125751137733459473e-02) (156, 1.21674403548240661621e-01) (0, 4.30077575147151947021e-02) (1, 2.52200895920395851135e-03) (2, 3.64956445991992950439e-02) (3, -6.88007920980453491211e-02) (4, 9.02045667171478271484e-02) (5, 5.29526695609092712402e-02) (6, 4.19299006462097167969e-02) (7, -1.41340261325240135193e-02) (8, 5.58848381042480468750e-02) (9, 5.34054264426231384277e-02) (10, -7.99585506319999694824e-03) (11, -5.82208484411239624023e-02) (12, -7.57572278380393981934e-02) (13, 5.99825941026210784912e-02) (14, 6.92974179983139038086e-02) (15, 6.11019954085350036621e-02) (16, 9.22435987740755081177e-03) (17, -7.01250508427619934082e-02) (18, -2.16448698192834854126e-02) (19, 7.76797086000442504883e-02) (20, 7.37332999706268310547e-02) (21, -8.38416963815689086914e-02) (22, -8.05062279105186462402e-02) (23, 7.08957090973854064941e-02) (24, 3.94679717719554901123e-02) (25, -1.01289175450801849365e-01) (26, -5.16732633113861083984e-02) (27, -8.56444537639617919922e-02) (28, -3.40457931160926818848e-02) (29, -7.49007090926170349121e-02) (30, 7.93102234601974487305e-02) (31, -9.97449606657028198242e-02) (32, 2.89668347686529159546e-02) (33, 5.26591464877128601074e-02) (34, -4.06873263418674468994e-02) (35, 4.34076525270938873291e-02) (36, -6.62044854834675788879e-03) (37, -9.00591984391212463379e-02) (38, -8.15999433398246765137e-02) (39, -5.07773347198963165283e-02) (40, 6.35840594768524169922e-02) (41, -4.49741119518876075745e-03) (42, 2.28036358021199703217e-03) (43, 1.18710808455944061279e-01) (44, -4.81559820473194122314e-02) (45, -2.47985981404781341553e-02) (46, 6.73405230045318603516e-02) (47, 6.10896572470664978027e-02) (48, -6.87641417607665061951e-03) (49, -4.82440888881683349609e-02) (50, 4.15977649390697479248e-02) (51, -1.70413404703140258789e-02) (52, -3.69368046522140502930e-02) (53, 6.82126581668853759766e-02) (54, -4.79550883173942565918e-02) (55, -6.30024299025535583496e-02) (56, 8.88519436120986938477e-02) (57, -1.07578153256326913834e-03) (58, -9.29428339004516601562e-02) (59, -5.27035556733608245850e-02) (60, 4.18469123542308807373e-02) (61, -8.47186446189880371094e-02) (62, -6.02627508342266082764e-02) (63, -2.14887708425521850586e-02) (64, 9.65746790170669555664e-02) (65, 5.99998515099287033081e-03) (66, -7.94983580708503723145e-02) (67, -4.56986352801322937012e-02) (68, -1.57128516584634780884e-02) (69, -6.43216818571090698242e-02) (70, 2.10593100637197494507e-02) (71, -1.71414557844400405884e-02) (72, 1.84999369084835052490e-02) (73, -8.08427482843399047852e-02) (74, -2.58677806705236434937e-02) (75, 9.92122590541839599609e-02) (76, 5.20639307796955108643e-03) (77, -4.44670170545578002930e-02) (78, 2.95086968690156936646e-02) (79, -8.29494968056678771973e-02) (80, -2.00548162683844566345e-03) (81, -9.19544789940118789673e-03) (82, 1.49815306067466735840e-02) (83, 6.48561418056488037109e-02) (84, -1.25701744109392166138e-02) (85, 7.68704861402511596680e-02) (86, -9.72973108291625976562e-02) (87, -2.94423266313970088959e-03) (88, -4.10053171217441558838e-02) (89, -4.34035733342170715332e-02) (90, 2.01866719871759414673e-02) (91, -9.51795652508735656738e-02) (92, -2.21481677144765853882e-02) (93, 4.26984839141368865967e-02) (94, -1.42590580508112907410e-02) (95, -4.78423796594142913818e-02) (96, -2.33697909861803054810e-02) (97, -1.77049334160983562469e-03) (98, 4.44046556949615478516e-02) (99, -1.19051493704319000244e-01) (100, 3.93799766898155212402e-02) (101, -3.93599793314933776855e-02) (102, -1.51813318952918052673e-02) (103, -3.32895815372467041016e-02) (104, -3.36682833731174468994e-02) (105, 6.89223259687423706055e-02) (106, -4.74412254989147186279e-02) (107, 7.71941691637039184570e-02) (108, -7.96833857893943786621e-02) (109, -1.09832607209682464600e-01) (110, -9.51844379305839538574e-02) (111, 8.80941189825534820557e-03) (112, 7.06018786877393722534e-03) (113, 4.93809171020984649658e-02) (114, -4.54008160158991813660e-03) (115, -1.13153375685214996338e-01) (116, 3.41673404909670352936e-03) (117, 1.88352968543767929077e-02) (118, -8.74170009046792984009e-03) (119, 7.89557844400405883789e-02) (120, 6.49338737130165100098e-02) (121, -1.12507589161396026611e-01) (122, 9.14804413914680480957e-02) (123, -7.03696459531784057617e-02) (124, 7.58166015148162841797e-02) (125, -6.01238617673516273499e-03) (126, 1.04840295389294624329e-02) (127, -3.41244228184223175049e-02) (128, -8.48414003849029541016e-02) (129, -6.53267502784729003906e-02) (130, -3.11239250004291534424e-02) (131, 5.24167567491531372070e-02) (132, 2.08350438624620437622e-02) (133, 5.76432570815086364746e-02) (134, -1.17518194019794464111e-01) (135, -1.07680104672908782959e-01) (136, 1.38317178934812545776e-02) (137, -4.47080694139003753662e-02) (138, -1.02398082613945007324e-01) (139, 2.93695479631423950195e-02) (140, -4.13743406534194946289e-02) (141, -8.71932655572891235352e-02) (142, -4.29995954036712646484e-02) (143, 7.42682069540023803711e-02) (144, 6.17529498413205146790e-03) (145, 5.64647763967514038086e-02) (146, 6.78736791014671325684e-02) (147, -4.88583892583847045898e-02) (148, -2.22998447716236114502e-02) (149, -5.48022165894508361816e-02) (150, -7.11128562688827514648e-02) (151, -6.06003627181053161621e-02) (152, -4.54299673438072204590e-02) (153, -8.03276374936103820801e-02) (154, -8.27268511056900024414e-03) (155, -4.78921569883823394775e-02) (156, 8.92720557749271392822e-03) (0, -8.38067159056663513184e-02) (1, -2.08470039069652557373e-02) (2, 7.16618448495864868164e-03) (3, 1.60379279404878616333e-02) (4, -4.76394705474376678467e-02) (5, -5.47678656876087188721e-02) (6, 1.19769223034381866455e-01) (7, 1.11563056707382202148e-01) (8, -1.79716236889362335205e-02) (9, 1.30297943949699401855e-01) (10, -2.61792615056037902832e-02) (11, 1.21359527111053466797e-01) (12, 4.34612892568111419678e-02) (13, -1.51987716555595397949e-01) (14, -1.12527251243591308594e-01) (15, 1.04740567505359649658e-01) (16, -1.47151462733745574951e-02) (17, 4.66439388692378997803e-02) (18, 6.80564120411872863770e-02) (19, 7.96581432223320007324e-03) (20, -8.95864679478108882904e-04) (21, -1.87770649790763854980e-01) (22, 2.11433041840791702271e-03) (23, -4.92103435099124908447e-02) (24, -1.65289953351020812988e-01) (25, 7.87285640835762023926e-02) (26, 6.40938058495521545410e-02) (27, -6.31171911954879760742e-02) (28, -4.13447525352239608765e-03) (29, -1.80785823613405227661e-02) (30, 1.34952813386917114258e-01) (31, -1.38836624100804328918e-02) (32, -9.24847573041915893555e-02) (33, -1.73991941846907138824e-03) (34, 9.10324826836585998535e-02) (35, -4.06177602708339691162e-02) (36, 2.17433884739875793457e-01) (37, 5.62500543892383575439e-02) (38, -9.15772616863250732422e-02) (39, 2.30192467570304870605e-02) (40, -1.60706803202629089355e-01) (41, -1.94007724523544311523e-01) (42, 8.66721197962760925293e-03) (43, -1.10820949077606201172e-01) (44, 1.22442483901977539062e-01) (45, -2.26480618119239807129e-01) (46, -1.55875101685523986816e-01) (47, -8.67874026298522949219e-02) (48, 9.03938934206962585449e-02) (49, 1.43210932612419128418e-01) (50, -4.17754985392093658447e-02) (51, -3.15305069088935852051e-02) (52, 1.37399032711982727051e-01) (53, -1.05240754783153533936e-02) (54, 1.04961760342121124268e-01) (55, -1.82127371430397033691e-01) (56, -1.31731256842613220215e-01) (57, -4.64523732662200927734e-02) (58, -7.50976288691163063049e-03) (59, -2.25560925900936126709e-02) (60, -3.88081222772598266602e-02) (61, 1.51781830936670303345e-02) (62, -9.19436570256948471069e-05) (63, 1.00629076361656188965e-01) (64, -8.36881175637245178223e-02) (65, -1.48235922679305076599e-02) (66, -1.08833715319633483887e-01) (67, 1.00058987736701965332e-01) (68, 8.68790149688720703125e-02) (69, 6.01035617291927337646e-02) (70, -1.31446808576583862305e-01) (71, -1.15620769560337066650e-01) (72, 1.83953121304512023926e-01) (73, -1.52916431427001953125e-01) (74, 5.52053153514862060547e-02) (75, 7.13672563433647155762e-02) (76, 3.60666550695896148682e-02) (77, 5.76159246265888214111e-02) (78, 3.67623232305049896240e-02) (79, -4.11654524505138397217e-02) (80, 4.69863526523113250732e-02) (81, -6.66393190622329711914e-02) (82, -3.03465966135263442993e-02) (83, 9.35975834727287292480e-02) (84, -1.30578309297561645508e-01) (85, 1.39851972460746765137e-01) (86, 8.51223394274711608887e-02) (87, -1.67240891605615615845e-02) (88, -1.00428955629467964172e-02) (89, -6.69520199298858642578e-02) (90, 1.55586581677198410034e-02) (91, 7.22621828317642211914e-02) (92, 2.32752710580825805664e-02) (93, -4.22467552125453948975e-02) (94, -5.78716322779655456543e-02) (95, 1.23123310506343841553e-01) (96, -2.50826533883810043335e-02) (97, 1.68427929282188415527e-01) (98, 1.13714486360549926758e-02) (99, 1.39378294348716735840e-01) (100, 1.20876431465148925781e-01) (101, -9.38461869955062866211e-02) (102, -7.07248225808143615723e-02) (103, 7.36314803361892700195e-02) (104, 1.04141756892204284668e-01) (105, 1.00965350866317749023e-01) (106, -1.89599752426147460938e-01) (107, -1.44837796688079833984e-01) (108, 7.54216983914375305176e-02) (109, 9.23495143651962280273e-02) (110, 1.07385128736495971680e-01) (111, -5.63683584332466125488e-02) (112, -6.83993175625801086426e-02) (113, 1.76025368273258209229e-02) (114, -8.99115353822708129883e-02) (115, -3.77966500818729400635e-02) (116, 8.48893970251083374023e-02) (117, -1.71962216496467590332e-01) (118, 2.08503782749176025391e-01) (119, -3.44174653291702270508e-02) (120, 5.26529252529144287109e-02) (121, 7.29364827275276184082e-02) (122, -6.17999285459518432617e-02) (123, -1.20321251451969146729e-02) (124, -6.45559132099151611328e-02) (125, 2.37298503518104553223e-01) (126, 4.51014600694179534912e-02) (127, -1.07253983616828918457e-01) (128, 1.07273772358894348145e-01) (129, -3.99009510874748229980e-02) (130, 4.52548414468765258789e-02) (131, -4.03692275285720825195e-02) (132, -9.45743843913078308105e-02) (133, 4.76696826517581939697e-02) (134, 1.20553076267242431641e-01) (135, -1.29745468497276306152e-01) (136, 3.82944792509078979492e-02) (137, -5.96870854496955871582e-02) (138, 9.36827138066291809082e-02) (139, -4.43109661340713500977e-01) (140, -6.55249953269958496094e-02) (141, -6.90185576677322387695e-02) (142, 9.17196050286293029785e-02) (143, -4.14325296878814697266e-02) (144, -1.52463451027870178223e-01) (145, 1.12354777753353118896e-01) (146, 7.88813531398773193359e-02) (147, 8.13823491334915161133e-02) (148, -8.13023969531059265137e-02) (149, -3.09660583734512329102e-01) (150, 2.87920273840427398682e-02) (151, 3.37595567107200622559e-02) (152, 1.06359407305717468262e-01) (153, -1.84078095480799674988e-03) (154, -4.91463579237461090088e-02) (155, -9.19295400381088256836e-02) (156, -3.70382577180862426758e-01) (0, 3.93399707973003387451e-02) (1, -1.62759214639663696289e-01) (2, -1.54339373111724853516e-01) (3, -6.77934944629669189453e-01) (4, 1.65955555438995361328e+00) (5, 3.10564190149307250977e-01) (6, -9.39386547543108463287e-04) (7, 1.64788842201232910156e-01) (8, -6.12992420792579650879e-02) (9, -2.24503904581069946289e-01) (10, -1.15475200116634368896e-01) (11, 2.15098172426223754883e-01) (12, -1.00781905651092529297e+00) (13, 1.61502823233604431152e-01) (14, -5.78706860542297363281e-01) (15, 1.11422979831695556641e+00) (16, -5.17470359802246093750e-01) (17, 1.10204480588436126709e-01) (18, -1.95593312382698059082e-01) (19, -2.97506272792816162109e-01) (20, -3.16774547100067138672e-01) (21, 4.45664376020431518555e-02) (22, 1.65522366762161254883e-01) (23, 1.04271948337554931641e-01) (24, 6.94488286972045898438e-02) (25, 5.45722544193267822266e-02) (26, -1.18938259780406951904e-01) (27, -6.23101629316806793213e-02) (28, 7.35353946685791015625e-01) (29, -2.88257360458374023438e-01) (30, -1.63252606987953186035e-01) (31, -1.29414156079292297363e-01) (32, 1.39345154166221618652e-01) (33, 2.00893897563219070435e-02) (34, -2.87071347236633300781e-01) (35, -3.21697592735290527344e-02) (36, -3.09080928564071655273e-02) (37, -2.57484227418899536133e-01) (38, -1.43400914967060089111e-02) (39, 2.17192962765693664551e-01) (40, 3.80194000899791717529e-02) (41, 1.45264014601707458496e-01) (42, 7.60249316692352294922e-01) (43, 1.86163961887359619141e-01) (44, 4.88543584942817687988e-02) (45, -1.85470849275588989258e-01) (46, -1.78776636719703674316e-01) (47, 1.79261714220046997070e-03) (48, 8.87257307767868041992e-02) (49, 2.00566947460174560547e-01) (50, -1.81953102350234985352e-01) (51, -1.18939436972141265869e-01) (52, -5.88928163051605224609e-01) (53, 3.04383132606744766235e-02) (54, 2.19634383916854858398e-01) (55, 2.35205553472042083740e-02) (56, 1.84667944908142089844e-01) (57, -1.82539839297533035278e-02) (58, -1.33944526314735412598e-01) (59, -4.72337603569030761719e-02) (60, 3.94329540431499481201e-02) (61, -2.36593991518020629883e-01) (62, 3.05637389421463012695e-01) (63, 4.51541751623153686523e-01) (64, -3.07532429695129394531e-01) (65, -6.19890913367271423340e-02) (66, -1.73277392983436584473e-01) (67, 3.33805739879608154297e-01) (68, 2.11338475346565246582e-01) (69, 3.42604786157608032227e-01) (70, 9.18512716889381408691e-02) (71, 5.71762740612030029297e-01) (72, -1.14697597920894622803e-01) (73, -8.60519260168075561523e-02) (74, -2.21267729997634887695e-01) (75, -9.18168067932128906250e-01) (76, -1.81463733315467834473e-01) (77, -1.71321481466293334961e-01) (78, -1.32735550403594970703e-01) (79, 1.11819863319396972656e+00) (80, 2.13584929704666137695e-01) (81, -3.77687096595764160156e-01) (82, 2.51600086688995361328e-01) (83, 1.14478118717670440674e-01) (84, 1.95875406265258789062e-01) (85, 2.81846970319747924805e-01) (86, -3.40980082750320434570e-01) (87, -3.77139031887054443359e-01) (88, -8.42030107975006103516e-01) (89, -8.03756341338157653809e-02) (90, -8.40244665741920471191e-02) (91, 2.30805873870849609375e-02) (92, -2.89996843785047531128e-02) (93, 2.20469951629638671875e-01) (94, 1.08008635044097900391e+00) (95, -8.51885452866554260254e-02) (96, -8.74816626310348510742e-03) (97, -2.42888778448104858398e-01) (98, -3.95784527063369750977e-01) (99, 6.30391091108322143555e-02) (100, -3.40749144554138183594e-01) (101, -5.00648677349090576172e-01) (102, -2.52344131469726562500e-01) (103, -7.19207376241683959961e-02) (104, -4.83935326337814331055e-01) (105, 2.21957206726074218750e-01) (106, -7.85523205995559692383e-02) (107, -5.38495421409606933594e-01) (108, 2.92426776140928268433e-02) (109, 5.65707571804523468018e-02) (110, -2.92404770851135253906e-01) (111, 2.67295818775892257690e-03) (112, 1.54186785221099853516e-01) (113, 2.36534506082534790039e-01) (114, -2.17231810092926025391e-02) (115, -2.00751908123493194580e-02) (116, 8.93682301044464111328e-01) (117, 1.42839141190052032471e-02) (118, 1.26368515193462371826e-02) (119, 9.02520120143890380859e-02) (120, -2.67215549945831298828e-01) (121, -3.49192917346954345703e-01) (122, -7.92319327592849731445e-02) (123, -5.57884037494659423828e-01) (124, -2.05095782876014709473e-02) (125, 2.18920275568962097168e-01) (126, 5.60807622969150543213e-02) (127, 1.97068110108375549316e-01) (128, 2.27888092398643493652e-01) (129, 1.09579992294311523438e+00) (130, 1.40673905611038208008e-01) (131, -1.96489468216896057129e-01) (132, -7.61550292372703552246e-02) (133, -7.60545372962951660156e-01) (134, 6.29182457923889160156e-02) (135, 1.97894483804702758789e-01) (136, -1.63478832691907882690e-02) (137, -4.64365035295486450195e-02) (138, 6.32333606481552124023e-02) (139, -2.01344070956110954285e-03) (140, 5.67215196788311004639e-02) (141, 6.17603138089179992676e-02) (142, -1.70150086283683776855e-01) (143, -2.15615957975387573242e-01) (144, 2.06972390413284301758e-01) (145, 2.18666762113571166992e-01) (146, -4.02252554893493652344e-01) (147, 1.03305712342262268066e-01) (148, -5.60373142361640930176e-02) (149, 1.04622356593608856201e-01) (150, -3.26589401811361312866e-03) (151, 3.40603440999984741211e-02) (152, 2.60608009994029998779e-02) (153, 2.25005745887756347656e-02) (154, -1.36784091591835021973e-02) (155, -1.87537968158721923828e-02) (156, 7.25185126066207885742e-02) (0, -8.90933535993099212646e-03) (1, -2.80112624168395996094e-02) (2, -1.13035731017589569092e-01) (3, 8.95029492676258087158e-03) (4, -9.34903845191001892090e-02) (5, -5.66055923700332641602e-02) (6, -1.10013410449028015137e-01) (7, 1.33696272969245910645e-02) (8, 1.09236473217606544495e-02) (9, 6.59640878438949584961e-02) (10, 1.55612826347351074219e-02) (11, 1.51277065277099609375e-01) (12, -2.69060134887695312500e-02) (13, 3.68762053549289703369e-02) (14, 7.21684545278549194336e-02) (15, -9.87200215458869934082e-02) (16, 1.37754501774907112122e-02) (17, -1.00385494530200958252e-01) (18, 1.27674685791134834290e-02) (19, -2.27841418236494064331e-02) (20, -6.80994093418121337891e-02) (21, -8.04915055632591247559e-02) (22, -1.62413641810417175293e-02) (23, -1.07968986034393310547e-01) (24, -8.68987143039703369141e-02) (25, 3.80340148694813251495e-04) (26, 4.26702201366424560547e-02) (27, -1.21466495096683502197e-01) (28, -1.01870737969875335693e-01) (29, 3.92629504203796386719e-02) (30, 1.39179348945617675781e-01) (31, -2.46046334505081176758e-02) (32, -6.10607713460922241211e-02) (33, 5.95308318734169006348e-02) (34, 1.54217585921287536621e-01) (35, -4.87464778125286102295e-02) (36, 3.37089672684669494629e-02) (37, 1.20183423161506652832e-01) (38, 1.05847239494323730469e-01) (39, -4.33768145740032196045e-02) (40, -5.19469901919364929199e-02) (41, -1.42345130443572998047e-01) (42, 1.32130980491638183594e-01) (43, -1.79381355643272399902e-01) (44, -3.73560525476932525635e-02) (45, -5.05707487463951110840e-02) (46, -3.80106158554553985596e-02) (47, -3.56532409787178039551e-02) (48, 8.31874553114175796509e-03) (49, 6.58015832304954528809e-02) (50, 7.10507780313491821289e-02) (51, 9.49201732873916625977e-02) (52, -8.88366773724555969238e-02) (53, -2.30750404298305511475e-02) (54, 1.00880831480026245117e-01) (55, -5.48070482909679412842e-02) (56, 2.07554772496223449707e-02) (57, 6.64213672280311584473e-02) (58, 8.18439468275755643845e-04) (59, -8.06945636868476867676e-02) (60, -8.95788446068763732910e-02) (61, 7.50987753272056579590e-02) (62, -9.57502331584692001343e-03) (63, -5.39446668699383735657e-03) (64, -6.49662539362907409668e-02) (65, -5.81808649003505706787e-02) (66, 1.14631213247776031494e-01) (67, 2.73265708237886428833e-02) (68, -7.34738186001777648926e-02) (69, 1.06320589780807495117e-01) (70, -3.41942943632602691650e-02) (71, -4.10691723227500915527e-02) (72, 1.41664907336235046387e-01) (73, -9.79612916707992553711e-02) (74, 9.36306640505790710449e-02) (75, -4.40897904336452484131e-02) (76, -1.82860121130943298340e-02) (77, -1.08584575355052947998e-01) (78, 3.80038022994995117188e-02) (79, 1.23853376135230064392e-02) (80, 4.15349267423152923584e-02) (81, 1.19567066431045532227e-02) (82, 7.47020393610000610352e-02) (83, 6.84147998690605163574e-02) (84, 5.07904179394245147705e-02) (85, 1.15956924855709075928e-01) (86, -1.41179375350475311279e-03) (87, 9.52273979783058166504e-02) (88, -9.84927192330360412598e-02) (89, -1.64346829056739807129e-01) (90, 9.57697778940200805664e-02) (91, 1.44395092502236366272e-02) (92, -5.38363792002201080322e-02) (93, -3.27903069555759429932e-02) (94, -1.28964453935623168945e-01) (95, 1.18158802390098571777e-01) (96, 8.27197805047035217285e-02) (97, 5.07742911577224731445e-02) (98, -1.80464889854192733765e-02) (99, -9.12165194749832153320e-02) (100, 1.14229656755924224854e-01) (101, -2.84448955208063125610e-02) (102, 6.35319873690605163574e-02) (103, 9.26909744739532470703e-02) (104, 1.30130410194396972656e-01) (105, 3.24617214500904083252e-02) (106, 5.39490254595875740051e-03) (107, -1.08971439301967620850e-01) (108, 9.57754328846931457520e-02) (109, 8.36211144924163818359e-02) (110, 1.96099609136581420898e-01) (111, 2.43330188095569610596e-02) (112, -3.01422923803329467773e-02) (113, 3.99866998195648193359e-02) (114, 7.72925615310668945312e-02) (115, -5.20540028810501098633e-02) (116, 2.23373640328645706177e-02) (117, -8.18671956658363342285e-02) (118, -1.11896470189094543457e-01) (119, 8.34656804800033569336e-02) (120, -2.18444392085075378418e-02) (121, 1.25930294394493103027e-01) (122, -2.28343135677278041840e-03) (123, 5.49839548766613006592e-02) (124, -6.62592723965644836426e-02) (125, 1.05041183531284332275e-01) (126, 6.07012771070003509521e-02) (127, -9.93182957172393798828e-02) (128, 8.84028151631355285645e-03) (129, -1.18412509560585021973e-01) (130, 5.28955534100532531738e-02) (131, 1.30828976631164550781e-01) (132, -1.51995457708835601807e-02) (133, 2.62175630778074264526e-02) (134, 6.15045167505741119385e-02) (135, -1.17411993443965911865e-01) (136, -2.93306168168783187866e-02) (137, 3.34902815520763397217e-02) (138, -9.07263159751892089844e-02) (139, -2.80654951930046081543e-02) (140, -2.10146829485893249512e-02) (141, -9.78162065148353576660e-02) (142, -9.46162045001983642578e-02) (143, 5.24801108986139297485e-03) (144, 1.38761312700808048248e-03) (145, 9.93885323405265808105e-02) (146, 1.41612470149993896484e-01) (147, 3.00317490473389625549e-03) (148, 9.70774739980697631836e-02) (149, -6.75743594765663146973e-02) (150, 1.27270538359880447388e-03) (151, -5.51588796079158782959e-02) (152, -2.95351743698120117188e-02) (153, -1.93920284509658813477e-01) (154, 9.53083410859107971191e-02) (155, -1.17378719151020050049e-02) (156, 1.08886666595935821533e-01) (0, 8.98785609751939773560e-03) (1, 9.93603467941284179688e-02) (2, 9.03854519128799438477e-02) (3, 8.38497281074523925781e-03) (4, -1.09284641221165657043e-02) (5, 1.95543110370635986328e-01) (6, 1.84036135673522949219e-01) (7, 9.67466682195663452148e-02) (8, -2.13559437543153762817e-02) (9, 1.42473459243774414062e-01) (10, -5.95042370259761810303e-02) (11, -7.79869630932807922363e-02) (12, -2.17000335454940795898e-01) (13, -5.02650141716003417969e-02) (14, 3.71889546513557434082e-02) (15, -1.15328647196292877197e-01) (16, 1.30338117480278015137e-01) (17, -3.78731526434421539307e-02) (18, 1.94610208272933959961e-01) (19, -1.87787576578557491302e-03) (20, -1.05502612888813018799e-01) (21, -3.69218438863754272461e-02) (22, 5.04061132669448852539e-02) (23, -7.21601210534572601318e-03) (24, 1.05000443756580352783e-01) (25, -5.56047782301902770996e-02) (26, -1.45730292424559593201e-02) (27, -1.22982785105705261230e-01) (28, 5.24737648665904998779e-02) (29, 1.06748074293136596680e-01) (30, 1.47281825542449951172e-01) (31, -1.10254004597663879395e-01) (32, 1.89256342127919197083e-03) (33, 5.67046739161014556885e-02) (34, 5.69004341959953308105e-02) (35, -6.54512345790863037109e-02) (36, 8.95045697689056396484e-02) (37, 6.52236863970756530762e-02) (38, 2.84371316432952880859e-01) (39, -6.71495571732521057129e-02) (40, -6.81738778948783874512e-02) (41, -8.02360475063323974609e-02) (42, 3.16489487886428833008e-02) (43, 6.12549968063831329346e-02) (44, -1.79896935820579528809e-01) (45, 1.38821080327033996582e-01) (46, 6.45506009459495544434e-02) (47, -6.26682713627815246582e-02) (48, -5.34332431852817535400e-02) (49, 7.31350481510162353516e-02) (50, -1.02090850472450256348e-01) (51, 1.43191888928413391113e-01) (52, 4.85826283693313598633e-02) (53, -9.59292054176330566406e-02) (54, -1.14251121878623962402e-01) (55, 1.42813296988606452942e-02) (56, 5.81876747310161590576e-02) (57, -2.00494583696126937866e-02) (58, -1.08418002724647521973e-01) (59, -1.86241343617439270020e-02) (60, -2.26517468690872192383e-02) (61, 1.23049288988113403320e-01) (62, -5.86573593318462371826e-02) (63, -1.41659408807754516602e-01) (64, 7.90714696049690246582e-02) (65, -1.28006175160408020020e-01) (66, 3.32316532731056213379e-02) (67, -5.18580079078674316406e-02) (68, -2.14745104312896728516e-02) (69, 2.19896286725997924805e-01) (70, -7.21499621868133544922e-02) (71, -1.62146598100662231445e-01) (72, 9.77484658360481262207e-02) (73, 1.16833709180355072021e-02) (74, 3.84195148944854736328e-02) (75, 1.29055008292198181152e-02) (76, 1.00360974669456481934e-01) (77, -6.02377392351627349854e-02) (78, -1.72171652317047119141e-01) (79, -2.35516190528869628906e-01) (80, 5.89890405535697937012e-02) (81, -8.03978592157363891602e-02) (82, 7.94368311762809753418e-02) (83, 6.54403818771243095398e-03) (84, 7.66509324312210083008e-02) (85, 1.85981169342994689941e-01) (86, 1.41783552244305610657e-02) (87, 9.96548458933830261230e-02) (88, -7.55693614482879638672e-02) (89, -1.17002069950103759766e-01) (90, -5.26845715939998626709e-02) (91, -7.67801096662878990173e-03) (92, 1.22290076687932014465e-02) (93, -3.11680473387241363525e-02) (94, -5.54100573062896728516e-02) (95, 1.22204333543777465820e-01) (96, -3.04269995540380477905e-02) (97, 2.60966569185256958008e-02) (98, -2.51732468605041503906e-02) (99, -2.52068370580673217773e-01) (100, 3.24018932878971099854e-02) (101, 5.34897148609161376953e-02) (102, 7.38509185612201690674e-03) (103, 1.99323371052742004395e-02) (104, 1.41991320997476577759e-02) (105, 6.90009370446205139160e-02) (106, 6.71532526612281799316e-02) (107, 9.96043309569358825684e-02) (108, -3.23813855648040771484e-02) (109, 1.48894846439361572266e-01) (110, -6.28602504730224609375e-02) (111, 8.48625525832176208496e-02) (112, -9.83588770031929016113e-02) (113, 1.77311062812805175781e-01) (114, 2.18107365071773529053e-02) (115, -1.02929681539535522461e-01) (116, 1.27489594742655754089e-02) (117, 2.03763648867607116699e-01) (118, -5.07975257933139801025e-02) (119, 1.77868351340293884277e-01) (120, -1.65235288441181182861e-02) (121, 1.30011159926652908325e-02) (122, 7.82076492905616760254e-02) (123, -6.67241960763931274414e-02) (124, -1.36900976300239562988e-01) (125, -1.86662655323743820190e-02) (126, -9.93881598114967346191e-02) (127, -2.34117042273283004761e-02) (128, 6.37578368186950683594e-02) (129, -2.89314854890108108521e-02) (130, 1.13405682146549224854e-01) (131, 8.83438810706138610840e-02) (132, 1.17193080484867095947e-01) (133, -8.57999324798583984375e-02) (134, 9.91530623286962509155e-03) (135, -1.20611235499382019043e-01) (136, -2.89198178797960281372e-02) (137, 6.20913058519363403320e-02) (138, -4.86781746149063110352e-02) (139, -9.91421565413475036621e-02) (140, 6.05791881680488586426e-02) (141, -4.27673272788524627686e-02) (142, -1.25486299395561218262e-01) (143, -3.15938182175159454346e-02) (144, -2.37702339887619018555e-01) (145, 1.04924559593200683594e-01) (146, -6.97572454810142517090e-02) (147, 2.34549548476934432983e-02) (148, -1.18625778704881668091e-02) (149, 2.08595171570777893066e-02) (150, 2.01059225946664810181e-03) (151, 5.48285320401191711426e-02) (152, 2.12595146149396896362e-02) (153, -9.73422005772590637207e-02) (154, -3.74388992786407470703e-02) (155, 1.34942457079887390137e-02) (156, -9.17805284261703491211e-02) (0, 7.58323967456817626953e-02) (1, -5.35578615963459014893e-02) (2, -3.50469052791595458984e-01) (3, -2.01916158199310302734e-01) (4, 7.63627365231513977051e-02) (5, 5.99378526210784912109e-01) (6, -1.95445984601974487305e-01) (7, 2.80066043138504028320e-01) (8, 2.08828449249267578125e-01) (9, 1.19410142302513122559e-01) (10, -2.40784645080566406250e-01) (11, -2.34608218073844909668e-01) (12, 1.25896647572517395020e-01) (13, -2.06422671675682067871e-01) (14, -5.20840406417846679688e-01) (15, -2.31041550636291503906e-01) (16, 2.13842526078224182129e-01) (17, -3.78837466239929199219e-01) (18, 8.68695899844169616699e-02) (19, 2.03508570790290832520e-01) (20, 1.91721379756927490234e-01) (21, 8.94125178456306457520e-02) (22, -2.61005103588104248047e-01) (23, 4.74942475557327270508e-03) (24, 1.29853650927543640137e-01) (25, 1.47744387388229370117e-01) (26, 1.59128680825233459473e-01) (27, 3.31209264695644378662e-02) (28, 7.33137726783752441406e-01) (29, -6.80765748023986816406e-01) (30, 3.96350957453250885010e-03) (31, -1.96896851062774658203e-01) (32, -1.90698225051164627075e-02) (33, 2.17244014143943786621e-01) (34, -8.66195619106292724609e-01) (35, 5.47885932028293609619e-02) (36, 7.02215790748596191406e-01) (37, -1.49751827120780944824e-01) (38, -1.78069889545440673828e-01) (39, 1.56505912542343139648e-01) (40, -1.01686686277389526367e-01) (41, -3.38352143764495849609e-01) (42, -2.12340816855430603027e-01) (43, 3.67949098348617553711e-01) (44, -1.44638970494270324707e-01) (45, 2.98149526119232177734e-01) (46, -1.62071049213409423828e-01) (47, 7.85110741853713989258e-02) (48, 3.43843139708042144775e-02) (49, -3.74687880277633666992e-01) (50, 1.83597430586814880371e-01) (51, -2.42760777473449707031e-01) (52, -1.22954852879047393799e-01) (53, 1.19746297597885131836e-01) (54, 1.75025582313537597656e-01) (55, 1.30941625684499740601e-02) (56, 2.75467395782470703125e-01) (57, -8.43723297119140625000e-01) (58, -6.85639679431915283203e-02) (59, -8.94666165113449096680e-02) (60, 3.99335026741027832031e-01) (61, 6.53438046574592590332e-02) (62, 3.96324455738067626953e-01) (63, -5.51243945956230163574e-02) (64, 2.96155840158462524414e-01) (65, 5.62405250966548919678e-02) (66, 2.64825493097305297852e-01) (67, 5.15652179718017578125e-01) (68, -1.22756876051425933838e-01) (69, -1.49888861924409866333e-02) (70, 5.56159950792789459229e-03) (71, 5.08831441402435302734e-01) (72, -4.28311899304389953613e-03) (73, 2.99762934446334838867e-01) (74, -8.47489684820175170898e-02) (75, 6.11935794353485107422e-01) (76, -1.28425145521759986877e-02) (77, 1.09654031693935394287e-01) (78, -2.23020046949386596680e-01) (79, 2.80953705310821533203e-01) (80, 9.08639356493949890137e-02) (81, 1.46162062883377075195e-01) (82, 7.97648727893829345703e-02) (83, 2.11456373333930969238e-01) (84, -4.86194156110286712646e-02) (85, 6.66400045156478881836e-02) (86, -3.25626577250659465790e-03) (87, 1.42171204090118408203e-01) (88, -1.11264145374298095703e+00) (89, 8.02309274673461914062e-01) (90, 1.98417991399765014648e-01) (91, -1.48779436945915222168e-01) (92, 7.78096675872802734375e-01) (93, -5.77852368354797363281e-01) (94, 1.87313824892044067383e-01) (95, 1.27565637230873107910e-02) (96, 1.71909183263778686523e-01) (97, -4.28855642676353454590e-02) (98, -6.38590529561042785645e-02) (99, 2.19025000929832458496e-01) (100, -2.03645765781402587891e-01) (101, -3.44494462013244628906e-01) (102, 6.41026422381401062012e-02) (103, 1.06701433658599853516e-01) (104, -1.32248848676681518555e-01) (105, -1.29744037985801696777e-01) (106, 7.58992314338684082031e-01) (107, 1.21048642322421073914e-02) (108, 4.95752133429050445557e-02) (109, 1.87962055206298828125e-01) (110, -7.56270051002502441406e-01) (111, 1.48843169212341308594e-01) (112, -1.10522902011871337891e+00) (113, 9.45168286561965942383e-02) (114, 8.28268170356750488281e-01) (115, -1.00123368203639984131e-01) (116, 7.69329909235239028931e-03) (117, -3.16717624664306640625e-02) (118, 2.50346839427947998047e-01) (119, -2.60704815387725830078e-01) (120, 2.71612435579299926758e-01) (121, -1.96335166692733764648e-01) (122, 3.22055280208587646484e-01) (123, 8.42405483126640319824e-04) (124, 3.54726403951644897461e-01) (125, -2.23690822720527648926e-01) (126, 2.79662400484085083008e-01) (127, -1.99798807501792907715e-01) (128, -3.51838469505310058594e-01) (129, 6.99354708194732666016e-02) (130, -2.23933551460504531860e-02) (131, 7.82226562500000000000e-01) (132, 1.93335518240928649902e-01) (133, -8.62921327352523803711e-02) (134, -6.12041473388671875000e-01) (135, 3.82680557668209075928e-02) (136, -1.01702243089675903320e-01) (137, -1.01373970508575439453e-01) (138, -1.54027476906776428223e-01) (139, -7.44067924097180366516e-03) (140, -1.00465174764394760132e-02) (141, 5.09733185172080993652e-02) (142, 5.80043271183967590332e-02) (143, -2.40605115890502929688e-01) (144, -1.43871918320655822754e-01) (145, -6.31671324372291564941e-02) (146, -9.63811203837394714355e-03) (147, -7.11997672915458679199e-02) (148, 7.16326087713241577148e-02) (149, 4.77540828287601470947e-02) (150, -7.69103094935417175293e-02) (151, -6.25471174716949462891e-02) (152, -2.11436688899993896484e-01) (153, -1.86958327889442443848e-01) (154, -7.09539502859115600586e-02) (155, 8.36791321635246276855e-02) (156, -2.74524569511413574219e-01) (0, -1.37040773406624794006e-02) (1, 1.34649991989135742188e-01) (2, 8.26076194643974304199e-02) (3, -1.54654726386070251465e-01) (4, 4.07211482524871826172e-03) (5, 7.21711069345474243164e-02) (6, 2.96226162463426589966e-02) (7, 5.47912791371345520020e-02) (8, -9.40827727317810058594e-02) (9, 1.10545603092759847641e-03) (10, -9.06708166003227233887e-02) (11, -1.18721336126327514648e-01) (12, 1.18960924446582794189e-01) (13, 9.10988673567771911621e-02) (14, 6.33622929453849792480e-02) (15, 6.79552480578422546387e-02) (16, -1.32659345865249633789e-01) (17, -9.18976031243801116943e-03) (18, 1.19637876749038696289e-01) (19, -1.80340752005577087402e-01) (20, 1.54355809092521667480e-01) (21, -6.08813017606735229492e-02) (22, 3.24016995728015899658e-02) (23, -7.68967568874359130859e-02) (24, 1.03121735155582427979e-01) (25, 5.96279427409172058105e-02) (26, -1.72959849238395690918e-01) (27, 1.21583096683025360107e-01) (28, 1.29230216145515441895e-01) (29, -1.20183061808347702026e-02) (30, 9.24725905060768127441e-02) (31, -5.35376556217670440674e-02) (32, -9.01629105210304260254e-02) (33, -7.19576701521873474121e-02) (34, -6.49647414684295654297e-02) (35, 6.90933763980865478516e-02) (36, -3.14138770103454589844e-01) (37, 1.00570738315582275391e-01) (38, 7.69974514842033386230e-02) (39, -1.47022545337677001953e-01) (40, 1.08885951340198516846e-01) (41, 2.20399081707000732422e-01) (42, -1.40146821737289428711e-01) (43, 1.09401434659957885742e-01) (44, -1.38223469257354736328e-01) (45, 3.24380815029144287109e-01) (46, -6.96743279695510864258e-03) (47, -2.46110442094504833221e-03) (48, -9.40055623650550842285e-02) (49, -3.11237247660756111145e-03) (50, 1.22577913105487823486e-01) (51, 1.34932115674018859863e-01) (52, -4.02873288840055465698e-03) (53, -1.33321270346641540527e-01) (54, -1.19752660393714904785e-01) (55, -1.16853350773453712463e-02) (56, -5.03276400268077850342e-02) (57, -8.25856626033782958984e-02) (58, -3.61482314765453338623e-02) (59, 9.30875018239021301270e-02) (60, 2.30456486344337463379e-01) (61, -9.67751145362854003906e-02) (62, 6.28882274031639099121e-02) (63, -1.23994499444961547852e-02) (64, 6.61320015788078308105e-02) (65, 8.30342397093772888184e-02) (66, 6.88445270061492919922e-02) (67, 1.73791255801916122437e-02) (68, 2.48277727514505386353e-02) (69, -9.97421219944953918457e-02) (70, 1.35609433054924011230e-01) (71, 7.55734071135520935059e-02) (72, -4.38668876886367797852e-02) (73, 2.18443214893341064453e-01) (74, -1.67366415262222290039e-01) (75, -8.91402959823608398438e-02) (76, 9.07236337661743164062e-03) (77, -3.82452495396137237549e-02) (78, 2.45004519820213317871e-03) (79, 7.65712186694145202637e-02) (80, 2.88303121924400329590e-02) (81, -3.58731448650360107422e-02) (82, -8.64180475473403930664e-02) (83, -9.69269201159477233887e-02) (84, 1.21490031480789184570e-01) (85, -7.33436048030853271484e-02) (86, -2.70821191370487213135e-02) (87, 3.72546911239624023438e-02) (88, 5.82484081387519836426e-02) (89, 1.13916635513305664062e-01) (90, 7.44348391890525817871e-02) (91, -7.53122866153717041016e-02) (92, -9.15138889104127883911e-03) (93, -4.44993562996387481689e-02) (94, -1.14397168159484863281e-01) (95, 1.10498353838920593262e-01) (96, -1.43825307488441467285e-01) (97, -1.48114383220672607422e-01) (98, 1.91783811897039413452e-03) (99, 6.23003654181957244873e-02) (100, -1.08789019286632537842e-01) (101, -9.60854068398475646973e-03) (102, 2.61298976838588714600e-02) (103, -1.09191499650478363037e-01) (104, -1.41261741518974304199e-01) (105, -8.07261168956756591797e-02) (106, 2.41057798266410827637e-01) (107, 1.65224418044090270996e-01) (108, 4.03763577342033386230e-02) (109, 1.00116439163684844971e-01) (110, -6.97647547349333763123e-03) (111, -3.72238978743553161621e-02) (112, -9.27914306521415710449e-02) (113, 1.41981735825538635254e-01) (114, 5.76065406203269958496e-02) (115, -3.94973456859588623047e-02) (116, -1.13284587860107421875e-01) (117, 1.55204087495803833008e-02) (118, 6.11196924000978469849e-03) (119, 9.20884609222412109375e-02) (120, 1.01756654679775238037e-01) (121, 1.08608445152640342712e-02) (122, 1.80302381515502929688e-01) (123, -5.14638274908065795898e-02) (124, 2.37363986670970916748e-02) (125, -2.52478212118148803711e-01) (126, 2.77818925678730010986e-02) (127, 1.67115572839975357056e-02) (128, -3.44276651740074157715e-02) (129, -2.67140213400125503540e-02) (130, -1.25780388712882995605e-01) (131, -7.90629908442497253418e-02) (132, 1.36999621987342834473e-01) (133, -4.83247749507427215576e-02) (134, -6.33678212761878967285e-02) (135, 3.63761782646179199219e-01) (136, 1.77890900522470474243e-02) (137, -5.22057972848415374756e-02) (138, -1.09392404556274414062e-02) (139, -2.55652248859405517578e-01) (140, -8.93043056130409240723e-02) (141, -9.61624532938003540039e-02) (142, 9.79689657688140869141e-02) (143, -1.42049072310328483582e-02) (144, 7.30449482798576354980e-02) (145, 1.23853042721748352051e-01) (146, -1.95012725889682769775e-02) (147, -9.53363031148910522461e-02) (148, 6.37414306402206420898e-02) (149, -2.12960794568061828613e-01) (150, -6.69159740209579467773e-02) (151, 7.46216028928756713867e-02) (152, -1.04964114725589752197e-01) (153, -1.98646351695060729980e-01) (154, 5.79155012965202331543e-02) (155, -6.05514273047447204590e-02) (156, 5.75490146875381469727e-02) (0, 3.98617088794708251953e-02) (1, 7.47093111276626586914e-02) (2, -5.64277544617652893066e-02) (3, -7.08752050995826721191e-02) (4, -1.42953470349311828613e-01) (5, -5.92364035546779632568e-02) (6, 9.74440351128578186035e-02) (7, 8.08530673384666442871e-02) (8, -7.00483471155166625977e-02) (9, 7.85609930753707885742e-02) (10, -2.65466049313545227051e-02) (11, -2.97881029546260833740e-02) (12, 6.16539530456066131592e-02) (13, -2.74608805775642395020e-02) (14, 2.33201812952756881714e-02) (15, -6.05835542082786560059e-02) (16, -7.54526257514953613281e-03) (17, 7.40040838718414306641e-02) (18, -2.26669255644083023071e-02) (19, -3.03511600941419601440e-02) (20, -4.06783111393451690674e-02) (21, 6.87348395586013793945e-02) (22, -3.66568081080913543701e-02) (23, -3.70163023471832275391e-02) (24, 5.59778325259685516357e-02) (25, 8.09986591339111328125e-02) (26, -9.02212113142013549805e-02) (27, 8.05785804986953735352e-02) (28, 1.80254410952329635620e-02) (29, 1.84388533234596252441e-02) (30, 9.90813821554183959961e-02) (31, -3.91221009194850921631e-02) (32, -9.17885378003120422363e-02) (33, 9.88730564713478088379e-02) (34, -1.38917509466409683228e-02) (35, -6.08475506305694580078e-02) (36, -1.20372168719768524170e-01) (37, -5.62454909086227416992e-02) (38, -5.05444258451461791992e-02) (39, -6.91877081990242004395e-02) (40, -3.49649712443351745605e-02) (41, 6.13732002675533294678e-02) (42, -2.59971283376216888428e-02) (43, 8.53266790509223937988e-02) (44, -1.67618691921234130859e-02) (45, -3.89433605596423149109e-03) (46, 1.39536231756210327148e-01) (47, -6.66369050741195678711e-02) (48, 1.02194517850875854492e-01) (49, -4.41036652773618698120e-03) (50, 6.19580387137830257416e-05) (51, -2.23056152462959289551e-02) (52, -5.72963021695613861084e-02) (53, -1.99509914964437484741e-02) (54, 1.58911515027284622192e-02) (55, -8.05868953466415405273e-02) (56, -2.47658751904964447021e-02) (57, 6.34310841560363769531e-02) (58, 9.12333056330680847168e-02) (59, 9.70436558127403259277e-02) (60, -9.90308541804552078247e-03) (61, 8.51700678467750549316e-02) (62, -2.69004609435796737671e-03) (63, -1.38914138078689575195e-02) (64, 4.94195185601711273193e-02) (65, 4.56936918199062347412e-02) (66, 6.03718198835849761963e-02) (67, 4.96497265994548797607e-02) (68, -5.83918988704681396484e-02) (69, 5.09176068007946014404e-02) (70, -4.79651056230068206787e-02) (71, -5.05575537681579589844e-02) (72, -7.20546990633010864258e-02) (73, 6.87248781323432922363e-02) (74, -1.04545332491397857666e-01) (75, 4.12486009299755096436e-02) (76, 6.04807548224925994873e-02) (77, -8.12232121825218200684e-02) (78, 1.06965132057666778564e-01) (79, 1.86325851827859878540e-02) (80, -2.11300253868103027344e-02) (81, -2.71238386631011962891e-02) (82, 6.90000876784324645996e-02) (83, 3.20509634912014007568e-03) (84, 6.99987187981605529785e-02) (85, -1.50090223178267478943e-02) (86, 1.45981162786483764648e-02) (87, -4.44267354905605316162e-02) (88, 5.03451488912105560303e-02) (89, -3.16432863473892211914e-02) (90, -4.24981489777565002441e-02) (91, 5.73756843805313110352e-02) (92, -3.69738154113292694092e-02) (93, 3.70192937552928924561e-02) (94, -3.94540280103683471680e-02) (95, 1.06190972030162811279e-01) (96, -6.36809542775154113770e-02) (97, -1.38949915766716003418e-01) (98, 8.85223746299743652344e-02) (99, -8.13137367367744445801e-02) (100, 6.52168765664100646973e-02) (101, 7.97038674354553222656e-02) (102, 2.73558273911476135254e-02) (103, -1.04816913604736328125e-01) (104, 3.12793962657451629639e-02) (105, -2.99271196126937866211e-02) (106, 9.96724218130111694336e-02) (107, 1.21291372925043106079e-02) (108, -4.58835810422897338867e-02) (109, 6.53445422649383544922e-02) (110, -7.66749456524848937988e-02) (111, 1.05965472757816314697e-01) (112, -6.50224611163139343262e-02) (113, 8.75329151749610900879e-02) (114, -1.70429609715938568115e-02) (115, -8.06343853473663330078e-02) (116, -6.42385566607117652893e-03) (117, 1.40611439943313598633e-01) (118, -1.02215223014354705811e-01) (119, -5.68773634731769561768e-02) (120, -3.00460029393434524536e-02) (121, 1.35201718658208847046e-02) (122, -5.41744530200958251953e-02) (123, 5.48235699534416198730e-02) (124, 7.16533213853836059570e-02) (125, -5.15227317810058593750e-02) (126, -2.17434782534837722778e-02) (127, -5.37211671471595764160e-02) (128, -5.29345609247684478760e-02) (129, -4.45545166730880737305e-02) (130, -7.17206373810768127441e-02) (131, -4.95240576565265655518e-02) (132, -2.52389404922723770142e-02) (133, 4.30767461657524108887e-02) (134, -2.97101866453886032104e-02) (135, 7.20837861299514770508e-02) (136, -5.54427057504653930664e-02) (137, -4.45470735430717468262e-02) (138, -9.28512290120124816895e-02) (139, 1.02163940668106079102e-01) (140, -7.90639221668243408203e-02) (141, -8.70435610413551330566e-02) (142, -1.17304082959890365601e-03) (143, -1.36337168514728546143e-02) (144, 1.24131254851818084717e-01) (145, 8.16570967435836791992e-02) (146, -7.43123590946197509766e-02) (147, 1.97371449321508407593e-02) (148, 5.86219690740108489990e-02) (149, 8.76616984605789184570e-02) (150, 6.17612749338150024414e-02) (151, -5.50565235316753387451e-02) (152, 4.19512093067169189453e-02) (153, 1.09149023890495300293e-01) (154, 4.93065789341926574707e-02) (155, 5.39057627320289611816e-02) (156, 2.72372700273990631104e-02) (0, -4.16790209710597991943e-02) (1, 1.21292863041162490845e-02) (2, -2.62744594365358352661e-02) (3, -2.14694403111934661865e-02) (4, -8.81826877593994140625e-02) (5, 1.05301067233085632324e-01) (6, 4.34118658304214477539e-02) (7, 6.94457963109016418457e-02) (8, 6.08527474105358123779e-03) (9, 3.42275761067867279053e-02) (10, 4.64398860931396484375e-02) (11, 2.78083533048629760742e-02) (12, -5.58197796344757080078e-02) (13, -6.34176954627037048340e-02) (14, 4.06910292804241180420e-02) (15, -2.69887559115886688232e-02) (16, 5.38954958319664001465e-02) (17, 7.60831162333488464355e-02) (18, 5.17986761406064033508e-03) (19, 1.04058757424354553223e-02) (20, -6.58468231558799743652e-02) (21, -9.59297046065330505371e-02) (22, -2.66682077199220657349e-02) (23, 1.27146780490875244141e-01) (24, 4.42917980253696441650e-02) (25, 3.98028790950775146484e-02) (26, 7.01637342572212219238e-02) (27, 5.29298074543476104736e-02) (28, -3.06010283529758453369e-02) (29, -5.62010854482650756836e-02) (30, 7.59332627058029174805e-02) (31, -1.20615074411034584045e-03) (32, -9.19944941997528076172e-02) (33, 3.37274335324764251709e-02) (34, -3.82482260465621948242e-02) (35, -2.76877265423536300659e-02) (36, 1.54447993263602256775e-02) (37, 1.04423187673091888428e-01) (38, 6.38675093650817871094e-02) (39, 9.89910960197448730469e-02) (40, -5.69147393107414245605e-02) (41, 2.78660338371992111206e-02) (42, 2.03247256577014923096e-02) (43, 7.12099373340606689453e-02) (44, -7.75414332747459411621e-02) (45, -9.92357358336448669434e-02) (46, -2.19502728432416915894e-02) (47, 5.77093735337257385254e-02) (48, -6.44041523337364196777e-02) (49, -1.27244263887405395508e-01) (50, -3.26184779405593872070e-02) (51, -3.26511636376380920410e-02) (52, -1.35395094752311706543e-01) (53, 8.14553424715995788574e-02) (54, 1.43715331796556711197e-03) (55, 8.40303450822830200195e-02) (56, -3.57543043792247772217e-02) (57, 1.43588185310363769531e-01) (58, -4.70800790935754776001e-03) (59, 5.05979023873805999756e-02) (60, -1.81788317859172821045e-02) (61, -1.31040373817086219788e-02) (62, -3.95651794970035552979e-02) (63, 3.26393768191337585449e-02) (64, -8.14326405525207519531e-02) (65, -1.62110980600118637085e-02) (66, -6.56736269593238830566e-02) (67, 7.01023787260055541992e-02) (68, -2.59826704859733581543e-02) (69, 9.44945216178894042969e-02) (70, -1.06134247034788131714e-02) (71, -9.85121428966522216797e-02) (72, 3.72615084052085876465e-02) (73, -1.19375199079513549805e-01) (74, 7.48960524797439575195e-02) (75, 5.19101656973361968994e-02) (76, -5.79238869249820709229e-02) (77, 1.81895156856626272202e-03) (78, 1.57236400991678237915e-02) (79, -2.13442817330360412598e-02) (80, -8.33580084145069122314e-03) (81, -1.43425181508064270020e-01) (82, -6.71637579798698425293e-02) (83, 6.43190881237387657166e-03) (84, 5.51749803125858306885e-02) (85, -7.67588913440704345703e-02) (86, 8.60330741852521896362e-03) (87, -6.90806731581687927246e-02) (88, -9.70872342586517333984e-02) (89, -8.10473635792732238770e-02) (90, -8.32398012280464172363e-02) (91, 5.02885133028030395508e-02) (92, 2.74717230349779129028e-02) (93, -7.70469605922698974609e-02) (94, 2.64835115522146224976e-02) (95, 2.71519143134355545044e-02) (96, 1.10014393925666809082e-01) (97, -1.79004427045583724976e-02) (98, -3.82843450643122196198e-03) (99, -3.43238711357116699219e-02) (100, -5.49857690930366516113e-02) (101, 9.29556712508201599121e-02) (102, 3.92751535400748252869e-03) (103, -7.55266919732093811035e-02) (104, -9.06363055109977722168e-02) (105, 3.36160324513912200928e-02) (106, 1.62069182842969894409e-02) (107, -7.54250362515449523926e-02) (108, 9.49599742889404296875e-02) (109, -2.78290174901485443115e-02) (110, 4.83855567872524261475e-02) (111, -2.36896276473999023438e-02) (112, -6.32744804024696350098e-02) (113, 8.24410915374755859375e-02) (114, -1.51626437902450561523e-01) (115, -7.78428912162780761719e-02) (116, -1.48774776607751846313e-02) (117, 5.68123944103717803955e-02) (118, 2.02788561582565307617e-02) (119, -3.04052084684371948242e-02) (120, 1.86735428869724273682e-02) (121, -4.00463603436946868896e-02) (122, -5.81867955625057220459e-02) (123, -3.69694791734218597412e-02) (124, 1.06509894132614135742e-01) (125, 6.15962147712707519531e-02) (126, -3.56559567153453826904e-02) (127, 5.89081868529319763184e-02) (128, -6.56354278326034545898e-02) (129, 2.93223490007221698761e-03) (130, -4.44794818758964538574e-02) (131, 2.70463316701352596283e-03) (132, 4.23298850655555725098e-02) (133, 7.12459683418273925781e-02) (134, -2.82684247940778732300e-02) (135, 9.74366627633571624756e-03) (136, -1.95437967777252197266e-02) (137, -5.09941652417182922363e-02) (138, -1.03263929486274719238e-01) (139, -4.33372706174850463867e-02) (140, 1.69418547302484512329e-02) (141, 6.83128759264945983887e-02) (142, 2.96634472906589508057e-02) (143, 6.87843412160873413086e-02) (144, -3.03138773888349533081e-02) (145, 6.89419731497764587402e-02) (146, -6.53880983591079711914e-02) (147, 7.36575424671173095703e-02) (148, -1.27776684239506721497e-02) (149, 3.64420972764492034912e-02) (150, -4.50639463961124420166e-02) (151, -6.76711797714233398438e-02) (152, -7.68782347440719604492e-02) (153, -2.24712379276752471924e-02) (154, 2.91525721549987792969e-02) (155, -5.84832541644573211670e-02) (156, -9.23842862248420715332e-02) (0, 5.11254221200942993164e-02) (1, -2.25589215755462646484e-01) (2, -7.42427185177803039551e-02) (3, 4.88609187304973602295e-02) (4, -4.00433428585529327393e-02) (5, -1.53151050209999084473e-01) (6, -1.79540157318115234375e-01) (7, -1.70353144407272338867e-01) (8, 8.44950228929519653320e-02) (9, 1.62042170763015747070e-01) (10, 3.94213259220123291016e-01) (11, -1.69436320662498474121e-01) (12, 8.55013504624366760254e-02) (13, 5.61010301113128662109e-01) (14, 6.21973499655723571777e-02) (15, -5.13086318969726562500e-02) (16, -1.06608241796493530273e-01) (17, -1.45189478993415832520e-01) (18, -1.95984467864036560059e-01) (19, 6.90484791994094848633e-02) (20, -8.47424417734146118164e-02) (21, 2.20547050237655639648e-01) (22, 4.83315080404281616211e-01) (23, 2.02653944492340087891e-01) (24, 6.95415958762168884277e-02) (25, 4.66172210872173309326e-02) (26, -5.09776594117283821106e-03) (27, -3.55993546545505523682e-02) (28, 1.53364479541778564453e-01) (29, -1.45684301853179931641e-01) (30, -1.10598348081111907959e-01) (31, -2.54482120275497436523e-01) (32, -2.50461816787719726562e-01) (33, 9.71130281686782836914e-02) (34, -1.07370980083942413330e-01) (35, -2.34064057469367980957e-01) (36, -2.15644136071205139160e-01) (37, -2.72168278694152832031e-01) (38, -3.55864092707633972168e-02) (39, 1.62466824054718017578e-01) (40, -5.56064546108245849609e-02) (41, 1.89362451434135437012e-01) (42, 5.68903330713510513306e-03) (43, -1.05746770277619361877e-02) (44, -5.26884421706199645996e-02) (45, 1.66827777866274118423e-03) (46, 3.89799386262893676758e-01) (47, 7.18051195144653320312e-01) (48, 1.90078720450401306152e-01) (49, -2.67937839031219482422e-01) (50, -1.55348507687449455261e-02) (51, -7.54820555448532104492e-02) (52, -3.90608519315719604492e-01) (53, 5.70141561329364776611e-02) (54, 4.18134182691574096680e-01) (55, 1.51947289705276489258e-01) (56, 9.03138220310211181641e-02) (57, 1.69643685221672058105e-01) (58, 3.07541638612747192383e-01) (59, 7.96275213360786437988e-02) (60, 1.33868664503097534180e-01) (61, 1.07337720692157745361e-01) (62, -8.09077471494674682617e-02) (63, -1.57840579748153686523e-01) (64, -9.35283720493316650391e-01) (65, -1.91585123538970947266e-02) (66, 2.73328095674514770508e-01) (67, 4.92189824581146240234e-01) (68, 1.15149781107902526855e-01) (69, -1.28344204276800155640e-02) (70, -1.40745341777801513672e-01) (71, 2.48230935540050268173e-04) (72, 2.25634858012199401855e-01) (73, -5.92983812093734741211e-02) (74, -2.43904113769531250000e-01) (75, -3.30833256244659423828e-01) (76, 1.51569336652755737305e-01) (77, -1.02035425603389739990e-01) (78, 2.14312478899955749512e-01) (79, -9.27995133679360151291e-04) (80, -1.29920184612274169922e-01) (81, -3.02875846624374389648e-01) (82, 2.52913773059844970703e-01) (83, -1.36374071240425109863e-01) (84, 7.11001281160861253738e-04) (85, -5.85697591304779052734e-01) (86, -4.37188968062400817871e-02) (87, -2.36167564988136291504e-01) (88, -2.31172032654285430908e-02) (89, 9.09484252333641052246e-02) (90, 6.26995682716369628906e-01) (91, -1.48574680089950561523e-01) (92, 7.68759250640869140625e-02) (93, 2.01473291963338851929e-02) (94, -7.86755010485649108887e-02) (95, -1.09650857746601104736e-01) (96, 1.28259226679801940918e-01) (97, 1.29949003458023071289e-01) (98, 1.45611286163330078125e-01) (99, -3.06298971176147460938e-01) (100, -7.30547085404396057129e-02) (101, 1.45424276590347290039e-01) (102, -6.50954470038414001465e-02) (103, 1.49192810058593750000e-01) (104, 3.09327483177185058594e-01) (105, -9.80148762464523315430e-02) (106, -5.08395910263061523438e-01) (107, -1.85408350080251693726e-02) (108, -4.89588439464569091797e-01) (109, 4.36056405305862426758e-03) (110, -1.69200822710990905762e-01) (111, 6.34181201457977294922e-02) (112, -2.15287238359451293945e-01) (113, 3.41072231531143188477e-01) (114, -1.43933877348899841309e-01) (115, 2.94432878494262695312e-01) (116, 2.18669295310974121094e-01) (117, 5.35831451416015625000e-01) (118, -7.85708427429199218750e-01) (119, 3.79134826362133026123e-02) (120, 1.44227594137191772461e-01) (121, -5.31662702560424804688e-02) (122, 5.82250803709030151367e-02) (123, 9.48668196797370910645e-02) (124, -6.43533945083618164062e-01) (125, -3.90603169798851013184e-02) (126, -7.04689696431159973145e-02) (127, -2.54228293895721435547e-01) (128, -4.79520373046398162842e-02) (129, 2.20397233963012695312e-01) (130, 1.48424934595823287964e-02) (131, 3.45488280057907104492e-01) (132, 1.07752680778503417969e+00) (133, -2.90785014629364013672e-01) (134, 1.02155134081840515137e-01) (135, -1.68864563107490539551e-01) (136, -2.01505780220031738281e-01) (137, 6.19257688522338867188e-02) (138, 1.01235173642635345459e-01) (139, -4.49400804936885833740e-02) (140, -7.09642618894577026367e-02) (141, -1.42654225230216979980e-01) (142, -1.70034378767013549805e-01) (143, -1.05032166466116905212e-02) (144, 5.70599019527435302734e-01) (145, -3.28299462795257568359e-01) (146, -9.91833060979843139648e-02) (147, -1.15386307239532470703e-01) (148, -3.05698979645967483521e-02) (149, -5.52646405994892120361e-02) (150, -4.20133676379919052124e-03) (151, -2.28115692734718322754e-02) (152, -7.98008441925048828125e-02) (153, 3.67293804883956909180e-02) (154, 1.11250430345535278320e-02) (155, 3.14071867614984512329e-03) (156, 8.27580988407135009766e-02) (0, 8.51889848709106445312e-02) (1, 3.03923577070236206055e-01) (2, 1.75392702221870422363e-01) (3, 4.04668524861335754395e-02) (4, -1.12709827721118927002e-01) (5, 1.03750258684158325195e-01) (6, 5.79472817480564117432e-02) (7, -6.88240304589271545410e-02) (8, -9.57697704434394836426e-02) (9, -2.22450271248817443848e-01) (10, 1.28188841044902801514e-02) (11, -9.38475951552391052246e-02) (12, 4.55350875854492187500e-02) (13, 1.06673710048198699951e-01) (14, -1.22728077694773674011e-02) (15, 1.12973704934120178223e-01) (16, -1.35733917355537414551e-01) (17, 8.37668403983116149902e-02) (18, 4.24216799437999725342e-02) (19, -7.38467499613761901855e-02) (20, 1.01921126246452331543e-01) (21, -4.90815676748752593994e-02) (22, 1.09475173056125640869e-01) (23, -3.03095340728759765625e-01) (24, -5.19693479873239994049e-04) (25, -2.25983206182718276978e-02) (26, -1.77878752350807189941e-01) (27, 7.38002285361289978027e-02) (28, -4.49743270874023437500e-02) (29, 1.47132173180580139160e-01) (30, -1.07878021895885467529e-01) (31, -6.55591115355491638184e-02) (32, -1.52459200471639633179e-02) (33, -2.08498418331146240234e-01) (34, -1.77697062492370605469e-01) (35, 9.86429676413536071777e-03) (36, -1.62171542644500732422e-01) (37, 4.47714468464255332947e-03) (38, -1.75350606441497802734e-02) (39, -1.15975186228752136230e-01) (40, 1.06967292726039886475e-01) (41, 2.00122639536857604980e-01) (42, -9.75889042019844055176e-02) (43, 1.78306065499782562256e-02) (44, -4.15594764053821563721e-02) (45, 3.59951943159103393555e-01) (46, 9.98443365097045898438e-02) (47, -1.57268326729536056519e-02) (48, -1.47700859233736991882e-02) (49, -7.43656605482101440430e-02) (50, -3.06627638638019561768e-02) (51, 8.24229270219802856445e-02) (52, -6.91455081105232238770e-02) (53, -2.80216918326914310455e-04) (54, -1.59337580204010009766e-01) (55, 4.61300387978553771973e-02) (56, 2.47103348374366760254e-02) (57, -2.70331092178821563721e-03) (58, -2.66938786953687667847e-02) (59, -8.22579488158226013184e-02) (60, 2.26753190159797668457e-01) (61, -1.60323008894920349121e-02) (62, 7.54548981785774230957e-02) (63, -1.11621983349323272705e-01) (64, -4.28179651498794555664e-02) (65, -7.64776766300201416016e-02) (66, 1.88449937850236892700e-02) (67, -1.08680218458175659180e-01) (68, 2.26636491715908050537e-02) (69, -1.91681593656539916992e-01) (70, 6.58296868205070495605e-02) (71, 5.45173436403274536133e-02) (72, -7.86264762282371520996e-02) (73, -1.00613972172141075134e-02) (74, -1.77363455295562744141e-01) (75, -9.50019285082817077637e-02) (76, -1.44260033965110778809e-01) (77, -7.59937912225723266602e-02) (78, -1.28693953156471252441e-01) (79, 4.54115159809589385986e-02) (80, -2.69971340894699096680e-02) (81, -4.51814383268356323242e-02) (82, -1.79366827011108398438e-01) (83, -6.45421296358108520508e-02) (84, -3.86157422326505184174e-04) (85, 7.74229317903518676758e-02) (86, -9.71427485346794128418e-02) (87, 1.17487788200378417969e-01) (88, 2.39134013652801513672e-01) (89, 9.72799304872751235962e-03) (90, 8.02286863327026367188e-02) (91, -8.96627828478813171387e-02) (92, 1.56902875751256942749e-02) (93, 1.62337452173233032227e-01) (94, -4.16286624968051910400e-02) (95, 7.53162503242492675781e-02) (96, -2.96650044620037078857e-02) (97, -2.00995922088623046875e-01) (98, -3.06496452540159225464e-02) (99, 5.85592910647392272949e-03) (100, -2.57824696600437164307e-02) (101, 3.25499773025512695312e-02) (102, 5.93150109052658081055e-02) (103, -9.35601890087127685547e-02) (104, -1.12094329670071601868e-02) (105, -2.13653091341257095337e-02) (106, 3.60445439815521240234e-01) (107, 2.32362598180770874023e-01) (108, -8.60948190093040466309e-02) (109, 8.10827910900115966797e-02) (110, 2.97520440071821212769e-02) (111, 1.88342124223709106445e-01) (112, -4.78816106915473937988e-02) (113, 7.33466073870658874512e-02) (114, 5.82383833825588226318e-02) (115, 2.71507911384105682373e-02) (116, -1.90363675355911254883e-02) (117, 1.12953476607799530029e-01) (118, -1.90943047404289245605e-01) (119, 6.26428276300430297852e-02) (120, -4.92435880005359649658e-02) (121, -5.68961463868618011475e-02) (122, 1.13326281309127807617e-01) (123, 6.70127198100090026855e-03) (124, -7.17247230932116508484e-03) (125, -2.14798495173454284668e-01) (126, -1.15118488669395446777e-01) (127, 3.67718786001205444336e-02) (128, -2.59218979626893997192e-02) (129, -5.58417364954948425293e-02) (130, -1.66786178946495056152e-01) (131, -9.84685271978378295898e-02) (132, 4.19571176171302795410e-02) (133, -1.65842577815055847168e-01) (134, -9.40851122140884399414e-03) (135, 1.70720264315605163574e-01) (136, -8.69259908795356750488e-02) (137, -4.54591289162635803223e-02) (138, 3.03048491477966308594e-02) (139, 1.31356924772262573242e-01) (140, -5.88819943368434906006e-02) (141, 3.79375577904284000397e-03) (142, 6.41471073031425476074e-02) (143, -3.33539322018623352051e-02) (144, 9.26467105746269226074e-02) (145, 7.10361972451210021973e-02) (146, 4.39253300428390502930e-02) (147, -7.65694603323936462402e-02) (148, -8.50768480449914932251e-03) (149, 6.58680573105812072754e-02) (150, 6.64472356438636779785e-02) (151, 7.14290291070938110352e-02) (152, 5.74608035385608673096e-02) (153, 1.24811433255672454834e-01) (154, -6.27113319933414459229e-03) (155, 5.53025975823402404785e-02) (156, 1.57948777079582214355e-01) (0, 8.36617052555084228516e-02) (1, -5.67753985524177551270e-02) (2, -3.74412536621093750000e-02) (3, 4.82744500041007995605e-02) (4, 3.45752947032451629639e-02) (5, -3.88408116996288299561e-02) (6, 8.27336683869361877441e-02) (7, -4.14651893079280853271e-02) (8, 2.86404453217983245850e-02) (9, -8.30633491277694702148e-02) (10, 2.39526182413101196289e-02) (11, -9.55276414752006530762e-02) (12, -6.92334100604057312012e-02) (13, 9.77723747491836547852e-02) (14, -5.01898266375064849854e-02) (15, 9.55675095319747924805e-02) (16, -2.23189219832420349121e-02) (17, 2.88409087806940078735e-02) (18, 9.82570275664329528809e-03) (19, 7.51697868108749389648e-02) (20, -3.92782874405384063721e-02) (21, 1.78595557808876037598e-02) (22, -4.34607453644275665283e-02) (23, -5.89294321835041046143e-02) (24, 2.00434755533933639526e-02) (25, -1.49032443761825561523e-01) (26, 2.07001622766256332397e-02) (27, -1.07429467141628265381e-01) (28, 3.14352177083492279053e-02) (29, -2.50747222453355789185e-02) (30, 3.32769565284252166748e-02) (31, -4.79160994291305541992e-02) (32, 4.63478304445743560791e-02) (33, -1.07243610545992851257e-03) (34, 7.07275941967964172363e-02) (35, -1.19407683610916137695e-01) (36, 1.38837099075317382812e-01) (37, 4.53380867838859558105e-02) (38, 7.52324387431144714355e-02) (39, 6.10233247280120849609e-02) (40, 5.63491284847259521484e-02) (41, -7.42446258664131164551e-02) (42, 6.97818174958229064941e-02) (43, 9.54483300447463989258e-02) (44, -8.91983583569526672363e-02) (45, -9.47080925107002258301e-02) (46, 9.84966456890106201172e-02) (47, -4.18474860489368438721e-02) (48, 4.39041182398796081543e-02) (49, -6.78243190050125122070e-02) (50, -6.45151063799858093262e-02) (51, -9.60981771349906921387e-02) (52, 8.12035873532295227051e-02) (53, -4.13063913583755493164e-02) (54, -2.04167999327182769775e-02) (55, -7.10440948605537414551e-02) (56, -4.78174425661563873291e-02) (57, 7.32080265879631042480e-02) (58, -1.01959956809878349304e-02) (59, 4.86623942852020263672e-02) (60, -3.02783716470003128052e-02) (61, 1.07286982238292694092e-01) (62, -5.32345697283744812012e-02) (63, 8.16238299012184143066e-02) (64, -1.77796091884374618530e-02) (65, -8.78864824771881103516e-02) (66, 1.22160509228706359863e-01) (67, -1.15053895860910415649e-02) (68, 3.24654132127761840820e-02) (69, 7.53519535064697265625e-02) (70, -6.56829401850700378418e-02) (71, -1.12407570704817771912e-02) (72, 1.13142505288124084473e-01) (73, -9.00267735123634338379e-02) (74, 1.27998227253556251526e-02) (75, -1.26423388719558715820e-01) (76, -2.60580461472272872925e-02) (77, -6.33531585335731506348e-02) (78, -7.38702043890953063965e-02) (79, 6.40610307455062866211e-02) (80, -3.63257639110088348389e-02) (81, -1.51906404644250869751e-02) (82, 6.90081566572189331055e-02) (83, -5.30263856053352355957e-02) (84, 2.30228286236524581909e-02) (85, -4.65347897261381149292e-03) (86, -4.71718236804008483887e-02) (87, 1.03658199310302734375e-01) (88, -8.47586989402770996094e-02) (89, 2.84935180097818374634e-02) (90, 9.07670333981513977051e-03) (91, 9.34907048940658569336e-03) (92, 3.10874748975038528442e-02) (93, 5.46899922192096710205e-02) (94, -6.49573951959609985352e-02) (95, -3.65517847239971160889e-02) (96, -7.68268015235662460327e-04) (97, 5.75909838080406188965e-02) (98, 1.31001509726047515869e-02) (99, -2.60722413659095764160e-02) (100, -4.56830710172653198242e-02) (101, -7.38524124026298522949e-02) (102, 7.27460309863090515137e-02) (103, 5.50088472664356231689e-02) (104, -4.38341759145259857178e-02) (105, -5.72548992931842803955e-02) (106, 5.68017773330211639404e-02) (107, -1.24127685558050870895e-03) (108, -1.10029466450214385986e-02) (109, -5.39557859301567077637e-02) (110, -4.20727320015430450439e-02) (111, 4.66329082846641540527e-02) (112, 6.70976936817169189453e-03) (113, 1.13009095191955566406e-01) (114, 1.67495891451835632324e-01) (115, -7.00455605983734130859e-02) (116, -7.75309652090072631836e-02) (117, -8.25233161449432373047e-02) (118, 8.05030912160873413086e-02) (119, -2.17695515602827072144e-02) (120, 1.33320853114128112793e-01) (121, 2.70694550126791000366e-02) (122, 1.02019265294075012207e-01) (123, -1.49222770705819129944e-02) (124, -1.21703952550888061523e-01) (125, -8.39008297771215438843e-03) (126, 1.45946685224771499634e-02) (127, 4.36690310016274452209e-03) (128, 6.13441057503223419189e-02) (129, 2.41626109927892684937e-02) (130, -3.68733629584312438965e-02) (131, -7.57595226168632507324e-02) (132, 3.25794257223606109619e-02) (133, -5.96108101308345794678e-02) (134, 8.40882211923599243164e-02) (135, 4.45008203387260437012e-02) (136, 1.57017558813095092773e-02) (137, 7.06408098340034484863e-02) (138, -7.86651670932769775391e-02) (139, -9.13738608360290527344e-02) (140, -8.74502882361412048340e-02) (141, -4.02414351701736450195e-02) (142, 7.11924955248832702637e-02) (143, 3.20937931537628173828e-02) (144, 2.28865817189216613770e-02) (145, 5.06707988679409027100e-02) (146, 4.31375578045845031738e-02) (147, -2.25715246051549911499e-03) (148, 6.73978328704833984375e-02) (149, 3.98114696145057678223e-02) (150, 7.51794055104255676270e-02) (151, 3.61112579703330993652e-02) (152, -5.92261999845504760742e-02) (153, 6.86368420720100402832e-02) (154, -7.11403340101242065430e-02) (155, -2.47743651270866394043e-02) (156, -3.55552658438682556152e-02) (0, 6.69701471924781799316e-02) (1, -3.39647829532623291016e-02) (2, -3.88561412692070007324e-02) (3, -4.64275851845741271973e-02) (4, 2.71902978420257568359e-02) (5, -1.93131100386381149292e-02) (6, 8.56550559401512145996e-02) (7, 2.13323738425970077515e-02) (8, -7.79695957899093627930e-02) (9, -7.29355355724692344666e-03) (10, -5.95725663006305694580e-02) (11, -1.02826990187168121338e-01) (12, 3.55772720649838447571e-03) (13, -5.03823682665824890137e-02) (14, -8.95880013704299926758e-02) (15, 9.19945314526557922363e-02) (16, -8.68810042738914489746e-02) (17, 4.54941354691982269287e-02) (18, -6.54376745223999023438e-02) (19, 4.61444891989231109619e-02) (20, -4.57649752497673034668e-02) (21, 2.37095467746257781982e-02) (22, 3.74993905425071716309e-02) (23, -6.61645755171775817871e-02) (24, 3.24450270272791385651e-03) (25, -4.35922481119632720947e-02) (26, -5.19513227045536041260e-02) (27, -1.73108838498592376709e-02) (28, 1.35969009716063737869e-03) (29, 6.29541724920272827148e-02) (30, 9.43471735808998346329e-04) (31, -8.78166593611240386963e-03) (32, 7.55750164389610290527e-02) (33, 5.30399940907955169678e-02) (34, 1.26236071810126304626e-03) (35, 1.20343603193759918213e-02) (36, -8.82455334067344665527e-02) (37, -2.45623867958784103394e-02) (38, -4.89443764090538024902e-02) (39, -6.55514672398567199707e-02) (40, 7.38532692193984985352e-02) (41, -3.14239901490509510040e-03) (42, -1.23495720326900482178e-02) (43, 2.21781544387340545654e-02) (44, 3.84607836604118347168e-02) (45, -2.86244750022888183594e-02) (46, -6.34906664490699768066e-02) (47, 6.13758899271488189697e-02) (48, -7.77778476476669311523e-02) (49, 4.71884533762931823730e-02) (50, 1.91952823661267757416e-03) (51, 2.18563713133335113525e-02) (52, -3.93902994692325592041e-02) (53, -6.64052069187164306641e-02) (54, 1.92970503121614456177e-02) (55, 3.26574444770812988281e-02) (56, 1.99810303747653961182e-02) (57, 7.79453217983245849609e-02) (58, -1.13997414708137512207e-01) (59, -1.02087043225765228271e-01) (60, 4.22432646155357360840e-02) (61, 9.70114395022392272949e-03) (62, -8.26219171285629272461e-02) (63, 2.78794299811124801636e-02) (64, 4.24874275922775268555e-02) (65, 8.24749469757080078125e-02) (66, -1.36178776621818542480e-01) (67, 3.65229211747646331787e-02) (68, -4.46877814829349517822e-02) (69, -3.81867252290248870850e-02) (70, -8.31670463085174560547e-02) (71, -9.57054942846298217773e-02) (72, 2.47350018471479415894e-02) (73, -2.09742551669478416443e-03) (74, 2.41356547921895980835e-02) (75, -3.64499818533658981323e-03) (76, 5.85414581000804901123e-02) (77, -9.58374291658401489258e-02) (78, -4.65838536620140075684e-02) (79, -1.03257194161415100098e-01) (80, 2.96971686184406280518e-02) (81, 8.81769284605979919434e-02) (82, 1.21837509796023368835e-02) (83, 6.02644160389900207520e-02) (84, -5.95355071127414703369e-02) (85, -2.55839321762323379517e-02) (86, -6.93938042968511581421e-03) (87, 5.10785616934299468994e-02) (88, -1.82530470192432403564e-02) (89, 4.19021174311637878418e-02) (90, 3.03909163922071456909e-02) (91, 9.91785749793052673340e-02) (92, 6.26059342175722122192e-03) (93, -6.01172223687171936035e-02) (94, -8.57818813528865575790e-04) (95, -8.15173983573913574219e-02) (96, 8.88381227850914001465e-02) (97, -2.19266060739755630493e-02) (98, 7.69948065280914306641e-02) (99, -9.24638062715530395508e-02) (100, 5.86773380637168884277e-02) (101, 6.97496235370635986328e-02) (102, -3.20723131299018859863e-02) (103, 1.16078276187181472778e-03) (104, -4.68289256095886230469e-02) (105, 9.44277495145797729492e-02) (106, 1.08960829675197601318e-01) (107, -7.94239416718482971191e-02) (108, 1.20012618601322174072e-01) (109, -7.55851566791534423828e-02) (110, -4.86716330051422119141e-02) (111, 2.33135875314474105835e-02) (112, -4.60815057158470153809e-02) (113, 7.74319842457771301270e-02) (114, -5.58030195534229278564e-02) (115, -2.07085814327001571655e-02) (116, -7.19627290964126586914e-02) (117, 8.75744000077247619629e-02) (118, -4.93880882859230041504e-02) (119, -1.43115837126970291138e-02) (120, 1.78635306656360626221e-02) (121, -9.61397737264633178711e-02) (122, -4.96072508394718170166e-02) (123, -9.25941467285156250000e-02) (124, -7.46748596429824829102e-02) (125, 7.94258564710617065430e-02) (126, -7.25768953561782836914e-02) (127, -6.61215707659721374512e-02) (128, -5.83081655204296112061e-02) (129, -7.35353827476501464844e-02) (130, -3.27494889497756958008e-02) (131, -1.05155415832996368408e-01) (132, -1.11919060349464416504e-01) (133, 9.77198500186204910278e-03) (134, 1.38470819219946861267e-02) (135, -4.24751676619052886963e-02) (136, 2.22287755459547042847e-02) (137, 1.23570803552865982056e-02) (138, 3.49380299448966979980e-02) (139, 1.65656283497810363770e-02) (140, 6.52441680431365966797e-02) (141, 8.58498737215995788574e-02) (142, -7.92052149772644042969e-02) (143, -6.59476742148399353027e-02) (144, 2.06519030034542083740e-02) (145, 1.43862972036004066467e-02) (146, -3.38799022138118743896e-02) (147, 8.75182971358299255371e-02) (148, 6.44090631976723670959e-03) (149, 3.20998132228851318359e-02) (150, -2.84733995795249938965e-02) (151, -5.20146861672401428223e-02) (152, 3.49857732653617858887e-02) (153, 3.77813614904880523682e-02) (154, -1.57319158315658569336e-02) (155, 5.99306151270866394043e-02) (156, -2.97053717076778411865e-04) (0, 3.30986417829990386963e-02) (1, 4.92174439132213592529e-02) (2, 3.22392806410789489746e-02) (3, 2.44548264890909194946e-02) (4, 