FANN_FLO_2.1
num_layers=3
learning_rate=0.400000
connection_rate=1.000000
network_type=0
learning_momentum=0.000000
training_algorithm=0
train_error_function=1
train_stop_function=0
cascade_output_change_fraction=0.010000
quickprop_decay=-0.000100
quickprop_mu=1.750000
rprop_increase_factor=1.200000
rprop_decrease_factor=0.500000
rprop_delta_min=0.000000
rprop_delta_max=50.000000
rprop_delta_zero=0.100000
cascade_output_stagnation_epochs=12
cascade_candidate_change_fraction=0.010000
cascade_candidate_stagnation_epochs=12
cascade_max_out_epochs=150
cascade_min_out_epochs=50
cascade_max_cand_epochs=150
cascade_min_cand_epochs=50
cascade_num_candidate_groups=2
bit_fail_limit=3.49999994039535522461e-01
cascade_candidate_limit=1.00000000000000000000e+03
cascade_weight_multiplier=4.00000005960464477539e-01
cascade_activation_functions_count=10
cascade_activation_functions=3 5 7 8 10 11 14 15 16 17 
cascade_activation_steepnesses_count=4
cascade_activation_steepnesses=2.50000000000000000000e-01 5.00000000000000000000e-01 7.50000000000000000000e-01 1.00000000000000000000e+00 
layer_sizes=157 115 11 
scale_included=0
neurons (num_inputs, activation_function, activation_steepness)=(0, 0, 0.00000000000000000000e+00) (0, 0, 0.00000000000000000000e+00) (0, 0, 0.00000000000000000000e+00) (0, 0, 0.00000000000000000000e+00) (0, 0, 0.00000000000000000000e+00) (0, 0, 0.00000000000000000000e+00) (0, 0, 0.00000000000000000000e+00) (0, 0, 0.00000000000000000000e+00) (0, 0, 0.00000000000000000000e+00) (0, 0, 0.00000000000000000000e+00) (0, 0, 0.00000000000000000000e+00) (0, 0, 0.00000000000000000000e+00) (0, 0, 0.00000000000000000000e+00) (0, 0, 0.00000000000000000000e+00) (0, 0, 0.00000000000000000000e+00) (0, 0, 0.00000000000000000000e+00) (0, 0, 0.00000000000000000000e+00) (0, 0, 0.00000000000000000000e+00) (0, 0, 0.00000000000000000000e+00) (0, 0, 0.00000000000000000000e+00) (0, 0, 0.00000000000000000000e+00) (0, 0, 0.00000000000000000000e+00) (0, 0, 0.00000000000000000000e+00) (0, 0, 0.00000000000000000000e+00) (0, 0, 0.00000000000000000000e+00) (0, 0, 0.00000000000000000000e+00) (0, 0, 0.00000000000000000000e+00) (0, 0, 0.00000000000000000000e+00) (0, 0, 0.00000000000000000000e+00) (0, 0, 0.00000000000000000000e+00) (0, 0, 0.00000000000000000000e+00) (0, 0, 0.00000000000000000000e+00) (0, 0, 0.00000000000000000000e+00) (0, 0, 0.00000000000000000000e+00) (0, 0, 0.00000000000000000000e+00) (0, 0, 0.00000000000000000000e+00) (0, 0, 0.00000000000000000000e+00) (0, 0, 0.00000000000000000000e+00) (0, 0, 0.00000000000000000000e+00) (0, 0, 0.00000000000000000000e+00) (0, 0, 0.00000000000000000000e+00) (0, 0, 0.00000000000000000000e+00) (0, 0, 0.00000000000000000000e+00) (0, 0, 0.00000000000000000000e+00) (0, 0, 0.00000000000000000000e+00) (0, 0, 0.00000000000000000000e+00) (0, 0, 0.00000000000000000000e+00) (0, 0, 0.00000000000000000000e+00) (0, 0, 0.00000000000000000000e+00) (0, 0, 0.00000000000000000000e+00) (0, 0, 0.00000000000000000000e+00) (0, 0, 0.00000000000000000000e+00) (0, 0, 0.00000000000000000000e+00) (0, 0, 0.00000000000000000000e+00) (0, 0, 0.00000000000000000000e+00) (0, 0, 0.00000000000000000000e+00) (0, 0, 0.00000000000000000000e+00) (0, 0, 0.00000000000000000000e+00) (0, 0, 0.00000000000000000000e+00) (0, 0, 0.00000000000000000000e+00) (0, 0, 0.00000000000000000000e+00) (0, 0, 0.00000000000000000000e+00) (0, 0, 0.00000000000000000000e+00) (0, 0, 0.00000000000000000000e+00) (0, 0, 0.00000000000000000000e+00) (0, 0, 0.00000000000000000000e+00) (0, 0, 0.00000000000000000000e+00) (0, 0, 0.00000000000000000000e+00) (0, 0, 0.00000000000000000000e+00) (0, 0, 0.00000000000000000000e+00) (0, 0, 0.00000000000000000000e+00) (0, 0, 0.00000000000000000000e+00) (0, 0, 0.00000000000000000000e+00) (0, 0, 0.00000000000000000000e+00) (0, 0, 0.00000000000000000000e+00) (0, 0, 0.00000000000000000000e+00) (0, 0, 0.00000000000000000000e+00) (0, 0, 0.00000000000000000000e+00) (0, 0, 0.00000000000000000000e+00) (0, 0, 0.00000000000000000000e+00) (0, 0, 0.00000000000000000000e+00) (0, 0, 0.00000000000000000000e+00) (0, 0, 0.00000000000000000000e+00) (0, 0, 0.00000000000000000000e+00) (0, 0, 0.00000000000000000000e+00) (0, 0, 0.00000000000000000000e+00) (0, 0, 0.00000000000000000000e+00) (0, 0, 0.00000000000000000000e+00) (0, 0, 0.00000000000000000000e+00) (0, 0, 0.00000000000000000000e+00) (0, 0, 0.00000000000000000000e+00) (0, 0, 0.00000000000000000000e+00) (0, 0, 0.00000000000000000000e+00) (0, 0, 0.00000000000000000000e+00) (0, 0, 0.00000000000000000000e+00) (0, 0, 0.00000000000000000000e+00) (0, 0, 0.00000000000000000000e+00) (0, 0, 0.00000000000000000000e+00) (0, 0, 0.00000000000000000000e+00) (0, 0, 0.00000000000000000000e+00) (0, 0, 0.00000000000000000000e+00) (0, 0, 0.00000000000000000000e+00) (0, 0, 0.00000000000000000000e+00) (0, 0, 0.00000000000000000000e+00) (0, 0, 0.00000000000000000000e+00) (0, 0, 0.00000000000000000000e+00) (0, 0, 0.00000000000000000000e+00) (0, 0, 0.00000000000000000000e+00) (0, 0, 0.00000000000000000000e+00) (0, 0, 0.00000000000000000000e+00) (0, 0, 0.00000000000000000000e+00) (0, 0, 0.00000000000000000000e+00) (0, 0, 0.00000000000000000000e+00) (0, 0, 0.00000000000000000000e+00) (0, 0, 0.00000000000000000000e+00) (0, 0, 0.00000000000000000000e+00) (0, 0, 0.00000000000000000000e+00) (0, 0, 0.00000000000000000000e+00) (0, 0, 0.00000000000000000000e+00) (0, 0, 0.00000000000000000000e+00) (0, 0, 0.00000000000000000000e+00) (0, 0, 0.00000000000000000000e+00) (0, 0, 0.00000000000000000000e+00) (0, 0, 0.00000000000000000000e+00) (0, 0, 0.00000000000000000000e+00) (0, 0, 0.00000000000000000000e+00) (0, 0, 0.00000000000000000000e+00) (0, 0, 0.00000000000000000000e+00) (0, 0, 0.00000000000000000000e+00) (0, 0, 0.00000000000000000000e+00) (0, 0, 0.00000000000000000000e+00) (0, 0, 0.00000000000000000000e+00) (0, 0, 0.00000000000000000000e+00) (0, 0, 0.00000000000000000000e+00) (0, 0, 0.00000000000000000000e+00) (0, 0, 0.00000000000000000000e+00) (0, 0, 0.00000000000000000000e+00) (0, 0, 0.00000000000000000000e+00) (0, 0, 0.00000000000000000000e+00) (0, 0, 0.00000000000000000000e+00) (0, 0, 0.00000000000000000000e+00) (0, 0, 0.00000000000000000000e+00) (0, 0, 0.00000000000000000000e+00) (0, 0, 0.00000000000000000000e+00) (0, 0, 0.00000000000000000000e+00) (0, 0, 0.00000000000000000000e+00) (0, 0, 0.00000000000000000000e+00) (0, 0, 0.00000000000000000000e+00) (0, 0, 0.00000000000000000000e+00) (0, 0, 0.00000000000000000000e+00) (0, 0, 0.00000000000000000000e+00) (0, 0, 0.00000000000000000000e+00) (0, 0, 0.00000000000000000000e+00) (0, 0, 0.00000000000000000000e+00) (0, 0, 0.00000000000000000000e+00) (0, 0, 0.00000000000000000000e+00) (0, 0, 0.00000000000000000000e+00) (157, 10, 5.00000000000000000000e-01) (157, 10, 5.00000000000000000000e-01) (157, 10, 5.00000000000000000000e-01) (157, 10, 5.00000000000000000000e-01) (157, 10, 5.00000000000000000000e-01) (157, 10, 5.00000000000000000000e-01) (157, 10, 5.00000000000000000000e-01) (157, 10, 5.00000000000000000000e-01) (157, 10, 5.00000000000000000000e-01) (157, 10, 5.00000000000000000000e-01) (157, 10, 5.00000000000000000000e-01) (157, 10, 5.00000000000000000000e-01) (157, 10, 5.00000000000000000000e-01) (157, 10, 5.00000000000000000000e-01) (157, 10, 5.00000000000000000000e-01) (157, 10, 5.00000000000000000000e-01) (157, 10, 5.00000000000000000000e-01) (157, 10, 5.00000000000000000000e-01) (157, 10, 5.00000000000000000000e-01) (157, 10, 5.00000000000000000000e-01) (157, 10, 5.00000000000000000000e-01) (157, 10, 5.00000000000000000000e-01) (157, 10, 5.00000000000000000000e-01) (157, 10, 5.00000000000000000000e-01) (157, 10, 5.00000000000000000000e-01) (157, 10, 5.00000000000000000000e-01) (157, 10, 5.00000000000000000000e-01) (157, 10, 5.00000000000000000000e-01) (157, 10, 5.00000000000000000000e-01) (157, 10, 5.00000000000000000000e-01) (157, 10, 5.00000000000000000000e-01) (157, 10, 5.00000000000000000000e-01) (157, 10, 5.00000000000000000000e-01) (157, 10, 5.00000000000000000000e-01) (157, 10, 5.00000000000000000000e-01) (157, 10, 5.00000000000000000000e-01) (157, 10, 5.00000000000000000000e-01) (157, 10, 5.00000000000000000000e-01) (157, 10, 5.00000000000000000000e-01) (157, 10, 5.00000000000000000000e-01) (157, 10, 5.00000000000000000000e-01) (157, 10, 5.00000000000000000000e-01) (157, 10, 5.00000000000000000000e-01) (157, 10, 5.00000000000000000000e-01) (157, 10, 5.00000000000000000000e-01) (157, 10, 5.00000000000000000000e-01) (157, 10, 5.00000000000000000000e-01) (157, 10, 5.00000000000000000000e-01) (157, 10, 5.00000000000000000000e-01) (157, 10, 5.00000000000000000000e-01) (157, 10, 5.00000000000000000000e-01) (157, 10, 5.00000000000000000000e-01) (157, 10, 5.00000000000000000000e-01) (157, 10, 5.00000000000000000000e-01) (157, 10, 5.00000000000000000000e-01) (157, 10, 5.00000000000000000000e-01) (157, 10, 5.00000000000000000000e-01) (157, 10, 5.00000000000000000000e-01) (157, 10, 5.00000000000000000000e-01) (157, 10, 5.00000000000000000000e-01) (157, 10, 5.00000000000000000000e-01) (157, 10, 5.00000000000000000000e-01) (157, 10, 5.00000000000000000000e-01) (157, 10, 5.00000000000000000000e-01) (157, 10, 5.00000000000000000000e-01) (157, 10, 5.00000000000000000000e-01) (157, 10, 5.00000000000000000000e-01) (157, 10, 5.00000000000000000000e-01) (157, 10, 5.00000000000000000000e-01) (157, 10, 5.00000000000000000000e-01) (157, 10, 5.00000000000000000000e-01) (157, 10, 5.00000000000000000000e-01) (157, 10, 5.00000000000000000000e-01) (157, 10, 5.00000000000000000000e-01) (157, 10, 5.00000000000000000000e-01) (157, 10, 5.00000000000000000000e-01) (157, 10, 5.00000000000000000000e-01) (157, 10, 5.00000000000000000000e-01) (157, 10, 5.00000000000000000000e-01) (157, 10, 5.00000000000000000000e-01) (157, 10, 5.00000000000000000000e-01) (157, 10, 5.00000000000000000000e-01) (157, 10, 5.00000000000000000000e-01) (157, 10, 5.00000000000000000000e-01) (157, 10, 5.00000000000000000000e-01) (157, 10, 5.00000000000000000000e-01) (157, 10, 5.00000000000000000000e-01) (157, 10, 5.00000000000000000000e-01) (157, 10, 5.00000000000000000000e-01) (157, 10, 5.00000000000000000000e-01) (157, 10, 5.00000000000000000000e-01) (157, 10, 5.00000000000000000000e-01) (157, 10, 5.00000000000000000000e-01) (157, 10, 5.00000000000000000000e-01) (157, 10, 5.00000000000000000000e-01) (157, 10, 5.00000000000000000000e-01) (157, 10, 5.00000000000000000000e-01) (157, 10, 5.00000000000000000000e-01) (157, 10, 5.00000000000000000000e-01) (157, 10, 5.00000000000000000000e-01) (157, 10, 5.00000000000000000000e-01) (157, 10, 5.00000000000000000000e-01) (157, 10, 5.00000000000000000000e-01) (157, 10, 5.00000000000000000000e-01) (157, 10, 5.00000000000000000000e-01) (157, 10, 5.00000000000000000000e-01) (157, 10, 5.00000000000000000000e-01) (157, 10, 5.00000000000000000000e-01) (157, 10, 5.00000000000000000000e-01) (157, 10, 5.00000000000000000000e-01) (157, 10, 5.00000000000000000000e-01) (157, 10, 5.00000000000000000000e-01) (157, 10, 5.00000000000000000000e-01) (157, 10, 5.00000000000000000000e-01) (0, 10, 0.00000000000000000000e+00) (115, 10, 5.00000000000000000000e-01) (115, 10, 5.00000000000000000000e-01) (115, 10, 5.00000000000000000000e-01) (115, 10, 5.00000000000000000000e-01) (115, 10, 5.00000000000000000000e-01) (115, 10, 5.00000000000000000000e-01) (115, 10, 5.00000000000000000000e-01) (115, 10, 5.00000000000000000000e-01) (115, 10, 5.00000000000000000000e-01) (115, 10, 5.00000000000000000000e-01) (0, 10, 0.00000000000000000000e+00) 
connections (connected_to_neuron, weight)=(0, -1.76415100693702697754e-01) (1, -1.68309107422828674316e-01) (2, -1.00230455398559570312e+00) (3, -8.85121166706085205078e-01) (4, 7.12497591972351074219e-01) (5, 1.76283693313598632812e+00) (6, 1.14534187316894531250e+00) (7, 3.55191789567470550537e-02) (8, 7.08369463682174682617e-02) (9, -9.62713122367858886719e-01) (10, -2.79076933860778808594e-01) (11, 2.64849543571472167969e-01) (12, -8.49531412124633789062e-01) (13, -1.16494286060333251953e+00) (14, -5.98175823688507080078e-01) (15, 1.48773133754730224609e-01) (16, 1.60049915313720703125e-01) (17, 6.65496170520782470703e-01) (18, 5.54082214832305908203e-01) (19, 4.47967469692230224609e-01) (20, 1.03578038513660430908e-01) (21, 1.23739671707153320312e+00) (22, -2.04946780204772949219e+00) (23, 1.82483053207397460938e+00) (24, -2.78873801231384277344e-01) (25, -3.45092080533504486084e-02) (26, -2.64039963483810424805e-01) (27, 4.90415748208761215210e-03) (28, -4.16250109672546386719e-01) (29, -1.35889619588851928711e-01) (30, -1.07238101959228515625e+00) (31, 7.96635687351226806641e-01) (32, 1.00504410266876220703e+00) (33, -3.70607942342758178711e-01) (34, 1.55280962586402893066e-01) (35, -6.45658493041992187500e-01) (36, -1.44983962178230285645e-01) (37, -2.26061806082725524902e-01) (38, -4.92567792534828186035e-02) (39, 5.05927681922912597656e-01) (40, 5.09608030319213867188e-01) (41, 1.39961659908294677734e-01) (42, -8.60185362398624420166e-04) (43, 2.38212291151285171509e-02) (44, 1.82703778147697448730e-01) (45, 6.09713912010192871094e-01) (46, 1.04072427749633789062e+00) (47, -4.77549821138381958008e-01) (48, 3.76545548439025878906e-01) (49, -1.07978522777557373047e+00) (50, -6.40483796596527099609e-01) (51, 4.22094643115997314453e-01) (52, 3.77476334571838378906e-01) (53, 1.54366528987884521484e+00) (54, 4.03338402509689331055e-01) (55, 2.80367016792297363281e-01) (56, -1.43745470046997070312e+00) (57, -2.09735363721847534180e-01) (58, -1.70945674180984497070e-01) (59, 3.73065590858459472656e-01) (60, 1.21637701988220214844e-01) (61, -5.71035444736480712891e-02) (62, 6.14633619785308837891e-01) (63, 1.27764356136322021484e+00) (64, 1.06587564945220947266e+00) (65, 8.56580678373575210571e-03) (66, -4.33644592761993408203e-01) (67, 1.08024165034294128418e-01) (68, 8.90579521656036376953e-02) (69, -2.56492823362350463867e-01) (70, 5.18151223659515380859e-01) (71, 3.42185437679290771484e-01) (72, -5.44067561626434326172e-01) (73, -1.50452566146850585938e+00) (74, -2.23949623107910156250e+00) (75, 7.42069184780120849609e-01) (76, -5.80919682979583740234e-01) (77, -1.80433773994445800781e+00) (78, 1.33027806878089904785e-01) (79, -3.56114357709884643555e-01) (80, -9.94674980640411376953e-01) (81, 1.54965448379516601562e+00) (82, 2.50399947166442871094e-01) (83, -1.28491640090942382812e-01) (84, 5.06394743919372558594e-01) (85, -4.78099852800369262695e-01) (86, 1.79577922821044921875e+00) (87, -3.80133390426635742188e-01) (88, -2.82354801893234252930e-01) (89, 2.75314259529113769531e+00) (90, -5.56377410888671875000e-01) (91, -6.66815698146820068359e-01) (92, 7.45415449142456054688e-01) (93, -3.98922413587570190430e-02) (94, -1.51381552219390869141e-01) (95, -8.66663515567779541016e-01) (96, -2.15405181050300598145e-01) (97, -1.00987255573272705078e+00) (98, 5.03518044948577880859e-01) (99, 2.90430605411529541016e-01) (100, -3.77943783998489379883e-01) (101, -1.19518376886844635010e-01) (102, 6.94579422473907470703e-01) (103, -9.95291829109191894531e-01) (104, 9.24449205398559570312e-01) (105, 6.03640615940093994141e-01) (106, 2.10955440998077392578e-01) (107, -1.26336231827735900879e-01) (108, 1.26058429479598999023e-01) (109, -2.50236123800277709961e-01) (110, 3.50989252328872680664e-01) (111, 1.18217062950134277344e+00) (112, -7.93311476707458496094e-01) (113, 1.31512963771820068359e+00) (114, 8.09021830558776855469e-01) (115, 7.68766939640045166016e-01) (116, 7.17886030673980712891e-01) (117, -4.36428546905517578125e-01) (118, -2.94348090887069702148e-01) (119, -2.43037696927785873413e-02) (120, -7.88964092731475830078e-01) (121, -1.05120018124580383301e-01) (122, 1.39634752273559570312e+00) (123, -8.00745561718940734863e-02) (124, -4.31042939424514770508e-01) (125, 7.30843603610992431641e-01) (126, 5.68677723407745361328e-01) (127, 1.14903140068054199219e+00) (128, -8.39944362640380859375e-01) (129, -5.96132934093475341797e-01) (130, 8.28725814819335937500e-01) (131, 1.80325222015380859375e+00) (132, -3.53294849395751953125e-01) (133, -1.84567570686340332031e-01) (134, -9.42218661308288574219e-01) (135, -8.79103124141693115234e-01) (136, -9.30457890033721923828e-01) (137, 2.99129802733659744263e-02) (138, 3.18961799144744873047e-01) (139, -4.72074031829833984375e-01) (140, 4.65215533971786499023e-01) (141, -2.84798353910446166992e-01) (142, -1.99487614631652832031e+00) (143, 2.22421735525131225586e-01) (144, 1.02668118476867675781e+00) (145, -2.61132389307022094727e-01) (146, -5.74235081672668457031e-01) (147, -4.40077424049377441406e-01) (148, 2.01038792729377746582e-01) (149, -2.87156820297241210938e-01) (150, -4.42485392093658447266e-01) (151, -6.75668790936470031738e-02) (152, -4.68703895807266235352e-01) (153, 3.53036262094974517822e-02) (154, 9.32015001773834228516e-01) (155, 7.55278646945953369141e-01) (156, -2.28601956367492675781e+00) (0, 8.45334410667419433594e-01) (1, -2.75084316730499267578e-01) (2, -6.59953281283378601074e-02) (3, -4.17960155755281448364e-03) (4, 5.79196453094482421875e-01) (5, -1.47390589118003845215e-01) (6, -1.08050018548965454102e-01) (7, -1.32547259330749511719e-01) (8, 2.21777856349945068359e-01) (9, -3.23903113603591918945e-01) (10, 1.81575566530227661133e-01) (11, 3.64747136831283569336e-01) (12, 4.12633240222930908203e-01) (13, -8.79697129130363464355e-02) (14, -2.63347238302230834961e-01) (15, -7.88949504494667053223e-02) (16, 2.21395969390869140625e-01) (17, 3.56025874614715576172e-01) (18, 5.66189229488372802734e-01) (19, 1.03262282907962799072e-01) (20, -3.19543629884719848633e-01) (21, -3.87999355792999267578e-01) (22, 3.54227036237716674805e-01) (23, -3.45062702894210815430e-01) (24, -9.36790853738784790039e-02) (25, -1.36228889226913452148e-01) (26, 3.31050336360931396484e-01) (27, -2.42345944046974182129e-01) (28, -2.74736851453781127930e-01) (29, -3.39769870042800903320e-02) (30, -4.82222102582454681396e-02) (31, 5.85527002811431884766e-01) (32, 1.24736919999122619629e-01) (33, 4.55512911081314086914e-01) (34, -1.47028282284736633301e-01) (35, 7.79965221881866455078e-02) (36, -3.04642975330352783203e-01) (37, 2.82643795013427734375e-01) (38, 4.61478739976882934570e-01) (39, 4.51208025217056274414e-01) (40, 4.46929633617401123047e-01) (41, 5.57135865092277526855e-02) (42, 2.35417485237121582031e-01) (43, 2.27206557989120483398e-01) (44, 4.67348605394363403320e-01) (45, 4.41658079624176025391e-01) (46, -3.82761329412460327148e-01) (47, -2.42092385888099670410e-02) (48, 2.22597077488899230957e-01) (49, -4.17885810136795043945e-01) (50, 5.70608973503112792969e-01) (51, 4.97829049825668334961e-01) (52, -3.59349459409713745117e-01) (53, 2.68351316452026367188e-01) (54, 5.80501139163970947266e-01) (55, 5.97198419272899627686e-02) (56, -4.67607021331787109375e-01) (57, 2.77645319700241088867e-01) (58, 3.23466658592224121094e-01) (59, 2.27512374520301818848e-01) (60, -2.86217093467712402344e-01) (61, -3.10717880725860595703e-01) (62, -3.58321428298950195312e-01) (63, 3.10898631811141967773e-01) (64, -4.84871357679367065430e-01) (65, 3.33936251699924468994e-02) (66, -2.74473279714584350586e-01) (67, -2.13658034801483154297e-01) (68, -3.27315300703048706055e-01) (69, -4.93697166442871093750e-01) (70, -4.26951885223388671875e-01) (71, -4.71772253513336181641e-01) (72, 6.72920122742652893066e-02) (73, 2.85115361213684082031e-01) (74, 3.20482432842254638672e-01) (75, -4.91469763219356536865e-02) (76, 5.36591634154319763184e-02) (77, 4.37835514545440673828e-01) (78, 4.57113713026046752930e-01) (79, -3.18334877490997314453e-01) (80, 4.75170791149139404297e-01) (81, 4.37124401330947875977e-01) (82, -4.67213243246078491211e-01) (83, -4.83044147491455078125e-01) (84, 6.37932196259498596191e-02) (85, -5.20958006381988525391e-01) (86, 1.07993669807910919189e-01) (87, 1.62199810147285461426e-01) (88, 3.05272191762924194336e-01) (89, -1.64889395236968994141e-01) (90, 3.67859065532684326172e-01) (91, 5.29764175415039062500e-01) (92, 1.18423916399478912354e-01) (93, 5.40569126605987548828e-01) (94, 1.90249398350715637207e-01) (95, 1.40559270977973937988e-01) (96, -3.42302955687046051025e-02) (97, 3.83937716484069824219e-01) (98, 4.43285644054412841797e-01) (99, 4.33686338365077972412e-02) (100, 4.89764690399169921875e-01) (101, 4.80002850294113159180e-01) (102, 7.55427777767181396484e-02) (103, -3.90697494149208068848e-02) (104, 2.05978170037269592285e-01) (105, -2.76005238294601440430e-01) (106, 3.74628275632858276367e-01) (107, -3.34238350391387939453e-01) (108, -5.37639498710632324219e-01) (109, 3.32805931568145751953e-01) (110, -4.79225851595401763916e-02) (111, 5.09795188903808593750e-01) (112, 2.93041132390499114990e-02) (113, -2.66683958470821380615e-02) (114, 5.13352096080780029297e-01) (115, 6.32354140281677246094e-01) (116, 8.47797319293022155762e-02) (117, -4.01924140751361846924e-02) (118, 9.98774245381355285645e-02) (119, -3.38423997163772583008e-01) (120, 3.52832913398742675781e-01) (121, -1.82390227913856506348e-01) (122, -4.35627669095993041992e-01) (123, -2.16954365372657775879e-01) (124, -3.07051897048950195312e-01) (125, 3.32970440387725830078e-01) (126, 4.90153729915618896484e-01) (127, 1.93798780441284179688e-01) (128, 1.19089633226394653320e-01) (129, 2.15711995959281921387e-01) (130, -3.28850418329238891602e-01) (131, -8.97242501378059387207e-02) (132, 3.14006090164184570312e-01) (133, 2.28780046105384826660e-01) (134, 3.27473074197769165039e-01) (135, -2.29978725314140319824e-01) (136, 4.40422147512435913086e-01) (137, 5.16951858997344970703e-01) (138, 2.37659618258476257324e-01) (139, -1.58069021999835968018e-02) (140, 1.22040674090385437012e-01) (141, 7.92708814144134521484e-01) (142, 3.62235933542251586914e-01) (143, 1.90076395869255065918e-01) (144, -1.47370770573616027832e-01) (145, 1.71655014157295227051e-01) (146, 1.73956513404846191406e-01) (147, 4.38841581344604492188e-01) (148, 2.23796669160947203636e-05) (149, -8.45578551292419433594e-01) (150, 5.60154199600219726562e-01) (151, 4.17448371648788452148e-01) (152, -3.80544692277908325195e-01) (153, -6.99807882308959960938e-01) (154, 1.82945966720581054688e-01) (155, 7.84746050834655761719e-01) (156, -4.87321525812149047852e-01) (0, 9.44962441921234130859e-01) (1, 2.49123597145080566406e+00) (2, -5.48383235931396484375e-01) (3, 4.81881856918334960938e+00) (4, -1.83503949642181396484e+00) (5, -3.68325757980346679688e+00) (6, 1.05890059471130371094e+00) (7, -1.39413201808929443359e+00) (8, 2.06725883483886718750e+00) (9, 1.85051369667053222656e+00) (10, 3.89556616544723510742e-01) (11, 1.66563534736633300781e+00) (12, -2.83410131931304931641e-01) (13, 3.90876865386962890625e+00) (14, 3.84216737747192382812e+00) (15, 3.26706838607788085938e+00) (16, 2.89082145690917968750e+00) (17, 5.74207842350006103516e-01) (18, 1.69198465347290039062e+00) (19, 1.51463067531585693359e+00) (20, -2.01969957351684570312e+00) (21, -1.25630602240562438965e-01) (22, -1.95330715179443359375e+00) (23, -8.37074816226959228516e-01) (24, 7.55027681589126586914e-03) (25, 3.27030372619628906250e+00) (26, -2.04547429084777832031e+00) (27, -1.75781175494194030762e-01) (28, -1.50878453254699707031e+00) (29, -1.02225232124328613281e+00) (30, 1.02635169029235839844e+00) (31, -1.19438683986663818359e+00) (32, 3.07474493980407714844e+00) (33, -3.69812917709350585938e+00) (34, 3.30752539634704589844e+00) (35, -2.32627129554748535156e+00) (36, -6.85030102729797363281e-01) (37, -2.94727635383605957031e+00) (38, -1.08377802371978759766e+00) (39, -6.22996449470520019531e-01) (40, 1.92351436614990234375e+00) (41, 2.65168339014053344727e-01) (42, 1.49184131622314453125e+00) (43, -3.59940379858016967773e-02) (44, -1.74915218353271484375e+00) (45, -9.33263182640075683594e-01) (46, 2.18691778182983398438e+00) (47, 3.09887981414794921875e+00) (48, -8.94334435462951660156e-01) (49, -4.94506955146789550781e-01) (50, 3.65719938278198242188e+00) (51, -2.78312516212463378906e+00) (52, -3.12088274955749511719e+00) (53, 8.96195709705352783203e-01) (54, -2.31349825859069824219e+00) (55, -9.23726379871368408203e-01) (56, -1.97371327877044677734e+00) (57, 3.03557634353637695312e-01) (58, 9.38314378261566162109e-01) (59, 1.28502285480499267578e+00) (60, 2.19517135620117187500e+00) (61, 4.21271800994873046875e+00) (62, -3.85322332382202148438e+00) (63, -2.14186835289001464844e+00) (64, -7.77987062931060791016e-01) (65, -3.54752373695373535156e+00) (66, -9.19417679309844970703e-01) (67, -1.02278411388397216797e+00) (68, 1.50049555301666259766e+00) (69, -5.42014694213867187500e+00) (70, 1.23697423934936523438e+00) (71, 4.66362349689006805420e-02) (72, -4.69572544097900390625e+00) (73, -1.06362485885620117188e+00) (74, -2.05145502090454101562e+00) (75, 2.97840642929077148438e+00) (76, -1.41482198238372802734e+00) (77, -3.33413386344909667969e+00) (78, -1.11115384101867675781e+00) (79, 9.91600275039672851562e-01) (80, 2.67439818382263183594e+00) (81, 1.40975272655487060547e+00) (82, -1.39423370361328125000e+00) (83, -1.08602440357208251953e+00) (84, 9.29942369461059570312e-01) (85, -1.54072284698486328125e+00) (86, 1.83426904678344726562e+00) (87, 1.81910097599029541016e+00) (88, -3.20026016235351562500e+00) (89, -2.76369333267211914062e+00) (90, 5.99803447723388671875e-01) (91, -2.64248991012573242188e+00) (92, 9.54895436763763427734e-01) (93, 2.64004397392272949219e+00) (94, 3.28944349288940429688e+00) (95, 2.00901246070861816406e+00) (96, 1.71997773647308349609e+00) (97, 5.81500673294067382812e+00) (98, 1.13169825077056884766e+00) (99, 1.56473326683044433594e+00) (100, -4.08427429199218750000e+00) (101, -2.51368522644042968750e+00) (102, -1.21928179264068603516e+00) (103, -2.84507894515991210938e+00) (104, -1.17069196701049804688e+00) (105, -3.57432842254638671875e+00) (106, -5.32013559341430664062e+00) (107, -6.20555210113525390625e+00) (108, -3.61458277702331542969e+00) (109, 5.36793899536132812500e+00) (110, -2.15855407714843750000e+00) (111, 2.49057069420814514160e-01) (112, -2.62384384870529174805e-01) (113, 1.38712131977081298828e+00) (114, 4.60364729166030883789e-01) (115, 3.59656929969787597656e+00) (116, -3.22074234485626220703e-01) (117, 2.68899059295654296875e+00) (118, -7.33485758304595947266e-01) (119, 2.72706151008605957031e+00) (120, -5.99354267120361328125e-01) (121, -5.96660554409027099609e-01) (122, -2.69470572471618652344e-01) (123, 1.70281529426574707031e+00) (124, 4.06294393539428710938e+00) (125, 2.18438982963562011719e+00) (126, -1.60061970353126525879e-01) (127, 2.56358170509338378906e+00) (128, -5.09537506103515625000e+00) (129, -2.62161588668823242188e+00) (130, -1.72698974609375000000e+00) (131, -3.88631606101989746094e+00) (132, -3.61241650581359863281e+00) (133, 2.74893069267272949219e+00) (134, -5.32315587997436523438e+00) (135, 6.51946008205413818359e-01) (136, -4.68458205461502075195e-01) (137, 1.05714213848114013672e+00) (138, 6.63075089454650878906e-01) (139, 8.07128623127937316895e-02) (140, 8.17993223667144775391e-01) (141, -3.10054874420166015625e+00) (142, 2.31430649757385253906e+00) (143, 1.53721594810485839844e+00) (144, -2.42443680763244628906e+00) (145, -1.27374970912933349609e+00) (146, 5.24657201766967773438e+00) (147, 5.74011981487274169922e-01) (148, 2.14999299496412277222e-02) (149, 1.10997891426086425781e+00) (150, 5.90460486710071563721e-02) (151, 8.28018724918365478516e-01) (152, 2.37073943018913269043e-01) (153, 2.52482175827026367188e-01) (154, 9.29313123226165771484e-01) (155, 7.61233806610107421875e-01) (156, 1.59344762563705444336e-01) (0, 7.29795575141906738281e-01) (1, 5.38013935089111328125e-01) (2, -7.36359477043151855469e-01) (3, -7.40080475807189941406e-01) (4, 7.89717793464660644531e-01) (5, 2.17790985107421875000e+00) (6, -1.82525885105133056641e+00) (7, -2.56618440151214599609e-01) (8, 1.21639478206634521484e+00) (9, 1.13691055774688720703e+00) (10, -9.97192442417144775391e-01) (11, 4.60286527872085571289e-01) (12, 1.24800753593444824219e+00) (13, 1.73414379358291625977e-01) (14, -2.52269059419631958008e-01) (15, 1.45112085342407226562e+00) (16, 5.09304642677307128906e-01) (17, -2.70523047447204589844e+00) (18, -1.03311681747436523438e+00) (19, 1.09684419631958007812e+00) (20, 5.98791062831878662109e-01) (21, -2.41369915008544921875e+00) (22, 1.34481358528137207031e+00) (23, -1.37702977657318115234e+00) (24, -1.58838331699371337891e+00) (25, 6.23478055000305175781e-01) (26, 2.28697702288627624512e-01) (27, -1.06478142738342285156e+00) (28, -8.48252177238464355469e-01) (29, 9.29216206073760986328e-01) (30, 7.62758776545524597168e-02) (31, -8.75629723072052001953e-01) (32, 5.05686923861503601074e-02) (33, -2.67046618461608886719e+00) (34, 8.25747013092041015625e-01) (35, 1.59726214408874511719e+00) (36, 2.99579109996557235718e-02) (37, 1.77773857116699218750e+00) (38, -5.89266717433929443359e-01) (39, 1.07739019393920898438e+00) (40, 1.00672519207000732422e+00) (41, 1.97157704830169677734e+00) (42, -6.17186054587364196777e-02) (43, -8.62376570701599121094e-01) (44, -2.29561376571655273438e+00) (45, 1.79696583747863769531e+00) (46, -1.66585803031921386719e+00) (47, -1.10044801235198974609e+00) (48, 1.91323423385620117188e+00) (49, 1.54564940929412841797e+00) (50, 1.01948642730712890625e+00) (51, -4.22925353050231933594e-01) (52, 2.64672517776489257812e-01) (53, -5.17771720886230468750e-01) (54, 4.39819656312465667725e-02) (55, 1.21413432061672210693e-01) (56, 2.50931251794099807739e-02) (57, 2.12811499834060668945e-01) (58, 2.76287883520126342773e-01) (59, 7.35030591487884521484e-01) (60, -5.80520212650299072266e-01) (61, 1.52703011035919189453e+00) (62, -2.71707475185394287109e-01) (63, 7.91168630123138427734e-01) (64, -1.33737385272979736328e+00) (65, 3.28978919982910156250e+00) (66, 6.36479556560516357422e-01) (67, 6.80069506168365478516e-01) (68, 7.86191821098327636719e-01) (69, 2.12053298950195312500e+00) (70, 1.36425089836120605469e+00) (71, -7.77448117733001708984e-01) (72, -4.22955274581909179688e-01) (73, 1.84953659772872924805e-02) (74, 8.27167987823486328125e-01) (75, 4.56466943025588989258e-01) (76, -8.72254431247711181641e-01) (77, -2.08349537849426269531e+00) (78, -1.55903327465057373047e+00) (79, 2.49018982052803039551e-01) (80, 2.71635472774505615234e-01) (81, 9.31135058403015136719e-01) (82, 1.23286592960357666016e+00) (83, -2.06676721572875976562e+00) (84, 4.48875904083251953125e-01) (85, -2.74922728538513183594e-01) (86, 1.42377281188964843750e+00) (87, 1.71614325046539306641e+00) (88, 2.62571692466735839844e-01) (89, -5.38981080055236816406e-01) (90, -1.70605289936065673828e+00) (91, -3.77163171768188476562e-01) (92, -2.78205084800720214844e+00) (93, 1.64782118797302246094e+00) (94, 2.02146911621093750000e+00) (95, 2.70784765481948852539e-01) (96, 5.71040749549865722656e-01) (97, 1.45940959453582763672e+00) (98, -3.87313306331634521484e-01) (99, -7.52300441265106201172e-01) (100, -7.60056018829345703125e-01) (101, -1.56871151924133300781e+00) (102, 2.23894476890563964844e+00) (103, -2.65538954734802246094e+00) (104, 6.79064989089965820312e-01) (105, -6.47567451000213623047e-01) (106, -6.09413743019104003906e-01) (107, -1.72747269272804260254e-01) (108, -1.79139387607574462891e+00) (109, -6.93747878074645996094e-01) (110, 4.48492705821990966797e-01) (111, 9.55640614032745361328e-01) (112, 9.04468357563018798828e-01) (113, -2.17194795608520507812e-01) (114, 4.40778076648712158203e-01) (115, 7.86325559020042419434e-02) (116, 2.39398613572120666504e-01) (117, -2.20535278320312500000e-01) (118, 1.05048394203186035156e+00) (119, 1.00050544738769531250e+00) (120, -8.19680511951446533203e-01) (121, 7.54851400852203369141e-02) (122, -5.06719872355461120605e-02) (123, -1.83955109119415283203e+00) (124, 1.54361712932586669922e+00) (125, -4.90633957087993621826e-02) (126, -5.60098886489868164062e-01) (127, 6.82345926761627197266e-01) (128, -5.81759631633758544922e-01) (129, -3.27193093299865722656e+00) (130, -3.68149280548095703125e-01) (131, -8.99244070053100585938e-01) (132, -2.32749477028846740723e-01) (133, 4.65104915201663970947e-02) (134, 1.06263446807861328125e+00) (135, -1.35028362274169921875e+00) (136, 1.93897441029548645020e-01) (137, 8.77522945404052734375e-01) (138, -4.86365675926208496094e-01) (139, -1.25861036777496337891e+00) (140, -2.22990930080413818359e-01) (141, 2.29058891534805297852e-01) (142, 1.51242530345916748047e+00) (143, -9.73640084266662597656e-01) (144, -2.06280183792114257812e+00) (145, -1.16059362888336181641e+00) (146, -1.96355617046356201172e+00) (147, -2.95906364917755126953e-01) (148, 1.03487849235534667969e-01) (149, -1.39920842647552490234e+00) (150, 2.19715371727943420410e-01) (151, -5.82954764366149902344e-01) (152, -5.18708646297454833984e-01) (153, -1.09629476070404052734e+00) (154, 4.09714519977569580078e-01) (155, 8.07564914226531982422e-01) (156, -2.46469545364379882812e+00) (0, -2.13266253471374511719e+00) (1, 7.63378953933715820312e+00) (2, 2.15240263938903808594e+00) (3, -1.56759083271026611328e+00) (4, -2.34731507301330566406e+00) (5, -1.92715060710906982422e+00) (6, -1.18105399608612060547e+00) (7, -2.25694942474365234375e+00) (8, 1.16520273685455322266e+00) (9, -1.44722568988800048828e+00) (10, 1.77135086059570312500e+00) (11, 3.53862434625625610352e-01) (12, 3.01067399978637695312e+00) (13, 1.67517316341400146484e+00) (14, 1.00987303256988525391e+00) (15, -2.42962861061096191406e+00) (16, -5.33823156356811523438e+00) (17, 3.92182850837707519531e+00) (18, 1.58927989006042480469e+00) (19, -1.97162151336669921875e+00) (20, 1.12127530574798583984e+00) (21, -4.12211370468139648438e+00) (22, -4.55593872070312500000e+00) (23, -2.54425883293151855469e+00) (24, 6.92108154296875000000e+00) (25, 6.34181785583496093750e+00) (26, 3.94895744323730468750e+00) (27, -2.18231868743896484375e+00) (28, -3.31695228815078735352e-01) (29, 8.54178071022033691406e-01) (30, 1.64772510528564453125e+00) (31, 2.67242407798767089844e+00) (32, 1.22503924369812011719e+00) (33, 8.62042248249053955078e-01) (34, 1.37269183993339538574e-01) (35, -2.70798659324645996094e+00) (36, 2.35469746589660644531e+00) (37, -1.00418984889984130859e-01) (38, 5.98503291606903076172e-01) (39, -3.54229688644409179688e+00) (40, -6.70522689819335937500e-01) (41, -3.60545897483825683594e+00) (42, -4.58654239773750305176e-02) (43, 1.76270544528961181641e+00) (44, 5.76537656784057617188e+00) (45, -3.99228036403656005859e-02) (46, 6.73648929595947265625e+00) (47, 1.06654334068298339844e+00) (48, 6.03336632251739501953e-01) (49, -1.44297361373901367188e+00) (50, -6.32684081792831420898e-02) (51, -2.19571256637573242188e+00) (52, -1.18840467929840087891e+00) (53, -1.33315706253051757812e+00) (54, -7.17882335186004638672e-01) (55, 4.11232089996337890625e+00) (56, -3.13348197937011718750e+00) (57, 1.90559875965118408203e+00) (58, -4.17039060592651367188e+00) (59, 2.36425161361694335938e+00) (60, 1.59319603443145751953e+00) (61, 8.92886579036712646484e-01) (62, -2.15150308609008789062e+00) (63, 2.70068693161010742188e+00) (64, -1.61321628093719482422e+00) (65, 3.63224864006042480469e+00) (66, 1.60511469841003417969e+00) (67, -6.12327957153320312500e+00) (68, -1.21650919318199157715e-01) (69, -3.56848382949829101562e+00) (70, 7.43578970432281494141e-01) (71, -4.98694372177124023438e+00) (72, -3.42096376419067382812e+00) (73, 5.85394716262817382812e+00) (74, 1.29352796077728271484e+00) (75, -2.71399807929992675781e+00) (76, -4.39424371719360351562e+00) (77, -1.58114385604858398438e+00) (78, -1.94763076305389404297e+00) (79, -3.63207721710205078125e+00) (80, 6.14560604095458984375e+00) (81, -1.63302445411682128906e+00) (82, -1.16648054122924804688e+00) (83, -3.12564253807067871094e-01) (84, -1.50370597839355468750e+00) (85, 3.73257374763488769531e+00) (86, 5.34185123443603515625e+00) (87, -7.99930453300476074219e-01) (88, 6.44418191909790039062e+00) (89, -2.52425074577331542969e+00) (90, 6.19573593139648437500e-01) (91, -4.25512027740478515625e+00) (92, -3.52308273315429687500e+00) (93, -3.37655496597290039062e+00) (94, -1.80549931526184082031e+00) (95, -3.52407813072204589844e+00) (96, 7.64580011367797851562e-01) (97, 2.52834653854370117188e+00) (98, 4.70654249191284179688e+00) (99, -1.43928682804107666016e+00) (100, 2.61269509792327880859e-01) (101, 3.68480825424194335938e+00) (102, 6.48610234260559082031e-01) (103, 3.53022432327270507812e+00) (104, 1.77536332607269287109e+00) (105, -2.70525550842285156250e+00) (106, -2.71728253364562988281e+00) (107, 1.10524070262908935547e+00) (108, -3.20901393890380859375e-01) (109, 1.15767948329448699951e-01) (110, -2.28250217437744140625e+00) (111, -1.06464350223541259766e+00) (112, 2.04877853393554687500e+00) (113, 5.28324067592620849609e-01) (114, 2.30503529310226440430e-02) (115, 2.19558048248291015625e+00) (116, 1.79698407649993896484e+00) (117, -6.47901713848114013672e-01) (118, -3.51424169540405273438e+00) (119, -1.60824525356292724609e+00) (120, -1.05450558662414550781e+00) (121, 1.40618252754211425781e+00) (122, 1.87205046415328979492e-01) (123, 4.27153348922729492188e+00) (124, 2.82661819458007812500e+00) (125, 2.33871459960937500000e+00) (126, 2.38560342788696289062e+00) (127, -3.19848275184631347656e+00) (128, 1.83666527271270751953e+00) (129, -5.39202547073364257812e+00) (130, 1.15449762344360351562e+00) (131, 3.48665118217468261719e-01) (132, -5.50099015235900878906e-01) (133, 2.62384152412414550781e+00) (134, 2.21446347236633300781e+00) (135, 6.68974399566650390625e-01) (136, -3.61803960800170898438e+00) (137, 4.32142823934555053711e-01) (138, 1.31345391273498535156e-01) (139, -1.19739353656768798828e+00) (140, -2.95386999845504760742e-01) (141, 2.14047598838806152344e+00) (142, 7.53390312194824218750e-01) (143, -6.38936579227447509766e-01) (144, -4.64194631576538085938e+00) (145, 3.60342168807983398438e+00) (146, -1.34661686420440673828e+00) (147, -4.72075492143630981445e-01) (148, 3.46399515867233276367e-01) (149, -1.36064827442169189453e+00) (150, -1.10999011993408203125e+00) (151, -7.36676678061485290527e-02) (152, -1.80019235610961914062e+00) (153, -8.32375168800354003906e-01) (154, 7.04798161983489990234e-01) (155, 7.47553184628486633301e-02) (156, -2.10020089149475097656e+00) (0, 9.79644000530242919922e-01) (1, -5.04432246088981628418e-02) (2, 5.31966052949428558350e-02) (3, 5.88087737560272216797e-01) (4, 3.51545333862304687500e-01) (5, 6.83445870876312255859e-01) (6, -3.12129139900207519531e-01) (7, 3.07045280933380126953e-01) (8, -2.18889445066452026367e-01) (9, -3.65244328975677490234e-01) (10, -2.17016756534576416016e-01) (11, 3.74465495347976684570e-01) (12, 3.22312384843826293945e-01) (13, 5.48800528049468994141e-01) (14, 6.45719587802886962891e-01) (15, 2.14077904820442199707e-03) (16, 4.44424360990524291992e-01) (17, 3.59640836715698242188e-01) (18, 3.55213463306427001953e-01) (19, -2.85001635551452636719e-01) (20, -4.91867154836654663086e-01) (21, -3.35482001304626464844e-01) (22, 2.56996095180511474609e-01) (23, 1.93757012486457824707e-01) (24, -3.86750817298889160156e-01) (25, 2.66055703163146972656e-01) (26, 2.32721313834190368652e-01) (27, 3.57801228761672973633e-01) (28, -8.71048942208290100098e-02) (29, 2.49516695737838745117e-01) (30, -8.47222059965133666992e-02) (31, -3.33622992038726806641e-01) (32, -4.97746437788009643555e-01) (33, 4.11021322011947631836e-01) (34, -3.79776626825332641602e-01) (35, 5.01835942268371582031e-01) (36, 4.40975785255432128906e-01) (37, -1.68211475014686584473e-01) (38, 2.13109374046325683594e-01) (39, -5.10214209556579589844e-01) (40, 1.34255409240722656250e-01) (41, 4.01020556688308715820e-01) (42, 4.19792324304580688477e-01) (43, -5.88264428079128265381e-02) (44, 3.65554600954055786133e-01) (45, 4.21145290136337280273e-01) (46, 5.51326870918273925781e-01) (47, 2.91491895914077758789e-01) (48, 9.11234393715858459473e-02) (49, 1.94984525442123413086e-01) (50, 4.83420699834823608398e-01) (51, 1.50903373956680297852e-01) (52, 2.81336754560470581055e-01) (53, 2.71486371755599975586e-01) (54, -2.51548081636428833008e-01) (55, 5.30885875225067138672e-01) (56, -2.22425032407045364380e-02) (57, 4.79615986347198486328e-01) (58, 3.39117884635925292969e-01) (59, 8.44938397407531738281e-01) (60, 3.02238941192626953125e-01) (61, -3.89337927103042602539e-01) (62, 5.23263514041900634766e-01) (63, 2.47817412018775939941e-01) (64, -6.13679826259613037109e-01) (65, -4.69775170087814331055e-01) (66, 1.49167940020561218262e-01) (67, 4.80363965034484863281e-01) (68, 8.53468552231788635254e-02) (69, -2.23339140415191650391e-01) (70, -5.83367407321929931641e-01) (71, -3.72480154037475585938e-01) (72, -5.10849535465240478516e-01) (73, 3.80870699882507324219e-01) (74, -2.94177904725074768066e-02) (75, 4.74053889513015747070e-01) (76, 2.74629950523376464844e-01) (77, -5.85981644690036773682e-02) (78, 3.26405093073844909668e-02) (79, -1.79275602102279663086e-01) (80, -5.00806272029876708984e-01) (81, 2.10860688239336013794e-02) (82, 5.52815496921539306641e-01) (83, 3.93018811941146850586e-01) (84, -2.87856668233871459961e-01) (85, -3.09433519840240478516e-01) (86, 2.62594163417816162109e-01) (87, 1.36383742094039916992e-01) (88, -3.54429006576538085938e-01) (89, 1.75316669046878814697e-02) (90, -1.78536728024482727051e-01) (91, 5.24594187736511230469e-01) (92, 2.75861937552690505981e-02) (93, -2.64287263154983520508e-01) (94, 9.68998298048973083496e-02) (95, 2.80656218528747558594e-01) (96, -1.39995247125625610352e-01) (97, -2.94480830430984497070e-01) (98, 2.02196553349494934082e-01) (99, -4.67081904411315917969e-01) (100, 2.99376379698514938354e-02) (101, 2.22072452306747436523e-01) (102, -4.48041617870330810547e-01) (103, 1.71244800090789794922e-01) (104, 1.73290550708770751953e-01) (105, 2.61439085006713867188e-01) (106, 5.21558225154876708984e-02) (107, -1.34127333760261535645e-01) (108, -5.00293195247650146484e-01) (109, -5.53174495697021484375e-01) (110, 2.15358212590217590332e-01) (111, -4.72517520189285278320e-01) (112, 4.65674139559268951416e-02) (113, 1.94140762090682983398e-01) (114, 4.56950992345809936523e-01) (115, 3.06319862604141235352e-01) (116, 3.29377561807632446289e-01) (117, 2.01415419578552246094e-01) (118, -1.86169043183326721191e-01) (119, -5.43586730957031250000e-01) (120, -3.43077450990676879883e-01) (121, 4.01144564151763916016e-01) (122, 5.54780185222625732422e-01) (123, 3.33797782659530639648e-01) (124, -4.16020989418029785156e-01) (125, 5.03740012645721435547e-02) (126, 4.80408929288387298584e-02) (127, -6.48142397403717041016e-02) (128, 4.94583815336227416992e-01) (129, -4.09019231796264648438e-01) (130, 9.05752778053283691406e-02) (131, -2.21889123320579528809e-01) (132, 3.26850205659866333008e-01) (133, 9.38482508063316345215e-02) (134, 5.65017521381378173828e-01) (135, 3.84565107524394989014e-02) (136, -2.69589781761169433594e-01) (137, 3.78693103790283203125e-01) (138, 5.34709692001342773438e-01) (139, -7.67159163951873779297e-01) (140, 3.97642403841018676758e-01) (141, 3.56666296720504760742e-01) (142, 1.74675881862640380859e-02) (143, 5.51738500595092773438e-01) (144, -4.84106838703155517578e-01) (145, -4.72010783851146697998e-02) (146, 2.08891034126281738281e-01) (147, 6.17015659809112548828e-01) (148, 9.92923319339752197266e-01) (149, -1.04925704002380371094e+00) (150, -6.27293109893798828125e-01) (151, -5.21259307861328125000e-01) (152, -9.35631915926933288574e-02) (153, 1.59184217453002929688e-01) (154, 9.94599759578704833984e-01) (155, 9.57585096359252929688e-01) (156, -1.33583295345306396484e+00) (0, 2.30205267667770385742e-01) (1, 8.95920395851135253906e-01) (2, -2.09017634391784667969e-01) (3, 4.00974333286285400391e-01) (4, 3.41252744197845458984e-01) (5, -8.06768178939819335938e-01) (6, 7.15273499488830566406e-01) (7, -2.24189543724060058594e+00) (8, -2.66766190528869628906e-01) (9, -3.32322776317596435547e-01) (10, -1.08179259300231933594e+00) (11, -1.99041926860809326172e+00) (12, -2.51534414291381835938e+00) (13, -5.55068731307983398438e-01) (14, 1.64885926246643066406e+00) (15, -9.08413648605346679688e-01) (16, -7.36837089061737060547e-01) (17, 6.20267331600189208984e-01) (18, -1.30432561039924621582e-01) (19, 3.14259886741638183594e-01) (20, -1.89343452453613281250e+00) (21, 4.24391180276870727539e-01) (22, -1.19221043586730957031e+00) (23, -1.04074561595916748047e+00) (24, -1.65364730358123779297e+00) (25, 1.61286556720733642578e+00) (26, -4.00443106889724731445e-01) (27, -5.10110795497894287109e-01) (28, -1.35322332382202148438e+00) (29, -6.00425004959106445312e-01) (30, 3.84819984436035156250e-01) (31, -1.80021941661834716797e+00) (32, 9.51510369777679443359e-01) (33, 1.38642334938049316406e+00) (34, 3.08341026306152343750e-01) (35, -1.69421762228012084961e-01) (36, 8.82697939872741699219e-01) (37, 2.92442750930786132812e+00) (38, -2.47842669486999511719e+00) (39, -3.14492321014404296875e+00) (40, -2.74772143363952636719e+00) (41, -2.99972748756408691406e+00) (42, -5.25706946849822998047e-01) (43, 4.13148701190948486328e-01) (44, -2.22871229052543640137e-01) (45, -7.34951317310333251953e-01) (46, -3.79756021499633789062e+00) (47, 5.15419781208038330078e-01) (48, -2.18049407005310058594e+00) (49, -1.13647258281707763672e+00) (50, -9.65607702732086181641e-01) (51, 1.03008186817169189453e+00) (52, -1.55232882499694824219e+00) (53, -1.59747803211212158203e+00) (54, 1.77342355251312255859e+00) (55, -1.29159972071647644043e-01) (56, 7.93057233095169067383e-02) (57, 6.47129714488983154297e-01) (58, -1.30733454227447509766e+00) (59, 7.28635668754577636719e-01) (60, -9.13521528244018554688e-01) (61, -4.00401391088962554932e-02) (62, 1.54051840305328369141e-01) (63, -1.36025652289390563965e-01) (64, -2.31369781494140625000e+00) (65, 1.87927484512329101562e-01) (66, -5.68276643753051757812e-01) (67, -1.17046034336090087891e+00) (68, -5.12474179267883300781e-01) (69, 1.41142368316650390625e+00) (70, 1.36052563786506652832e-01) (71, -2.59907269477844238281e+00) (72, 1.54508936405181884766e+00) (73, -8.82259905338287353516e-01) (74, -2.82723927497863769531e+00) (75, -1.98477804660797119141e+00) (76, -1.93647831678390502930e-01) (77, -7.69016265869140625000e-01) (78, 3.36898505687713623047e-01) (79, -5.37278771400451660156e-01) (80, -1.45705389976501464844e+00) (81, -2.65435636043548583984e-01) (82, -4.62598800659179687500e-01) (83, -7.52399444580078125000e-01) (84, -2.99921900033950805664e-01) (85, 7.81172886490821838379e-02) (86, -1.67859524488449096680e-01) (87, -3.39245033264160156250e+00) (88, -1.02226960659027099609e+00) (89, 1.59868270158767700195e-01) (90, 1.90378408879041671753e-02) (91, -1.65596914291381835938e+00) (92, 1.26121842861175537109e+00) (93, -1.39960026741027832031e+00) (94, -4.32007968425750732422e-01) (95, -3.34607219696044921875e+00) (96, -2.70316600799560546875e+00) (97, -1.00828897953033447266e+00) (98, -5.42111277580261230469e-01) (99, 1.64899337291717529297e+00) (100, 3.87640595436096191406e-01) (101, -2.37268590927124023438e+00) (102, 1.19934761524200439453e+00) (103, -1.06773138046264648438e+00) (104, -2.05079093575477600098e-01) (105, 1.27881741523742675781e+00) (106, -3.90023559331893920898e-01) (107, -1.83289361000061035156e+00) (108, -6.46050274372100830078e-01) (109, 2.53016293048858642578e-01) (110, -1.55956292152404785156e+00) (111, -2.48485064506530761719e+00) (112, -1.56857657432556152344e+00) (113, 2.00268292427062988281e+00) (114, -1.77838850021362304688e+00) (115, 6.49582743644714355469e-01) (116, 5.34954927861690521240e-02) (117, -3.48719656467437744141e-01) (118, -6.50875031948089599609e-01) (119, 6.89290240406990051270e-02) (120, -1.87080001831054687500e+00) (121, -1.04552626609802246094e+00) (122, 9.15025293827056884766e-01) (123, 7.86739170551300048828e-01) (124, 3.54493212699890136719e+00) (125, -2.29512199759483337402e-01) (126, 3.78329396247863769531e-01) (127, -7.06991374492645263672e-01) (128, 2.58823037147521972656e+00) (129, -1.70532679557800292969e+00) (130, -1.21433746814727783203e+00) (131, 2.07411074638366699219e+00) (132, -2.12171459197998046875e+00) (133, 4.86449420452117919922e-01) (134, 2.82032847404479980469e+00) (135, 9.76787269115447998047e-01) (136, -1.51223428547382354736e-02) (137, 1.96158871054649353027e-01) (138, 4.92515228688716888428e-02) (139, -1.84071063995361328125e+00) (140, -1.79354641586542129517e-02) (141, -1.05041670799255371094e+00) (142, -1.35256135463714599609e+00) (143, -1.08024597167968750000e+00) (144, 6.42763555049896240234e-01) (145, 1.97406136989593505859e+00) (146, 3.15382099151611328125e+00) (147, -2.71681785583496093750e-01) (148, 4.99508172273635864258e-01) (149, -2.31209897994995117188e+00) (150, -1.16732299327850341797e+00) (151, -1.13097250461578369141e+00) (152, -1.53814828395843505859e+00) (153, -1.77103364467620849609e+00) (154, 3.31928223371505737305e-01) (155, 1.76394078880548477173e-02) (156, -1.94628322124481201172e+00) (0, 7.45735287666320800781e-01) (1, -4.25750792026519775391e-01) (2, -2.93771177530288696289e-01) (3, -1.93431660532951354980e-01) (4, -1.41902863979339599609e+00) (5, 1.01493334770202636719e+00) (6, 7.36277103424072265625e-01) (7, -1.44131457805633544922e+00) (8, 1.83230388164520263672e+00) (9, 1.12100708484649658203e+00) (10, -7.85956084728240966797e-01) (11, -4.06168192625045776367e-01) (12, 1.07420928776264190674e-01) (13, -4.42077815532684326172e-01) (14, -1.16926026344299316406e+00) (15, 1.86415576934814453125e+00) (16, 1.96470117568969726562e+00) (17, -9.70016360282897949219e-01) (18, -1.19418971240520477295e-01) (19, 2.12545537948608398438e+00) (20, -8.03202450275421142578e-01) (21, -1.83229911327362060547e+00) (22, -3.14763337373733520508e-01) (23, -6.82935118675231933594e-01) (24, -3.20331342518329620361e-02) (25, -6.68758094310760498047e-01) (26, 2.29589891433715820312e+00) (27, 6.67273700237274169922e-01) (28, -1.51902437210083007812e+00) (29, -8.08993697166442871094e-01) (30, -4.02908146381378173828e-01) (31, -3.83243054151535034180e-01) (32, 1.58693313598632812500e+00) (33, -1.25704133510589599609e+00) (34, 1.76323306560516357422e+00) (35, 1.68819057941436767578e+00) (36, -2.44060301780700683594e+00) (37, -1.47382616996765136719e+00) (38, -3.46854209899902343750e-01) (39, 3.65916728973388671875e-01) (40, -3.27335685491561889648e-01) (41, 7.62580633163452148438e-01) (42, -1.26222610473632812500e+00) (43, 1.97759580612182617188e+00) (44, -4.71902340650558471680e-01) (45, -8.10744225978851318359e-01) (46, -5.15486776828765869141e-01) (47, 6.31825447082519531250e-01) (48, 7.68793940544128417969e-01) (49, 2.61836886405944824219e-01) (50, 1.29477226734161376953e+00) (51, 1.04355812072753906250e+00) (52, 8.88695716857910156250e-01) (53, -7.40976929664611816406e-01) (54, -7.05610513687133789062e-01) (55, 1.09922647476196289062e+00) (56, 5.96844792366027832031e-01) (57, -2.40744996070861816406e+00) (58, -1.36619627475738525391e-01) (59, 7.70855903625488281250e-01) (60, 9.23739075660705566406e-01) (61, 7.77904689311981201172e-02) (62, -2.76951003074645996094e+00) (63, -1.37701225280761718750e+00) (64, -1.66660726070404052734e+00) (65, -1.36504995822906494141e+00) (66, -1.12665817141532897949e-01) (67, 1.83681416511535644531e+00) (68, 2.99139904975891113281e+00) (69, 7.12733030319213867188e-01) (70, -1.16629028320312500000e+00) (71, -2.01148605346679687500e+00) (72, 1.05454921722412109375e+00) (73, 1.05579137802124023438e+00) (74, -1.24706160277128219604e-02) (75, -1.63233113288879394531e+00) (76, -1.45582067966461181641e+00) (77, -4.37641024589538574219e-01) (78, -1.90557980537414550781e+00) (79, 5.50231456756591796875e-01) (80, 1.50349244475364685059e-01) (81, -4.90437686443328857422e-01) (82, -2.46842074394226074219e+00) (83, -4.45353776216506958008e-01) (84, -1.79688110947608947754e-02) (85, -1.74917012453079223633e-01) (86, 7.11548686027526855469e-01) (87, 2.12733769416809082031e+00) (88, -6.88301742076873779297e-01) (89, -3.79850924015045166016e-01) (90, 2.54435151815414428711e-01) (91, -3.17848116159439086914e-01) (92, 5.75010120868682861328e-01) (93, 1.99998712539672851562e+00) (94, -7.37108469009399414062e-01) (95, -2.85823047161102294922e-01) (96, 6.66890919208526611328e-01) (97, 1.23380804061889648438e+00) (98, 2.80499428510665893555e-01) (99, -1.69060480594635009766e+00) (100, 1.39744448661804199219e+00) (101, -2.22964429855346679688e+00) (102, 2.55564212799072265625e-01) (103, -1.40727353096008300781e+00) (104, -6.40825647860765457153e-03) (105, 2.65168070793151855469e+00) (106, -2.27908349037170410156e+00) (107, 1.96029841899871826172e+00) (108, 2.73893713951110839844e-01) (109, -9.27690565586090087891e-01) (110, -4.29250389337539672852e-01) (111, 9.40550982952117919922e-01) (112, 1.07184648513793945312e+00) (113, -1.40378427505493164062e+00) (114, 2.38577902317047119141e-01) (115, 3.51769536733627319336e-01) (116, 9.23913180828094482422e-01) (117, -2.74758338928222656250e+00) (118, -1.19605147838592529297e+00) (119, -9.48401808738708496094e-01) (120, -8.30500245094299316406e-01) (121, 2.82549679279327392578e-01) (122, -8.14966738224029541016e-01) (123, 5.69348260760307312012e-02) (124, 1.15967702865600585938e+00) (125, 2.21642702817916870117e-01) (126, -4.99992519617080688477e-01) (127, -5.19595384597778320312e-01) (128, 7.06213474273681640625e-01) (129, 1.19363021850585937500e+00) (130, -1.51177287101745605469e+00) (131, -1.16264784336090087891e+00) (132, 1.77542924880981445312e+00) (133, 1.53234994411468505859e+00) (134, -2.36500358581542968750e+00) (135, 2.70616817474365234375e+00) (136, 3.03567022085189819336e-01) (137, 6.28482341766357421875e-01) (138, -1.60177852958440780640e-02) (139, 5.31581789255142211914e-03) (140, 2.98747271299362182617e-01) (141, 7.83419668674468994141e-01) (142, -2.02458095550537109375e+00) (143, -1.43007123470306396484e+00) (144, 1.17960011959075927734e+00) (145, 1.43905347213149070740e-02) (146, -1.81434011459350585938e+00) (147, -3.81413817405700683594e-01) (148, 8.10160398483276367188e-01) (149, 1.43303230404853820801e-01) (150, -3.76976370811462402344e-01) (151, 1.51443436741828918457e-01) (152, -1.46278455853462219238e-01) (153, 8.71348232030868530273e-02) (154, 6.17423057556152343750e-01) (155, 2.07112282514572143555e-01) (156, -1.24133706092834472656e+00) (0, 1.59204490482807159424e-02) (1, 3.68050128221511840820e-01) (2, 4.36960272490978240967e-02) (3, 6.60811901092529296875e-01) (4, -3.01294654607772827148e-01) (5, 6.86320781707763671875e-01) (6, -2.47909501194953918457e-01) (7, -9.63722020387649536133e-02) (8, -3.51899355649948120117e-01) (9, 1.88705086708068847656e-01) (10, -4.06515985727310180664e-01) (11, 1.92557588219642639160e-01) (12, 6.36198163032531738281e-01) (13, -3.66061836481094360352e-01) (14, 3.93021583557128906250e-01) (15, 4.38460052013397216797e-01) (16, 1.73118188977241516113e-02) (17, -5.50401568412780761719e-01) (18, -6.10365867614746093750e-01) (19, -1.00888359546661376953e+00) (20, 2.00713276863098144531e-01) (21, -6.70764625072479248047e-01) (22, 5.81619918346405029297e-01) (23, 3.98931890726089477539e-01) (24, -1.27979829907417297363e-01) (25, -1.08706355094909667969e-01) (26, 1.35217770934104919434e-01) (27, 1.10001838207244873047e+00) (28, 6.47927343845367431641e-01) (29, -4.08870428800582885742e-02) (30, 4.61104393005371093750e-01) (31, 3.36749643087387084961e-01) (32, -1.26557424664497375488e-01) (33, -2.74132043123245239258e-01) (34, 9.65779304504394531250e-01) (35, 1.31886586546897888184e-01) (36, -2.60544776916503906250e-01) (37, -1.45709902048110961914e-01) (38, -4.34079170227050781250e-01) (39, 3.15788209438323974609e-01) (40, -3.32348108291625976562e-01) (41, 7.32367157936096191406e-01) (42, 4.41958039999008178711e-01) (43, -4.26393091678619384766e-01) (44, -9.98634621500968933105e-02) (45, -6.37888908386230468750e-01) (46, 7.44303345680236816406e-01) (47, 4.20235157012939453125e-01) (48, -5.54246366024017333984e-01) (49, -4.58235830068588256836e-01) (50, 3.18146497011184692383e-01) (51, -1.45267069339752197266e-01) (52, 9.85862389206886291504e-02) (53, 1.70311912894248962402e-01) (54, -1.10839617252349853516e+00) (55, 1.68220922350883483887e-01) (56, -6.63782715797424316406e-01) (57, 5.23968100547790527344e-01) (58, -4.23076868057250976562e-01) (59, 1.07826161384582519531e+00) (60, 5.09197831153869628906e-01) (61, 1.35273486375808715820e-01) (62, 4.91263955831527709961e-01) (63, -2.64494329690933227539e-01) (64, -5.07089674472808837891e-01) (65, 7.41526961326599121094e-01) (66, 1.89357046037912368774e-02) (67, 1.97615087032318115234e-01) (68, 7.00712740421295166016e-01) (69, 5.78657746315002441406e-01) (70, -3.50243657827377319336e-01) (71, 1.22709102928638458252e-01) (72, -6.24725878238677978516e-01) (73, -9.44221079349517822266e-01) (74, 1.05786728858947753906e+00) (75, 7.07865282893180847168e-02) (76, -4.23118263483047485352e-01) (77, 2.95882165431976318359e-01) (78, -3.52050870656967163086e-01) (79, 4.16395336389541625977e-01) (80, 1.44727723672986030579e-02) (81, -8.02293121814727783203e-01) (82, -5.95305502414703369141e-01) (83, -1.14455118775367736816e-01) (84, 7.92723059654235839844e-01) (85, -6.78580641746520996094e-01) (86, -2.31174156069755554199e-01) (87, 1.24033403396606445312e+00) (88, -6.86155736446380615234e-01) (89, -5.16746222972869873047e-01) (90, 5.95508992671966552734e-01) (91, 1.42207473516464233398e-01) (92, -4.69886749982833862305e-01) (93, 5.83641767501831054688e-01) (94, -3.69276732206344604492e-01) (95, -2.73497924208641052246e-02) (96, 1.99345514178276062012e-01) (97, 4.77410927414894104004e-02) (98, -1.31988465785980224609e-01) (99, -3.34656804800033569336e-01) (100, -2.18229979276657104492e-01) (101, 2.52418041229248046875e-01) (102, 4.38153654336929321289e-01) (103, -5.69828152656555175781e-01) (104, 7.46299559250473976135e-03) (105, 7.92920172214508056641e-01) (106, 7.69923567771911621094e-01) (107, -1.90624237060546875000e-01) (108, 6.38074100017547607422e-01) (109, 6.64542138576507568359e-01) (110, -1.36029779911041259766e+00) (111, -1.79294124245643615723e-01) (112, -4.70927000045776367188e-01) (113, -1.42522037029266357422e-01) (114, 6.52130879461765289307e-03) (115, 4.96866762638092041016e-01) (116, -5.12957990169525146484e-01) (117, -7.84178078174591064453e-02) (118, -4.88762021064758300781e-01) (119, -5.48578679561614990234e-01) (120, -5.10247766971588134766e-01) (121, 1.37625917792320251465e-01) (122, 2.68105626106262207031e-01) (123, -5.94170153141021728516e-01) (124, 1.04135014116764068604e-01) (125, 3.75939071178436279297e-01) (126, 6.47460341453552246094e-01) (127, -7.60731875896453857422e-01) (128, -2.49315336346626281738e-01) (129, -6.02391839027404785156e-01) (130, -4.43135261535644531250e-01) (131, 1.08570027351379394531e+00) (132, 4.09096598625183105469e-01) (133, -2.97163367271423339844e-01) (134, -4.52308319509029388428e-02) (135, -6.05271697044372558594e-01) (136, -2.49474391341209411621e-01) (137, 7.00621306896209716797e-01) (138, 3.69250625371932983398e-01) (139, -2.29519918560981750488e-01) (140, 5.55924952030181884766e-01) (141, 8.30007135868072509766e-01) (142, -3.67597579956054687500e-01) (143, -4.98784065246582031250e-01) (144, -3.48984122276306152344e-01) (145, 6.20207786560058593750e-01) (146, -2.76180375367403030396e-02) (147, 1.07015237212181091309e-01) (148, -1.12256489694118499756e-01) (149, -1.03898262977600097656e+00) (150, 2.26491272449493408203e-01) (151, -2.09698498249053955078e-01) (152, -2.65920132398605346680e-01) (153, -2.44497403502464294434e-01) (154, 1.13123846054077148438e+00) (155, 1.03550165891647338867e-01) (156, -1.44562327861785888672e+00) (0, 1.02229678630828857422e+00) (1, -2.39621877670288085938e+00) (2, -1.23450279235839843750e+00) (3, -9.37684297561645507812e-01) (4, 5.90897023677825927734e-01) (5, 1.63382899761199951172e+00) (6, -8.91315579414367675781e-01) (7, 8.07661294937133789062e-01) (8, 4.08700518310070037842e-02) (9, 3.80483567714691162109e-01) (10, 5.57702183723449707031e-01) (11, -8.22144567966461181641e-01) (12, 3.79053306579589843750e+00) (13, -4.16200250387191772461e-01) (14, 1.45832622051239013672e+00) (15, 7.63057023286819458008e-02) (16, 3.79023790359497070312e-01) (17, -5.25749981403350830078e-01) (18, 1.00086510181427001953e+00) (19, 8.67213010787963867188e-01) (20, -5.07591485977172851562e-01) (21, -1.34443783760070800781e+00) (22, 5.43538570404052734375e-01) (23, 5.82077443599700927734e-01) (24, -4.13758128881454467773e-01) (25, 1.31489241123199462891e+00) (26, 2.68966704607009887695e-01) (27, 1.41980141401290893555e-01) (28, -1.03424441814422607422e+00) (29, -3.39973121881484985352e-02) (30, -4.33593243360519409180e-01) (31, -9.84751641750335693359e-01) (32, -1.64850306510925292969e+00) (33, 9.29017186164855957031e-01) (34, -3.53861838579177856445e-01) (35, -7.80810236930847167969e-01) (36, 8.47311198711395263672e-01) (37, 6.23872280120849609375e-01) (38, -1.77722358703613281250e+00) (39, 6.10261499881744384766e-01) (40, 2.69029468297958374023e-01) (41, 1.73876488208770751953e+00) (42, -9.57813799381256103516e-01) (43, -4.17388200759887695312e-01) (44, -6.74552083015441894531e-01) (45, 6.78554952144622802734e-01) (46, 1.35154187679290771484e+00) (47, -2.78766721487045288086e-01) (48, 6.20583355426788330078e-01) (49, 3.00234377384185791016e-01) (50, -1.84618449211120605469e+00) (51, -2.41929411888122558594e-01) (52, 6.15739643573760986328e-01) (53, -9.17815029621124267578e-01) (54, -9.06218528747558593750e-01) (55, -4.23785239458084106445e-01) (56, 4.23743754625320434570e-01) (57, 6.66919231414794921875e-01) (58, -1.92235279083251953125e+00) (59, 1.47798895835876464844e+00) (60, -2.46230769157409667969e+00) (61, -7.74405539035797119141e-01) (62, -3.09750348329544067383e-01) (63, 3.26431363821029663086e-01) (64, 8.74527543783187866211e-02) (65, -1.80698558688163757324e-02) (66, 8.67747783660888671875e-01) (67, -1.74957191944122314453e+00) (68, -2.24718615412712097168e-01) (69, -1.28909718990325927734e+00) (70, 4.65531885623931884766e-01) (71, 3.74914288520812988281e-01) (72, 2.18097972869873046875e+00) (73, 1.39404809474945068359e+00) (74, 2.33372509479522705078e-01) (75, 9.18986141681671142578e-01) (76, 4.03339922428131103516e-01) (77, 4.03885573148727416992e-01) (78, 3.29459011554718017578e-01) (79, 8.25830399990081787109e-01) (80, -8.81143689155578613281e-01) (81, 9.54693913459777832031e-01) (82, 3.27553808689117431641e-01) (83, 2.90284371376037597656e+00) (84, -1.10919809341430664062e+00) (85, -7.84414708614349365234e-01) (86, -2.81879931688308715820e-01) (87, -1.00426030158996582031e+00) (88, -1.77638620138168334961e-01) (89, 1.20793902873992919922e+00) (90, -6.98467493057250976562e-01) (91, 1.13843631744384765625e+00) (92, -9.79630351066589355469e-01) (93, -5.72750508785247802734e-01) (94, -1.04812622070312500000e-01) (95, -9.57753121852874755859e-01) (96, -6.92005380988121032715e-02) (97, 1.42826807498931884766e+00) (98, 1.72330844402313232422e+00) (99, -2.00659346580505371094e+00) (100, -8.64833891391754150391e-01) (101, -3.30221623182296752930e-01) (102, 1.97302675247192382812e+00) (103, -9.66155052185058593750e-01) (104, 3.68548083305358886719e+00) (105, 2.82340705394744873047e-01) (106, 6.71562373638153076172e-01) (107, 2.82781064510345458984e-01) (108, 9.18257117271423339844e-01) (109, -9.04793560504913330078e-01) (110, -2.76615083217620849609e-01) (111, -8.16050529479980468750e-01) (112, 1.19965866208076477051e-01) (113, -2.80223369598388671875e-01) (114, -5.87737560272216796875e-01) (115, -1.12882959842681884766e+00) (116, -6.83135211467742919922e-01) (117, -6.35704576969146728516e-01) (118, -6.45052254199981689453e-01) (119, -7.99376308917999267578e-01) (120, 3.83331120014190673828e-01) (121, 3.98547351360321044922e-01) (122, -2.03175544738769531250e-01) (123, -3.41453403234481811523e-02) (124, 1.38386473059654235840e-01) (125, -5.97258687019348144531e-01) (126, 8.45479071140289306641e-01) (127, 1.05182476341724395752e-01) (128, 3.30990761518478393555e-01) (129, -5.74361622333526611328e-01) (130, 3.40902477502822875977e-01) (131, 7.23100364208221435547e-01) (132, 4.90896552801132202148e-01) (133, -8.11948835849761962891e-01) (134, -4.53466296195983886719e-01) (135, -8.15804541110992431641e-01) (136, -5.01832425594329833984e-01) (137, 8.12573552131652832031e-01) (138, -1.66309311985969543457e-01) (139, -1.23570549488067626953e+00) (140, -1.12020619213581085205e-01) (141, 5.64402639865875244141e-01) (142, 2.05864214897155761719e+00) (143, 3.21727871894836425781e-01) (144, -1.61540895700454711914e-01) (145, -3.00347566604614257812e-01) (146, -2.45805191993713378906e+00) (147, -2.88450092077255249023e-01) (148, 3.53604644536972045898e-01) (149, -1.57143580913543701172e+00) (150, -4.47483211755752563477e-01) (151, -8.44078600406646728516e-01) (152, -7.57681310176849365234e-01) (153, -1.45946398377418518066e-01) (154, 1.06115674972534179688e+00) (155, 1.08389675617218017578e+00) (156, -1.69686102867126464844e+00) (0, 4.26002293825149536133e-01) (1, -1.03074383735656738281e+00) (2, -2.11853027343750000000e-01) (3, -4.15701925754547119141e-01) (4, -9.16303634643554687500e-01) (5, -1.65058653801679611206e-02) (6, -1.49476158618927001953e+00) (7, -6.71740174293518066406e-02) (8, 2.03306365013122558594e+00) (9, 4.00462329387664794922e-01) (10, 2.44243532419204711914e-01) (11, -1.13430118560791015625e+00) (12, -1.12236380577087402344e-01) (13, -1.75778400897979736328e+00) (14, 2.18537068367004394531e+00) (15, -4.35613840818405151367e-01) (16, 2.16748738288879394531e+00) (17, 7.09893286228179931641e-01) (18, 9.04194712638854980469e-01) (19, 4.43484812974929809570e-01) (20, -4.76815462112426757812e-01) (21, -1.27435624599456787109e+00) (22, -1.10483908653259277344e+00) (23, 3.92281740903854370117e-01) (24, 9.07069802284240722656e-01) (25, 9.20224249362945556641e-01) (26, -1.41178458929061889648e-01) (27, -1.10881721973419189453e+00) (28, -5.28988718986511230469e-01) (29, 1.19142389297485351562e+00) (30, 1.44512712955474853516e+00) (31, 2.19529289752244949341e-02) (32, 1.95667898654937744141e+00) (33, 2.30107363313436508179e-02) (34, 1.69569206237792968750e+00) (35, -5.00738739967346191406e-01) (36, 3.84348183870315551758e-01) (37, -1.78856372833251953125e+00) (38, 8.18430244922637939453e-01) (39, -2.86176502704620361328e-01) (40, -5.60927689075469970703e-01) (41, 1.43074348568916320801e-01) (42, -1.73242092132568359375e-01) (43, -1.50263190269470214844e+00) (44, 1.10797631740570068359e+00) (45, -1.19596058502793312073e-02) (46, -1.80882239341735839844e+00) (47, -2.25316673517227172852e-01) (48, -1.19161033630371093750e+00) (49, 3.86998265981674194336e-01) (50, 4.15482670068740844727e-02) (51, -9.87213850021362304688e-01) (52, -2.43333005905151367188e+00) (53, 8.54115009307861328125e-01) (54, -9.77827072143554687500e-01) (55, 8.06186020374298095703e-01) (56, 1.45454478263854980469e+00) (57, 3.51627200841903686523e-01) (58, -1.02301800251007080078e+00) (59, 1.42412221431732177734e+00) (60, 1.45513042807579040527e-01) (61, -9.22869741916656494141e-01) (62, 2.94569820165634155273e-01) (63, 2.22200202941894531250e+00) (64, -8.34102988243103027344e-01) (65, -1.21150064468383789062e+00) (66, 6.21766567230224609375e-01) (67, 3.89307647943496704102e-01) (68, -8.86393070220947265625e-01) (69, -1.15314018726348876953e+00) (70, -1.86485409736633300781e+00) (71, 8.94050657749176025391e-01) (72, -7.42439985275268554688e-01) (73, 3.64591449499130249023e-01) (74, 6.69473648071289062500e-01) (75, -3.78774076700210571289e-01) (76, -2.01960146427154541016e-01) (77, -1.08430171012878417969e+00) (78, 4.17138487100601196289e-01) (79, 7.79403865337371826172e-01) (80, -6.12551271915435791016e-01) (81, 4.98910695314407348633e-01) (82, 6.25205457210540771484e-01) (83, 3.72899949550628662109e-01) (84, -5.69829940795898437500e-01) (85, -7.90951848030090332031e-01) (86, 2.15082570910453796387e-01) (87, 1.14824318885803222656e+00) (88, 9.70510840415954589844e-01) (89, 5.99602639675140380859e-01) (90, 2.03179195523262023926e-01) (91, -7.42825150489807128906e-01) (92, 4.64692950248718261719e-01) (93, 1.12348103523254394531e+00) (94, 3.99495661258697509766e-01) (95, 1.28738319873809814453e+00) (96, 6.63776934146881103516e-01) (97, -1.87636036425828933716e-02) (98, -3.30776095390319824219e-01) (99, -1.67200231552124023438e+00) (100, 4.78689670562744140625e-01) (101, -8.19657623767852783203e-01) (102, -6.21503472328186035156e-01) (103, -1.00030995905399322510e-01) (104, 1.37915909290313720703e-01) (105, 4.90453213453292846680e-01) (106, -3.29719209671020507812e+00) (107, -9.08566355705261230469e-01) (108, 2.49476626515388488770e-01) (109, -8.15744757652282714844e-01) (110, -6.92992568016052246094e-01) (111, 1.26041388511657714844e+00) (112, -5.23359179496765136719e-01) (113, 2.21944868564605712891e-01) (114, -5.26612460613250732422e-01) (115, 1.99482992291450500488e-01) (116, 9.52356815338134765625e-01) (117, -4.91629183292388916016e-01) (118, -3.53814989328384399414e-01) (119, 2.13417482376098632812e+00) (120, -2.03607469797134399414e-01) (121, -2.87566423416137695312e-01) (122, -1.28022193908691406250e+00) (123, -2.10431888699531555176e-01) (124, -1.05098080635070800781e+00) (125, -4.77922827005386352539e-01) (126, 3.31392586231231689453e-01) (127, -1.60461068153381347656e+00) (128, 2.42290645837783813477e-01) (129, 4.01384890079498291016e-01) (130, 1.13637304306030273438e+00) (131, -1.21428632736206054688e+00) (132, -1.82462084293365478516e+00) (133, 5.42078256607055664062e-01) (134, -1.38263273239135742188e+00) (135, 2.03291326761245727539e-01) (136, 1.23992836475372314453e+00) (137, 2.61686351150274276733e-02) (138, 5.80964565277099609375e-01) (139, -1.05156433582305908203e+00) (140, -6.48209266364574432373e-03) (141, 6.05663537979125976562e-01) (142, 8.38593959808349609375e-01) (143, 1.22110486030578613281e+00) (144, 1.36192822456359863281e+00) (145, 9.83071386814117431641e-01) (146, 4.38481360673904418945e-01) (147, -1.39094665646553039551e-02) (148, 8.15886080265045166016e-01) (149, -5.61255276203155517578e-01) (150, -2.93798148632049560547e-01) (151, 3.21044087409973144531e-01) (152, -4.38608914613723754883e-01) (153, -5.10076761245727539062e-01) (154, 7.50502943992614746094e-01) (155, 3.98855298757553100586e-01) (156, -2.07315135002136230469e+00) (0, -3.14573228359222412109e-01) (1, 1.16976857185363769531e+00) (2, -2.05488348007202148438e+00) (3, -7.39948526024818420410e-02) (4, -2.24016046524047851562e+00) (5, -1.29131329059600830078e+00) (6, 3.23981833457946777344e+00) (7, -2.02155423164367675781e+00) (8, -6.67859673500061035156e-01) (9, -2.13952556252479553223e-01) (10, 1.73016214370727539062e+00) (11, 1.94579172134399414062e+00) (12, 3.09104956686496734619e-02) (13, 1.40275880694389343262e-01) (14, -3.85392755270004272461e-01) (15, 1.12326872348785400391e+00) (16, -1.65877318382263183594e+00) (17, -1.80054199695587158203e+00) (18, -1.19511973857879638672e+00) (19, 8.14998805522918701172e-01) (20, 8.16125690937042236328e-01) (21, 4.09771680831909179688e+00) (22, 1.81782090663909912109e+00) (23, 9.80924546718597412109e-01) (24, -4.11425161361694335938e+00) (25, -1.89747512340545654297e+00) (26, -4.54913228750228881836e-01) (27, -4.04516410827636718750e+00) (28, 1.38797140121459960938e+00) (29, -3.78135538101196289062e+00) (30, 4.09163761138916015625e+00) (31, 1.61844050884246826172e+00) (32, -3.18197393417358398438e+00) (33, 1.04994428157806396484e+00) (34, -4.06020253896713256836e-01) (35, -2.87931561470031738281e-01) (36, -1.20814001560211181641e+00) (37, 7.05542743206024169922e-01) (38, 1.18664109706878662109e+00) (39, -3.69701743125915527344e+00) (40, 1.55438208580017089844e+00) (41, 3.01978421211242675781e+00) (42, -1.11061835289001464844e+00) (43, -1.42068338394165039062e+00) (44, -2.67318344116210937500e+00) (45, -1.74993741512298583984e+00) (46, -1.27227872610092163086e-01) (47, 3.14299726486206054688e+00) (48, -1.03113234043121337891e+00) (49, -4.79323893785476684570e-01) (50, -1.23911666870117187500e+00) (51, -1.29853820800781250000e+00) (52, 3.33107328414916992188e+00) (53, -1.23453378677368164062e+00) (54, -9.45924937725067138672e-01) (55, -2.07710814476013183594e+00) (56, 1.22567033767700195312e+00) (57, -1.22835859656333923340e-01) (58, 1.15049290657043457031e+00) (59, 6.55587673187255859375e-01) (60, 4.64103519916534423828e-01) (61, 1.74540805816650390625e+00) (62, -1.28977143764495849609e+00) (63, -6.74160420894622802734e-02) (64, -7.07151234149932861328e-01) (65, -1.31512761116027832031e+00) (66, 1.14447700977325439453e+00) (67, -1.72657907009124755859e+00) (68, -4.71627414226531982422e-01) (69, 8.25916945934295654297e-01) (70, -2.88415133953094482422e-01) (71, 1.29724994301795959473e-01) (72, 3.44566255807876586914e-01) (73, 6.60950124263763427734e-01) (74, 3.28335464000701904297e-01) (75, -7.45688319206237792969e-01) (76, -5.02091646194458007812e-01) (77, 2.34712457656860351562e+00) (78, -1.28990495204925537109e+00) (79, 1.12117302417755126953e+00) (80, 5.02579307556152343750e+00) (81, 1.40613389015197753906e+00) (82, -1.60061025619506835938e+00) (83, -3.44501996040344238281e+00) (84, -1.41607785224914550781e+00) (85, -2.20954596996307373047e-01) (86, -1.31062757968902587891e+00) (87, 7.86326229572296142578e-01) (88, 1.05275404453277587891e+00) (89, -1.44009768962860107422e+00) (90, -1.66141343116760253906e+00) (91, 2.21769142150878906250e+00) (92, 2.49833440780639648438e+00) (93, 3.27351570129394531250e+00) (94, -1.36610949039459228516e+00) (95, 1.12469470500946044922e+00) (96, -3.51317286491394042969e+00) (97, 9.29098784923553466797e-01) (98, -3.86093199253082275391e-01) (99, 5.01598358154296875000e+00) (100, -2.76723766326904296875e+00) (101, 3.60913610458374023438e+00) (102, -1.90444064140319824219e+00) (103, 2.58829855918884277344e+00) (104, -4.86503982543945312500e+00) (105, -1.64332449436187744141e+00) (106, 1.16956043243408203125e+00) (107, -2.49952769279479980469e+00) (108, 2.88380146026611328125e+00) (109, 1.10209941864013671875e-01) (110, -1.32799118757247924805e-01) (111, -2.70420336723327636719e+00) (112, -7.44018495082855224609e-01) (113, -2.40789866447448730469e+00) (114, -1.17191386222839355469e+00) (115, -2.91681289672851562500e-01) (116, -1.29772901535034179688e+00) (117, 4.93271321058273315430e-01) (118, -1.35684406757354736328e+00) (119, 1.59186315536499023438e+00) (120, -1.11019945144653320312e+00) (121, 2.40508842468261718750e+00) (122, 1.14077121019363403320e-01) (123, -1.35802328586578369141e+00) (124, 3.66989850997924804688e+00) (125, -4.37317222356796264648e-01) (126, 2.00731888413429260254e-01) (127, -6.03865265846252441406e-01) (128, -2.75732994079589843750e+00) (129, -2.27293252944946289062e+00) (130, 1.03169941902160644531e+00) (131, -1.54470002651214599609e+00) (132, -1.40668916702270507812e+00) (133, 1.48694968223571777344e+00) (134, -3.91872197389602661133e-01) (135, -2.88260817527770996094e+00) (136, 1.07606612145900726318e-02) (137, 5.96991240978240966797e-01) (138, 2.29488313198089599609e-01) (139, -3.44934761524200439453e-01) (140, 3.44814538955688476562e-01) (141, 1.66086781024932861328e+00) (142, 1.07723791152238845825e-02) (143, 2.41947722434997558594e+00) (144, -2.74077558517456054688e+00) (145, 9.97839033603668212891e-01) (146, -1.67385959625244140625e+00) (147, 4.63205799460411071777e-02) (148, 8.73876273632049560547e-01) (149, -1.26978307962417602539e-01) (150, 1.99903756380081176758e-01) (151, 4.41466450691223144531e-01) (152, -2.69670277833938598633e-01) (153, 2.47674554586410522461e-01) (154, 5.48519343137741088867e-02) (155, 9.56463456153869628906e-01) (156, -1.06020569801330566406e+00) (0, 3.30705672502517700195e-01) (1, 3.43378692865371704102e-01) (2, -1.46417748928070068359e+00) (3, -3.47903937101364135742e-01) (4, 4.22129452228546142578e-01) (5, -1.30030274391174316406e+00) (6, -1.59932136535644531250e+00) (7, 2.68305659294128417969e-01) (8, 6.75538182258605957031e-01) (9, 1.24255967140197753906e+00) (10, -1.13221347332000732422e+00) (11, -9.35900151729583740234e-01) (12, -4.52863216400146484375e-01) (13, -2.27987825870513916016e-01) (14, 4.44562524557113647461e-01) (15, -1.00274646282196044922e+00) (16, 6.79420605301856994629e-02) (17, -1.08711647987365722656e+00) (18, 8.92938852310180664062e-01) (19, 4.18372809886932373047e-01) (20, 2.45186924934387207031e-01) (21, 8.28372418880462646484e-01) (22, 1.79940736293792724609e+00) (23, -1.58465790748596191406e+00) (24, -1.21114954352378845215e-01) (25, -2.29330569505691528320e-01) (26, 1.46618974208831787109e+00) (27, -1.72168202698230743408e-02) (28, 7.91694998741149902344e-01) (29, 1.59055244922637939453e+00) (30, -1.30115389823913574219e+00) (31, 1.08485519886016845703e+00) (32, 9.79914963245391845703e-01) (33, -1.34553956985473632812e+00) (34, 1.16145551204681396484e+00) (35, 1.42397344112396240234e+00) (36, -1.78895807266235351562e+00) (37, -2.56573949009180068970e-02) (38, -5.52851200103759765625e-01) (39, -5.83432614803314208984e-02) (40, -2.30999495834112167358e-02) (41, 1.05592322349548339844e+00) (42, 4.70133692026138305664e-01) (43, -3.52028936147689819336e-01) (44, 6.91514611244201660156e-01) (45, -1.88207447528839111328e-01) (46, -2.53691643476486206055e-01) (47, -8.61894190311431884766e-02) (48, -5.53233206272125244141e-01) (49, -2.87292599678039550781e-01) (50, -1.69563367962837219238e-01) (51, -2.93392956256866455078e-01) (52, 5.77897489070892333984e-01) (53, 5.29054403305053710938e-01) (54, -1.12890589237213134766e+00) (55, 6.40665173530578613281e-01) (56, 3.70533853769302368164e-01) (57, -4.23612534999847412109e-01) (58, -1.56270369887351989746e-01) (59, 6.94724023342132568359e-01) (60, -2.88543514907360076904e-02) (61, 6.54754579067230224609e-01) (62, 3.27835679054260253906e-01) (63, -2.28307530283927917480e-01) (64, 3.63706171512603759766e-01) (65, -9.54392552375793457031e-01) (66, 1.34119272232055664062e+00) (67, -1.28431826829910278320e-01) (68, 8.03148746490478515625e-03) (69, -1.57369804382324218750e+00) (70, 1.12245941162109375000e+00) (71, 1.16864390671253204346e-01) (72, 1.40831196308135986328e+00) (73, 5.36983013153076171875e-01) (74, 1.59896922111511230469e+00) (75, -9.80198979377746582031e-01) (76, 8.04367482662200927734e-01) (77, -6.96322202682495117188e-01) (78, 5.79350948333740234375e-01) (79, -2.84345000982284545898e-01) (80, -1.37245818972587585449e-01) (81, 1.77902805805206298828e+00) (82, 1.15488126873970031738e-01) (83, 1.29202282428741455078e+00) (84, 9.40022945404052734375e-01) (85, -1.06591343879699707031e+00) (86, 7.03765153884887695312e-01) (87, 5.77542245388031005859e-01) (88, -1.85939431190490722656e+00) (89, -1.37020611763000488281e+00) (90, 4.47086006402969360352e-01) (91, 4.94346857070922851562e-01) (92, 2.53042280673980712891e-01) (93, -7.98563510179519653320e-02) (94, -1.52009114623069763184e-01) (95, 6.90047442913055419922e-02) (96, -1.28879082202911376953e+00) (97, -3.65192830562591552734e-01) (98, -9.51555311679840087891e-01) (99, -8.98427605628967285156e-01) (100, -1.81060838699340820312e+00) (101, -3.66692721843719482422e-01) (102, 8.24920609593391418457e-02) (103, -7.91004955768585205078e-01) (104, -8.27801585197448730469e-01) (105, 3.60474228858947753906e-01) (106, -9.53527569770812988281e-01) (107, 5.36085188388824462891e-01) (108, -3.68961572647094726562e-01) (109, 9.57447826862335205078e-01) (110, 4.96723264455795288086e-01) (111, 8.18779319524765014648e-02) (112, 1.47758293151855468750e+00) (113, 1.30214428901672363281e+00) (114, 6.93876266479492187500e-01) (115, -4.74171936511993408203e-01) (116, 1.62345170974731445312e-01) (117, -7.83501982688903808594e-01) (118, -1.50665342807769775391e-02) (119, -9.36413481831550598145e-02) (120, -1.09139454364776611328e+00) (121, -1.02766048908233642578e+00) (122, -1.44703340530395507812e+00) (123, -1.63827463984489440918e-01) (124, 7.18197345733642578125e-01) (125, 2.89580315351486206055e-01) (126, 8.13418999314308166504e-02) (127, -1.90730440616607666016e+00) (128, -1.20455384254455566406e+00) (129, -1.53051435947418212891e+00) (130, -1.88883185386657714844e-01) (131, 7.90989458560943603516e-01) (132, 1.58362722396850585938e+00) (133, 1.06105720996856689453e+00) (134, -2.10357022285461425781e+00) (135, 3.96363526582717895508e-01) (136, 8.61445307731628417969e-01) (137, 9.64165329933166503906e-01) (138, 1.84878483414649963379e-01) (139, -4.15970951318740844727e-01) (140, 1.74606204032897949219e-01) (141, -1.38866078853607177734e+00) (142, 1.78462155163288116455e-02) (143, 1.65070280432701110840e-01) (144, -1.41950356960296630859e+00) (145, -1.02552163600921630859e+00) (146, -2.72589385509490966797e-01) (147, 5.71819581091403961182e-02) (148, 6.82083606719970703125e-01) (149, -1.87910854816436767578e-01) (150, -5.65452992916107177734e-01) (151, -6.02737128734588623047e-01) (152, -1.34280517697334289551e-01) (153, -3.38133066892623901367e-01) (154, 4.95138019323348999023e-02) (155, 1.01276326179504394531e+00) (156, -5.90111732482910156250e-01) (0, 1.02311754226684570312e+00) (1, 1.09084975719451904297e+00) (2, 8.88077020645141601562e-01) (3, -1.06149172782897949219e+00) (4, 6.16518199443817138672e-01) (5, -5.26442825794219970703e-01) (6, 1.22075963020324707031e+00) (7, 3.51701341569423675537e-02) (8, 8.04153203964233398438e-01) (9, 8.03911387920379638672e-01) (10, 5.63553333282470703125e-01) (11, 1.13448083400726318359e+00) (12, -6.03534460067749023438e-01) (13, 1.09051816165447235107e-01) (14, 7.63930559158325195312e-01) (15, 1.27166068553924560547e+00) (16, -6.15600086748600006104e-02) (17, 3.62465649843215942383e-01) (18, 7.62904703617095947266e-01) (19, -4.86018687486648559570e-01) (20, 3.95667701959609985352e-01) (21, -3.68319511413574218750e-01) (22, 5.82836627960205078125e-01) (23, -1.59326684474945068359e+00) (24, 2.62474954128265380859e-01) (25, 1.22596180438995361328e+00) (26, 6.13662302494049072266e-01) (27, 3.48033100366592407227e-01) (28, 1.11880218982696533203e+00) (29, -1.55225902795791625977e-01) (30, 7.20493078231811523438e-01) (31, 5.99227428436279296875e-01) (32, -1.25377845764160156250e+00) (33, -9.34530079364776611328e-01) (34, 3.46840798854827880859e-01) (35, 1.10666716098785400391e+00) (36, 1.01280450820922851562e+00) (37, 2.84682005643844604492e-01) (38, 4.69212502241134643555e-01) (39, -6.71731352806091308594e-01) (40, 4.69766199588775634766e-01) (41, 3.42677563428878784180e-01) (42, 1.52864456176757812500e-01) (43, 1.59342885017395019531e-01) (44, -7.23795294761657714844e-01) (45, 1.12742260098457336426e-01) (46, -6.39152288436889648438e-01) (47, 4.80755418539047241211e-01) (48, 1.09464502334594726562e+00) (49, 1.21941936016082763672e+00) (50, -3.77084195613861083984e-01) (51, 8.70686292648315429688e-01) (52, 3.11634212732315063477e-01) (53, 2.66136348247528076172e-01) (54, 2.95108765363693237305e-01) (55, 7.51637935638427734375e-01) (56, 9.37618553638458251953e-01) (57, -6.89232647418975830078e-01) (58, 1.90908074378967285156e+00) (59, 4.01656121015548706055e-01) (60, 1.10122907161712646484e+00) (61, -5.06548345088958740234e-01) (62, -8.68186429142951965332e-02) (63, -5.22494971752166748047e-01) (64, 2.10911273956298828125e-01) (65, 6.20553314685821533203e-01) (66, -5.58868587017059326172e-01) (67, -1.44511485099792480469e+00) (68, 9.02785599231719970703e-01) (69, -1.03053122758865356445e-01) (70, 3.37734907865524291992e-01) (71, 3.09301614761352539062e-01) (72, 1.03425537236034870148e-03) (73, 2.80578341335058212280e-02) (74, 1.39789879322052001953e+00) (75, -7.76235312223434448242e-02) (76, 7.94870313256978988647e-03) (77, -2.39940479397773742676e-01) (78, -5.39107434451580047607e-02) (79, 4.51734691858291625977e-01) (80, 1.39406287670135498047e+00) (81, 2.50562150031328201294e-02) (82, 1.14745450019836425781e+00) (83, 9.12752330303192138672e-01) (84, 1.18538248538970947266e+00) (85, 7.82309710979461669922e-01) (86, 6.29348695278167724609e-01) (87, -3.30416738986968994141e-01) (88, -9.15103197097778320312e-01) (89, -6.06190145015716552734e-01) (90, 1.09373956918716430664e-01) (91, -1.48183986544609069824e-01) (92, -4.63143326342105865479e-02) (93, -5.19357800483703613281e-01) (94, -6.80614054203033447266e-01) (95, 9.18023109436035156250e-01) (96, -8.07517230510711669922e-01) (97, -4.66872006654739379883e-01) (98, 9.98254895210266113281e-01) (99, 6.34590625762939453125e-01) (100, 1.03242933750152587891e+00) (101, -9.21506404876708984375e-01) (102, 1.08532719314098358154e-01) (103, -3.47641110420227050781e-01) (104, -1.19886362552642822266e+00) (105, -1.08791351318359375000e-01) (106, 7.29911804199218750000e-01) (107, -1.75147026777267456055e-01) (108, 1.47522294521331787109e+00) (109, -1.25316351652145385742e-01) (110, 1.33493506908416748047e+00) (111, -3.41929763555526733398e-01) (112, -3.39658409357070922852e-01) (113, -4.20839786529541015625e-01) (114, 4.60554301738739013672e-01) (115, 2.48350482434034347534e-02) (116, -4.85192358493804931641e-01) (117, 1.85119318962097167969e+00) (118, 5.41499137878417968750e-01) (119, 1.23100340366363525391e-01) (120, -5.12024819850921630859e-01) (121, 8.42253506183624267578e-01) (122, 3.37423145771026611328e-01) (123, 6.09086275100708007812e-01) (124, -6.07193171977996826172e-01) (125, 3.35815064609050750732e-02) (126, 2.02586174011230468750e-01) (127, 1.41361379623413085938e+00) (128, 5.24312078952789306641e-01) (129, 6.07524812221527099609e-01) (130, 1.17474174499511718750e+00) (131, 1.11030876636505126953e+00) (132, 9.28154468536376953125e-01) (133, 1.26205313205718994141e+00) (134, 1.07868969440460205078e-01) (135, 6.89494609832763671875e-02) (136, -1.21067094802856445312e+00) (137, 2.01034381985664367676e-01) (138, 5.86086869239807128906e-01) (139, -4.88869816064834594727e-01) (140, 9.41702306270599365234e-01) (141, 1.04661905765533447266e+00) (142, 6.30361065268516540527e-02) (143, 7.34467983245849609375e-01) (144, -8.59333217144012451172e-01) (145, -9.03401076793670654297e-01) (146, -1.52042508125305175781e-01) (147, 2.04981374554336071014e-03) (148, 6.60471320152282714844e-01) (149, -1.40835389494895935059e-01) (150, 6.31896913051605224609e-01) (151, -3.59224796295166015625e-01) (152, 3.72977107763290405273e-01) (153, 3.80429923534393310547e-01) (154, 6.62175774574279785156e-01) (155, 8.92501890659332275391e-01) (156, -1.54121029376983642578e+00) (0, 2.44044709205627441406e+00) (1, 7.93244600296020507812e+00) (2, -3.76722812652587890625e+00) (3, 5.02178192138671875000e+00) (4, -2.97188997268676757812e+00) (5, -1.34432756900787353516e+00) (6, 4.30322360992431640625e+00) (7, -1.51394093036651611328e+00) (8, -2.75277805328369140625e+00) (9, 2.75623059272766113281e+00) (10, -3.21348857879638671875e+00) (11, -2.45042395591735839844e+00) (12, 6.98068094253540039062e+00) (13, -2.71633958816528320312e+00) (14, -5.02051019668579101562e+00) (15, 7.26797342300415039062e-01) (16, 1.55648678541183471680e-01) (17, 1.98747587203979492188e+00) (18, 2.10453724861145019531e+00) (19, 1.55673313140869140625e+00) (20, 6.16878867149353027344e-01) (21, -1.01216924190521240234e+00) (22, -4.97467851638793945312e+00) (23, -3.37280988693237304688e+00) (24, -2.13667845726013183594e+00) (25, 1.91606581211090087891e+00) (26, -1.27801504135131835938e+01) (27, -1.16706199944019317627e-01) (28, -8.26183736324310302734e-01) (29, 3.07139468193054199219e+00) (30, -3.72479653358459472656e+00) (31, 5.75047922134399414062e+00) (32, -2.07373738288879394531e+00) (33, 2.82045745849609375000e+00) (34, 1.00107312202453613281e+00) (35, -3.60715055465698242188e+00) (36, 2.97136640548706054688e+00) (37, 3.17563819885253906250e+00) (38, -1.10028398036956787109e+00) (39, -9.68139946460723876953e-01) (40, -5.76661396026611328125e+00) (41, -7.10588276386260986328e-01) (42, 4.33247447013854980469e-01) (43, -2.92812317609786987305e-01) (44, -4.03030252456665039062e+00) (45, -4.91936397552490234375e+00) (46, -5.16386985778808593750e-01) (47, -9.98858833312988281250e+00) (48, -4.55962324142456054688e+00) (49, 3.43726801872253417969e+00) (50, 3.26283240318298339844e+00) (51, -1.63819313049316406250e+00) (52, 2.30431228876113891602e-01) (53, -1.75956499576568603516e+00) (54, 6.28806591033935546875e+00) (55, 3.15301012992858886719e+00) (56, -4.86484575271606445312e+00) (57, -2.68559551239013671875e+00) (58, -1.28470969200134277344e+00) (59, -1.65343260765075683594e+00) (60, 3.52209389209747314453e-01) (61, 2.95634603500366210938e+00) (62, -6.12142848968505859375e+00) (63, 3.40071648359298706055e-01) (64, 2.73680591583251953125e+00) (65, 4.22916841506958007812e+00) (66, -2.37144494056701660156e+00) (67, -2.37133193016052246094e+00) (68, -1.12647008895874023438e+00) (69, 9.70395132899284362793e-02) (70, -5.55537509918212890625e+00) (71, -3.32603263854980468750e+00) (72, 2.21186137199401855469e+00) (73, 4.64115571975708007812e+00) (74, 8.63797128200531005859e-01) (75, -2.17436957359313964844e+00) (76, -2.21829843521118164062e+00) (77, 6.20994615554809570312e+00) (78, 5.28071641921997070312e+00) (79, -8.92627358436584472656e-01) (80, -1.06199431419372558594e+00) (81, 1.93493664264678955078e+00) (82, 9.77105379104614257812e-01) (83, -1.07430410385131835938e+00) (84, -6.17753505706787109375e+00) (85, 3.28968334197998046875e+00) (86, 1.88860225677490234375e+00) (87, 7.05991446971893310547e-01) (88, 2.50622272491455078125e+00) (89, -3.09935688972473144531e+00) (90, -1.11039912700653076172e+00) (91, -1.01068425178527832031e+00) (92, -3.18392366170883178711e-02) (93, 9.08269977569580078125e+00) (94, -5.82704639434814453125e+00) (95, -4.58370923995971679688e+00) (96, -1.24951469898223876953e+00) (97, 1.87489736080169677734e+00) (98, -5.00309467315673828125e-01) (99, -2.40460348129272460938e+00) (100, -2.17977881431579589844e+00) (101, 1.49093914031982421875e+00) (102, -3.11946225166320800781e+00) (103, -1.90794873237609863281e+00) (104, 5.97327566146850585938e+00) (105, 2.57927274703979492188e+00) (106, 2.12054824829101562500e+00) (107, 2.46110606193542480469e+00) (108, -2.01714110374450683594e+00) (109, 3.28117847442626953125e-01) (110, 2.23343372344970703125e+00) (111, 4.44876670837402343750e+00) (112, 2.52118408679962158203e-01) (113, -2.67433905601501464844e+00) (114, 3.27967584133148193359e-01) (115, 7.64514982700347900391e-01) (116, 2.98900818824768066406e+00) (117, -4.68779706954956054688e+00) (118, 6.75958633422851562500e+00) (119, 4.92377662658691406250e+00) (120, -3.82030940055847167969e+00) (121, -2.91682171821594238281e+00) (122, 1.00311374664306640625e+00) (123, 1.88354581594467163086e-01) (124, 5.96805572509765625000e+00) (125, 6.47674942016601562500e+00) (126, -1.29845798015594482422e+00) (127, -2.25917863845825195312e+00) (128, 6.35993194580078125000e+00) (129, -5.45227944850921630859e-01) (130, 3.74697899818420410156e+00) (131, 4.00219869613647460938e+00) (132, -4.66391658782958984375e+00) (133, 3.73698759078979492188e+00) (134, 5.18718004226684570312e+00) (135, -6.09364151954650878906e-01) (136, -9.91544246673583984375e+00) (137, 7.07886576652526855469e-01) (138, 1.42136976122856140137e-01) (139, 6.31428420543670654297e-01) (140, 3.73313277959823608398e-01) (141, 9.86228287220001220703e-01) (142, 3.68474435806274414062e+00) (143, 6.73223495483398437500e-01) (144, -4.62763833999633789062e+00) (145, 2.54416418075561523438e+00) (146, -3.87426757812500000000e+00) (147, 4.17184770107269287109e-01) (148, 9.21303033828735351562e-01) (149, -1.92187219858169555664e-01) (150, 1.25474054366350173950e-02) (151, 9.07261908054351806641e-01) (152, -8.69713798165321350098e-02) (153, 3.47502201795578002930e-01) (154, 5.51648102700710296631e-02) (155, 4.99179869890213012695e-01) (156, -1.29107546806335449219e+00) (0, 1.92770749330520629883e-01) (1, -4.21587228775024414062e-01) (2, -7.16476440429687500000e-01) (3, -2.76632737368345260620e-02) (4, -1.52174520492553710938e+00) (5, -1.14092957973480224609e+00) (6, 2.48402878642082214355e-01) (7, -1.87980079650878906250e+00) (8, 5.82342185080051422119e-02) (9, 4.57032173871994018555e-01) (10, 2.63743758201599121094e+00) (11, 1.72345936298370361328e+00) (12, -2.01894998550415039062e+00) (13, -2.21897453069686889648e-01) (14, -4.71025928854942321777e-02) (15, 2.06653848290443420410e-01) (16, -1.72158169746398925781e+00) (17, 7.00983881950378417969e-01) (18, 2.67898774147033691406e+00) (19, 3.85058069229125976562e+00) (20, -2.75836586952209472656e+00) (21, -1.39960980415344238281e+00) (22, -8.80315542221069335938e-01) (23, 1.06051869690418243408e-01) (24, 3.22095155715942382812e+00) (25, -3.40763974189758300781e+00) (26, -1.89251029491424560547e+00) (27, -1.97892189025878906250e+00) (28, -2.09200644493103027344e+00) (29, 7.83496379852294921875e-01) (30, -9.61352407932281494141e-01) (31, -8.54079067707061767578e-01) (32, -5.10124444961547851562e-01) (33, -3.74232983589172363281e+00) (34, -2.77982640266418457031e+00) (35, -1.46052980422973632812e+00) (36, 2.52651166915893554688e+00) (37, 2.14161920547485351562e+00) (38, 5.91607570648193359375e-01) (39, 1.75354063510894775391e+00) (40, -5.57176232337951660156e-01) (41, 2.81820988655090332031e+00) (42, 3.00572633743286132812e+00) (43, -1.13467478752136230469e+00) (44, 1.13417279720306396484e+00) (45, 2.12423181533813476562e+00) (46, 1.49132394790649414062e+00) (47, -2.73523569107055664062e+00) (48, 4.05470705032348632812e+00) (49, -1.56368255615234375000e+00) (50, -1.82580113410949707031e+00) (51, 4.29925775527954101562e+00) (52, 1.38394629955291748047e+00) (53, 2.37932634353637695312e+00) (54, -2.24333262443542480469e+00) (55, -2.71786785125732421875e+00) (56, 5.00082112848758697510e-02) (57, 1.95740056037902832031e+00) (58, 1.46088445186614990234e+00) (59, -6.71447068452835083008e-02) (60, -2.70609831809997558594e+00) (61, -1.82706272602081298828e+00) (62, 2.16654014587402343750e+00) (63, -2.62466259300708770752e-02) (64, -1.01746094226837158203e+00) (65, 5.40240001678466796875e+00) (66, 3.18942308425903320312e+00) (67, -2.00485169887542724609e-01) (68, 7.59140789508819580078e-01) (69, 4.75898027420043945312e+00) (70, 3.26914668083190917969e-01) (71, 1.56384944915771484375e+00) (72, -2.65856313705444335938e+00) (73, 6.94518506526947021484e-01) (74, -8.78913342952728271484e-01) (75, 3.52144420146942138672e-01) (76, -3.42921674251556396484e-01) (77, -1.35329023003578186035e-01) (78, 1.48350274562835693359e+00) (79, 1.21094071865081787109e+00) (80, 1.36168980598449707031e+00) (81, -3.71681046485900878906e+00) (82, 1.35457539558410644531e+00) (83, -4.09246206283569335938e+00) (84, -5.60826420783996582031e-01) (85, -3.32470273971557617188e+00) (86, 2.07211852073669433594e+00) (87, 2.87744951248168945312e+00) (88, 1.89922416210174560547e+00) (89, 2.16134595870971679688e+00) (90, -1.17077958583831787109e+00) (91, -4.13126611709594726562e+00) (92, -1.37323951721191406250e+00) (93, 3.76928865909576416016e-01) (94, -1.82700587902218103409e-03) (95, -2.63449978828430175781e+00) (96, 1.12967394292354583740e-01) (97, -8.43748152256011962891e-01) (98, 1.07471251487731933594e+00) (99, 3.06933403015136718750e+00) (100, -3.58638238906860351562e+00) (101, -1.24215495586395263672e+00) (102, 7.09183037281036376953e-01) (103, -3.04863333702087402344e+00) (104, -3.30203628540039062500e+00) (105, 3.35488796234130859375e+00) (106, -2.79292583465576171875e+00) (107, -9.46271345019340515137e-02) (108, -2.13278245925903320312e+00) (109, -5.36260902881622314453e-01) (110, 1.16186296939849853516e+00) (111, -2.27159333229064941406e+00) (112, 4.60118389129638671875e+00) (113, -3.71414446830749511719e+00) (114, -1.84535479545593261719e+00) (115, -4.08175182342529296875e+00) (116, -7.28179290890693664551e-02) (117, 3.65484319627285003662e-02) (118, 1.55225503444671630859e+00) (119, 8.08699309825897216797e-01) (120, -3.24258232116699218750e+00) (121, 7.80512034893035888672e-01) (122, 8.52383255958557128906e-01) (123, 1.74688577651977539062e+00) (124, 3.83456921577453613281e+00) (125, 3.28022527694702148438e+00) (126, -3.60690563917160034180e-01) (127, -3.39584875106811523438e+00) (128, -2.32523012161254882812e+00) (129, -2.06041979789733886719e+00) (130, -1.51097154617309570312e+00) (131, -3.56817901134490966797e-01) (132, -1.98860973119735717773e-01) (133, -1.09413743019104003906e+00) (134, 1.06922864913940429688e-01) (135, 1.82979667186737060547e+00) (136, 1.15560507774353027344e+00) (137, -4.58882898092269897461e-02) (138, -1.84825778007507324219e-01) (139, -1.41603541374206542969e+00) (140, 6.62566483020782470703e-01) (141, -2.86281585693359375000e+00) (142, 1.05995535850524902344e+00) (143, -3.92282080650329589844e+00) (144, 1.62152445316314697266e+00) (145, 2.91280412673950195312e+00) (146, 2.29217126965522766113e-01) (147, 2.89690792560577392578e-01) (148, 4.15804624557495117188e-01) (149, -1.76494026184082031250e+00) (150, -6.03496193885803222656e-01) (151, -6.80157542228698730469e-01) (152, -1.61591637134552001953e+00) (153, -6.94046676158905029297e-01) (154, 2.68504351377487182617e-01) (155, 2.78872549533843994141e-01) (156, -1.50681912899017333984e+00) (0, 1.06600511074066162109e+00) (1, -7.65469610691070556641e-01) (2, 2.31627130508422851562e+00) (3, -1.20460355281829833984e+00) (4, 1.04166543483734130859e+00) (5, -1.74683010578155517578e+00) (6, -9.22015607357025146484e-01) (7, -1.88117825984954833984e+00) (8, -9.24856543540954589844e-01) (9, -2.57594823837280273438e+00) (10, -1.37588143348693847656e-01) (11, 1.72265160083770751953e+00) (12, -1.05380177497863769531e+00) (13, -1.64494740962982177734e+00) (14, 1.92745673656463623047e+00) (15, -2.26389312744140625000e+00) (16, 2.82629323005676269531e+00) (17, 2.74883985519409179688e+00) (18, 4.03232097625732421875e-01) (19, -3.20449471473693847656e+00) (20, -1.19160389900207519531e+00) (21, 1.67345726490020751953e+00) (22, -8.02206397056579589844e-01) (23, -1.17688529193401336670e-01) (24, -2.39935770630836486816e-01) (25, 3.90243291854858398438e+00) (26, 3.32405757904052734375e+00) (27, 9.42588925361633300781e-01) (28, 3.65653604269027709961e-01) (29, 2.36476373672485351562e+00) (30, -3.25659781694412231445e-01) (31, -1.39119231700897216797e+00) (32, 2.11031937599182128906e+00) (33, -2.60045504570007324219e+00) (34, 1.71975016593933105469e+00) (35, -1.17056794464588165283e-01) (36, -1.27635613083839416504e-01) (37, 3.40612840652465820312e+00) (38, -2.27940011024475097656e+00) (39, 3.97265553474426269531e-01) (40, -3.93125154078006744385e-02) (41, -1.35528230667114257812e+00) (42, -1.57933378219604492188e+00) (43, 4.23748636245727539062e+00) (44, 2.27955818176269531250e+00) (45, -1.85456478595733642578e+00) (46, -3.17945909500122070312e+00) (47, 1.27235674858093261719e+00) (48, -1.68088889122009277344e+00) (49, -3.93879222869873046875e+00) (50, -1.33290076255798339844e+00) (51, 5.45215845108032226562e-01) (52, 4.60076904296875000000e+00) (53, -5.12031793594360351562e-01) (54, -2.56259703636169433594e+00) (55, -6.41187608242034912109e-01) (56, 2.48009848594665527344e+00) (57, 1.76379179954528808594e+00) (58, -1.64774084091186523438e+00) (59, 1.07618224620819091797e+00) (60, 6.50389730930328369141e-01) (61, -4.18011713027954101562e+00) (62, -1.84268939495086669922e+00) (63, 5.64870309829711914062e+00) (64, -2.18111228942871093750e+00) (65, -1.21911334991455078125e+00) (66, 2.77938413619995117188e+00) (67, 2.47701549530029296875e+00) (68, 1.86133444309234619141e+00) (69, 6.30018934607505798340e-02) (70, 4.05479621887207031250e+00) (71, 8.79463076591491699219e-01) (72, -2.48911571502685546875e+00) (73, 7.62914061546325683594e-01) (74, 2.83156442642211914062e+00) (75, -4.65799283981323242188e+00) (76, -1.31337547302246093750e+00) (77, 7.26901173591613769531e-01) (78, -3.29274439811706542969e+00) (79, 1.90148246288299560547e+00) (80, -1.76053714752197265625e+00) (81, -1.01851963996887207031e+00) (82, 1.24141907691955566406e+00) (83, 1.60679697990417480469e+00) (84, 2.07510519027709960938e+00) (85, 1.51883614063262939453e+00) (86, 1.78937089443206787109e+00) (87, -2.37164902687072753906e+00) (88, -3.99775981903076171875e-01) (89, -9.76077020168304443359e-01) (90, 6.63391590118408203125e-01) (91, -2.25513434410095214844e+00) (92, 4.99186128377914428711e-01) (93, 1.39013385772705078125e+00) (94, -2.14344763755798339844e+00) (95, -1.91391646862030029297e+00) (96, 3.29519653320312500000e+00) (97, 4.60630714893341064453e-01) (98, -3.84478569030761718750e+00) (99, -4.04510557651519775391e-01) (100, -1.01581764221191406250e+00) (101, -5.96352994441986083984e-01) (102, 1.08155262470245361328e+00) (103, -1.24212503433227539062e+00) (104, 1.43091821670532226562e+00) (105, -3.84992504119873046875e+00) (106, -1.73305988311767578125e+00) (107, 