FANN_FLO_2.1
num_layers=3
learning_rate=0.700000
connection_rate=1.000000
network_type=0
learning_momentum=0.000000
training_algorithm=0
train_error_function=1
train_stop_function=0
cascade_output_change_fraction=0.010000
quickprop_decay=-0.000100
quickprop_mu=1.750000
rprop_increase_factor=1.200000
rprop_decrease_factor=0.500000
rprop_delta_min=0.000000
rprop_delta_max=50.000000
rprop_delta_zero=0.100000
cascade_output_stagnation_epochs=12
cascade_candidate_change_fraction=0.010000
cascade_candidate_stagnation_epochs=12
cascade_max_out_epochs=100
cascade_max_cand_epochs=100
cascade_num_candidate_groups=2
bit_fail_limit=3.49999994039535522461e-01
cascade_candidate_limit=1.00000000000000000000e+03
cascade_weight_multiplier=4.00000005960464477539e-01
cascade_activation_functions_count=10
cascade_activation_functions=3 5 7 8 10 11 14 15 16 17 
cascade_activation_steepnesses_count=4
cascade_activation_steepnesses=2.50000000000000000000e-01 5.00000000000000000000e-01 7.50000000000000000000e-01 1.00000000000000000000e+00 
layer_sizes=157 157 2 
scale_included=1
scale_mean_in=0.197000 3.803000 4.449000 4.529000 4.546000 4.608000 4.448000 4.568000 4.449000 4.371000 4.456000 4.434000 4.457000 4.588000 4.372000 4.523000 4.441000 4.535000 4.532000 4.402000 4.453000 4.420000 4.589000 4.471000 4.443000 4.496000 4.400000 4.534000 4.540000 4.531000 4.550000 4.367000 4.501000 4.427000 4.631000 4.421000 4.418000 4.522000 4.531000 4.636000 4.503000 4.487000 4.466000 4.526000 4.620000 4.538000 4.287000 4.454000 4.629000 4.526000 4.467000 4.595000 4.523000 4.491000 4.620000 4.415000 4.560000 4.588000 4.640000 0.134000 3.961000 4.426000 4.378000 4.490000 4.629000 4.408000 4.447000 4.628000 4.505000 4.502000 4.449000 4.501000 4.544000 4.500000 4.505000 4.411000 4.570000 4.351000 4.488000 4.560000 4.556000 4.377000 4.474000 4.368000 4.445000 4.430000 4.358000 4.485000 4.601000 4.544000 4.570000 4.427000 4.635000 4.504000 4.451000 4.496000 4.523000 4.483000 4.359000 4.582000 4.603000 4.530000 4.599000 4.418000 4.446000 4.479000 4.552000 4.418000 4.604000 4.548000 4.652000 4.474000 4.299000 4.484000 4.567000 4.386000 4.529000 4.485000 4.456000 4.535000 4.605000 4.464000 4.517000 4.584000 4.499000 4.432000 4.574000 4.446000 4.463000 4.474000 4.244000 4.520000 4.598000 4.478000 4.643000 4.456000 4.557000 1.000000 3.000000 9.000000 0.965000 2.148000 4.452000 4.696000 4.629000 4.496000 4.633000 4.000000 1.000000 9.000000 5.000000 5.000000 8.000000 7.000000 0.000000 0.000000 
scale_deviation_in=0.397732 3.018640 2.907816 2.865162 2.824514 2.839425 2.968046 2.865900 2.834678 2.851205 2.844306 2.868731 2.979284 2.843637 2.880908 2.849119 2.816831 2.897374 2.900514 2.887282 2.836159 2.823052 2.817459 2.907775 2.862995 2.869143 2.885132 2.887706 2.844015 2.868281 2.828341 2.862225 2.854820 2.891123 2.902215 2.860028 2.892277 2.881232 2.843769 2.812023 2.888249 2.892370 2.811201 2.924608 2.794566 2.862962 2.880387 2.890998 2.835730 2.831490 2.930339 2.850786 2.842091 2.880608 2.870123 2.854605 2.875132 2.894868 2.854542 0.340654 3.019184 2.924128 2.832509 2.889632 2.960298 2.867321 2.887417 2.834719 2.866700 2.885133 2.844186 2.880278 2.864625 2.843238 2.897235 2.848170 2.841675 2.831572 2.872948 2.861186 2.916649 2.806934 2.804521 2.817194 2.890497 2.879082 2.848830 2.836504 2.837569 2.929177 2.826149 2.927899 2.889605 2.857616 2.894062 2.850961 2.903356 2.840372 2.951970 2.933473 2.864505 2.888447 2.869878 2.921517 2.901222 2.913348 2.853643 2.892275 2.798773 2.833671 2.848313 2.889522 2.859649 2.874673 2.828341 2.890152 2.886027 2.836857 2.875079 2.900822 2.914958 2.848278 2.923989 2.901883 2.841126 2.892296 2.882104 2.824019 2.885243 2.844176 2.841564 2.885415 2.841197 2.949830 2.858942 2.883414 2.907704 0.000000 0.000000 0.000000 0.183780 1.839049 2.908553 2.885064 2.897131 2.817797 2.883806 0.000000 0.000000 0.000000 0.000000 0.000000 0.000000 0.000000 0.000000 0.000000 
scale_new_min_in=0.000000 0.000000 0.000000 0.000000 0.000000 0.000000 0.000000 0.000000 0.000000 0.000000 0.000000 0.000000 0.000000 0.000000 0.000000 0.000000 0.000000 0.000000 0.000000 0.000000 0.000000 0.000000 0.000000 0.000000 0.000000 0.000000 0.000000 0.000000 0.000000 0.000000 0.000000 0.000000 0.000000 0.000000 0.000000 0.000000 0.000000 0.000000 0.000000 0.000000 0.000000 0.000000 0.000000 0.000000 0.000000 0.000000 0.000000 0.000000 0.000000 0.000000 0.000000 0.000000 0.000000 0.000000 0.000000 0.000000 0.000000 0.000000 0.000000 0.000000 0.000000 0.000000 0.000000 0.000000 0.000000 0.000000 0.000000 0.000000 0.000000 0.000000 0.000000 0.000000 0.000000 0.000000 0.000000 0.000000 0.000000 0.000000 0.000000 0.000000 0.000000 0.000000 0.000000 0.000000 0.000000 0.000000 0.000000 0.000000 0.000000 0.000000 0.000000 0.000000 0.000000 0.000000 0.000000 0.000000 0.000000 0.000000 0.000000 0.000000 0.000000 0.000000 0.000000 0.000000 0.000000 0.000000 0.000000 0.000000 0.000000 0.000000 0.000000 0.000000 0.000000 0.000000 0.000000 0.000000 0.000000 0.000000 0.000000 0.000000 0.000000 0.000000 0.000000 0.000000 0.000000 0.000000 0.000000 0.000000 0.000000 0.000000 0.000000 0.000000 0.000000 0.000000 0.000000 0.000000 0.000000 0.000000 0.000000 0.000000 0.000000 0.000000 0.000000 0.000000 0.000000 0.000000 0.000000 0.000000 0.000000 0.000000 0.000000 0.000000 0.000000 0.000000 0.000000 0.000000 
scale_factor_in=0.500000 0.500000 0.500000 0.500000 0.500000 0.500000 0.500000 0.500000 0.500000 0.500000 0.500000 0.500000 0.500000 0.500000 0.500000 0.500000 0.500000 0.500000 0.500000 0.500000 0.500000 0.500000 0.500000 0.500000 0.500000 0.500000 0.500000 0.500000 0.500000 0.500000 0.500000 0.500000 0.500000 0.500000 0.500000 0.500000 0.500000 0.500000 0.500000 0.500000 0.500000 0.500000 0.500000 0.500000 0.500000 0.500000 0.500000 0.500000 0.500000 0.500000 0.500000 0.500000 0.500000 0.500000 0.500000 0.500000 0.500000 0.500000 0.500000 0.500000 0.500000 0.500000 0.500000 0.500000 0.500000 0.500000 0.500000 0.500000 0.500000 0.500000 0.500000 0.500000 0.500000 0.500000 0.500000 0.500000 0.500000 0.500000 0.500000 0.500000 0.500000 0.500000 0.500000 0.500000 0.500000 0.500000 0.500000 0.500000 0.500000 0.500000 0.500000 0.500000 0.500000 0.500000 0.500000 0.500000 0.500000 0.500000 0.500000 0.500000 0.500000 0.500000 0.500000 0.500000 0.500000 0.500000 0.500000 0.500000 0.500000 0.500000 0.500000 0.500000 0.500000 0.500000 0.500000 0.500000 0.500000 0.500000 0.500000 0.500000 0.500000 0.500000 0.500000 0.500000 0.500000 0.500000 0.500000 0.500000 0.500000 0.500000 0.500000 0.500000 0.500000 0.500000 0.500000 0.500000 0.500000 0.500000 0.500000 0.500000 0.500000 0.500000 0.500000 0.500000 0.500000 0.500000 0.500000 0.500000 0.500000 0.500000 0.500000 0.500000 0.500000 0.500000 0.500000 0.500000 
scale_mean_out=2113389952.000000 
scale_deviation_out=1231219584.000000 
scale_new_min_out=0.000000 
scale_factor_out=0.500000 
neurons (num_inputs, activation_function, activation_steepness)=(0, 0, 0.00000000000000000000e+00) (0, 0, 0.00000000000000000000e+00) (0, 0, 0.00000000000000000000e+00) (0, 0, 0.00000000000000000000e+00) (0, 0, 0.00000000000000000000e+00) (0, 0, 0.00000000000000000000e+00) (0, 0, 0.00000000000000000000e+00) (0, 0, 0.00000000000000000000e+00) (0, 0, 0.00000000000000000000e+00) (0, 0, 0.00000000000000000000e+00) (0, 0, 0.00000000000000000000e+00) (0, 0, 0.00000000000000000000e+00) (0, 0, 0.00000000000000000000e+00) (0, 0, 0.00000000000000000000e+00) (0, 0, 0.00000000000000000000e+00) (0, 0, 0.00000000000000000000e+00) (0, 0, 0.00000000000000000000e+00) (0, 0, 0.00000000000000000000e+00) (0, 0, 0.00000000000000000000e+00) (0, 0, 0.00000000000000000000e+00) (0, 0, 0.00000000000000000000e+00) (0, 0, 0.00000000000000000000e+00) (0, 0, 0.00000000000000000000e+00) (0, 0, 0.00000000000000000000e+00) (0, 0, 0.00000000000000000000e+00) (0, 0, 0.00000000000000000000e+00) (0, 0, 0.00000000000000000000e+00) (0, 0, 0.00000000000000000000e+00) (0, 0, 0.00000000000000000000e+00) (0, 0, 0.00000000000000000000e+00) (0, 0, 0.00000000000000000000e+00) (0, 0, 0.00000000000000000000e+00) (0, 0, 0.00000000000000000000e+00) (0, 0, 0.00000000000000000000e+00) (0, 0, 0.00000000000000000000e+00) (0, 0, 0.00000000000000000000e+00) (0, 0, 0.00000000000000000000e+00) (0, 0, 0.00000000000000000000e+00) (0, 0, 0.00000000000000000000e+00) (0, 0, 0.00000000000000000000e+00) (0, 0, 0.00000000000000000000e+00) (0, 0, 0.00000000000000000000e+00) (0, 0, 0.00000000000000000000e+00) (0, 0, 0.00000000000000000000e+00) (0, 0, 0.00000000000000000000e+00) (0, 0, 0.00000000000000000000e+00) (0, 0, 0.00000000000000000000e+00) (0, 0, 0.00000000000000000000e+00) (0, 0, 0.00000000000000000000e+00) (0, 0, 0.00000000000000000000e+00) (0, 0, 0.00000000000000000000e+00) (0, 0, 0.00000000000000000000e+00) (0, 0, 0.00000000000000000000e+00) (0, 0, 0.00000000000000000000e+00) (0, 0, 0.00000000000000000000e+00) (0, 0, 0.00000000000000000000e+00) (0, 0, 0.00000000000000000000e+00) (0, 0, 0.00000000000000000000e+00) (0, 0, 0.00000000000000000000e+00) (0, 0, 0.00000000000000000000e+00) (0, 0, 0.00000000000000000000e+00) (0, 0, 0.00000000000000000000e+00) (0, 0, 0.00000000000000000000e+00) (0, 0, 0.00000000000000000000e+00) (0, 0, 0.00000000000000000000e+00) (0, 0, 0.00000000000000000000e+00) (0, 0, 0.00000000000000000000e+00) (0, 0, 0.00000000000000000000e+00) (0, 0, 0.00000000000000000000e+00) (0, 0, 0.00000000000000000000e+00) (0, 0, 0.00000000000000000000e+00) (0, 0, 0.00000000000000000000e+00) (0, 0, 0.00000000000000000000e+00) (0, 0, 0.00000000000000000000e+00) (0, 0, 0.00000000000000000000e+00) (0, 0, 0.00000000000000000000e+00) (0, 0, 0.00000000000000000000e+00) (0, 0, 0.00000000000000000000e+00) (0, 0, 0.00000000000000000000e+00) (0, 0, 0.00000000000000000000e+00) (0, 0, 0.00000000000000000000e+00) (0, 0, 0.00000000000000000000e+00) (0, 0, 0.00000000000000000000e+00) (0, 0, 0.00000000000000000000e+00) (0, 0, 0.00000000000000000000e+00) (0, 0, 0.00000000000000000000e+00) (0, 0, 0.00000000000000000000e+00) (0, 0, 0.00000000000000000000e+00) (0, 0, 0.00000000000000000000e+00) (0, 0, 0.00000000000000000000e+00) (0, 0, 0.00000000000000000000e+00) (0, 0, 0.00000000000000000000e+00) (0, 0, 0.00000000000000000000e+00) (0, 0, 0.00000000000000000000e+00) (0, 0, 0.00000000000000000000e+00) (0, 0, 0.00000000000000000000e+00) (0, 0, 0.00000000000000000000e+00) (0, 0, 0.00000000000000000000e+00) (0, 0, 0.00000000000000000000e+00) (0, 0, 0.00000000000000000000e+00) (0, 0, 0.00000000000000000000e+00) (0, 0, 0.00000000000000000000e+00) (0, 0, 0.00000000000000000000e+00) (0, 0, 0.00000000000000000000e+00) (0, 0, 0.00000000000000000000e+00) (0, 0, 0.00000000000000000000e+00) (0, 0, 0.00000000000000000000e+00) (0, 0, 0.00000000000000000000e+00) (0, 0, 0.00000000000000000000e+00) (0, 0, 0.00000000000000000000e+00) (0, 0, 0.00000000000000000000e+00) (0, 0, 0.00000000000000000000e+00) (0, 0, 0.00000000000000000000e+00) (0, 0, 0.00000000000000000000e+00) (0, 0, 0.00000000000000000000e+00) (0, 0, 0.00000000000000000000e+00) (0, 0, 0.00000000000000000000e+00) (0, 0, 0.00000000000000000000e+00) (0, 0, 0.00000000000000000000e+00) (0, 0, 0.00000000000000000000e+00) (0, 0, 0.00000000000000000000e+00) (0, 0, 0.00000000000000000000e+00) (0, 0, 0.00000000000000000000e+00) (0, 0, 0.00000000000000000000e+00) (0, 0, 0.00000000000000000000e+00) (0, 0, 0.00000000000000000000e+00) (0, 0, 0.00000000000000000000e+00) (0, 0, 0.00000000000000000000e+00) (0, 0, 0.00000000000000000000e+00) (0, 0, 0.00000000000000000000e+00) (0, 0, 0.00000000000000000000e+00) (0, 0, 0.00000000000000000000e+00) (0, 0, 0.00000000000000000000e+00) (0, 0, 0.00000000000000000000e+00) (0, 0, 0.00000000000000000000e+00) (0, 0, 0.00000000000000000000e+00) (0, 0, 0.00000000000000000000e+00) (0, 0, 0.00000000000000000000e+00) (0, 0, 0.00000000000000000000e+00) (0, 0, 0.00000000000000000000e+00) (0, 0, 0.00000000000000000000e+00) (0, 0, 0.00000000000000000000e+00) (0, 0, 0.00000000000000000000e+00) (0, 0, 0.00000000000000000000e+00) (0, 0, 0.00000000000000000000e+00) (0, 0, 0.00000000000000000000e+00) (0, 0, 0.00000000000000000000e+00) (0, 0, 0.00000000000000000000e+00) (0, 0, 0.00000000000000000000e+00) (0, 0, 0.00000000000000000000e+00) (0, 0, 0.00000000000000000000e+00) (0, 0, 0.00000000000000000000e+00) (0, 0, 0.00000000000000000000e+00) (0, 0, 0.00000000000000000000e+00) (0, 0, 0.00000000000000000000e+00) (0, 0, 0.00000000000000000000e+00) (0, 0, 0.00000000000000000000e+00) (157, 4, 5.00000000000000000000e-01) (157, 4, 5.00000000000000000000e-01) (157, 4, 5.00000000000000000000e-01) (157, 4, 5.00000000000000000000e-01) (157, 4, 5.00000000000000000000e-01) (157, 4, 5.00000000000000000000e-01) (157, 4, 5.00000000000000000000e-01) (157, 4, 5.00000000000000000000e-01) (157, 4, 5.00000000000000000000e-01) (157, 4, 5.00000000000000000000e-01) (157, 4, 5.00000000000000000000e-01) (157, 4, 5.00000000000000000000e-01) (157, 4, 5.00000000000000000000e-01) (157, 4, 5.00000000000000000000e-01) (157, 4, 5.00000000000000000000e-01) (157, 4, 5.00000000000000000000e-01) (157, 4, 5.00000000000000000000e-01) (157, 4, 5.00000000000000000000e-01) (157, 4, 5.00000000000000000000e-01) (157, 4, 5.00000000000000000000e-01) (157, 4, 5.00000000000000000000e-01) (157, 4, 5.00000000000000000000e-01) (157, 4, 5.00000000000000000000e-01) (157, 4, 5.00000000000000000000e-01) (157, 4, 5.00000000000000000000e-01) (157, 4, 5.00000000000000000000e-01) (157, 4, 5.00000000000000000000e-01) (157, 4, 5.00000000000000000000e-01) (157, 4, 5.00000000000000000000e-01) (157, 4, 5.00000000000000000000e-01) (157, 4, 5.00000000000000000000e-01) (157, 4, 5.00000000000000000000e-01) (157, 4, 5.00000000000000000000e-01) (157, 4, 5.00000000000000000000e-01) (157, 4, 5.00000000000000000000e-01) (157, 4, 5.00000000000000000000e-01) (157, 4, 5.00000000000000000000e-01) (157, 4, 5.00000000000000000000e-01) (157, 4, 5.00000000000000000000e-01) (157, 4, 5.00000000000000000000e-01) (157, 4, 5.00000000000000000000e-01) (157, 4, 5.00000000000000000000e-01) (157, 4, 5.00000000000000000000e-01) (157, 4, 5.00000000000000000000e-01) (157, 4, 5.00000000000000000000e-01) (157, 4, 5.00000000000000000000e-01) (157, 4, 5.00000000000000000000e-01) (157, 4, 5.00000000000000000000e-01) (157, 4, 5.00000000000000000000e-01) (157, 4, 5.00000000000000000000e-01) (157, 4, 5.00000000000000000000e-01) (157, 4, 5.00000000000000000000e-01) (157, 4, 5.00000000000000000000e-01) (157, 4, 5.00000000000000000000e-01) (157, 4, 5.00000000000000000000e-01) (157, 4, 5.00000000000000000000e-01) (157, 4, 5.00000000000000000000e-01) (157, 4, 5.00000000000000000000e-01) (157, 4, 5.00000000000000000000e-01) (157, 4, 5.00000000000000000000e-01) (157, 4, 5.00000000000000000000e-01) (157, 4, 5.00000000000000000000e-01) (157, 4, 5.00000000000000000000e-01) (157, 4, 5.00000000000000000000e-01) (157, 4, 5.00000000000000000000e-01) (157, 4, 5.00000000000000000000e-01) (157, 4, 5.00000000000000000000e-01) (157, 4, 5.00000000000000000000e-01) (157, 4, 5.00000000000000000000e-01) (157, 4, 5.00000000000000000000e-01) (157, 4, 5.00000000000000000000e-01) (157, 4, 5.00000000000000000000e-01) (157, 4, 5.00000000000000000000e-01) (157, 4, 5.00000000000000000000e-01) (157, 4, 5.00000000000000000000e-01) (157, 4, 5.00000000000000000000e-01) (157, 4, 5.00000000000000000000e-01) (157, 4, 5.00000000000000000000e-01) (157, 4, 5.00000000000000000000e-01) (157, 4, 5.00000000000000000000e-01) (157, 4, 5.00000000000000000000e-01) (157, 4, 5.00000000000000000000e-01) (157, 4, 5.00000000000000000000e-01) (157, 4, 5.00000000000000000000e-01) (157, 4, 5.00000000000000000000e-01) (157, 4, 5.00000000000000000000e-01) (157, 4, 5.00000000000000000000e-01) (157, 4, 5.00000000000000000000e-01) (157, 4, 5.00000000000000000000e-01) (157, 4, 5.00000000000000000000e-01) (157, 4, 5.00000000000000000000e-01) (157, 4, 5.00000000000000000000e-01) (157, 4, 5.00000000000000000000e-01) (157, 4, 5.00000000000000000000e-01) (157, 4, 5.00000000000000000000e-01) (157, 4, 5.00000000000000000000e-01) (157, 4, 5.00000000000000000000e-01) (157, 4, 5.00000000000000000000e-01) (157, 4, 5.00000000000000000000e-01) (157, 4, 5.00000000000000000000e-01) (157, 4, 5.00000000000000000000e-01) (157, 4, 5.00000000000000000000e-01) (157, 4, 5.00000000000000000000e-01) (157, 4, 5.00000000000000000000e-01) (157, 4, 5.00000000000000000000e-01) (157, 4, 5.00000000000000000000e-01) (157, 4, 5.00000000000000000000e-01) (157, 4, 5.00000000000000000000e-01) (157, 4, 5.00000000000000000000e-01) (157, 4, 5.00000000000000000000e-01) (157, 4, 5.00000000000000000000e-01) (157, 4, 5.00000000000000000000e-01) (157, 4, 5.00000000000000000000e-01) (157, 4, 5.00000000000000000000e-01) (157, 4, 5.00000000000000000000e-01) (157, 4, 5.00000000000000000000e-01) (157, 4, 5.00000000000000000000e-01) (157, 4, 5.00000000000000000000e-01) (157, 4, 5.00000000000000000000e-01) (157, 4, 5.00000000000000000000e-01) (157, 4, 5.00000000000000000000e-01) (157, 4, 5.00000000000000000000e-01) (157, 4, 5.00000000000000000000e-01) (157, 4, 5.00000000000000000000e-01) (157, 4, 5.00000000000000000000e-01) (157, 4, 5.00000000000000000000e-01) (157, 4, 5.00000000000000000000e-01) (157, 4, 5.00000000000000000000e-01) (157, 4, 5.00000000000000000000e-01) (157, 4, 5.00000000000000000000e-01) (157, 4, 5.00000000000000000000e-01) (157, 4, 5.00000000000000000000e-01) (157, 4, 5.00000000000000000000e-01) (157, 4, 5.00000000000000000000e-01) (157, 4, 5.00000000000000000000e-01) (157, 4, 5.00000000000000000000e-01) (157, 4, 5.00000000000000000000e-01) (157, 4, 5.00000000000000000000e-01) (157, 4, 5.00000000000000000000e-01) (157, 4, 5.00000000000000000000e-01) (157, 4, 5.00000000000000000000e-01) (157, 4, 5.00000000000000000000e-01) (157, 4, 5.00000000000000000000e-01) (157, 4, 5.00000000000000000000e-01) (157, 4, 5.00000000000000000000e-01) (157, 4, 5.00000000000000000000e-01) (157, 4, 5.00000000000000000000e-01) (157, 4, 5.00000000000000000000e-01) (157, 4, 5.00000000000000000000e-01) (157, 4, 5.00000000000000000000e-01) (157, 4, 5.00000000000000000000e-01) (157, 4, 5.00000000000000000000e-01) (157, 4, 5.00000000000000000000e-01) (157, 4, 5.00000000000000000000e-01) (157, 4, 5.00000000000000000000e-01) (157, 4, 5.00000000000000000000e-01) (0, 0, 0.00000000000000000000e+00) (157, 4, 5.00000000000000000000e-01) (0, 0, 0.00000000000000000000e+00) 
connections (connected_to_neuron, weight)=(0, -3.99041061401367187500e+01) (1, -4.02703781127929687500e+01) (2, -3.98917694091796875000e+01) (3, -3.72897872924804687500e+01) (4, -3.92058448791503906250e+01) (5, -4.25903434753417968750e+01) (6, -3.85237922668457031250e+01) (7, -4.15936088562011718750e+01) (8, -4.06079368591308593750e+01) (9, -4.11646461486816406250e+01) (10, -3.73000946044921875000e+01) (11, -3.71237220764160156250e+01) (12, -3.68582878112792968750e+01) (13, -4.08610115051269531250e+01) (14, -3.88031997680664062500e+01) (15, -4.14365119934082031250e+01) (16, -3.71689758300781250000e+01) (17, -3.92097320556640625000e+01) (18, -3.96275863647460937500e+01) (19, -3.98216323852539062500e+01) (20, -4.20018539428710937500e+01) (21, -3.69789390563964843750e+01) (22, -3.89393920898437500000e+01) (23, -4.01157417297363281250e+01) (24, -3.88035774230957031250e+01) (25, -4.00459556579589843750e+01) (26, -4.05702095031738281250e+01) (27, -4.09824218750000000000e+01) (28, -3.89760322570800781250e+01) (29, -3.90649452209472656250e+01) (30, -4.14748229980468750000e+01) (31, -4.10437660217285156250e+01) (32, -3.93212928771972656250e+01) (33, -3.97565116882324218750e+01) (34, -3.55828170776367187500e+01) (35, -3.77070770263671875000e+01) (36, -4.08633155822753906250e+01) (37, -4.16857299804687500000e+01) (38, -4.08414611816406250000e+01) (39, -4.09397735595703125000e+01) (40, -3.90866699218750000000e+01) (41, -4.00281562805175781250e+01) (42, -3.70706481933593750000e+01) (43, -4.16900672912597656250e+01) (44, -4.18786201477050781250e+01) (45, -3.96349563598632812500e+01) (46, -3.83638839721679687500e+01) (47, -3.75918998718261718750e+01) (48, -3.77596092224121093750e+01) (49, -3.80425949096679687500e+01) (50, -3.68674087524414062500e+01) (51, -4.23099288940429687500e+01) (52, -4.06103324890136718750e+01) (53, -4.13294906616210937500e+01) (54, -3.79667472839355468750e+01) (55, -4.17344093322753906250e+01) (56, -3.93235549926757812500e+01) (57, -3.94507064819335937500e+01) (58, -4.00852928161621093750e+01) (59, -4.10283355712890625000e+01) (60, -4.01997604370117187500e+01) (61, -3.99028472900390625000e+01) (62, -3.87781143188476562500e+01) (63, -3.90794448852539062500e+01) (64, -3.88684654235839843750e+01) (65, -4.11827278137207031250e+01) (66, -4.06905593872070312500e+01) (67, -3.98773307800292968750e+01) (68, -3.83184204101562500000e+01) (69, -3.71956443786621093750e+01) (70, -4.12324180603027343750e+01) (71, -3.98821868896484375000e+01) (72, -3.85261917114257812500e+01) (73, -4.09868240356445312500e+01) (74, -3.87782936096191406250e+01) (75, -4.11532058715820312500e+01) (76, -3.89127731323242187500e+01) (77, -4.25429573059082031250e+01) (78, -3.81705131530761718750e+01) (79, -4.13319396972656250000e+01) (80, -4.09799728393554687500e+01) (81, -3.88097877502441406250e+01) (82, -3.94830703735351562500e+01) (83, -3.89630737304687500000e+01) (84, -3.96152572631835937500e+01) (85, -3.94615287780761718750e+01) (86, -3.77065391540527343750e+01) (87, -3.98096427917480468750e+01) (88, -4.03544998168945312500e+01) (89, -3.88736572265625000000e+01) (90, -3.83981361389160156250e+01) (91, -3.92817687988281250000e+01) (92, -3.82636032104492187500e+01) (93, -3.77322387695312500000e+01) (94, -3.83701591491699218750e+01) (95, -3.81850357055664062500e+01) (96, -4.03853263854980468750e+01) (97, -3.81491127014160156250e+01) (98, -4.11995506286621093750e+01) (99, -3.63553771972656250000e+01) (100, -3.92606239318847656250e+01) (101, -3.87802467346191406250e+01) (102, -3.76143112182617187500e+01) (103, -3.55237998962402343750e+01) (104, -4.00109710693359375000e+01) (105, -3.83284912109375000000e+01) (106, -3.80898017883300781250e+01) (107, -4.19246139526367187500e+01) (108, -3.94640464782714843750e+01) (109, -3.78727912902832031250e+01) (110, -3.87887611389160156250e+01) (111, -4.07992744445800781250e+01) (112, -3.80129814147949218750e+01) (113, -4.05773849487304687500e+01) (114, -3.83027801513671875000e+01) (115, -3.70150642395019531250e+01) (116, -3.89109077453613281250e+01) (117, -4.00650825500488281250e+01) (118, -4.03980751037597656250e+01) (119, -3.74053153991699218750e+01) (120, -3.93803100585937500000e+01) (121, -3.89823913574218750000e+01) (122, -3.81924819946289062500e+01) (123, -3.68231124877929687500e+01) (124, -3.79025840759277343750e+01) (125, -4.11734466552734375000e+01) (126, -3.92100219726562500000e+01) (127, -3.90978355407714843750e+01) (128, -3.75617752075195312500e+01) (129, -3.76427383422851562500e+01) (130, -4.01069831848144531250e+01) (131, -3.94651603698730468750e+01) (132, -3.99264755249023437500e+01) (133, -4.15300598144531250000e+01) (134, -3.79818229675292968750e+01) (135, -3.99771995544433593750e+01) (136, -4.13372535705566406250e+01) (137, -nan) (138, -nan) (139, -nan) (140, -3.70933723449707031250e+01) (141, -4.12505416870117187500e+01) (142, -3.98286247253417968750e+01) (143, -3.87859420776367187500e+01) (144, -3.82528572082519531250e+01) (145, -3.80856246948242187500e+01) (146, -3.92825927734375000000e+01) (147, -nan) (148, -nan) (149, -nan) (150, -nan) (151, -nan) (152, -nan) (153, -nan) (154, -nan) (155, -nan) (156, -7.90497894287109375000e+01) (0, -4.02060089111328125000e+01) (1, -4.01362228393554687500e+01) (2, -3.82270660400390625000e+01) (3, -3.84328041076660156250e+01) (4, -4.01539916992187500000e+01) (5, -4.48868789672851562500e+01) (6, -4.02835464477539062500e+01) (7, -4.09671669006347656250e+01) (8, -3.83637886047363281250e+01) (9, -4.16264953613281250000e+01) (10, -3.74070243835449218750e+01) (11, -3.67190132141113281250e+01) (12, -3.51615066528320312500e+01) (13, -4.11482315063476562500e+01) (14, -3.83699798583984375000e+01) (15, -4.22427368164062500000e+01) (16, -3.75136947631835937500e+01) (17, -4.11980972290039062500e+01) (18, -4.00284194946289062500e+01) (19, -3.98173637390136718750e+01) (20, -4.29349441528320312500e+01) (21, -3.75244102478027343750e+01) (22, -3.80722122192382812500e+01) (23, -4.30511550903320312500e+01) (24, -3.82898292541503906250e+01) (25, -3.93778495788574218750e+01) (26, -4.03484954833984375000e+01) (27, -4.09585609436035156250e+01) (28, -4.10052490234375000000e+01) (29, -3.83226547241210937500e+01) (30, -4.17887077331542968750e+01) (31, -4.06323928833007812500e+01) (32, -3.93816375732421875000e+01) (33, -3.95776863098144531250e+01) (34, -3.65788459777832031250e+01) (35, -3.74042205810546875000e+01) (36, -3.98656158447265625000e+01) (37, -4.28615913391113281250e+01) (38, -4.08921813964843750000e+01) (39, -4.05998649597167968750e+01) (40, -3.94090843200683593750e+01) (41, -4.16956520080566406250e+01) (42, -3.72676391601562500000e+01) (43, -4.15753364562988281250e+01) (44, -4.25486679077148437500e+01) (45, -3.89036560058593750000e+01) (46, -3.91610412597656250000e+01) (47, -3.89651832580566406250e+01) (48, -3.64239006042480468750e+01) (49, -3.83087730407714843750e+01) (50, -3.63111991882324218750e+01) (51, -4.23344688415527343750e+01) (52, -4.21237602233886718750e+01) (53, -4.10107154846191406250e+01) (54, -3.74245262145996093750e+01) (55, -4.06371421813964843750e+01) (56, -3.93065605163574218750e+01) (57, -3.78891983032226562500e+01) (58, -4.04338607788085937500e+01) (59, -3.97824058532714843750e+01) (60, -4.04935684204101562500e+01) (61, -3.87061309814453125000e+01) (62, -3.70864295959472656250e+01) (63, -3.79226074218750000000e+01) (64, -3.92499885559082031250e+01) (65, -4.13318824768066406250e+01) (66, -4.10089759826660156250e+01) (67, -3.98085403442382812500e+01) (68, -3.97187271118164062500e+01) (69, -3.67477607727050781250e+01) (70, -4.07529869079589843750e+01) (71, -4.23068466186523437500e+01) (72, -3.90168151855468750000e+01) (73, -3.95557823181152343750e+01) (74, -3.88787956237792968750e+01) (75, -4.20875015258789062500e+01) (76, -3.97544097900390625000e+01) (77, -4.11111526489257812500e+01) (78, -3.81949958801269531250e+01) (79, -4.07615165710449218750e+01) (80, -4.09708023071289062500e+01) (81, -3.90688362121582031250e+01) (82, -3.93753395080566406250e+01) (83, -3.89760818481445312500e+01) (84, -4.20163650512695312500e+01) (85, -4.00823440551757812500e+01) (86, -3.68900375366210937500e+01) (87, -3.94400482177734375000e+01) (88, -4.03581428527832031250e+01) (89, -3.90091896057128906250e+01) (90, -3.75947723388671875000e+01) (91, -4.08343009948730468750e+01) (92, -4.02477798461914062500e+01) (93, -3.63203239440917968750e+01) (94, -3.90526199340820312500e+01) (95, -3.77288551330566406250e+01) (96, -3.88769531250000000000e+01) (97, -3.83339805603027343750e+01) (98, -4.32926864624023437500e+01) (99, -3.60077133178710937500e+01) (100, -3.90887260437011718750e+01) (101, -3.74375953674316406250e+01) (102, -3.67426338195800781250e+01) (103, -3.48515930175781250000e+01) (104, -4.17187347412109375000e+01) (105, -3.95561866760253906250e+01) (106, -3.77569274902343750000e+01) (107, -4.03577499389648437500e+01) (108, -3.98924713134765625000e+01) (109, -3.95840911865234375000e+01) (110, -4.02936439514160156250e+01) (111, -4.17335205078125000000e+01) (112, -3.87566223144531250000e+01) (113, -4.14062919616699218750e+01) (114, -3.87643051147460937500e+01) (115, -3.71365928649902343750e+01) (116, -3.97118225097656250000e+01) (117, -3.93139381408691406250e+01) (118, -4.09037971496582031250e+01) (119, -3.65411911010742187500e+01) (120, -3.99784278869628906250e+01) (121, -4.04521293640136718750e+01) (122, -3.88259048461914062500e+01) (123, -3.73217582702636718750e+01) (124, -3.95749206542968750000e+01) (125, -4.17276802062988281250e+01) (126, -3.85009765625000000000e+01) (127, -4.02621574401855468750e+01) (128, -3.76002540588378906250e+01) (129, -3.50618934631347656250e+01) (130, -4.20679016113281250000e+01) (131, -3.98990631103515625000e+01) (132, -4.11493263244628906250e+01) (133, -4.16167678833007812500e+01) (134, -3.62066383361816406250e+01) (135, -3.83863906860351562500e+01) (136, -4.15131835937500000000e+01) (137, -nan) (138, -nan) (139, -nan) (140, -3.67455368041992187500e+01) (141, -4.25460319519042968750e+01) (142, -3.94775085449218750000e+01) (143, -3.88802795410156250000e+01) (144, -3.76784400939941406250e+01) (145, -3.74441299438476562500e+01) (146, -3.74635734558105468750e+01) (147, -nan) (148, -nan) (149, -nan) (150, -nan) (151, -nan) (152, -nan) (153, -nan) (154, -nan) (155, -nan) (156, -7.92547225952148437500e+01) (0, -3.98114013671875000000e+01) (1, -4.03582878112792968750e+01) (2, -3.95291709899902343750e+01) (3, -3.73654861450195312500e+01) (4, -3.94190177917480468750e+01) (5, -4.30808029174804687500e+01) (6, -3.89167861938476562500e+01) (7, -4.13949928283691406250e+01) (8, -4.01308174133300781250e+01) (9, -4.12093963623046875000e+01) (10, -3.74127006530761718750e+01) (11, -3.69979896545410156250e+01) (12, -3.64909934997558593750e+01) (13, -4.09006805419921875000e+01) (14, -3.86154632568359375000e+01) (15, -4.15458374023437500000e+01) (16, -3.72470092773437500000e+01) (17, -3.96266632080078125000e+01) (18, -3.96142807006835937500e+01) (19, -3.96368370056152343750e+01) (20, -4.21215629577636718750e+01) (21, -3.72049713134765625000e+01) (22, -3.89552574157714843750e+01) (23, -4.06361389160156250000e+01) (24, -3.87652206420898437500e+01) (25, -3.98703460693359375000e+01) (26, -4.04242668151855468750e+01) (27, -4.09332351684570312500e+01) (28, -3.94419784545898437500e+01) (29, -3.88468704223632812500e+01) (30, -4.16288681030273437500e+01) (31, -4.09187660217285156250e+01) (32, -3.93606185913085937500e+01) (33, -3.97962608337402343750e+01) (34, -3.57720146179199218750e+01) (35, -3.76806030273437500000e+01) (36, -4.05968704223632812500e+01) (37, -4.17531318664550781250e+01) (38, -4.07868270874023437500e+01) (39, -4.09460792541503906250e+01) (40, -3.91883392333984375000e+01) (41, -4.03199005126953125000e+01) (42, -3.71205329895019531250e+01) (43, -4.16956100463867187500e+01) (44, -4.20153274536132812500e+01) (45, -3.94094696044921875000e+01) (46, -3.84531517028808593750e+01) (47, -3.76410598754882812500e+01) (48, -3.74781341552734375000e+01) (49, -3.79875259399414062500e+01) (50, -3.65749359130859375000e+01) (51, -4.24571380615234375000e+01) (52, -4.08685493469238281250e+01) (53, -4.14841079711914062500e+01) (54, -3.77659835815429687500e+01) (55, -4.15765075683593750000e+01) (56, -3.92415466308593750000e+01) (57, -3.91871910095214843750e+01) (58, -4.01343803405761718750e+01) (59, -4.07803649902343750000e+01) (60, -4.01853523254394531250e+01) (61, -3.95805969238281250000e+01) (62, -3.84418563842773437500e+01) (63, -3.90182037353515625000e+01) (64, -3.89034385681152343750e+01) (65, -4.11884994506835937500e+01) (66, -4.06897811889648437500e+01) (67, -3.97876663208007812500e+01) (68, -3.86367149353027343750e+01) (69, -3.72185516357421875000e+01) (70, -4.13242645263671875000e+01) (71, -4.04690246582031250000e+01) (72, -3.87508544921875000000e+01) (73, -4.06913642883300781250e+01) (74, -3.89251670837402343750e+01) (75, -4.12458877563476562500e+01) (76, -3.88884315490722656250e+01) (77, -4.24027786254882812500e+01) (78, -3.81264877319335937500e+01) (79, -4.12391853332519531250e+01) (80, -4.09453468322753906250e+01) (81, -3.88455390930175781250e+01) (82, -3.95738754272460937500e+01) (83, -3.89200248718261718750e+01) (84, -4.00137596130371093750e+01) (85, -3.93893013000488281250e+01) (86, -3.75502357482910156250e+01) (87, -3.98583908081054687500e+01) (88, -4.04180526733398437500e+01) (89, -3.89172668457031250000e+01) (90, -3.83844070434570312500e+01) (91, -3.95136070251464843750e+01) (92, -3.87227172851562500000e+01) (93, -3.73508758544921875000e+01) (94, -3.84077529907226562500e+01) (95, -3.81677169799804687500e+01) (96, -4.01520576477050781250e+01) (97, -3.80800476074218750000e+01) (98, -4.15193367004394531250e+01) (99, -3.64372138977050781250e+01) (100, -3.92274284362792968750e+01) (101, -3.84701156616210937500e+01) (102, -3.75193672180175781250e+01) (103, -3.54935989379882812500e+01) (104, -4.03991546630859375000e+01) (105, -3.85081634521484375000e+01) (106, -3.78515625000000000000e+01) (107, -4.17746505737304687500e+01) (108, -3.96135635375976562500e+01) (109, -3.81438255310058593750e+01) (110, -3.92022209167480468750e+01) (111, -4.10137214660644531250e+01) (112, -3.83210525512695312500e+01) (113, -4.07522926330566406250e+01) (114, -3.83818435668945312500e+01) (115, -3.69480514526367187500e+01) (116, -3.91254730224609375000e+01) (117, -3.99537849426269531250e+01) (118, -4.04753608703613281250e+01) (119, -3.71471824645996093750e+01) (120, -3.95336608886718750000e+01) (121, -3.91315650939941406250e+01) (122, -3.83918952941894531250e+01) (123, -3.70550537109375000000e+01) (124, -3.81893005371093750000e+01) (125, -4.13079528808593750000e+01) (126, -3.90564880371093750000e+01) (127, -3.93324050903320312500e+01) (128, -3.76819343566894531250e+01) (129, -3.73216094970703125000e+01) (130, -4.03974037170410156250e+01) (131, -3.96126174926757812500e+01) (132, -3.99937629699707031250e+01) (133, -4.15421104431152343750e+01) (134, -3.76282424926757812500e+01) (135, -3.98448219299316406250e+01) (136, -4.13654785156250000000e+01) (137, -nan) (138, -nan) (139, -nan) (140, -3.70541877746582031250e+01) (141, -4.14577255249023437500e+01) (142, -3.96393127441406250000e+01) (143, -3.87710227966308593750e+01) (144, -3.81806449890136718750e+01) (145, -3.78352508544921875000e+01) (146, -3.87915229797363281250e+01) (147, -nan) (148, -nan) (149, -nan) (150, -nan) (151, -nan) (152, -nan) (153, -nan) (154, -nan) (155, -nan) (156, -7.88550186157226562500e+01) (0, -3.98408584594726562500e+01) (1, -4.02355766296386718750e+01) (2, -4.03296127319335937500e+01) (3, -3.70541839599609375000e+01) (4, -3.89435501098632812500e+01) (5, -4.22527008056640625000e+01) (6, -3.82616157531738281250e+01) (7, -4.17287635803222656250e+01) (8, -4.10703468322753906250e+01) (9, -4.11381034851074218750e+01) (10, -3.73851890563964843750e+01) (11, -3.71954460144042968750e+01) (12, -3.71334915161132812500e+01) (13, -4.07758026123046875000e+01) (14, -3.87575950622558593750e+01) (15, -4.14013404846191406250e+01) (16, -3.70702743530273437500e+01) (17, -3.90201034545898437500e+01) (18, -3.95565567016601562500e+01) (19, -3.96891708374023437500e+01) (20, -4.19672622680664062500e+01) (21, -3.68658332824707031250e+01) (22, -3.91183242797851562500e+01) (23, -3.94556083679199218750e+01) (24, -3.89215583801269531250e+01) (25, -4.01755752563476562500e+01) (26, -4.05159759521484375000e+01) (27, -4.09458389282226562500e+01) (28, -3.87192153930664062500e+01) (29, -3.89961395263671875000e+01) (30, -4.16605186462402343750e+01) (31, -4.12609558105468750000e+01) (32, -3.92589454650878906250e+01) (33, -3.98731918334960937500e+01) (34, -3.55569801330566406250e+01) (35, -3.79167060852050781250e+01) (36, -4.10388984680175781250e+01) (37, -4.14822158813476562500e+01) (38, -4.07609062194824218750e+01) (39, -4.09976081848144531250e+01) (40, -3.91245422363281250000e+01) (41, -3.97799758911132812500e+01) (42, -3.70095367431640625000e+01) (43, -4.17027320861816406250e+01) (44, -4.17570037841796875000e+01) (45, -3.96236915588378906250e+01) (46, -3.83678970336914062500e+01) (47, -3.73008460998535156250e+01) (48, -3.78469161987304687500e+01) (49, -3.78883857727050781250e+01) (50, -3.68683395385742187500e+01) (51, -4.22764472961425781250e+01) (52, -4.04813690185546875000e+01) (53, -4.15174827575683593750e+01) (54, -3.79743080139160156250e+01) (55, -4.19067955017089843750e+01) (56, -3.92147369384765625000e+01) (57, -3.97912826538085937500e+01) (58, -3.99265708923339843750e+01) (59, -4.13678894042968750000e+01) (60, -4.01819343566894531250e+01) (61, -4.00309562683105468750e+01) (62, -3.90569152832031250000e+01) (63, -3.93460884094238281250e+01) (64, -3.87601547241210937500e+01) (65, -4.12647666931152343750e+01) (66, -4.08133239746093750000e+01) (67, -3.97872695922851562500e+01) (68, -3.81829719543457031250e+01) (69, -3.73995742797851562500e+01) (70, -4.14884948730468750000e+01) (71, -3.93664970397949218750e+01) (72, -3.85750350952148437500e+01) (73, -4.11810493469238281250e+01) (74, -3.87635955810546875000e+01) (75, -4.08984260559082031250e+01) (76, -3.87691078186035156250e+01) (77, -4.27240371704101562500e+01) (78, -3.80798988342285156250e+01) (79, -4.12847518920898437500e+01) (80, -4.10539932250976562500e+01) (81, -3.87907981872558593750e+01) (82, -3.95952377319335937500e+01) (83, -3.89751358032226562500e+01) (84, -3.90626068115234375000e+01) (85, -3.92866859436035156250e+01) (86, -3.80649185180664062500e+01) (87, -3.99254798889160156250e+01) (88, -4.03286285400390625000e+01) (89, -3.86772346496582031250e+01) (90, -3.86381416320800781250e+01) (91, -3.90360946655273437500e+01) (92, -3.78649940490722656250e+01) (93, -3.80355911254882812500e+01) (94, -3.82915878295898437500e+01) (95, -3.82386817932128906250e+01) (96, -4.08608932495117187500e+01) (97, -3.80779228210449218750e+01) (98, -4.09206733703613281250e+01) (99, -3.64680213928222656250e+01) (100, -3.91425056457519531250e+01) (101, -3.90720024108886718750e+01) (102, -3.78033027648925781250e+01) (103, -3.57021598815917968750e+01) (104, -3.96492843627929687500e+01) (105, -3.81084938049316406250e+01) (106, -3.80885162353515625000e+01) (107, -4.22377281188964843750e+01) (108, -3.95254440307617187500e+01) (109, -3.74137001037597656250e+01) (110, -3.85643768310546875000e+01) (111, -4.06020317077636718750e+01) (112, -3.80139808654785156250e+01) (113, -4.05771026611328125000e+01) (114, -3.82147407531738281250e+01) (115, -3.68281669616699218750e+01) (116, -3.88687210083007812500e+01) (117, -4.03674926757812500000e+01) (118, -4.04547691345214843750e+01) (119, -3.74390792846679687500e+01) (120, -3.92471466064453125000e+01) (121, -3.86911048889160156250e+01) (122, -3.82218551635742187500e+01) (123, -3.67052345275878906250e+01) (124, -3.75902290344238281250e+01) (125, -4.09974861145019531250e+01) (126, -3.93027000427246093750e+01) (127, -3.88336143493652343750e+01) (128, -3.74994354248046875000e+01) (129, -3.82439689636230468750e+01) (130, -3.97307090759277343750e+01) (131, -3.94491996765136718750e+01) (132, -3.95621910095214843750e+01) (133, -4.15395965576171875000e+01) (134, -3.83993530273437500000e+01) (135, -4.03841552734375000000e+01) (136, -4.10742149353027343750e+01) (137, -nan) (138, -nan) (139, -nan) (140, -3.69959182739257812500e+01) (141, -4.09237899780273437500e+01) (142, -3.98074913024902343750e+01) (143, -3.87431945800781250000e+01) (144, -3.84214439392089843750e+01) (145, -3.81288452148437500000e+01) (146, -3.95062484741210937500e+01) (147, -nan) (148, -nan) (149, -nan) (150, -nan) (151, -nan) (152, -nan) (153, -nan) (154, -nan) (155, -nan) (156, -7.92516250610351562500e+01) (0, -3.99571685791015625000e+01) (1, -4.02127723693847656250e+01) (2, -3.93683166503906250000e+01) (3, -3.75176200866699218750e+01) (4, -3.95290603637695312500e+01) (5, -4.32447204589843750000e+01) (6, -3.89366607666015625000e+01) (7, -4.13683547973632812500e+01) (8, -4.01136894226074218750e+01) (9, -4.13558464050292968750e+01) (10, -3.73644828796386718750e+01) (11, -3.70287818908691406250e+01) (12, -3.64506683349609375000e+01) (13, -4.09555664062500000000e+01) (14, -3.86363334655761718750e+01) (15, -4.16850013732910156250e+01) (16, -3.73959579467773437500e+01) (17, -3.97632751464843750000e+01) (18, -3.97272987365722656250e+01) (19, -3.97723693847656250000e+01) (20, -4.23182487487792968750e+01) (21, -3.73067932128906250000e+01) (22, -3.86837997436523437500e+01) (23, -4.08946456909179687500e+01) (24, -3.86443862915039062500e+01) (25, -3.98260192871093750000e+01) (26, -4.03538169860839843750e+01) (27, -4.09730567932128906250e+01) (28, -3.95547523498535156250e+01) (29, -3.87217254638671875000e+01) (30, -4.16723289489746093750e+01) (31, -4.10005416870117187500e+01) (32, -3.93828964233398437500e+01) (33, -3.97735404968261718750e+01) (34, -3.60073051452636718750e+01) (35, -3.77093696594238281250e+01) (36, -4.05305213928222656250e+01) (37, -4.19063262939453125000e+01) (38, -4.08540153503417968750e+01) (39, -4.08282127380371093750e+01) (40, -3.91707992553710937500e+01) (41, -4.04233894348144531250e+01) (42, -3.70980339050292968750e+01) (43, -4.17361450195312500000e+01) (44, -4.21064491271972656250e+01) (45, -3.93720970153808593750e+01) (46, -3.86263999938964843750e+01) (47, -3.79051780700683593750e+01) (48, -3.74096183776855468750e+01) (49, -3.79948043823242187500e+01) (50, -3.66003303527832031250e+01) (51, -4.23862037658691406250e+01) (52, -4.10120391845703125000e+01) (53, -4.13107376098632812500e+01) (54, -3.77219429016113281250e+01) (55, -4.14602508544921875000e+01) (56, -3.93208084106445312500e+01) (57, -3.90191650390625000000e+01) (58, -4.01552696228027343750e+01) (59, -4.07406845092773437500e+01) (60, -4.02975654602050781250e+01) (61, -3.95373268127441406250e+01) (62, -3.84956092834472656250e+01) (63, -3.88048439025878906250e+01) (64, -3.89534759521484375000e+01) (65, -4.13056182861328125000e+01) (66, -4.08535003662109375000e+01) (67, -3.98214912414550781250e+01) (68, -3.86793174743652343750e+01) (69, -3.71686553955078125000e+01) (70, -4.12206726074218750000e+01) (71, -4.05578689575195312500e+01) (72, -3.87754440307617187500e+01) (73, -4.04888725280761718750e+01) (74, -3.88900413513183593750e+01) (75, -4.13463821411132812500e+01) (76, -3.90619850158691406250e+01) (77, -4.21722908020019531250e+01) (78, -3.81098175048828125000e+01) (79, -4.11077919006347656250e+01) (80, -4.10166206359863281250e+01) (81, -3.89083061218261718750e+01) (82, -3.96122817993164062500e+01) (83, -3.90329170227050781250e+01) (84, -4.00684242248535156250e+01) (85, -3.94813117980957031250e+01) (86, -3.75642280578613281250e+01) (87, -3.98105163574218750000e+01) (88, -4.04056549072265625000e+01) (89, -3.90065116882324218750e+01) (90, -3.83646545410156250000e+01) (91, -3.96780738830566406250e+01) (92, -3.87251091003417968750e+01) (93, -3.74565467834472656250e+01) (94, -3.86217079162597656250e+01) (95, -3.80334625244140625000e+01) (96, -4.01138839721679687500e+01) (97, -3.81912612915039062500e+01) (98, -4.18090782165527343750e+01) (99, -3.62109336853027343750e+01) (100, -3.90656280517578125000e+01) (101, -3.84730186462402343750e+01) (102, -3.74166259765625000000e+01) (103, -3.55052299499511718750e+01) (104, -4.04770393371582031250e+01) (105, -3.85034713745117187500e+01) (106, -3.79389114379882812500e+01) (107, -4.15245285034179687500e+01) (108, -3.96505012512207031250e+01) (109, -3.83327369689941406250e+01) (110, -3.92917747497558593750e+01) (111, -4.09251670837402343750e+01) (112, -3.82664299011230468750e+01) (113, -4.08430900573730468750e+01) (114, -3.83783607482910156250e+01) (115, -3.69772834777832031250e+01) (116, -3.92666168212890625000e+01) (117, -3.99503822326660156250e+01) (118, -4.04885101318359375000e+01) (119, -3.71665344238281250000e+01) (120, -3.94699287414550781250e+01) (121, -3.92405815124511718750e+01) (122, -3.83397941589355468750e+01) (123, -3.70885581970214843750e+01) (124, -3.82807693481445312500e+01) (125, -4.12065467834472656250e+01) (126, -3.89045333862304687500e+01) (127, -3.94530944824218750000e+01) (128, -3.76303176879882812500e+01) (129, -3.69681663513183593750e+01) (130, -4.06001625061035156250e+01) (131, -3.96529426574707031250e+01) (132, -4.02117309570312500000e+01) (133, -4.15706214904785156250e+01) (134, -3.75967178344726562500e+01) (135, -3.96144104003906250000e+01) (136, -4.13329315185546875000e+01) (137, -nan) (138, -nan) (139, -nan) (140, -3.70889511108398437500e+01) (141, -4.14903907775878906250e+01) (142, -3.96613159179687500000e+01) (143, -3.87276573181152343750e+01) (144, -3.81410751342773437500e+01) (145, -3.78027877807617187500e+01) (146, -3.88565101623535156250e+01) (147, -nan) (148, -nan) (149, -nan) (150, -nan) (151, -nan) (152, -nan) (153, -nan) (154, -nan) (155, -nan) (156, -7.91872863769531250000e+01) (0, -3.96157264709472656250e+01) (1, -4.02532653808593750000e+01) (2, -4.06409988403320312500e+01) (3, -3.66251602172851562500e+01) (4, -3.87348175048828125000e+01) (5, -4.16058158874511718750e+01) (6, -3.76415214538574218750e+01) (7, -4.17224655151367187500e+01) (8, -4.16041831970214843750e+01) (9, -4.09573822021484375000e+01) (10, -3.73923873901367187500e+01) (11, -3.72362251281738281250e+01) (12, -3.76360321044921875000e+01) (13, -4.07098693847656250000e+01) (14, -3.88755607604980468750e+01) (15, -4.10542144775390625000e+01) (16, -3.70103034973144531250e+01) (17, -3.85244636535644531250e+01) (18, -3.92762870788574218750e+01) (19, -3.96821975708007812500e+01) (20, -4.16609191894531250000e+01) (21, -3.68960151672363281250e+01) (22, -3.94311180114746093750e+01) (23, -3.88177146911621093750e+01) (24, -3.89239578247070312500e+01) (25, -4.03533668518066406250e+01) (26, -4.06098175048828125000e+01) (27, -4.08754043579101562500e+01) (28, -3.82084884643554687500e+01) (29, -3.93770904541015625000e+01) (30, -4.15241966247558593750e+01) (31, -4.11730422973632812500e+01) (32, -3.94270401000976562500e+01) (33, -3.99353675842285156250e+01) (34, -3.52673072814941406250e+01) (35, -3.80164604187011718750e+01) (36, -4.12118606567382812500e+01) (37, -4.11911430358886718750e+01) (38, -4.06074104309082031250e+01) (39, -4.12236289978027343750e+01) (40, -3.92064018249511718750e+01) (41, -3.93258705139160156250e+01) (42, -3.68179893493652343750e+01) (43, -4.16824645996093750000e+01) (44, -4.14910926818847656250e+01) (45, -3.98980979919433593750e+01) (46, -3.80281906127929687500e+01) (47, -3.68921699523925781250e+01) (48, -3.82551193237304687500e+01) (49, -3.76733970642089843750e+01) (50, -3.69690971374511718750e+01) (51, -4.22729644775390625000e+01) (52, -4.01826248168945312500e+01) (53, -4.16645965576171875000e+01) (54, -3.81821403503417968750e+01) (55, -4.23447799682617187500e+01) (56, -3.93027725219726562500e+01) (57, -4.00592422485351562500e+01) (58, -3.99296951293945312500e+01) (59, -4.18048820495605468750e+01) (60, -3.99638137817382812500e+01) (61, -4.02961730957031250000e+01) (62, -3.95789527893066406250e+01) (63, -3.97194671630859375000e+01) (64, -3.86534347534179687500e+01) (65, -4.10597763061523437500e+01) (66, -4.06204643249511718750e+01) (67, -3.96630935668945312500e+01) (68, -3.78973236083984375000e+01) (69, -3.74809150695800781250e+01) (70, -4.16591072082519531250e+01) (71, -3.89276199340820312500e+01) (72, -3.83255119323730468750e+01) (73, -4.14440498352050781250e+01) (74, -3.88986129760742187500e+01) (75, -4.06673469543457031250e+01) (76, -3.83934326171875000000e+01) (77, -4.32677612304687500000e+01) (78, -3.79959564208984375000e+01) (79, -4.15654525756835937500e+01) (80, -4.09236679077148437500e+01) (81, -3.86219406127929687500e+01) (82, -3.98134117126464843750e+01) (83, -3.89030113220214843750e+01) (84, -3.84371147155761718750e+01) (85, -3.91164627075195312500e+01) (86, -3.81325645446777343750e+01) (87, -4.00574684143066406250e+01) (88, -4.01939239501953125000e+01) (89, -3.87716178894042968750e+01) (90, -3.87097587585449218750e+01) (91, -3.86627235412597656250e+01) (92, -3.75332946777343750000e+01) (93, -3.83615150451660156250e+01) (94, -3.81625061035156250000e+01) (95, -3.84832801818847656250e+01) (96, -4.10926856994628906250e+01) (97, -3.78987159729003906250e+01) (98, -4.02278251647949218750e+01) (99, -3.66487426757812500000e+01) (100, -3.92511749267578125000e+01) (101, -3.94461555480957031250e+01) (102, -3.80332527160644531250e+01) (103, -3.60850944519042968750e+01) (104, -3.92410163879394531250e+01) (105, -3.77529220581054687500e+01) (106, -3.81050376892089843750e+01) (107, -4.26882209777832031250e+01) (108, -3.93215942382812500000e+01) (109, -3.71328468322753906250e+01) (110, -3.81708374023437500000e+01) (111, -4.03682746887207031250e+01) (112, -3.76332893371582031250e+01) (113, -4.03093032836914062500e+01) (114, -3.82597236633300781250e+01) (115, -3.67811203002929687500e+01) (116, -3.85912361145019531250e+01) (117, -4.05162162780761718750e+01) (118, -4.01812820434570312500e+01) (119, -3.76548309326171875000e+01) (120, -3.89626274108886718750e+01) (121, -3.82887535095214843750e+01) (122, -3.80799827575683593750e+01) (123, -3.65955963134765625000e+01) (124, -3.71158065795898437500e+01) (125, -4.08581581115722656250e+01) (126, -3.93996276855468750000e+01) (127, -3.85766029357910156250e+01) (128, -3.76412086486816406250e+01) (129, -3.88436546325683593750e+01) (130, -3.91417922973632812500e+01) (131, -3.93871421813964843750e+01) (132, -3.92778892517089843750e+01) (133, -4.16492156982421875000e+01) (134, -3.88056602478027343750e+01) (135, -4.07993087768554687500e+01) (136, -4.10509681701660156250e+01) (137, -nan) (138, -nan) (139, -nan) (140, -3.70717468261718750000e+01) (141, -4.06740646362304687500e+01) (142, -3.98111419677734375000e+01) (143, -3.85047378540039062500e+01) (144, -3.85012359619140625000e+01) (145, -3.83606529235839843750e+01) (146, -4.00101394653320312500e+01) (147, -nan) (148, -nan) (149, -nan) (150, -nan) (151, -nan) (152, -nan) (153, -nan) (154, -nan) (155, -nan) (156, -7.89510803222656250000e+01) (0, -3.96709251403808593750e+01) (1, -4.02882270812988281250e+01) (2, -4.01788024902343750000e+01) (3, -3.69233398437500000000e+01) (4, -3.88950042724609375000e+01) (5, -4.21505775451660156250e+01) (6, -3.81520309448242187500e+01) (7, -4.16252288818359375000e+01) (8, -4.10517845153808593750e+01) (9, -4.09678878784179687500e+01) (10, -3.73785820007324218750e+01) (11, -3.72073707580566406250e+01) (12, -3.70577545166015625000e+01) (13, -4.08632240295410156250e+01) (14, -3.88863067626953125000e+01) (15, -4.12264633178710937500e+01) (16, -3.71990089416503906250e+01) (17, -3.87737655639648437500e+01) (18, -3.95503082275390625000e+01) (19, -3.97526206970214843750e+01) (20, -4.18396644592285156250e+01) (21, -3.69179344177246093750e+01) (22, -3.92189521789550781250e+01) (23, -3.95661926269531250000e+01) (24, -3.88009948730468750000e+01) (25, -4.01345863342285156250e+01) (26, -4.05813484191894531250e+01) (27, -4.08746490478515625000e+01) (28, -3.85760688781738281250e+01) (29, -3.91917381286621093750e+01) (30, -4.16426734924316406250e+01) (31, -4.12431449890136718750e+01) (32, -3.92536506652832031250e+01) (33, -3.96713066101074218750e+01) (34, -3.54061965942382812500e+01) (35, -3.79014472961425781250e+01) (36, -4.10399360656738281250e+01) (37, -4.14907875061035156250e+01) (38, -4.06164932250976562500e+01) (39, -4.11397552490234375000e+01) (40, -3.92245559692382812500e+01) (41, -3.98282432556152343750e+01) (42, -3.69113006591796875000e+01) (43, -4.16891708374023437500e+01) (44, -4.16874656677246093750e+01) (45, -3.96672973632812500000e+01) (46, -3.81810188293457031250e+01) (47, -3.71237220764160156250e+01) (48, -3.79342803955078125000e+01) (49, -3.79397010803222656250e+01) (50, -3.68057403564453125000e+01) (51, -4.24544868469238281250e+01) (52, -4.03458290100097656250e+01) (53, -4.15283393859863281250e+01) (54, -3.81172523498535156250e+01) (55, -4.19297714233398437500e+01) (56, -3.93912620544433593750e+01) (57, -3.97880210876464843750e+01) (58, -4.00713310241699218750e+01) (59, -4.14854354858398437500e+01) (60, -4.00824623107910156250e+01) (61, -4.01981811523437500000e+01) (62, -3.91508064270019531250e+01) (63, -3.95135879516601562500e+01) (64, -3.89138793945312500000e+01) (65, -4.11871910095214843750e+01) (66, -4.06905670166015625000e+01) (67, -3.96925888061523437500e+01) (68, -3.81119155883789062500e+01) (69, -3.73841667175292968750e+01) (70, -4.15424766540527343750e+01) (71, -3.93730926513671875000e+01) (72, -3.83905487060546875000e+01) (73, -4.11655464172363281250e+01) (74, -3.88155517578125000000e+01) (75, -4.08809547424316406250e+01) (76, -3.87288780212402343750e+01) (77, -4.28705062866210937500e+01) (78, -3.81699562072753906250e+01) (79, -4.13347473144531250000e+01) (80, -4.09992485046386718750e+01) (81, -3.88021812438964843750e+01) (82, -3.95872955322265625000e+01) (83, -3.90489997863769531250e+01) (84, -3.90253715515136718750e+01) (85, -3.91542930603027343750e+01) (86, -3.79249343872070312500e+01) (87, -3.99009895324707031250e+01) (88, -4.01694259643554687500e+01) (89, -3.88918228149414062500e+01) (90, -3.87042655944824218750e+01) (91, -3.89833641052246093750e+01) (92, -3.79497489929199218750e+01) (93, -3.79406089782714843750e+01) (94, -3.81623115539550781250e+01) (95, -3.83126869201660156250e+01) (96, -4.09295616149902343750e+01) (97, -3.80714454650878906250e+01) (98, -4.08415336608886718750e+01) (99, -3.64654884338378906250e+01) (100, -3.93483619689941406250e+01) (101, -3.91134071350097656250e+01) (102, -3.78795585632324218750e+01) (103, -3.57518844604492187500e+01) (104, -3.95731582641601562500e+01) (105, -3.79573173522949218750e+01) (106, -3.81290779113769531250e+01) (107, -4.24497337341308593750e+01) (108, -3.95032806396484375000e+01) (109, -3.75012359619140625000e+01) (110, -3.85058403015136718750e+01) (111, -4.05131034851074218750e+01) (112, -3.79122772216796875000e+01) (113, -4.05228271484375000000e+01) (114, -3.82118530273437500000e+01) (115, -3.69909324645996093750e+01) (116, -3.89269676208496093750e+01) (117, -4.02280387878417968750e+01) (118, -4.03506393432617187500e+01) (119, -3.76069297790527343750e+01) (120, -3.90629005432128906250e+01) (121, -3.86099243164062500000e+01) (122, -3.81090278625488281250e+01) (123, -3.68854179382324218750e+01) (124, -3.76038589477539062500e+01) (125, -4.09974288940429687500e+01) (126, -3.93472251892089843750e+01) (127, -3.88920860290527343750e+01) (128, -3.75171470642089843750e+01) (129, -3.83052940368652343750e+01) (130, -3.95295104980468750000e+01) (131, -3.94334487915039062500e+01) (132, -3.95409965515136718750e+01) (133, -4.16663627624511718750e+01) (134, -3.84651565551757812500e+01) (135, -4.03951835632324218750e+01) (136, -4.10720176696777343750e+01) (137, -nan) (138, -nan) (139, -nan) (140, -3.71832580566406250000e+01) (141, -4.10181884765625000000e+01) (142, -3.97417678833007812500e+01) (143, -3.86050300598144531250e+01) (144, -3.82906646728515625000e+01) (145, -3.80793151855468750000e+01) (146, -3.95867919921875000000e+01) (147, -nan) (148, -nan) (149, -nan) (150, -nan) (151, -nan) (152, -nan) (153, -nan) (154, -nan) (155, -nan) (156, -7.92372589111328125000e+01) (0, -3.95913238525390625000e+01) (1, -4.03269309997558593750e+01) (2, -4.05391845703125000000e+01) (3, -3.66943588256835937500e+01) (4, -3.86624679565429687500e+01) (5, -4.17205200195312500000e+01) (6, -3.78454132080078125000e+01) (7, -4.17254333496093750000e+01) (8, -4.15751152038574218750e+01) (9, -4.08957405090332031250e+01) (10, -3.73005218505859375000e+01) (11, -3.72938537597656250000e+01) (12, -3.74635772705078125000e+01) (13, -4.07982330322265625000e+01) (14, -3.89288978576660156250e+01) (15, -4.10294494628906250000e+01) (16, -3.70871582031250000000e+01) (17, -3.84117393493652343750e+01) (18, -3.93321800231933593750e+01) (19, -3.97557907104492187500e+01) (20, -4.16437873840332031250e+01) (21, -3.68046340942382812500e+01) (22, -3.93952674865722656250e+01) (23, -3.87915077209472656250e+01) (24, -3.89196586608886718750e+01) (25, -4.01582183837890625000e+01) (26, -4.04914588928222656250e+01) (27, -4.07983779907226562500e+01) (28, -3.81805305480957031250e+01) (29, -3.93696861267089843750e+01) (30, -4.14818458557128906250e+01) (31, -4.12864532470703125000e+01) (32, -3.92860488891601562500e+01) (33, -3.98250999450683593750e+01) (34, -3.52213287353515625000e+01) (35, -3.79960327148437500000e+01) (36, -4.13689384460449218750e+01) (37, -4.10818214416503906250e+01) (38, -4.06145057678222656250e+01) (39, -4.11932029724121093750e+01) (40, -3.90016708374023437500e+01) (41, -3.94977645874023437500e+01) (42, -3.68663635253906250000e+01) (43, -4.15699806213378906250e+01) (44, -4.14989891052246093750e+01) (45, -3.97584114074707031250e+01) (46, -3.81188316345214843750e+01) (47, -3.69850425720214843750e+01) (48, -3.81709556579589843750e+01) (49, -3.78030624389648437500e+01) (50, -3.70850944519042968750e+01) (51, -4.24127655029296875000e+01) (52, -4.02307624816894531250e+01) (53, -4.15407752990722656250e+01) (54, -3.82085189819335937500e+01) (55, -4.21094970703125000000e+01) (56, -3.92365341186523437500e+01) (57, -3.99502639770507812500e+01) (58, -3.98814353942871093750e+01) (59, -4.18548240661621093750e+01) (60, -3.99077415466308593750e+01) (61, -4.03980064392089843750e+01) (62, -3.95165748596191406250e+01) (63, -3.97111358642578125000e+01) (64, -3.86863746643066406250e+01) (65, -4.12007713317871093750e+01) (66, -4.06327934265136718750e+01) (67, -3.96412239074707031250e+01) (68, -3.79291114807128906250e+01) (69, -3.74799995422363281250e+01) (70, -4.15984878540039062500e+01) (71, -3.90082015991210937500e+01) (72, -3.82534103393554687500e+01) (73, -4.14054565429687500000e+01) (74, -3.88094482421875000000e+01) (75, -4.05990257263183593750e+01) (76, -3.85122680664062500000e+01) (77, -4.32190399169921875000e+01) (78, -3.79656143188476562500e+01) (79, -4.15995407104492187500e+01) (80, -4.10266876220703125000e+01) (81, -3.87257957458496093750e+01) (82, -3.97600784301757812500e+01) (83, -3.90184555053710937500e+01) (84, -3.84757385253906250000e+01) (85, -3.91257820129394531250e+01) (86, -3.82490692138671875000e+01) (87, -3.99633331298828125000e+01) (88, -4.03460006713867187500e+01) (89, -3.86314315795898437500e+01) (90, -3.86893920898437500000e+01) (91, -3.87839355468750000000e+01) (92, -3.75621337890625000000e+01) (93, -3.83053665161132812500e+01) (94, -3.80563087463378906250e+01) (95, -3.84771499633789062500e+01) (96, -4.11677551269531250000e+01) (97, -3.80222663879394531250e+01) (98, -4.04851455688476562500e+01) (99, -3.65226745605468750000e+01) (100, -3.93744468688964843750e+01) (101, -3.93500366210937500000e+01) (102, -3.79177589416503906250e+01) (103, -3.58791351318359375000e+01) (104, -3.94382247924804687500e+01) (105, -3.78260307312011718750e+01) (106, -3.80507698059082031250e+01) (107, -4.26754608154296875000e+01) (108, -3.93611564636230468750e+01) (109, -3.70904693603515625000e+01) (110, -3.82782936096191406250e+01) (111, -4.02940292358398437500e+01) (112, -3.76643714904785156250e+01) (113, -4.03487052917480468750e+01) (114, -3.82874794006347656250e+01) (115, -3.67794418334960937500e+01) (116, -3.86241073608398437500e+01) (117, -4.04262084960937500000e+01) (118, -4.03249626159667968750e+01) (119, -3.78002090454101562500e+01) (120, -3.89923248291015625000e+01) (121, -3.84554290771484375000e+01) (122, -3.81148490905761718750e+01) (123, -3.66025352478027343750e+01) (124, -3.72664108276367187500e+01) (125, -4.07734527587890625000e+01) (126, -3.93805427551269531250e+01) (127, -3.85942306518554687500e+01) (128, -3.76561088562011718750e+01) (129, -3.87563514709472656250e+01) (130, -3.92898941040039062500e+01) (131, -3.95337371826171875000e+01) (132, -3.94475250244140625000e+01) (133, -4.16585540771484375000e+01) (134, -3.89448318481445312500e+01) (135, -4.08263168334960937500e+01) (136, -4.11131820678710937500e+01) (137, -nan) (138, -nan) (139, -nan) (140, -3.71201896667480468750e+01) (141, -4.08653450012207031250e+01) (142, -3.97902908325195312500e+01) (143, -3.85788383483886718750e+01) (144, -3.84436950683593750000e+01) (145, -3.83497848510742187500e+01) (146, -4.00246162414550781250e+01) (147, -nan) (148, -nan) (149, -nan) (150, -nan) (151, -nan) (152, -nan) (153, -nan) (154, -nan) (155, -nan) (156, -7.90731658935546875000e+01) (0, -4.00409545898437500000e+01) (1, -4.01695175170898437500e+01) (2, -3.90894088745117187500e+01) (3, -3.77074699401855468750e+01) (4, -3.97067832946777343750e+01) (5, -4.36588516235351562500e+01) (6, -3.93536567687988281250e+01) (7, -4.13557624816894531250e+01) (8, -3.95495719909667968750e+01) (9, -4.13522758483886718750e+01) (10, -3.73508529663085937500e+01) (11, -3.68622932434082031250e+01) (12, -3.62117233276367187500e+01) (13, -4.10028343200683593750e+01) (14, -3.85139007568359375000e+01) (15, -4.18672409057617187500e+01) (16, -3.74078903198242187500e+01) (17, -4.02127380371093750000e+01) (18, -3.97381439208984375000e+01) (19, -3.98343849182128906250e+01) (20, -4.24693183898925781250e+01) (21, -3.73523445129394531250e+01) (22, -3.85117530822753906250e+01) (23, -4.15281600952148437500e+01) (24, -3.84421272277832031250e+01) (25, -3.98151550292968750000e+01) (26, -4.02900581359863281250e+01) (27, -4.08730239868164062500e+01) (28, -3.99341735839843750000e+01) (29, -3.85521316528320312500e+01) (30, -4.17081451416015625000e+01) (31, -4.09317169189453125000e+01) (32, -3.93583602905273437500e+01) (33, -3.95796165466308593750e+01) (34, -3.61361236572265625000e+01) (35, -3.75672569274902343750e+01) (36, -4.03746986389160156250e+01) (37, -4.21413421630859375000e+01) (38, -4.08913497924804687500e+01) (39, -4.09055023193359375000e+01) (40, -3.91525573730468750000e+01) (41, -4.07007255554199218750e+01) (42, -3.71943130493164062500e+01) (43, -4.15368652343750000000e+01) (44, -4.22312011718750000000e+01) (45, -3.92566986083984375000e+01) (46, -3.85904846191406250000e+01) (47, -3.81139488220214843750e+01) (48, -3.70047988891601562500e+01) (49, -3.80647239685058593750e+01) (50, -3.64519119262695312500e+01) (51, -4.24467086791992187500e+01) (52, -4.14458007812500000000e+01) (53, -4.12119483947753906250e+01) (54, -3.77356643676757812500e+01) (55, -4.12861862182617187500e+01) (56, -3.91763229370117187500e+01) (57, -3.85913963317871093750e+01) (58, -4.01708793640136718750e+01) (59, -4.05219841003417968750e+01) (60, -4.02115058898925781250e+01) (61, -3.92725753784179687500e+01) (62, -3.80230445861816406250e+01) (63, -3.85906333923339843750e+01) (64, -3.90697898864746093750e+01) (65, -4.13596725463867187500e+01) (66, -4.08411407470703125000e+01) (67, -3.99347496032714843750e+01) (68, -3.89913673400878906250e+01) (69, -3.70410423278808593750e+01) (70, -4.11288681030273437500e+01) (71, -4.10294761657714843750e+01) (72, -3.88244018554687500000e+01) (73, -4.02719764709472656250e+01) (74, -3.89200096130371093750e+01) (75, -4.14803428649902343750e+01) (76, -3.92744636535644531250e+01) (77, -4.19852104187011718750e+01) (78, -3.82370147705078125000e+01) (79, -4.11365585327148437500e+01) (80, -4.10843734741210937500e+01) (81, -3.88169364929199218750e+01) (82, -3.95203361511230468750e+01) (83, -3.90163955688476562500e+01) (84, -4.05865936279296875000e+01) (85, -3.97007064819335937500e+01) (86, -3.74320526123046875000e+01) (87, -3.96482315063476562500e+01) (88, -4.03840675354003906250e+01) (89, -3.88278007507324218750e+01) (90, -3.81943588256835937500e+01) (91, -4.00025596618652343750e+01) (92, -3.90637207031250000000e+01) (93, -3.70313720703125000000e+01) (94, -3.86019935607910156250e+01) (95, -3.79386672973632812500e+01) (96, -3.96506080627441406250e+01) (97, -3.82796478271484375000e+01) (98, -4.20720939636230468750e+01) (99, -3.62902107238769531250e+01) (100, -3.90414695739746093750e+01) (101, -3.81141777038574218750e+01) (102, -3.71605110168457031250e+01) (103, -3.53027038574218750000e+01) (104, -4.07404785156250000000e+01) (105, -3.89015274047851562500e+01) (106, -3.77975502014160156250e+01) (107, -4.11977729797363281250e+01) (108, -3.97618484497070312500e+01) (109, -3.86767158508300781250e+01) (110, -3.94813575744628906250e+01) (111, -4.12073097229003906250e+01) (112, -3.85066566467285156250e+01) (113, -4.10586357116699218750e+01) (114, -3.85542716979980468750e+01) (115, -3.69196243286132812500e+01) (116, -3.93512802124023437500e+01) (117, -3.97370262145996093750e+01) (118, -4.06036415100097656250e+01) (119, -3.69065856933593750000e+01) (120, -3.95428352355957031250e+01) (121, -3.95403594970703125000e+01) (122, -3.83991851806640625000e+01) (123, -3.70947608947753906250e+01) (124, -3.86994972229003906250e+01) (125, -4.13729896545410156250e+01) (126, -3.89031143188476562500e+01) (127, -3.96094245910644531250e+01) (128, -3.77091217041015625000e+01) (129, -3.64575424194335937500e+01) (130, -4.08264961242675781250e+01) (131, -3.95473518371582031250e+01) (132, -4.03498229980468750000e+01) (133, -4.15793571472167968750e+01) (134, -3.72614288330078125000e+01) (135, -3.93621292114257812500e+01) (136, -4.13356132507324218750e+01) (137, -nan) (138, -nan) (139, -nan) (140, -3.70122261047363281250e+01) (141, -4.16823196411132812500e+01) (142, -3.96953468322753906250e+01) (143, -3.88380508422851562500e+01) (144, -3.78452644348144531250e+01) (145, -3.76412811279296875000e+01) (146, -3.84683380126953125000e+01) (147, -nan) (148, -nan) (149, -nan) (150, -nan) (151, -nan) (152, -nan) (153, -nan) (154, -nan) (155, -nan) (156, -7.89867401123046875000e+01) (0, -3.99295692443847656250e+01) (1, -4.02235374450683593750e+01) (2, -3.94577217102050781250e+01) (3, -3.74138526916503906250e+01) (4, -3.93886528015136718750e+01) (5, -4.31933135986328125000e+01) (6, -3.88483886718750000000e+01) (7, -4.15108871459960937500e+01) (8, -4.00350036621093750000e+01) (9, -4.13542060852050781250e+01) (10, -3.73230667114257812500e+01) (11, -3.71065673828125000000e+01) (12, -3.65422248840332031250e+01) (13, -4.09325332641601562500e+01) (14, -3.86411209106445312500e+01) (15, -4.17190856933593750000e+01) (16, -3.73897628784179687500e+01) (17, -3.96361923217773437500e+01) (18, -3.95920867919921875000e+01) (19, -3.96563339233398437500e+01) (20, -4.23280639648437500000e+01) (21, -3.72589378356933593750e+01) (22, -3.88031501770019531250e+01) (23, -4.08649330139160156250e+01) (24, -3.87322311401367187500e+01) (25, -3.97810325622558593750e+01) (26, -4.03363647460937500000e+01) (27, -4.09872474670410156250e+01) (28, -3.93459815979003906250e+01) (29, -3.88838844299316406250e+01) (30, -4.15514755249023437500e+01) (31, -4.10581588745117187500e+01) (32, -3.93061790466308593750e+01) (33, -3.97091636657714843750e+01) (34, -3.59603881835937500000e+01) (35, -3.77566261291503906250e+01) (36, -4.04887809753417968750e+01) (37, -4.18056449890136718750e+01) (38, -4.07933197021484375000e+01) (39, -4.08689575195312500000e+01) (40, -3.91002349853515625000e+01) (41, -4.05248565673828125000e+01) (42, -3.69654159545898437500e+01) (43, -4.17216758728027343750e+01) (44, -4.19756698608398437500e+01) (45, -3.94877128601074218750e+01) (46, -3.86479454040527343750e+01) (47, -3.77610855102539062500e+01) (48, -3.74560165405273437500e+01) (49, -3.81274528503417968750e+01) (50, -3.66197166442871093750e+01) (51, -4.24311752319335937500e+01) (52, -4.10868721008300781250e+01) (53, -4.14235725402832031250e+01) (54, -3.78206291198730468750e+01) (55, -4.14409141540527343750e+01) (56, -3.93639793395996093750e+01) (57, -3.91191673278808593750e+01) (58, -4.01142120361328125000e+01) (59, -4.08873977661132812500e+01) (60, -4.02675704956054687500e+01) (61, -3.96430130004882812500e+01) (62, -3.84642868041992187500e+01) (63, -3.89689712524414062500e+01) (64, -3.89534950256347656250e+01) (65, -4.12064971923828125000e+01) (66, -4.07937355041503906250e+01) (67, -3.97616004943847656250e+01) (68, -3.87101478576660156250e+01) (69, -3.70684585571289062500e+01) (70, -4.12099418640136718750e+01) (71, -4.04960289001464843750e+01) (72, -3.87845649719238281250e+01) (73, -4.06016693115234375000e+01) (74, -3.88716659545898437500e+01) (75, -4.12299385070800781250e+01) (76, -3.89962158203125000000e+01) (77, -4.22230606079101562500e+01) (78, -3.81323547363281250000e+01) (79, -4.10895233154296875000e+01) (80, -4.09493408203125000000e+01) (81, -3.89298324584960937500e+01) (82, -3.94062118530273437500e+01) (83, -3.88449440002441406250e+01) (84, -4.01443290710449218750e+01) (85, -3.95672073364257812500e+01) (86, -3.75799751281738281250e+01) (87, -3.97631416320800781250e+01) (88, -4.03389625549316406250e+01) (89, -3.89624099731445312500e+01) (90, -3.82089843750000000000e+01) (91, -3.95577011108398437500e+01) (92, -3.87197799682617187500e+01) (93, -3.74759635925292968750e+01) (94, -3.84239959716796875000e+01) (95, -3.80936965942382812500e+01) (96, -4.00455589294433593750e+01) (97, -3.81771507263183593750e+01) (98, -4.17568359375000000000e+01) (99, -3.64034194946289062500e+01) (100, -3.91777915954589843750e+01) (101, -3.84720001220703125000e+01) (102, -3.73844833374023437500e+01) (103, -3.54247589111328125000e+01) (104, -4.04944953918457031250e+01) (105, -3.86336250305175781250e+01) (106, -3.79806137084960937500e+01) (107, -4.15686950683593750000e+01) (108, -3.95889129638671875000e+01) (109, -3.81239852905273437500e+01) (110, -3.92323493957519531250e+01) (111, -4.10139999389648437500e+01) (112, -3.83362464904785156250e+01) (113, -4.08222236633300781250e+01) (114, -3.85186729431152343750e+01) (115, -3.69644927978515625000e+01) (116, -3.91154937744140625000e+01) (117, -3.98818283081054687500e+01) (118, -4.06446838378906250000e+01) (119, -3.72167282104492187500e+01) (120, -3.95582122802734375000e+01) (121, -3.92043533325195312500e+01) (122, -3.82713470458984375000e+01) (123, -3.69887466430664062500e+01) (124, -3.84541702270507812500e+01) (125, -4.11821517944335937500e+01) (126, -3.88867530822753906250e+01) (127, -3.93054046630859375000e+01) (128, -3.76131324768066406250e+01) (129, -3.72171478271484375000e+01) (130, -4.03855667114257812500e+01) (131, -3.95107574462890625000e+01) (132, -4.01126441955566406250e+01) (133, -4.15792121887207031250e+01) (134, -3.76310348510742187500e+01) (135, -3.96333961486816406250e+01) (136, -4.12640075683593750000e+01) (137, -nan) (138, -nan) (139, -nan) (140, -3.69505043029785156250e+01) (141, -4.14266548156738281250e+01) (142, -3.96625061035156250000e+01) (143, -3.86669769287109375000e+01) (144, -3.81126289367675781250e+01) (145, -3.79616088867187500000e+01) (146, -3.88352241516113281250e+01) (147, -nan) (148, -nan) (149, -nan) (150, -nan) (151, -nan) (152, -nan) (153, -nan) (154, -nan) (155, -nan) (156, -7.92169036865234375000e+01) (0, -3.96403999328613281250e+01) (1, -4.04492187500000000000e+01) (2, -4.07324485778808593750e+01) (3, -3.65523796081542968750e+01) (4, -3.86946296691894531250e+01) (5, -4.15750198364257812500e+01) (6, -3.77031135559082031250e+01) (7, -4.17819976806640625000e+01) (8, -4.15715637207031250000e+01) (9, -4.10705146789550781250e+01) (10, -3.73544998168945312500e+01) (11, -3.71317558288574218750e+01) (12, -3.76116828918457031250e+01) (13, -4.07799110412597656250e+01) (14, -3.88629112243652343750e+01) (15, -4.11009902954101562500e+01) (16, -3.70660896301269531250e+01) (17, -3.83357124328613281250e+01) (18, -3.92906990051269531250e+01) (19, -3.96662101745605468750e+01) (20, -4.16924819946289062500e+01) (21, -3.67306518554687500000e+01) (22, -3.95309867858886718750e+01) (23, -3.86140403747558593750e+01) (24, -3.91252822875976562500e+01) (25, -4.03700141906738281250e+01) (26, -4.06751441955566406250e+01) (27, -4.08369255065917968750e+01) (28, -3.79307937622070312500e+01) (29, -3.93199157714843750000e+01) (30, -4.15011520385742187500e+01) (31, -4.12916641235351562500e+01) (32, -3.92859992980957031250e+01) (33, -3.99304428100585937500e+01) (34, -3.53123474121093750000e+01) (35, -3.79155120849609375000e+01) (36, -4.13378791809082031250e+01) (37, -4.11506538391113281250e+01) (38, -4.07410621643066406250e+01) (39, -4.11636734008789062500e+01) (40, -3.91190986633300781250e+01) (41, -3.93533592224121093750e+01) (42, -3.68317832946777343750e+01) (43, -4.14888648986816406250e+01) (44, -4.14147415161132812500e+01) (45, -3.99263191223144531250e+01) (46, -3.81161079406738281250e+01) (47, -3.68519172668457031250e+01) (48, -3.82343368530273437500e+01) (49, -3.78160438537597656250e+01) (50, -3.70277290344238281250e+01) (51, -4.22591323852539062500e+01) (52, -3.99041709899902343750e+01) (53, -4.15337524414062500000e+01) (54, -3.81489181518554687500e+01) (55, -4.23771171569824218750e+01) (56, -3.93658905029296875000e+01) (57, -4.01344108581542968750e+01) (58, -3.98456726074218750000e+01) (59, -4.17779502868652343750e+01) (60, -4.00703811645507812500e+01) (61, -4.05072631835937500000e+01) (62, -3.96571235656738281250e+01) (63, -3.97798461914062500000e+01) (64, -3.87651863098144531250e+01) (65, -4.11356773376464843750e+01) (66, -4.07142562866210937500e+01) (67, -3.96307182312011718750e+01) (68, -3.76977653503417968750e+01) (69, -3.75212440490722656250e+01) (70, -4.15805969238281250000e+01) (71, -3.88199653625488281250e+01) (72, -3.84168815612792968750e+01) (73, -4.16710815429687500000e+01) (74, -3.87292594909667968750e+01) (75, -4.06945648193359375000e+01) (76, -3.84987869262695312500e+01) (77, -4.32946815490722656250e+01) (78, -3.81058158874511718750e+01) (79, -4.14239311218261718750e+01) (80, -4.10446281433105468750e+01) (81, -3.85186157226562500000e+01) (82, -3.96440734863281250000e+01) (83, -3.90543632507324218750e+01) (84, -3.83025894165039062500e+01) (85, -3.90659446716308593750e+01) (86, -3.83015518188476562500e+01) (87, -3.99007492065429687500e+01) (88, -4.01654319763183593750e+01) (89, -3.88148117065429687500e+01) (90, -3.86969604492187500000e+01) (91, -3.84584541320800781250e+01) (92, -3.74078292846679687500e+01) (93, -3.83698921203613281250e+01) (94, -3.79891433715820312500e+01) (95, -3.83895492553710937500e+01) (96, -4.11997680664062500000e+01) (97, -3.80791206359863281250e+01) (98, -4.02011680603027343750e+01) (99, -3.65567893981933593750e+01) (100, -3.92364807128906250000e+01) (101, -3.94883575439453125000e+01) (102, -3.79907035827636718750e+01) (103, -3.59989776611328125000e+01) (104, -3.92822380065917968750e+01) (105, -3.76632194519042968750e+01) (106, -3.80673370361328125000e+01) (107, -4.28258857727050781250e+01) (108, -3.92266807556152343750e+01) (109, -3.71073150634765625000e+01) (110, -3.81981086730957031250e+01) (111, -4.03664627075195312500e+01) (112, -3.78009071350097656250e+01) (113, -4.04282073974609375000e+01) (114, -3.82063980102539062500e+01) (115, -3.67430648803710937500e+01) (116, -3.86939010620117187500e+01) (117, -4.04118309020996093750e+01) (118, -4.01885299682617187500e+01) (119, -3.78163833618164062500e+01) (120, -3.90666313171386718750e+01) (121, -3.81902732849121093750e+01) (122, -3.80401840209960937500e+01) (123, -3.66839790344238281250e+01) (124, -3.71660232543945312500e+01) (125, -4.06730117797851562500e+01) (126, -3.94338378906250000000e+01) (127, -3.84533042907714843750e+01) (128, -3.74548225402832031250e+01) (129, -3.90580520629882812500e+01) (130, -3.90945396423339843750e+01) (131, -3.94005699157714843750e+01) (132, -3.92633781433105468750e+01) (133, -4.16124610900878906250e+01) (134, -3.90312728881835937500e+01) (135, -4.08360061645507812500e+01) (136, -4.09743652343750000000e+01) (137, -nan) (138, -nan) (139, -nan) (140, -3.72157363891601562500e+01) (141, -4.07178077697753906250e+01) (142, -3.99689254760742187500e+01) (143, -3.86032981872558593750e+01) (144, -3.85673408508300781250e+01) (145, -3.82751235961914062500e+01) (146, -4.01908149719238281250e+01) (147, -nan) (148, -nan) (149, -nan) (150, -nan) (151, -nan) (152, -nan) (153, -nan) (154, -nan) (155, -nan) (156, -7.92135848999023437500e+01) (0, -3.98823966979980468750e+01) (1, -4.01325492858886718750e+01) (2, -3.90772056579589843750e+01) (3, -3.79364471435546875000e+01) (4, -3.96995735168457031250e+01) (5, -4.37922096252441406250e+01) (6, -3.92857398986816406250e+01) (7, -4.11994438171386718750e+01) (8, -3.95576667785644531250e+01) (9, -4.13065032958984375000e+01) (10, -3.73485336303710937500e+01) (11, -3.69282493591308593750e+01) (12, -3.59411697387695312500e+01) (13, -4.10235557556152343750e+01) (14, -3.84216575622558593750e+01) (15, -4.19232444763183593750e+01) (16, -3.73691329956054687500e+01) (17, -4.03154449462890625000e+01) (18, -3.98483886718750000000e+01) (19, -3.98935852050781250000e+01) (20, -4.25332832336425781250e+01) (21, -3.74365272521972656250e+01) (22, -3.85344009399414062500e+01) (23, -4.16451950073242187500e+01) (24, -3.86040954589843750000e+01) (25, -3.97932052612304687500e+01) (26, -4.04245452880859375000e+01) (27, -4.09632415771484375000e+01) (28, -4.01353302001953125000e+01) (29, -3.86806869506835937500e+01) (30, -4.16376037597656250000e+01) (31, -4.07982292175292968750e+01) (32, -3.95085983276367187500e+01) (33, -3.95895729064941406250e+01) (34, -3.62354049682617187500e+01) (35, -3.76088790893554687500e+01) (36, -4.03165779113769531250e+01) (37, -4.22992897033691406250e+01) (38, -4.08416519165039062500e+01) (39, -4.08169898986816406250e+01) (40, -3.91771430969238281250e+01) (41, -4.09614982604980468750e+01) (42, -3.72319335937500000000e+01) (43, -4.16172599792480468750e+01) (44, -4.22138137817382812500e+01) (45, -3.91694908142089843750e+01) (46, -3.87209510803222656250e+01) (47, -3.83110160827636718750e+01) (48, -3.70808792114257812500e+01) (49, -3.82596931457519531250e+01) (50, -3.65651931762695312500e+01) (51, -4.23864593505859375000e+01) (52, -4.15283317565917968750e+01) (53, -4.11909217834472656250e+01) (54, -3.75648727416992187500e+01) (55, -4.11628341674804687500e+01) (56, -3.91966361999511718750e+01) (57, -3.85002517700195312500e+01) (58, -4.02361869812011718750e+01) (59, -4.02870903015136718750e+01) (60, -4.04184799194335937500e+01) (61, -3.93926811218261718750e+01) (62, -3.78967857360839843750e+01) (63, -3.86025924682617187500e+01) (64, -3.90867156982421875000e+01) (65, -4.11574897766113281250e+01) (66, -4.07866592407226562500e+01) (67, -3.99448623657226562500e+01) (68, -3.91804161071777343750e+01) (69, -3.71128120422363281250e+01) (70, -4.10270843505859375000e+01) (71, -4.10774879455566406250e+01) (72, -3.88962059020996093750e+01) (73, -4.01337394714355468750e+01) (74, -3.88929481506347656250e+01) (75, -4.15176353454589843750e+01) (76, -3.92316856384277343750e+01) (77, -4.19498519897460937500e+01) (78, -3.80950927734375000000e+01) (79, -4.09351959228515625000e+01) (80, -4.10772781372070312500e+01) (81, -3.88383598327636718750e+01) (82, -3.95020217895507812500e+01) (83, -3.89928627014160156250e+01) (84, -4.07498626708984375000e+01) (85, -3.96091270446777343750e+01) (86, -3.73044013977050781250e+01) (87, -3.96532669067382812500e+01) (88, -4.02621345520019531250e+01) (89, -3.90498199462890625000e+01) (90, -3.80345306396484375000e+01) (91, -3.99258804321289062500e+01) (92, -3.93610458374023437500e+01) (93, -3.70445442199707031250e+01) (94, -3.88028564453125000000e+01) (95, -3.78385276794433593750e+01) (96, -3.96615943908691406250e+01) (97, -3.81576499938964843750e+01) (98, -4.21348648071289062500e+01) (99, -3.62596778869628906250e+01) (100, -3.92301979064941406250e+01) (101, -3.81283721923828125000e+01) (102, -3.72151107788085937500e+01) (103, -3.52507133483886718750e+01) (104, -4.08929176330566406250e+01) (105, -3.88306884765625000000e+01) (106, -3.79914550781250000000e+01) (107, -4.12679634094238281250e+01) (108, -3.96957931518554687500e+01) (109, -3.86130599975585937500e+01) (110, -3.95876121520996093750e+01) (111, -4.11685905456542968750e+01) (112, -3.83841094970703125000e+01) (113, -4.08810005187988281250e+01) (114, -3.86885643005371093750e+01) (115, -3.69935455322265625000e+01) (116, -3.92678718566894531250e+01) (117, -3.97328300476074218750e+01) (118, -4.07139358520507812500e+01) (119, -3.68239631652832031250e+01) (120, -3.96097221374511718750e+01) (121, -3.96068267822265625000e+01) (122, -3.84660186767578125000e+01) (123, -3.70948181152343750000e+01) (124, -3.88867835998535156250e+01) (125, -4.13778572082519531250e+01) (126, -3.87522354125976562500e+01) (127, -3.96423721313476562500e+01) (128, -3.75321044921875000000e+01) (129, -3.63399772644042968750e+01) (130, -4.09059295654296875000e+01) (131, -3.95787429809570312500e+01) (132, -4.05847053527832031250e+01) (133, -4.16476936340332031250e+01) (134, -3.71585845947265625000e+01) (135, -3.92241172790527343750e+01) (136, -4.12747116088867187500e+01) (137, -nan) (138, -nan) (139, -nan) (140, -3.70540199279785156250e+01) (141, -4.19167785644531250000e+01) (142, -3.96351699829101562500e+01) (143, -3.87391471862792968750e+01) (144, -3.79657096862792968750e+01) (145, -3.76680488586425781250e+01) (146, -3.82930946350097656250e+01) (147, -nan) (148, -nan) (149, -nan) (150, -nan) (151, -nan) (152, -nan) (153, -nan) (154, -nan) (155, -nan) (156, -7.89902725219726562500e+01) (0, -3.96075210571289062500e+01) (1, -4.03972549438476562500e+01) (2, -4.13799514770507812500e+01) (3, -3.60695495605468750000e+01) (4, -3.81855239868164062500e+01) (5, -4.08187255859375000000e+01) (6, -3.69858665466308593750e+01) (7, -4.19045753479003906250e+01) (8, -4.24522552490234375000e+01) (9, -4.08896636962890625000e+01) (10, -3.71878318786621093750e+01) (11, -3.72823562622070312500e+01) (12, -3.81315040588378906250e+01) (13, -4.07063140869140625000e+01) (14, -3.89982986450195312500e+01) (15, -4.07336540222167968750e+01) (16, -3.69872932434082031250e+01) (17, -3.76720275878906250000e+01) (18, -3.92903213500976562500e+01) (19, -3.95198402404785156250e+01) (20, -4.13412933349609375000e+01) (21, -3.66973838806152343750e+01) (22, -3.97057533264160156250e+01) (23, -3.77044792175292968750e+01) (24, -3.93112106323242187500e+01) (25, -4.04708175659179687500e+01) (26, -4.05818977355957031250e+01) (27, -4.06953201293945312500e+01) (28, -3.73492202758789062500e+01) (29, -3.94997062683105468750e+01) (30, -4.14814300537109375000e+01) (31, -4.14016876220703125000e+01) (32, -3.93136634826660156250e+01) (33, -3.98326606750488281250e+01) (34, -3.49252510070800781250e+01) (35, -3.79738731384277343750e+01) (36, -4.18033561706542968750e+01) (37, -4.08281822204589843750e+01) (38, -4.05818443298339843750e+01) (39, -4.12679443359375000000e+01) (40, -3.90781822204589843750e+01) (41, -3.88091773986816406250e+01) (42, -3.67556877136230468750e+01) (43, -4.14434738159179687500e+01) (44, -4.11703796386718750000e+01) (45, -4.01525611877441406250e+01) (46, -3.77440910339355468750e+01) (47, -3.64072265625000000000e+01) (48, -3.87068214416503906250e+01) (49, -3.74620704650878906250e+01) (50, -3.71840896606445312500e+01) (51, -4.22232284545898437500e+01) (52, -3.95764427185058593750e+01) (53, -4.17108688354492187500e+01) (54, -3.84340744018554687500e+01) (55, -4.27306671142578125000e+01) (56, -3.93037567138671875000e+01) (57, -4.06015892028808593750e+01) (58, -3.97736511230468750000e+01) (59, -4.23524971008300781250e+01) (60, -3.98048019409179687500e+01) (61, -4.07617530822753906250e+01) (62, -4.02711524963378906250e+01) (63, -4.03784751892089843750e+01) (64, -3.85384826660156250000e+01) (65, -4.10648651123046875000e+01) (66, -4.05215415954589843750e+01) (67, -3.95981521606445312500e+01) (68, -3.72809181213378906250e+01) (69, -3.76865806579589843750e+01) (70, -4.17477188110351562500e+01) (71, -3.78053398132324218750e+01) (72, -3.82089576721191406250e+01) (73, -4.19378356933593750000e+01) (74, -3.87518501281738281250e+01) (75, -4.03177719116210937500e+01) (76, -3.80203628540039062500e+01) (77, -4.36822204589843750000e+01) (78, -3.80787429809570312500e+01) (79, -4.16658401489257812500e+01) (80, -4.09857368469238281250e+01) (81, -3.86020965576171875000e+01) (82, -3.97853164672851562500e+01) (83, -3.89559555053710937500e+01) (84, -3.74724044799804687500e+01) (85, -3.87357559204101562500e+01) (86, -3.86943054199218750000e+01) (87, -4.01991081237792968750e+01) (88, -4.02050094604492187500e+01) (89, -3.86180725097656250000e+01) (90, -3.89763336181640625000e+01) (91, -3.81065483093261718750e+01) (92, -3.67106361389160156250e+01) (93, -3.88834342956542968750e+01) (94, -3.78250122070312500000e+01) (95, -3.86760368347167968750e+01) (96, -4.18083305358886718750e+01) (97, -3.79278068542480468750e+01) (98, -3.96161537170410156250e+01) (99, -3.67506599426269531250e+01) (100, -3.94453392028808593750e+01) (101, -3.97975425720214843750e+01) (102, -3.84327697753906250000e+01) (103, -3.64231262207031250000e+01) (104, -3.85983886718750000000e+01) (105, -3.72003097534179687500e+01) (106, -3.82524528503417968750e+01) (107, -4.33251228332519531250e+01) (108, -3.91626930236816406250e+01) (109, -3.64023818969726562500e+01) (110, -3.76761779785156250000e+01) (111, -4.00523948669433593750e+01) (112, -3.73789443969726562500e+01) (113, -4.00132637023925781250e+01) (114, -3.79684982299804687500e+01) (115, -3.67754745483398437500e+01) (116, -3.84074897766113281250e+01) (117, -4.08563499450683593750e+01) (118, -4.01009826660156250000e+01) (119, -3.81494026184082031250e+01) (120, -3.86590728759765625000e+01) (121, -3.77647857666015625000e+01) (122, -3.78068428039550781250e+01) (123, -3.65388298034667968750e+01) (124, -3.64614639282226562500e+01) (125, -4.04662284851074218750e+01) (126, -3.98383369445800781250e+01) (127, -3.82381935119628906250e+01) (128, -3.76548957824707031250e+01) (129, -4.00329666137695312500e+01) (130, -3.84432106018066406250e+01) (131, -3.94612731933593750000e+01) (132, -3.89778671264648437500e+01) (133, -4.15236740112304687500e+01) (134, -3.97485237121582031250e+01) (135, -4.14464530944824218750e+01) (136, -4.09613265991210937500e+01) (137, -nan) (138, -nan) (139, -nan) (140, -3.73109741210937500000e+01) (141, -4.02714118957519531250e+01) (142, -4.00162963867187500000e+01) (143, -3.83808975219726562500e+01) (144, -3.87998619079589843750e+01) (145, -3.85729637145996093750e+01) (146, -4.07851982116699218750e+01) (147, -nan) (148, -nan) (149, -nan) (150, -nan) (151, -nan) (152, -nan) (153, -nan) (154, -nan) (155, -nan) (156, -7.92161102294921875000e+01) (0, -4.01308746337890625000e+01) (1, -4.02351455688476562500e+01) (2, -3.80507278442382812500e+01) (3, -3.85487480163574218750e+01) (4, -4.03053741455078125000e+01) (5, -4.52531890869140625000e+01) (6, -4.04940261840820312500e+01) (7, -4.09981880187988281250e+01) (8, -3.82454719543457031250e+01) (9, -4.15341987609863281250e+01) (10, -3.73853378295898437500e+01) (11, -3.68492050170898437500e+01) (12, -3.49811134338378906250e+01) (13, -4.10917472839355468750e+01) (14, -3.82912750244140625000e+01) (15, -4.22895584106445312500e+01) (16, -3.74795989990234375000e+01) (17, -4.13797111511230468750e+01) (18, -4.00716285705566406250e+01) (19, -3.99882698059082031250e+01) (20, -4.30084304809570312500e+01) (21, -3.76777076721191406250e+01) (22, -3.80438041687011718750e+01) (23, -4.33349151611328125000e+01) (24, -3.82335319519042968750e+01) (25, -3.93593292236328125000e+01) (26, -4.01413040161132812500e+01) (27, -4.09287414550781250000e+01) (28, -4.11219482421875000000e+01) (29, -3.81191787719726562500e+01) (30, -4.16124877929687500000e+01) (31, -4.06614608764648437500e+01) (32, -3.95892982482910156250e+01) (33, -3.95818290710449218750e+01) (34, -3.67286453247070312500e+01) (35, -3.73968200683593750000e+01) (36, -3.97286376953125000000e+01) (37, -4.28500785827636718750e+01) (38, -4.10033798217773437500e+01) (39, -4.06012420654296875000e+01) (40, -3.94207534790039062500e+01) (41, -4.16696929931640625000e+01) (42, -3.72550086975097656250e+01) (43, -4.17680702209472656250e+01) (44, -4.26006431579589843750e+01) (45, -3.89984283447265625000e+01) (46, -3.91598625183105468750e+01) (47, -3.90177001953125000000e+01) (48, -3.62371444702148437500e+01) (49, -3.85199470520019531250e+01) (50, -3.61122665405273437500e+01) (51, -4.24884147644042968750e+01) (52, -4.22970199584960937500e+01) (53, -4.11122665405273437500e+01) (54, -3.73229293823242187500e+01) (55, -4.03425025939941406250e+01) (56, -3.92448768615722656250e+01) (57, -3.77377815246582031250e+01) (58, -4.04680709838867187500e+01) (59, -3.95240669250488281250e+01) (60, -4.06027030944824218750e+01) (61, -3.86508140563964843750e+01) (62, -3.71093826293945312500e+01) (63, -3.78527565002441406250e+01) (64, -3.93521385192871093750e+01) (65, -4.13521652221679687500e+01) (66, -4.08596496582031250000e+01) (67, -3.98473167419433593750e+01) (68, -3.97361412048339843750e+01) (69, -3.66384506225585937500e+01) (70, -4.07672386169433593750e+01) (71, -4.26513671875000000000e+01) (72, -3.90619392395019531250e+01) (73, -3.94540367126464843750e+01) (74, -3.89634590148925781250e+01) (75, -4.21690673828125000000e+01) (76, -3.97650489807128906250e+01) (77, -4.10116577148437500000e+01) (78, -3.83527488708496093750e+01) (79, -4.05778999328613281250e+01) (80, -4.09355812072753906250e+01) (81, -3.90965042114257812500e+01) (82, -3.93666915893554687500e+01) (83, -3.89818496704101562500e+01) (84, -4.21342048645019531250e+01) (85, -4.01073379516601562500e+01) (86, -3.66262054443359375000e+01) (87, -3.94829368591308593750e+01) (88, -4.03170394897460937500e+01) (89, -3.90850601196289062500e+01) (90, -3.77065773010253906250e+01) (91, -4.09884719848632812500e+01) (92, -4.05152091979980468750e+01) (93, -3.63245544433593750000e+01) (94, -3.91833801269531250000e+01) (95, -3.76193580627441406250e+01) (96, -3.86283760070800781250e+01) (97, -3.84944648742675781250e+01) (98, -4.34326934814453125000e+01) (99, -3.60040740966796875000e+01) (100, -3.91438369750976562500e+01) (101, -3.73510475158691406250e+01) (102, -3.65858726501464843750e+01) (103, -3.46157073974609375000e+01) (104, -4.19088935852050781250e+01) (105, -3.96658744812011718750e+01) (106, -3.77980842590332031250e+01) (107, -4.01946067810058593750e+01) (108, -3.99602165222167968750e+01) (109, -3.97128677368164062500e+01) (110, -4.05045013427734375000e+01) (111, -4.18128814697265625000e+01) (112, -3.90337867736816406250e+01) (113, -4.13310661315917968750e+01) (114, -3.88066558837890625000e+01) (115, -3.70338745117187500000e+01) (116, -3.98332443237304687500e+01) (117, -3.93073692321777343750e+01) (118, -4.08916969299316406250e+01) (119, -3.64747734069824218750e+01) (120, -3.99224586486816406250e+01) (121, -4.04794006347656250000e+01) (122, -3.89109802246093750000e+01) (123, -3.75783920288085937500e+01) (124, -3.97489738464355468750e+01) (125, -4.18963203430175781250e+01) (126, -3.83489646911621093750e+01) (127, -4.02786483764648437500e+01) (128, -3.76150016784667968750e+01) (129, -3.47007637023925781250e+01) (130, -4.21797103881835937500e+01) (131, -3.97720031738281250000e+01) (132, -4.11597251892089843750e+01) (133, -4.17160491943359375000e+01) (134, -3.59573822021484375000e+01) (135, -3.81900291442871093750e+01) (136, -4.16429290771484375000e+01) (137, -nan) (138, -nan) (139, -nan) (140, -3.69197273254394531250e+01) (141, -4.24301223754882812500e+01) (142, -3.95833625793457031250e+01) (143, -3.90767822265625000000e+01) (144, -3.74961624145507812500e+01) (145, -3.72982330322265625000e+01) (146, -3.73569679260253906250e+01) (147, -nan) (148, -nan) (149, -nan) (150, -nan) (151, -nan) (152, -nan) (153, -nan) (154, -nan) (155, -nan) (156, -7.89538269042968750000e+01) (0, -4.01114616394042968750e+01) (1, -4.00811462402343750000e+01) (2, -3.79072303771972656250e+01) (3, -3.87325973510742187500e+01) (4, -4.05224075317382812500e+01) (5, -4.52504997253417968750e+01) (6, -4.05893898010253906250e+01) (7, -4.09929008483886718750e+01) (8, -3.81077842712402343750e+01) (9, -4.15309791564941406250e+01) (10, -3.74989280700683593750e+01) (11, -3.67961158752441406250e+01) (12, -3.50392494201660156250e+01) (13, -4.12428321838378906250e+01) (14, -3.82569313049316406250e+01) (15, -4.23807716369628906250e+01) (16, -3.76058731079101562500e+01) (17, -4.14361267089843750000e+01) (18, -4.00530319213867187500e+01) (19, -3.99445533752441406250e+01) (20, -4.30388336181640625000e+01) (21, -3.76458778381347656250e+01) (22, -3.79468193054199218750e+01) (23, -4.35583686828613281250e+01) (24, -3.81071853637695312500e+01) (25, -3.92553825378417968750e+01) (26, -4.01450767517089843750e+01) (27, -4.11004524230957031250e+01) (28, -4.14408493041992187500e+01) (29, -3.82479629516601562500e+01) (30, -4.16520919799804687500e+01) (31, -4.05446853637695312500e+01) (32, -3.94029388427734375000e+01) (33, -3.93450469970703125000e+01) (34, -3.67979469299316406250e+01) (35, -3.73220443725585937500e+01) (36, -3.95058937072753906250e+01) (37, -4.29083137512207031250e+01) (38, -4.09917373657226562500e+01) (39, -4.06723709106445312500e+01) (40, -3.93834762573242187500e+01) (41, -4.18566322326660156250e+01) (42, -3.73414001464843750000e+01) (43, -4.16644630432128906250e+01) (44, -4.26391601562500000000e+01) (45, -3.87876167297363281250e+01) (46, -3.91393089294433593750e+01) (47, -3.92066917419433593750e+01) (48, -3.61351966857910156250e+01) (49, -3.84310264587402343750e+01) (50, -3.61126899719238281250e+01) (51, -4.24492225646972656250e+01) (52, -4.24396667480468750000e+01) (53, -4.10913391113281250000e+01) (54, -3.72692565917968750000e+01) (55, -4.04435882568359375000e+01) (56, -3.91907424926757812500e+01) (57, -3.76345634460449218750e+01) (58, -4.06143569946289062500e+01) (59, -3.95434188842773437500e+01) (60, -4.05777244567871093750e+01) (61, -3.84936828613281250000e+01) (62, -3.67967948913574218750e+01) (63, -3.77509689331054687500e+01) (64, -3.93105926513671875000e+01) (65, -4.13993492126464843750e+01) (66, -4.10326080322265625000e+01) (67, -3.98678741455078125000e+01) (68, -3.98442192077636718750e+01) (69, -3.67449989318847656250e+01) (70, -4.08363609313964843750e+01) (71, -4.27874946594238281250e+01) (72, -3.90981445312500000000e+01) (73, -3.93021812438964843750e+01) (74, -3.88309402465820312500e+01) (75, -4.22254142761230468750e+01) (76, -3.98233680725097656250e+01) (77, -4.09437789916992187500e+01) (78, -3.82143516540527343750e+01) (79, -4.07568435668945312500e+01) (80, -4.10728302001953125000e+01) (81, -3.92414283752441406250e+01) (82, -3.92896614074707031250e+01) (83, -3.89288597106933593750e+01) (84, -4.24282188415527343750e+01) (85, -4.00785598754882812500e+01) (86, -3.66928367614746093750e+01) (87, -3.95339927673339843750e+01) (88, -4.04814338684082031250e+01) (89, -3.91273307800292968750e+01) (90, -3.76228485107421875000e+01) (91, -4.09696731567382812500e+01) (92, -4.05952072143554687500e+01) (93, -3.62352180480957031250e+01) (94, -3.90989990234375000000e+01) (95, -3.76941947937011718750e+01) (96, -3.85535621643066406250e+01) (97, -3.83147773742675781250e+01) (98, -4.34618453979492187500e+01) (99, -3.60384941101074218750e+01) (100, -3.90815811157226562500e+01) (101, -3.72647972106933593750e+01) (102, -3.65554313659667968750e+01) (103, -3.47329711914062500000e+01) (104, -4.19568176269531250000e+01) (105, -3.96392707824707031250e+01) (106, -3.77158279418945312500e+01) (107, -4.00179100036621093750e+01) (108, -4.01413269042968750000e+01) (109, -3.98464851379394531250e+01) (110, -4.07575454711914062500e+01) (111, -4.19366073608398437500e+01) (112, -3.89993400573730468750e+01) (113, -4.14660644531250000000e+01) (114, -3.88441429138183593750e+01) (115, -3.70906639099121093750e+01) (116, -3.98974189758300781250e+01) (117, -3.91746025085449218750e+01) (118, -4.10371818542480468750e+01) (119, -3.63613586425781250000e+01) (120, -4.01449279785156250000e+01) (121, -4.06619949340820312500e+01) (122, -3.87763290405273437500e+01) (123, -3.75097312927246093750e+01) (124, -3.99532814025878906250e+01) (125, -4.18694534301757812500e+01) (126, -3.83029289245605468750e+01) (127, -4.04745903015136718750e+01) (128, -3.75771255493164062500e+01) (129, -3.46436805725097656250e+01) (130, -4.22621383666992187500e+01) (131, -3.99219551086425781250e+01) (132, -4.13642730712890625000e+01) (133, -4.17012519836425781250e+01) (134, -3.59051513671875000000e+01) (135, -3.81335983276367187500e+01) (136, -4.15410385131835937500e+01) (137, -nan) (138, -nan) (139, -nan) (140, -3.67084236145019531250e+01) (141, -4.26543006896972656250e+01) (142, -3.94276618957519531250e+01) (143, -3.90407066345214843750e+01) (144, -3.74588356018066406250e+01) (145, -3.73600769042968750000e+01) (146, -3.72219581604003906250e+01) (147, -nan) (148, -nan) (149, -nan) (150, -nan) (151, -nan) (152, -nan) (153, -nan) (154, -nan) (155, -nan) (156, -7.88652038574218750000e+01) (0, -3.96948242187500000000e+01) (1, -4.04587097167968750000e+01) (2, -4.06997718811035156250e+01) (3, -3.65716934204101562500e+01) (4, -3.85893821716308593750e+01) (5, -4.15496444702148437500e+01) (6, -3.76465263366699218750e+01) (7, -4.17445106506347656250e+01) (8, -4.15775222778320312500e+01) (9, -4.10726737976074218750e+01) (10, -3.73121566772460937500e+01) (11, -3.71918258666992187500e+01) (12, -3.76158370971679687500e+01) (13, -4.08725585937500000000e+01) (14, -3.88857383728027343750e+01) (15, -4.10307388305664062500e+01) (16, -3.71175231933593750000e+01) (17, -3.82697143554687500000e+01) (18, -3.93855590820312500000e+01) (19, -3.96470108032226562500e+01) (20, -4.16783981323242187500e+01) (21, -3.68952255249023437500e+01) (22, -3.94453659057617187500e+01) (23, -3.87021026611328125000e+01) (24, -3.90734901428222656250e+01) (25, -4.01905975341796875000e+01) (26, -4.04772224426269531250e+01) (27, -4.08168029785156250000e+01) (28, -3.79514503479003906250e+01) (29, -3.92042274475097656250e+01) (30, -4.15407562255859375000e+01) (31, -4.13377571105957031250e+01) (32, -3.94191246032714843750e+01) (33, -3.99508781433105468750e+01) (34, -3.51495513916015625000e+01) (35, -3.79282836914062500000e+01) (36, -4.13016395568847656250e+01) (37, -4.11450271606445312500e+01) (38, -4.07270812988281250000e+01) (39, -4.11631240844726562500e+01) (40, -3.91009826660156250000e+01) (41, -3.93086624145507812500e+01) (42, -3.69006996154785156250e+01) (43, -4.14904518127441406250e+01) (44, -4.14524154663085937500e+01) (45, -3.97843475341796875000e+01) (46, -3.80454216003417968750e+01) (47, -3.67167129516601562500e+01) (48, -3.82283592224121093750e+01) (49, -3.78337020874023437500e+01) (50, -3.70808677673339843750e+01) (51, -4.22440986633300781250e+01) (52, -4.00902481079101562500e+01) (53, -4.15136795043945312500e+01) (54, -3.81868438720703125000e+01) (55, -4.22616920471191406250e+01) (56, -3.91773872375488281250e+01) (57, -4.01970558166503906250e+01) (58, -3.99552497863769531250e+01) (59, -4.18040428161621093750e+01) (60, -4.00433235168457031250e+01) (61, -4.04112510681152343750e+01) (62, -3.97322616577148437500e+01) (63, -3.98675918579101562500e+01) (64, -3.87063674926757812500e+01) (65, -4.10561599731445312500e+01) (66, -4.06038818359375000000e+01) (67, -3.97719612121582031250e+01) (68, -3.78422241210937500000e+01) (69, -3.76188888549804687500e+01) (70, -4.14897880554199218750e+01) (71, -3.87273712158203125000e+01) (72, -3.82353248596191406250e+01) (73, -4.16374206542968750000e+01) (74, -3.88418197631835937500e+01) (75, -4.05501441955566406250e+01) (76, -3.83510818481445312500e+01) (77, -4.33183708190917968750e+01) (78, -3.80303230285644531250e+01) (79, -4.14991569519042968750e+01) (80, -4.10944442749023437500e+01) (81, -3.85055694580078125000e+01) (82, -3.97080993652343750000e+01) (83, -3.90465927124023437500e+01) (84, -3.82939071655273437500e+01) (85, -3.89525947570800781250e+01) (86, -3.81814155578613281250e+01) (87, -3.99063415527343750000e+01) (88, -4.03541107177734375000e+01) (89, -3.88114967346191406250e+01) (90, -3.87396430969238281250e+01) (91, -3.86306076049804687500e+01) (92, -3.73364753723144531250e+01) (93, -3.82679672241210937500e+01) (94, -3.80260391235351562500e+01) (95, -3.84601707458496093750e+01) (96, -4.12436752319335937500e+01) (97, -3.80014305114746093750e+01) (98, -4.02088470458984375000e+01) (99, -3.65175361633300781250e+01) (100, -3.92562904357910156250e+01) (101, -3.93765296936035156250e+01) (102, -3.80579452514648437500e+01) (103, -3.60550079345703125000e+01) (104, -3.91802864074707031250e+01) (105, -3.76357421875000000000e+01) (106, -3.82042655944824218750e+01) (107, -4.27638244628906250000e+01) (108, -3.92277870178222656250e+01) (109, -3.69593353271484375000e+01) (110, -3.82495765686035156250e+01) (111, -4.04236259460449218750e+01) (112, -3.76276473999023437500e+01) (113, -4.03070564270019531250e+01) (114, -3.82494201660156250000e+01) (115, -3.67604408264160156250e+01) (116, -3.86830940246582031250e+01) (117, -4.05623855590820312500e+01) (118, -4.02175216674804687500e+01) (119, -3.77479476928710937500e+01) (120, -3.89958229064941406250e+01) (121, -3.82789955139160156250e+01) (122, -3.79134178161621093750e+01) (123, -3.67516822814941406250e+01) (124, -3.71705856323242187500e+01) (125, -4.08080558776855468750e+01) (126, -3.95619888305664062500e+01) (127, -3.85126495361328125000e+01) (128, -3.75034675598144531250e+01) (129, -3.89265556335449218750e+01) (130, -3.91262397766113281250e+01) (131, -3.94705085754394531250e+01) (132, -3.93009872436523437500e+01) (133, -4.14720230102539062500e+01) (134, -3.89153137207031250000e+01) (135, -4.09563255310058593750e+01) (136, -4.10260047912597656250e+01) (137, -nan) (138, -nan) (139, -nan) (140, -3.70923194885253906250e+01) (141, -4.06276092529296875000e+01) (142, -3.98293952941894531250e+01) (143, -3.85313415527343750000e+01) (144, -3.85608253479003906250e+01) (145, -3.81720352172851562500e+01) (146, -4.01142921447753906250e+01) (147, -nan) (148, -nan) (149, 