FANN_FLO_2.1
num_layers=102
learning_rate=0.025000
connection_rate=1.000000
network_type=1
learning_momentum=0.000000
training_algorithm=2
train_error_function=1
train_stop_function=0
cascade_output_change_fraction=0.010000
quickprop_decay=-0.000100
quickprop_mu=1.750000
rprop_increase_factor=1.200000
rprop_decrease_factor=0.500000
rprop_delta_min=0.000000
rprop_delta_max=50.000000
rprop_delta_zero=0.100000
cascade_output_stagnation_epochs=4
cascade_candidate_change_fraction=0.010000
cascade_candidate_stagnation_epochs=4
cascade_max_out_epochs=10
cascade_max_cand_epochs=10
cascade_num_candidate_groups=2
bit_fail_limit=3.49999994039535522461e-01
cascade_candidate_limit=1.00000000000000000000e+02
cascade_weight_multiplier=4.00000005960464477539e-01
cascade_activation_functions_count=1
cascade_activation_functions=10 
cascade_activation_steepnesses_count=4
cascade_activation_steepnesses=2.50000000000000000000e-01 5.00000000000000000000e-01 7.50000000000000000000e-01 1.00000000000000000000e+00 
layer_sizes=157 1 1 1 1 1 1 1 1 1 1 1 1 1 1 1 1 1 1 1 1 1 1 1 1 1 1 1 1 1 1 1 1 1 1 1 1 1 1 1 1 1 1 1 1 1 1 1 1 1 1 1 1 1 1 1 1 1 1 1 1 1 1 1 1 1 1 1 1 1 1 1 1 1 1 1 1 1 1 1 1 1 1 1 1 1 1 1 1 1 1 1 1 1 1 1 1 1 1 1 1 10 
scale_included=1
scale_mean_in=0.197000 3.803000 4.449000 4.529000 4.546000 4.608000 4.448000 4.568000 4.449000 4.371000 4.456000 4.434000 4.457000 4.588000 4.372000 4.523000 4.441000 4.535000 4.532000 4.402000 4.453000 4.420000 4.589000 4.471000 4.443000 4.496000 4.400000 4.534000 4.540000 4.531000 4.550000 4.367000 4.501000 4.427000 4.631000 4.421000 4.418000 4.522000 4.531000 4.636000 4.503000 4.487000 4.466000 4.526000 4.620000 4.538000 4.287000 4.454000 4.629000 4.526000 4.467000 4.595000 4.523000 4.491000 4.620000 4.415000 4.560000 4.588000 4.640000 0.134000 3.961000 4.426000 4.378000 4.490000 4.629000 4.408000 4.447000 4.628000 4.505000 4.502000 4.449000 4.501000 4.544000 4.500000 4.505000 4.411000 4.570000 4.351000 4.488000 4.560000 4.556000 4.377000 4.474000 4.368000 4.445000 4.430000 4.358000 4.485000 4.601000 4.544000 4.570000 4.427000 4.635000 4.504000 4.451000 4.496000 4.523000 4.483000 4.359000 4.582000 4.603000 4.530000 4.599000 4.418000 4.446000 4.479000 4.552000 4.418000 4.604000 4.548000 4.652000 4.474000 4.299000 4.484000 4.567000 4.386000 4.529000 4.485000 4.456000 4.535000 4.605000 4.464000 4.517000 4.584000 4.499000 4.432000 4.574000 4.446000 4.463000 4.474000 4.244000 4.520000 4.598000 4.478000 4.643000 4.456000 4.557000 1.000000 3.000000 9.000000 0.965000 2.148000 4.452000 4.696000 4.629000 4.496000 4.633000 4.000000 1.000000 9.000000 5.000000 5.000000 8.000000 7.000000 0.000000 0.000000 
scale_deviation_in=0.397732 3.018640 2.907816 2.865162 2.824514 2.839425 2.968046 2.865900 2.834678 2.851205 2.844306 2.868731 2.979284 2.843637 2.880908 2.849119 2.816831 2.897374 2.900514 2.887282 2.836159 2.823052 2.817459 2.907775 2.862995 2.869143 2.885132 2.887706 2.844015 2.868281 2.828341 2.862225 2.854820 2.891123 2.902215 2.860028 2.892277 2.881232 2.843769 2.812023 2.888249 2.892370 2.811201 2.924608 2.794566 2.862962 2.880387 2.890998 2.835730 2.831490 2.930339 2.850786 2.842091 2.880608 2.870123 2.854605 2.875132 2.894868 2.854542 0.340654 3.019184 2.924128 2.832509 2.889632 2.960298 2.867321 2.887417 2.834719 2.866700 2.885133 2.844186 2.880278 2.864625 2.843238 2.897235 2.848170 2.841675 2.831572 2.872948 2.861186 2.916649 2.806934 2.804521 2.817194 2.890497 2.879082 2.848830 2.836504 2.837569 2.929177 2.826149 2.927899 2.889605 2.857616 2.894062 2.850961 2.903356 2.840372 2.951970 2.933473 2.864505 2.888447 2.869878 2.921517 2.901222 2.913348 2.853643 2.892275 2.798773 2.833671 2.848313 2.889522 2.859649 2.874673 2.828341 2.890152 2.886027 2.836857 2.875079 2.900822 2.914958 2.848278 2.923989 2.901883 2.841126 2.892296 2.882104 2.824019 2.885243 2.844176 2.841564 2.885415 2.841197 2.949830 2.858942 2.883414 2.907704 0.000000 0.000000 0.000000 0.183780 1.839049 2.908553 2.885064 2.897131 2.817797 2.883806 0.000000 0.000000 0.000000 0.000000 0.000000 0.000000 0.000000 0.000000 0.000000 
scale_new_min_in=0.000000 0.000000 0.000000 0.000000 0.000000 0.000000 0.000000 0.000000 0.000000 0.000000 0.000000 0.000000 0.000000 0.000000 0.000000 0.000000 0.000000 0.000000 0.000000 0.000000 0.000000 0.000000 0.000000 0.000000 0.000000 0.000000 0.000000 0.000000 0.000000 0.000000 0.000000 0.000000 0.000000 0.000000 0.000000 0.000000 0.000000 0.000000 0.000000 0.000000 0.000000 0.000000 0.000000 0.000000 0.000000 0.000000 0.000000 0.000000 0.000000 0.000000 0.000000 0.000000 0.000000 0.000000 0.000000 0.000000 0.000000 0.000000 0.000000 0.000000 0.000000 0.000000 0.000000 0.000000 0.000000 0.000000 0.000000 0.000000 0.000000 0.000000 0.000000 0.000000 0.000000 0.000000 0.000000 0.000000 0.000000 0.000000 0.000000 0.000000 0.000000 0.000000 0.000000 0.000000 0.000000 0.000000 0.000000 0.000000 0.000000 0.000000 0.000000 0.000000 0.000000 0.000000 0.000000 0.000000 0.000000 0.000000 0.000000 0.000000 0.000000 0.000000 0.000000 0.000000 0.000000 0.000000 0.000000 0.000000 0.000000 0.000000 0.000000 0.000000 0.000000 0.000000 0.000000 0.000000 0.000000 0.000000 0.000000 0.000000 0.000000 0.000000 0.000000 0.000000 0.000000 0.000000 0.000000 0.000000 0.000000 0.000000 0.000000 0.000000 0.000000 0.000000 0.000000 0.000000 0.000000 0.000000 0.000000 0.000000 0.000000 0.000000 0.000000 0.000000 0.000000 0.000000 0.000000 0.000000 0.000000 0.000000 0.000000 0.000000 0.000000 0.000000 0.000000 0.000000 
scale_factor_in=0.500000 0.500000 0.500000 0.500000 0.500000 0.500000 0.500000 0.500000 0.500000 0.500000 0.500000 0.500000 0.500000 0.500000 0.500000 0.500000 0.500000 0.500000 0.500000 0.500000 0.500000 0.500000 0.500000 0.500000 0.500000 0.500000 0.500000 0.500000 0.500000 0.500000 0.500000 0.500000 0.500000 0.500000 0.500000 0.500000 0.500000 0.500000 0.500000 0.500000 0.500000 0.500000 0.500000 0.500000 0.500000 0.500000 0.500000 0.500000 0.500000 0.500000 0.500000 0.500000 0.500000 0.500000 0.500000 0.500000 0.500000 0.500000 0.500000 0.500000 0.500000 0.500000 0.500000 0.500000 0.500000 0.500000 0.500000 0.500000 0.500000 0.500000 0.500000 0.500000 0.500000 0.500000 0.500000 0.500000 0.500000 0.500000 0.500000 0.500000 0.500000 0.500000 0.500000 0.500000 0.500000 0.500000 0.500000 0.500000 0.500000 0.500000 0.500000 0.500000 0.500000 0.500000 0.500000 0.500000 0.500000 0.500000 0.500000 0.500000 0.500000 0.500000 0.500000 0.500000 0.500000 0.500000 0.500000 0.500000 0.500000 0.500000 0.500000 0.500000 0.500000 0.500000 0.500000 0.500000 0.500000 0.500000 0.500000 0.500000 0.500000 0.500000 0.500000 0.500000 0.500000 0.500000 0.500000 0.500000 0.500000 0.500000 0.500000 0.500000 0.500000 0.500000 0.500000 0.500000 0.500000 0.500000 0.500000 0.500000 0.500000 0.500000 0.500000 0.500000 0.500000 0.500000 0.500000 0.500000 0.500000 0.500000 0.500000 0.500000 0.500000 0.500000 0.500000 0.500000 
scale_mean_out=1.642000 4.214000 4.486000 4.631000 4.472000 4.573000 4.610000 4.519000 4.660000 4.492000 
scale_deviation_out=1.242511 2.839048 2.834040 2.790492 2.864828 2.813999 2.904462 2.850549 2.840140 2.840415 
scale_new_min_out=0.000000 0.000000 0.000000 0.000000 0.000000 0.000000 0.000000 0.000000 0.000000 0.000000 
scale_factor_out=0.500000 0.500000 0.500000 0.500000 0.500000 0.500000 0.500000 0.500000 0.500000 0.500000 
neurons (num_inputs, activation_function, activation_steepness)=(0, 0, 0.00000000000000000000e+00) (0, 0, 0.00000000000000000000e+00) (0, 0, 0.00000000000000000000e+00) (0, 0, 0.00000000000000000000e+00) (0, 0, 0.00000000000000000000e+00) (0, 0, 0.00000000000000000000e+00) (0, 0, 0.00000000000000000000e+00) (0, 0, 0.00000000000000000000e+00) (0, 0, 0.00000000000000000000e+00) (0, 0, 0.00000000000000000000e+00) (0, 0, 0.00000000000000000000e+00) (0, 0, 0.00000000000000000000e+00) (0, 0, 0.00000000000000000000e+00) (0, 0, 0.00000000000000000000e+00) (0, 0, 0.00000000000000000000e+00) (0, 0, 0.00000000000000000000e+00) (0, 0, 0.00000000000000000000e+00) (0, 0, 0.00000000000000000000e+00) (0, 0, 0.00000000000000000000e+00) (0, 0, 0.00000000000000000000e+00) (0, 0, 0.00000000000000000000e+00) (0, 0, 0.00000000000000000000e+00) (0, 0, 0.00000000000000000000e+00) (0, 0, 0.00000000000000000000e+00) (0, 0, 0.00000000000000000000e+00) (0, 0, 0.00000000000000000000e+00) (0, 0, 0.00000000000000000000e+00) (0, 0, 0.00000000000000000000e+00) (0, 0, 0.00000000000000000000e+00) (0, 0, 0.00000000000000000000e+00) (0, 0, 0.00000000000000000000e+00) (0, 0, 0.00000000000000000000e+00) (0, 0, 0.00000000000000000000e+00) (0, 0, 0.00000000000000000000e+00) (0, 0, 0.00000000000000000000e+00) (0, 0, 0.00000000000000000000e+00) (0, 0, 0.00000000000000000000e+00) (0, 0, 0.00000000000000000000e+00) (0, 0, 0.00000000000000000000e+00) (0, 0, 0.00000000000000000000e+00) (0, 0, 0.00000000000000000000e+00) (0, 0, 0.00000000000000000000e+00) (0, 0, 0.00000000000000000000e+00) (0, 0, 0.00000000000000000000e+00) (0, 0, 0.00000000000000000000e+00) (0, 0, 0.00000000000000000000e+00) (0, 0, 0.00000000000000000000e+00) (0, 0, 0.00000000000000000000e+00) (0, 0, 0.00000000000000000000e+00) (0, 0, 0.00000000000000000000e+00) (0, 0, 0.00000000000000000000e+00) (0, 0, 0.00000000000000000000e+00) (0, 0, 0.00000000000000000000e+00) (0, 0, 0.00000000000000000000e+00) (0, 0, 0.00000000000000000000e+00) (0, 0, 0.00000000000000000000e+00) (0, 0, 0.00000000000000000000e+00) (0, 0, 0.00000000000000000000e+00) (0, 0, 0.00000000000000000000e+00) (0, 0, 0.00000000000000000000e+00) (0, 0, 0.00000000000000000000e+00) (0, 0, 0.00000000000000000000e+00) (0, 0, 0.00000000000000000000e+00) (0, 0, 0.00000000000000000000e+00) (0, 0, 0.00000000000000000000e+00) (0, 0, 0.00000000000000000000e+00) (0, 0, 0.00000000000000000000e+00) (0, 0, 0.00000000000000000000e+00) (0, 0, 0.00000000000000000000e+00) (0, 0, 0.00000000000000000000e+00) (0, 0, 0.00000000000000000000e+00) (0, 0, 0.00000000000000000000e+00) (0, 0, 0.00000000000000000000e+00) (0, 0, 0.00000000000000000000e+00) (0, 0, 0.00000000000000000000e+00) (0, 0, 0.00000000000000000000e+00) (0, 0, 0.00000000000000000000e+00) (0, 0, 0.00000000000000000000e+00) (0, 0, 0.00000000000000000000e+00) (0, 0, 0.00000000000000000000e+00) (0, 0, 0.00000000000000000000e+00) (0, 0, 0.00000000000000000000e+00) (0, 0, 0.00000000000000000000e+00) (0, 0, 0.00000000000000000000e+00) (0, 0, 0.00000000000000000000e+00) (0, 0, 0.00000000000000000000e+00) (0, 0, 0.00000000000000000000e+00) (0, 0, 0.00000000000000000000e+00) (0, 0, 0.00000000000000000000e+00) (0, 0, 0.00000000000000000000e+00) (0, 0, 0.00000000000000000000e+00) (0, 0, 0.00000000000000000000e+00) (0, 0, 0.00000000000000000000e+00) (0, 0, 0.00000000000000000000e+00) (0, 0, 0.00000000000000000000e+00) (0, 0, 0.00000000000000000000e+00) (0, 0, 0.00000000000000000000e+00) (0, 0, 0.00000000000000000000e+00) (0, 0, 0.00000000000000000000e+00) (0, 0, 0.00000000000000000000e+00) (0, 0, 0.00000000000000000000e+00) (0, 0, 0.00000000000000000000e+00) (0, 0, 0.00000000000000000000e+00) (0, 0, 0.00000000000000000000e+00) (0, 0, 0.00000000000000000000e+00) (0, 0, 0.00000000000000000000e+00) (0, 0, 0.00000000000000000000e+00) (0, 0, 0.00000000000000000000e+00) (0, 0, 0.00000000000000000000e+00) (0, 0, 0.00000000000000000000e+00) (0, 0, 0.00000000000000000000e+00) (0, 0, 0.00000000000000000000e+00) (0, 0, 0.00000000000000000000e+00) (0, 0, 0.00000000000000000000e+00) (0, 0, 0.00000000000000000000e+00) (0, 0, 0.00000000000000000000e+00) (0, 0, 0.00000000000000000000e+00) (0, 0, 0.00000000000000000000e+00) (0, 0, 0.00000000000000000000e+00) (0, 0, 0.00000000000000000000e+00) (0, 0, 0.00000000000000000000e+00) (0, 0, 0.00000000000000000000e+00) (0, 0, 0.00000000000000000000e+00) (0, 0, 0.00000000000000000000e+00) (0, 0, 0.00000000000000000000e+00) (0, 0, 0.00000000000000000000e+00) (0, 0, 0.00000000000000000000e+00) (0, 0, 0.00000000000000000000e+00) (0, 0, 0.00000000000000000000e+00) (0, 0, 0.00000000000000000000e+00) (0, 0, 0.00000000000000000000e+00) (0, 0, 0.00000000000000000000e+00) (0, 0, 0.00000000000000000000e+00) (0, 0, 0.00000000000000000000e+00) (0, 0, 0.00000000000000000000e+00) (0, 0, 0.00000000000000000000e+00) (0, 0, 0.00000000000000000000e+00) (0, 0, 0.00000000000000000000e+00) (0, 0, 0.00000000000000000000e+00) (0, 0, 0.00000000000000000000e+00) (0, 0, 0.00000000000000000000e+00) (0, 0, 0.00000000000000000000e+00) (0, 0, 0.00000000000000000000e+00) (0, 0, 0.00000000000000000000e+00) (0, 0, 0.00000000000000000000e+00) (0, 0, 0.00000000000000000000e+00) (0, 0, 0.00000000000000000000e+00) (0, 0, 0.00000000000000000000e+00) (0, 0, 0.00000000000000000000e+00) (0, 0, 0.00000000000000000000e+00) (0, 0, 0.00000000000000000000e+00) (0, 0, 0.00000000000000000000e+00) (0, 0, 0.00000000000000000000e+00) (0, 0, 0.00000000000000000000e+00) (0, 0, 0.00000000000000000000e+00) (0, 0, 0.00000000000000000000e+00) (0, 0, 0.00000000000000000000e+00) (157, 10, 2.50000000000000000000e-01) (158, 10, 2.50000000000000000000e-01) (159, 10, 2.50000000000000000000e-01) (160, 10, 2.50000000000000000000e-01) (161, 10, 2.50000000000000000000e-01) (162, 10, 2.50000000000000000000e-01) (163, 10, 2.50000000000000000000e-01) (164, 10, 2.50000000000000000000e-01) (165, 10, 2.50000000000000000000e-01) (166, 10, 2.50000000000000000000e-01) (167, 10, 2.50000000000000000000e-01) (168, 10, 2.50000000000000000000e-01) (169, 10, 2.50000000000000000000e-01) (170, 10, 2.50000000000000000000e-01) (171, 10, 2.50000000000000000000e-01) (172, 10, 2.50000000000000000000e-01) (173, 10, 2.50000000000000000000e-01) (174, 10, 2.50000000000000000000e-01) (175, 10, 2.50000000000000000000e-01) (176, 10, 2.50000000000000000000e-01) (177, 10, 2.50000000000000000000e-01) (178, 10, 2.50000000000000000000e-01) (179, 10, 2.50000000000000000000e-01) (180, 10, 2.50000000000000000000e-01) (181, 10, 2.50000000000000000000e-01) (182, 10, 2.50000000000000000000e-01) (183, 10, 2.50000000000000000000e-01) (184, 10, 2.50000000000000000000e-01) (185, 10, 2.50000000000000000000e-01) (186, 10, 2.50000000000000000000e-01) (187, 10, 2.50000000000000000000e-01) (188, 10, 2.50000000000000000000e-01) (189, 10, 2.50000000000000000000e-01) (190, 10, 2.50000000000000000000e-01) (191, 10, 2.50000000000000000000e-01) (192, 10, 2.50000000000000000000e-01) (193, 10, 2.50000000000000000000e-01) (194, 10, 2.50000000000000000000e-01) (195, 10, 2.50000000000000000000e-01) (196, 10, 2.50000000000000000000e-01) (197, 10, 2.50000000000000000000e-01) (198, 10, 2.50000000000000000000e-01) (199, 10, 2.50000000000000000000e-01) (200, 10, 2.50000000000000000000e-01) (201, 10, 2.50000000000000000000e-01) (202, 10, 2.50000000000000000000e-01) (203, 10, 2.50000000000000000000e-01) (204, 10, 2.50000000000000000000e-01) (205, 10, 2.50000000000000000000e-01) (206, 10, 2.50000000000000000000e-01) (207, 10, 2.50000000000000000000e-01) (208, 10, 2.50000000000000000000e-01) (209, 10, 2.50000000000000000000e-01) (210, 10, 2.50000000000000000000e-01) (211, 10, 2.50000000000000000000e-01) (212, 10, 2.50000000000000000000e-01) (213, 10, 2.50000000000000000000e-01) (214, 10, 2.50000000000000000000e-01) (215, 10, 2.50000000000000000000e-01) (216, 10, 2.50000000000000000000e-01) (217, 10, 2.50000000000000000000e-01) (218, 10, 2.50000000000000000000e-01) (219, 10, 2.50000000000000000000e-01) (220, 10, 2.50000000000000000000e-01) (221, 10, 2.50000000000000000000e-01) (222, 10, 2.50000000000000000000e-01) (223, 10, 2.50000000000000000000e-01) (224, 10, 2.50000000000000000000e-01) (225, 10, 2.50000000000000000000e-01) (226, 10, 2.50000000000000000000e-01) (227, 10, 2.50000000000000000000e-01) (228, 10, 2.50000000000000000000e-01) (229, 10, 2.50000000000000000000e-01) (230, 10, 2.50000000000000000000e-01) (231, 10, 2.50000000000000000000e-01) (232, 10, 2.50000000000000000000e-01) (233, 10, 2.50000000000000000000e-01) (234, 10, 2.50000000000000000000e-01) (235, 10, 2.50000000000000000000e-01) (236, 10, 2.50000000000000000000e-01) (237, 10, 2.50000000000000000000e-01) (238, 10, 2.50000000000000000000e-01) (239, 10, 2.50000000000000000000e-01) (240, 10, 2.50000000000000000000e-01) (241, 10, 2.50000000000000000000e-01) (242, 10, 2.50000000000000000000e-01) (243, 10, 2.50000000000000000000e-01) (244, 10, 2.50000000000000000000e-01) (245, 10, 2.50000000000000000000e-01) (246, 10, 2.50000000000000000000e-01) (247, 10, 2.50000000000000000000e-01) (248, 10, 2.50000000000000000000e-01) (249, 10, 2.50000000000000000000e-01) (250, 10, 2.50000000000000000000e-01) (251, 10, 2.50000000000000000000e-01) (252, 10, 2.50000000000000000000e-01) (253, 10, 2.50000000000000000000e-01) (254, 10, 2.50000000000000000000e-01) (255, 10, 2.50000000000000000000e-01) (256, 10, 2.50000000000000000000e-01) (257, 4, 5.00000000000000000000e-01) (257, 4, 5.00000000000000000000e-01) (257, 4, 5.00000000000000000000e-01) (257, 4, 5.00000000000000000000e-01) (257, 4, 5.00000000000000000000e-01) (257, 4, 5.00000000000000000000e-01) (257, 4, 5.00000000000000000000e-01) (257, 4, 5.00000000000000000000e-01) (257, 4, 5.00000000000000000000e-01) (257, 4, 5.00000000000000000000e-01) 
connections (connected_to_neuron, weight)=(0, 4.11657452583312988281e-01) (1, 3.51792454719543457031e-01) (2, 1.77863693237304687500e+00) (3, 9.78193402290344238281e-01) (4, 7.29962170124053955078e-01) (5, 1.23313641548156738281e+00) (6, 2.06765055656433105469e+00) (7, 1.97687029838562011719e+00) (8, 1.40894913673400878906e+00) (9, 2.00646543502807617188e+00) (10, 1.84858903288841247559e-01) (11, 1.41357851028442382812e+00) (12, 7.60758936405181884766e-01) (13, 1.29132032394409179688e+00) (14, 1.51352930068969726562e+00) (15, 4.67956334352493286133e-01) (16, 1.82973548769950866699e-01) (17, 8.35987687110900878906e-01) (18, 1.84685933589935302734e+00) (19, 4.36460375785827636719e-01) (20, 1.32820558547973632812e+00) (21, 2.06061768531799316406e+00) (22, 8.90765309333801269531e-01) (23, 1.26771068572998046875e+00) (24, 6.02863669395446777344e-01) (25, 1.65355205535888671875e+00) (26, 1.92465054988861083984e+00) (27, 9.66327190399169921875e-01) (28, 2.01959133148193359375e+00) (29, 1.98171293735504150391e+00) (30, 4.86664831638336181641e-01) (31, 3.35914015769958496094e-01) (32, 2.38170564174652099609e-01) (33, 1.69967010617256164551e-01) (34, 1.21420502662658691406e+00) (35, 8.68230402469635009766e-01) (36, 1.30320107936859130859e+00) (37, 1.18652045726776123047e+00) (38, 7.49765813350677490234e-01) (39, 6.16815447807312011719e-01) (40, 1.09765124320983886719e+00) (41, 8.34722399711608886719e-01) (42, 1.93049156665802001953e+00) (43, 1.75850784778594970703e+00) (44, 2.02614045143127441406e+00) (45, 1.34868621826171875000e+00) (46, 1.31129369139671325684e-01) (47, 1.13779120147228240967e-01) (48, 2.08477187156677246094e+00) (49, 1.87808620929718017578e+00) (50, 4.50337141752243041992e-01) (51, 1.31764233112335205078e+00) (52, 1.84336888790130615234e+00) (53, 1.24120008945465087891e+00) (54, 4.90018457174301147461e-01) (55, 3.50897908210754394531e-01) (56, 7.99417376518249511719e-01) (57, 3.19334268569946289062e-01) (58, 1.21732270717620849609e+00) (59, 7.23673880100250244141e-01) (60, 2.05712333321571350098e-01) (61, 1.60408508777618408203e+00) (62, 9.59685564041137695312e-01) (63, 3.43980550765991210938e-01) (64, 1.67414975166320800781e+00) (65, 2.07398843765258789062e+00) (66, 1.11230850219726562500e+00) (67, 8.82016122341156005859e-01) (68, 1.16517388820648193359e+00) (69, 1.76217198371887207031e+00) (70, 1.39892923831939697266e+00) (71, 1.67490482330322265625e-01) (72, 5.01559674739837646484e-01) (73, 1.23408603668212890625e+00) (74, 1.82609593868255615234e+00) (75, 4.32365268468856811523e-01) (76, 4.87437635660171508789e-01) (77, 1.85732293128967285156e+00) (78, 4.46242034435272216797e-01) (79, 4.76874470710754394531e-01) (80, 1.64007461071014404297e+00) (81, 7.96676814556121826172e-01) (82, 1.69461441040039062500e+00) (83, 1.38810873031616210938e+00) (84, 1.93797457218170166016e+00) (85, 2.08473086357116699219e+00) (86, 1.63910424709320068359e+00) (87, 6.42057061195373535156e-01) (88, 3.08730065822601318359e-01) (89, 7.61092245578765869141e-01) (90, 1.26582860946655273438e+00) (91, 4.14540052413940429688e-01) (92, 2.69842535257339477539e-01) (93, 1.30179435014724731445e-01) (94, 6.58618211746215820312e-01) (95, 1.84408998489379882812e+00) (96, 1.08832918107509613037e-01) (97, 1.67102432250976562500e+00) (98, 6.30771279335021972656e-01) (99, 1.17410457134246826172e+00) (100, 1.33786177635192871094e+00) (101, 1.92979824542999267578e+00) (102, 1.24169266223907470703e+00) (103, 1.73951900005340576172e+00) (104, 1.06854951381683349609e+00) (105, 9.72453951835632324219e-01) (106, 2.07198214530944824219e+00) (107, 1.45608472824096679688e+00) (108, 7.34442114830017089844e-01) (109, 4.22889202833175659180e-01) (110, 1.83305680751800537109e+00) (111, 2.79181897640228271484e-01) (112, 1.11966359615325927734e+00) (113, 1.43233644962310791016e+00) (114, 1.56738817691802978516e+00) (115, 9.62303340435028076172e-01) (116, 1.42173230648040771484e+00) (117, 1.11115777492523193359e+00) (118, 1.50445806980133056641e+00) (119, 1.63056004047393798828e+00) (120, 1.77234756946563720703e+00) (121, 6.74951970577239990234e-01) (122, 1.94519770145416259766e+00) (123, 1.94228780269622802734e+00) (124, 7.05228984355926513672e-01) (125, 5.08481144905090332031e-01) (126, 1.69104301929473876953e+00) (127, 7.14159607887268066406e-01) (128, 2.07960343360900878906e+00) (129, 2.26479500532150268555e-01) (130, 1.78836178779602050781e+00) (131, 1.32213020324707031250e+00) (132, 2.05637550354003906250e+00) (133, 9.34719800949096679688e-01) (134, 9.66314375400543212891e-01) (135, 1.02959012985229492188e+00) (136, 1.80727124214172363281e+00) (137, 9.42961513996124267578e-01) (138, 3.90340149402618408203e-01) (139, 4.46378707885742187500e-01) (140, 1.26594829559326171875e+00) (141, 1.28062203526496887207e-01) (142, 6.25658214092254638672e-01) (143, 2.90277153253555297852e-01) (144, 1.46049642562866210938e+00) (145, 2.09314441680908203125e+00) (146, 1.15267801284790039062e+00) (147, 7.86894023418426513672e-01) (148, 1.10896718502044677734e+00) (149, 5.61801433563232421875e-01) (150, 3.22119265794754028320e-01) (151, 7.85979986190795898438e-01) (152, 1.13685095310211181641e+00) (153, 1.71982198953628540039e-01) (154, 6.32932960987091064453e-01) (155, 1.74217760562896728516e+00) (156, -9.34212744235992431641e-01) (0, 1.30923479795455932617e-01) (1, 1.17649167776107788086e-01) (2, 1.15111851692199707031e+00) (3, 1.27101767063140869141e+00) (4, 1.04284334182739257812e+00) (5, 1.24567210674285888672e+00) (6, 9.30321335792541503906e-01) (7, 1.26137495040893554688e+00) (8, 1.68698358535766601562e+00) (9, 1.81474983692169189453e+00) (10, 1.22468434274196624756e-01) (11, 1.59017443656921386719e+00) (12, 7.87663102149963378906e-01) (13, 5.59008836746215820312e-01) (14, 1.21658742427825927734e+00) (15, 2.04548883438110351562e+00) (16, 1.17978334426879882812e+00) (17, 8.03086042404174804688e-01) (18, 6.79410755634307861328e-01) (19, 9.46429371833801269531e-01) (20, 4.88553494215011596680e-01) (21, 1.09973859786987304688e+00) (22, 2.06523442268371582031e+00) (23, 4.55339223146438598633e-01) (24, 2.09051823616027832031e+00) (25, 4.31718379259109497070e-01) (26, 8.05764734745025634766e-01) (27, 1.62776291370391845703e+00) (28, 1.61848139762878417969e+00) (29, 1.18119347095489501953e+00) (30, 8.85568439960479736328e-01) (31, 1.64950239658355712891e+00) (32, 1.19894027709960937500e+00) (33, 1.93678462505340576172e+00) (34, 8.16299438476562500000e-01) (35, 1.37562930583953857422e-01) (36, 1.07823598384857177734e+00) (37, 1.64671838283538818359e+00) (38, 1.29903554916381835938e+00) (39, 6.60998821258544921875e-01) (40, 1.35724747180938720703e+00) (41, 1.32160162925720214844e+00) (42, 1.46952569484710693359e-01) (43, 2.04500842094421386719e+00) (44, 1.78070819377899169922e+00) (45, 1.26363766193389892578e+00) (46, 1.98627638816833496094e+00) (47, 8.56270790100097656250e-01) (48, 1.96682143211364746094e+00) (49, 5.61466455459594726562e-01) (50, 1.70279777050018310547e+00) (51, 3.51154088973999023438e-01) (52, 1.56130266189575195312e+00) (53, 1.66381132602691650391e+00) (54, 7.06590950489044189453e-01) (55, 1.54760003089904785156e+00) (56, 1.99562728404998779297e+00) (57, 1.41245329380035400391e+00) (58, 1.07114219665527343750e+00) (59, 1.50988793373107910156e+00) (60, 4.89426136016845703125e-01) (61, 1.85680818557739257812e+00) (62, 1.05516958236694335938e+00) (63, 1.58846402168273925781e+00) (64, 1.68937218189239501953e+00) (65, 1.77156674861907958984e+00) (66, 1.62612462043762207031e+00) (67, 6.63387358188629150391e-01) (68, 1.31406438350677490234e+00) (69, 8.20939540863037109375e-01) (70, 1.22448384761810302734e+00) (71, 5.67091107368469238281e-01) (72, 2.04263901710510253906e+00) (73, 1.27153396606445312500e+00) (74, 5.07878661155700683594e-01) (75, 1.71912622451782226562e+00) (76, 4.30950999259948730469e-01) (77, 3.89934360980987548828e-01) (78, 4.71176326274871826172e-01) (79, 2.93551623821258544922e-01) (80, 8.51498484611511230469e-01) (81, 2.07407188415527343750e+00) (82, 5.44803380966186523438e-01) (83, 3.08580458164215087891e-01) (84, 1.63366222381591796875e+00) (85, 1.15149188041687011719e+00) (86, 1.75627815723419189453e+00) (87, 1.52506875991821289062e+00) (88, 4.59724575281143188477e-01) (89, 7.23199605941772460938e-01) (90, 9.30736064910888671875e-01) (91, 8.49248290061950683594e-01) (92, 4.75787162780761718750e-01) (93, 1.88600337505340576172e+00) (94, 3.33491623401641845703e-01) (95, 2.06525707244873046875e+00) (96, 1.55334937572479248047e+00) (97, 1.85971391201019287109e+00) (98, 6.24423503875732421875e-01) (99, 7.63192951679229736328e-01) (100, 5.76432704925537109375e-01) (101, 1.74900507926940917969e+00) (102, 1.23038160800933837891e+00) (103, 5.14850854873657226562e-01) (104, 9.16318356990814208984e-01) (105, 1.63835799694061279297e+00) (106, 1.29756316542625427246e-01) (107, 1.24736690521240234375e+00) (108, 1.92839002609252929688e+00) (109, 5.01030266284942626953e-01) (110, 1.44101619720458984375e+00) (111, 6.75667762756347656250e-01) (112, 4.70881223678588867188e-01) (113, 1.88591718673706054688e+00) (114, 8.84345829486846923828e-01) (115, 2.00464129447937011719e+00) (116, 9.33188438415527343750e-01) (117, 5.36403238773345947266e-01) (118, 1.42548930644989013672e+00) (119, 1.29301059246063232422e+00) (120, 1.15970051288604736328e+00) (121, 2.52004534006118774414e-01) (122, 2.04235672950744628906e+00) (123, 1.53558516502380371094e+00) (124, 2.03810548782348632812e+00) (125, 2.71627426147460937500e-01) (126, 1.49662148952484130859e+00) (127, 1.48723411560058593750e+00) (128, 2.03143906593322753906e+00) (129, 2.02114248275756835938e+00) (130, 1.46206244826316833496e-01) (131, 5.03650963306427001953e-01) (132, 1.66592693328857421875e+00) (133, 1.27668559551239013672e+00) (134, 9.18599426746368408203e-01) (135, 4.78024601936340332031e-01) (136, 8.10822904109954833984e-01) (137, 9.48453366756439208984e-01) (138, 1.62548911571502685547e+00) (139, 6.34992182254791259766e-01) (140, 1.34958124160766601562e+00) (141, 9.62284624576568603516e-01) (142, 1.21075761318206787109e+00) (143, 1.72056019306182861328e+00) (144, 7.43981122970581054688e-01) (145, 1.99520111083984375000e+00) (146, 1.62098050117492675781e+00) (147, 1.57726716995239257812e+00) (148, 4.27383542060852050781e-01) (149, 9.42249059677124023438e-01) (150, 7.66057074069976806641e-01) (151, 1.48718166351318359375e+00) (152, 1.09435117244720458984e+00) (153, 7.04192876815795898438e-01) (154, 9.18546199798583984375e-01) (155, 1.02823603153228759766e+00) (156, -3.52384954690933227539e-01) (157, 3.10946971178054809570e-01) (0, 1.49136435985565185547e+00) (1, 5.47950685024261474609e-01) (2, 1.73823249340057373047e+00) (3, 6.69767677783966064453e-01) (4, 5.85722029209136962891e-01) (5, 9.38818514347076416016e-01) (6, 1.40414381027221679688e+00) (7, 1.58986175060272216797e+00) (8, 1.66383600234985351562e+00) (9, 1.30992579460144042969e+00) (10, 4.18497443199157714844e-01) (11, 1.50275218486785888672e+00) (12, 8.15607786178588867188e-01) (13, 1.61003217101097106934e-01) (14, 7.69589424133300781250e-01) (15, 8.99350225925445556641e-01) (16, 9.36092138290405273438e-01) (17, 2.04855275154113769531e+00) (18, 6.85726761817932128906e-01) (19, 1.43127858638763427734e+00) (20, 1.71155720949172973633e-01) (21, 1.96208322048187255859e+00) (22, 2.08871626853942871094e+00) (23, 6.36574804782867431641e-01) (24, 2.05900907516479492188e+00) (25, 1.12187027931213378906e+00) (26, 1.88102543354034423828e+00) (27, 1.03303289413452148438e+00) (28, 8.85007023811340332031e-01) (29, 1.91598498821258544922e+00) (30, 1.34552860260009765625e+00) (31, 2.66934573650360107422e-01) (32, 3.54498833417892456055e-01) (33, 9.74324345588684082031e-01) (34, 8.36799919605255126953e-01) (35, 8.40318500995635986328e-01) (36, 1.81324052810668945312e+00) (37, 1.31506934762001037598e-01) (38, 3.20743501186370849609e-01) (39, 1.36763966083526611328e+00) (40, 1.34153032302856445312e+00) (41, 6.39338552951812744141e-01) (42, 7.60955035686492919922e-01) (43, 2.05723595619201660156e+00) (44, 7.00439453125000000000e-01) (45, 1.43064200878143310547e+00) (46, 8.47149252891540527344e-01) (47, 1.53662919998168945312e+00) (48, 1.36975777149200439453e+00) (49, 1.43297362327575683594e+00) (50, 8.58470976352691650391e-01) (51, 1.44101119041442871094e+00) (52, 1.28562009334564208984e+00) (53, 8.37750196456909179688e-01) (54, 1.97768366336822509766e+00) (55, 1.23519206047058105469e+00) (56, 1.85971808433532714844e+00) (57, 1.74927210807800292969e+00) (58, 1.58788025379180908203e-01) (59, 6.35288238525390625000e-01) (60, 1.55582022666931152344e+00) (61, 1.40441429615020751953e+00) (62, 8.02320480346679687500e-01) (63, 1.81041681766510009766e+00) (64, 2.69301861524581909180e-01) (65, 1.53921806812286376953e+00) (66, 5.41298389434814453125e-01) (67, 1.98263990879058837891e+00) (68, 1.57082247734069824219e+00) (69, 7.62139558792114257812e-01) (70, 1.24084270000457763672e+00) (71, 8.02916169166564941406e-01) (72, 1.30157566070556640625e+00) (73, 1.90189552307128906250e+00) (74, 7.50715136528015136719e-01) (75, 1.90211284160614013672e+00) (76, 1.22310066223144531250e+00) (77, 1.49796199798583984375e+00) (78, 1.32930517196655273438e+00) (79, 4.83421623706817626953e-01) (80, 8.21498811244964599609e-01) (81, 2.08787393569946289062e+00) (82, 1.82453036308288574219e+00) (83, 2.00721669197082519531e+00) (84, 8.16187143325805664062e-01) (85, 1.69277715682983398438e+00) (86, 1.13297164440155029297e+00) (87, 5.66468358039855957031e-01) (88, 1.33261239528656005859e+00) (89, 1.19185733795166015625e+00) (90, 1.10185420513153076172e+00) (91, 7.78995931148529052734e-01) (92, 4.86834973096847534180e-01) (93, 1.80427241325378417969e+00) (94, 4.79975789785385131836e-01) (95, 6.56234383583068847656e-01) (96, 1.23405349254608154297e+00) (97, 9.21371817588806152344e-01) (98, 5.29437541961669921875e-01) (99, 6.95439219474792480469e-01) (100, 1.58360886573791503906e+00) (101, 1.67037796974182128906e+00) (102, 1.39845299720764160156e+00) (103, 7.75747835636138916016e-01) (104, 1.46283650398254394531e+00) (105, 2.04926586151123046875e+00) (106, 5.68423807621002197266e-01) (107, 5.76500356197357177734e-01) (108, 1.43779098987579345703e+00) (109, 1.79782676696777343750e+00) (110, 9.60019588470458984375e-01) (111, 1.49852842092514038086e-01) (112, 1.77626359462738037109e+00) (113, 6.75113141536712646484e-01) (114, 2.05716729164123535156e+00) (115, 4.83013898134231567383e-01) (116, 2.58453518152236938477e-01) (117, 1.08070194721221923828e+00) (118, 9.49579894542694091797e-01) (119, 1.49116361141204833984e+00) (120, 1.63122490048408508301e-01) (121, 1.95153176784515380859e+00) (122, 1.60722613334655761719e-01) (123, 5.50055086612701416016e-01) (124, 1.64636731147766113281e+00) (125, 5.40796041488647460938e-01) (126, 1.10638713836669921875e+00) (127, 7.70983994007110595703e-01) (128, 1.36226546764373779297e+00) (129, 1.53592228889465332031e+00) (130, 1.36652088165283203125e+00) (131, 8.36437523365020751953e-01) (132, 1.09686350822448730469e+00) (133, 6.55537009239196777344e-01) (134, 1.51228308677673339844e+00) (135, 4.50263142585754394531e-01) (136, 5.95365881919860839844e-01) (137, 1.98080444335937500000e+00) (138, 9.26861166954040527344e-01) (139, 1.93325448036193847656e+00) (140, 1.66919434070587158203e+00) (141, 1.78697836399078369141e+00) (142, 1.98320508003234863281e+00) (143, 1.33602106571197509766e+00) (144, 3.52654695510864257812e-01) (145, 1.93093514442443847656e+00) (146, 1.71913254261016845703e+00) (147, 5.11205852031707763672e-01) (148, 9.02200222015380859375e-01) (149, 5.59275627136230468750e-01) (150, 1.90246701240539550781e+00) (151, 9.65420365333557128906e-01) (152, 4.01370614767074584961e-01) (153, 1.96328735351562500000e+00) (154, 1.41557300090789794922e+00) (155, 1.94783556461334228516e+00) (156, -1.32014405727386474609e+00) (157, 4.12523418664932250977e-01) (158, 6.09382688999176025391e-01) (0, 1.21514606475830078125e+00) (1, 1.51343786716461181641e+00) (2, 1.77593126893043518066e-01) (3, 5.96129834651947021484e-01) (4, 6.93721830844879150391e-01) (5, 1.17706164717674255371e-01) (6, 2.14295014739036560059e-01) (7, 1.76088321208953857422e+00) (8, 1.18370628356933593750e+00) (9, 1.76354026794433593750e+00) (10, 5.11298060417175292969e-01) (11, 1.00560617446899414062e+00) (12, 9.09798085689544677734e-01) (13, 1.28943490982055664062e+00) (14, 4.05180037021636962891e-01) (15, 1.37323594093322753906e+00) (16, 8.10689926147460937500e-01) (17, 5.70688724517822265625e-01) (18, 1.14086711406707763672e+00) (19, 1.84246206283569335938e+00) (20, 1.80287814140319824219e+00) (21, 2.02499961853027343750e+00) (22, 1.02227127552032470703e+00) (23, 8.69413554668426513672e-01) (24, 1.21752929687500000000e+00) (25, 7.63289391994476318359e-01) (26, 1.63611078262329101562e+00) (27, 7.85750150680541992188e-01) (28, 1.78658342361450195312e+00) (29, 4.18225944042205810547e-01) (30, 1.82469570636749267578e+00) (31, 8.88583421707153320312e-01) (32, 1.83176136016845703125e+00) (33, 1.90238654613494873047e+00) (34, 1.38481092453002929688e+00) (35, 4.12337124347686767578e-01) (36, 1.92019033432006835938e+00) (37, 1.49920356273651123047e+00) (38, 2.07331824302673339844e+00) (39, 9.90750491619110107422e-01) (40, 1.14959776401519775391e+00) (41, 4.71469938755035400391e-01) (42, 1.89645433425903320312e+00) (43, 1.95949351787567138672e+00) (44, 1.66100251674652099609e+00) (45, 1.88488185405731201172e-01) (46, 1.21958339214324951172e+00) (47, 3.58546286821365356445e-01) (48, 6.59274518489837646484e-01) (49, 2.47304424643516540527e-01) (50, 2.10110592842102050781e+00) (51, 3.49006503820419311523e-01) (52, 1.59157693386077880859e-01) (53, 1.01023089885711669922e+00) (54, 1.11851763725280761719e+00) (55, 1.27678465843200683594e+00) (56, 1.67361795902252197266e+00) (57, 6.41482293605804443359e-01) (58, 1.96263241767883300781e+00) (59, 1.34705519676208496094e+00) (60, 9.59805846214294433594e-01) (61, 1.67418193817138671875e+00) (62, 1.22492566704750061035e-01) (63, 6.78421080112457275391e-01) (64, 1.46342241764068603516e+00) (65, 1.40740108489990234375e+00) (66, 9.90855872631072998047e-01) (67, 1.27046656608581542969e+00) (68, 7.93458640575408935547e-01) (69, 9.51027691364288330078e-01) (70, 1.48070842027664184570e-01) (71, 1.84315407276153564453e+00) (72, 1.32259523868560791016e+00) (73, 1.94462275505065917969e+00) (74, 1.68950152397155761719e+00) (75, 8.70451509952545166016e-01) (76, 2.03320884704589843750e+00) (77, 7.95938730239868164062e-01) (78, 1.12909543514251708984e+00) (79, 5.79337000846862792969e-01) (80, 9.43340837955474853516e-01) (81, 1.11705505847930908203e+00) (82, 8.28441143035888671875e-01) (83, 1.00259625911712646484e+00) (84, 2.02738380432128906250e+00) (85, 1.84705638885498046875e+00) (86, 1.66234582662582397461e-01) (87, 1.58785569667816162109e+00) (88, 3.75392496585845947266e-01) (89, 2.02896475791931152344e+00) (90, 8.21764767169952392578e-01) (91, 1.23529589176177978516e+00) (92, 1.59000051021575927734e+00) (93, 8.44354987144470214844e-01) (94, 1.81381464004516601562e+00) (95, 9.40276682376861572266e-01) (96, 1.38609960675239562988e-01) (97, 6.91524326801300048828e-01) (98, 2.11084103584289550781e+00) (99, 8.32166254520416259766e-01) (100, 1.54264962673187255859e+00) (101, 1.45765528082847595215e-01) (102, 5.62174141407012939453e-01) (103, 7.52098679542541503906e-01) (104, 1.99048602581024169922e+00) (105, 1.38529464602470397949e-01) (106, 1.52264785766601562500e+00) (107, 1.91054844856262207031e+00) (108, 8.34565877914428710938e-01) (109, 5.38597106933593750000e-01) (110, 3.76739323139190673828e-01) (111, 1.67800426483154296875e+00) (112, 1.55574989318847656250e+00) (113, 1.10527801513671875000e+00) (114, 5.67454218864440917969e-01) (115, 1.46998739242553710938e+00) (116, 8.39188337326049804688e-01) (117, 6.33786439895629882812e-01) (118, 9.44696962833404541016e-01) (119, 1.11467838287353515625e+00) (120, 5.49604952335357666016e-01) (121, 1.66655933856964111328e+00) (122, 2.36828193068504333496e-01) (123, 2.03970313072204589844e+00) (124, 3.97768080234527587891e-01) (125, 1.95074057579040527344e+00) (126, 8.66833567619323730469e-01) (127, 4.36475694179534912109e-01) (128, 5.29118657112121582031e-01) (129, 8.64528298377990722656e-01) (130, 1.16873955726623535156e+00) (131, 1.97186601161956787109e+00) (132, 9.10391449928283691406e-01) (133, 1.63101136684417724609e+00) (134, 6.10818445682525634766e-01) (135, 7.87731289863586425781e-01) (136, 1.66963851451873779297e+00) (137, 2.03356409072875976562e+00) (138, 5.85133552551269531250e-01) (139, 3.91058206558227539062e-01) (140, 4.59014922380447387695e-01) (141, 8.61970543861389160156e-01) (142, 1.96916007995605468750e+00) (143, 1.91486239433288574219e+00) (144, 1.86734628677368164062e+00) (145, 4.23468202352523803711e-01) (146, 1.27170372009277343750e+00) (147, 5.93388378620147705078e-01) (148, 9.57352280616760253906e-01) (149, 1.03254444897174835205e-01) (150, 1.60816442966461181641e+00) (151, 1.40705478191375732422e+00) (152, 1.66991138458251953125e+00) (153, 1.74509024620056152344e+00) (154, 1.33361160755157470703e+00) (155, 1.96777713298797607422e+00) (156, 1.05222308635711669922e+00) (157, 2.10054302215576171875e+00) (158, 2.91106611490249633789e-01) (159, 2.01190114021301269531e+00) (0, 8.84846925735473632812e-01) (1, 1.21765255928039550781e+00) (2, 1.88093256950378417969e+00) (3, 5.65127551555633544922e-01) (4, 1.24396800994873046875e+00) (5, 1.64571511745452880859e+00) (6, 8.56265306472778320312e-01) (7, 3.81521970033645629883e-01) (8, 1.96509683132171630859e+00) (9, 1.77368736267089843750e+00) (10, 8.15976917743682861328e-01) (11, 1.86277163028717041016e+00) (12, 2.64135986566543579102e-01) (13, 1.58716011047363281250e+00) (14, 5.18343627452850341797e-01) (15, 1.29906976222991943359e+00) (16, 3.05490940809249877930e-01) (17, 1.54746592044830322266e+00) (18, 7.76040196418762207031e-01) (19, 7.06672549247741699219e-01) (20, 1.24366128444671630859e+00) (21, 1.73540580272674560547e+00) (22, 1.82747483253479003906e+00) (23, 1.03531575202941894531e+00) (24, 5.41499078273773193359e-01) (25, 1.65175127983093261719e+00) (26, 6.51783466339111328125e-01) (27, 5.02464771270751953125e-01) (28, 5.07201015949249267578e-01) (29, 1.93676590919494628906e-01) (30, 5.00118613243103027344e-01) (31, 1.29214549064636230469e+00) (32, 1.31142687797546386719e+00) (33, 2.65023291110992431641e-01) (34, 1.75737071037292480469e+00) (35, 4.39367026090621948242e-01) (36, 1.81083607673645019531e+00) (37, 4.97608125209808349609e-01) (38, 7.20986545085906982422e-01) (39, 1.65990495681762695312e+00) (40, 1.55267536640167236328e-01) (41, 1.43706107139587402344e+00) (42, 1.40664863586425781250e+00) (43, 3.19501161575317382812e-01) (44, 9.08193290233612060547e-01) (45, 1.82509005069732666016e+00) (46, 1.51866865158081054688e+00) (47, 1.11378180980682373047e+00) (48, 1.25652801990509033203e+00) (49, 1.78680866956710815430e-01) (50, 1.72055196762084960938e+00) (51, 3.84161382913589477539e-01) (52, 1.81418442726135253906e+00) (53, 1.43199872970581054688e+00) (54, 1.31957471370697021484e+00) (55, 2.39655524492263793945e-01) (56, 9.67722177505493164062e-01) (57, 1.87145578861236572266e+00) (58, 6.42217934131622314453e-01) (59, 1.37502074241638183594e+00) (60, 1.96523010730743408203e+00) (61, 1.04243421554565429688e+00) (62, 5.51138401031494140625e-01) (63, 1.16062903404235839844e+00) (64, 1.20755517482757568359e+00) (65, 1.92481204867362976074e-01) (66, 1.50009369850158691406e+00) (67, 9.02363300323486328125e-01) (68, 5.90186953544616699219e-01) (69, 1.05052344501018524170e-01) (70, 4.46240454912185668945e-01) (71, 6.45552158355712890625e-01) (72, 1.44221103191375732422e+00) (73, 1.75298678874969482422e+00) (74, 8.65150988101959228516e-01) (75, 2.34376430511474609375e-01) (76, 1.46204876899719238281e+00) (77, 2.67791688442230224609e-01) (78, 1.24825584888458251953e+00) (79, 6.02548897266387939453e-01) (80, 3.46570193767547607422e-01) (81, 8.52779984474182128906e-01) (82, 8.86807978153228759766e-01) (83, 2.06085252761840820312e+00) (84, 1.68750777840614318848e-01) (85, 2.10648059844970703125e+00) (86, 1.84479817748069763184e-01) (87, 1.03657066822052001953e+00) (88, 1.86190831661224365234e+00) (89, 7.26795434951782226562e-01) (90, 2.95563459396362304688e-01) (91, 1.71111047267913818359e+00) (92, 1.66932725906372070312e+00) (93, 7.46799468994140625000e-01) (94, 7.55711615085601806641e-01) (95, 7.60854482650756835938e-01) (96, 8.39378356933593750000e-01) (97, 1.39777362346649169922e-01) (98, 1.56331539154052734375e+00) (99, 1.32966291904449462891e+00) (100, 1.44927352666854858398e-01) (101, 1.90965354442596435547e+00) (102, 1.87531268596649169922e+00) (103, 1.48723614215850830078e+00) (104, 1.54661238193511962891e+00) (105, 6.24435782432556152344e-01) (106, 1.62171018123626708984e+00) (107, 8.92633318901062011719e-01) (108, 7.92325079441070556641e-01) (109, 7.53938198089599609375e-01) (110, 1.39527976512908935547e+00) (111, 1.03899300098419189453e+00) (112, 1.50681579113006591797e+00) (113, 1.66059821844100952148e-01) (114, 9.83817279338836669922e-01) (115, 1.57566416263580322266e+00) (116, 1.56512230634689331055e-01) (117, 1.06839466094970703125e+00) (118, 4.96206820011138916016e-01) (119, 1.91851818561553955078e+00) (120, 1.69528770446777343750e+00) (121, 6.91867887973785400391e-01) (122, 1.51360070705413818359e+00) (123, 1.24858701229095458984e+00) (124, 1.33876502513885498047e+00) (125, 1.53284355998039245605e-01) (126, 1.90953922271728515625e+00) (127, 2.07824134826660156250e+00) (128, 1.93159371614456176758e-01) (129, 1.35682654380798339844e+00) (130, 1.29187607765197753906e+00) (131, 2.38184392452239990234e-01) (132, 1.15045225620269775391e+00) (133, 1.05116081237792968750e+00) (134, 1.62551808357238769531e+00) (135, 5.81036686897277832031e-01) (136, 1.57569420337677001953e+00) (137, 1.13120043277740478516e+00) (138, 1.37376761436462402344e+00) (139, 2.51991480588912963867e-01) (140, 1.78523635864257812500e+00) (141, 6.53019487857818603516e-01) (142, 1.19108211994171142578e+00) (143, 1.17602396011352539062e+00) (144, 7.19176948070526123047e-01) (145, 2.07499718666076660156e+00) (146, 6.35660290718078613281e-01) (147, 7.75786876678466796875e-01) (148, 1.02736377716064453125e+00) (149, 1.03196477890014648438e+00) (150, 5.78277051448822021484e-01) (151, 6.06623589992523193359e-01) (152, 1.62393033504486083984e+00) (153, 1.99197542667388916016e+00) (154, 1.75530838966369628906e+00) (155, 8.46667349338531494141e-01) (156, 1.97468698024749755859e+00) (157, 1.54881954193115234375e+00) (158, 8.08880507946014404297e-01) (159, 1.22488871216773986816e-01) (160, 7.89618253707885742188e-01) (0, 7.93546736240386962891e-01) (1, 2.10358276963233947754e-01) (2, 1.98047101497650146484e+00) (3, 8.74542176723480224609e-01) (4, 1.59125673770904541016e+00) (5, 7.59288549423217773438e-01) (6, 6.66883468627929687500e-01) (7, 2.31859862804412841797e-01) (8, 1.84422934055328369141e+00) (9, 1.41534221172332763672e+00) (10, 1.46136653423309326172e+00) (11, 1.23003792762756347656e+00) (12, 5.21845161914825439453e-01) (13, 1.78589129447937011719e+00) (14, 1.28372621536254882812e+00) (15, 1.86217010021209716797e+00) (16, 1.55779039859771728516e+00) (17, 6.46739184856414794922e-01) (18, 1.43328630924224853516e+00) (19, 1.59451055526733398438e+00) (20, 1.70535790920257568359e+00) (21, 1.27614605426788330078e+00) (22, 1.61408352851867675781e+00) (23, 2.10999345779418945312e+00) (24, 1.87197875976562500000e+00) (25, 8.27040374279022216797e-01) (26, 5.12938618659973144531e-01) (27, 1.87602305412292480469e+00) (28, 2.07134199142456054688e+00) (29, 1.77095496654510498047e+00) (30, 1.36885750293731689453e+00) (31, 7.46502876281738281250e-01) (32, 1.88141095638275146484e+00) (33, 1.23094284534454345703e+00) (34, 1.52114272117614746094e+00) (35, 1.35428190231323242188e+00) (36, 1.89032912254333496094e+00) (37, 2.08812403678894042969e+00) (38, 1.48623943328857421875e+00) (39, 1.61617267131805419922e+00) (40, 1.38508033752441406250e+00) (41, 8.29220354557037353516e-01) (42, 7.27825105190277099609e-01) (43, 1.80702328681945800781e+00) (44, 4.96726065874099731445e-01) (45, 1.91164886951446533203e+00) (46, 1.55080759525299072266e+00) (47, 1.95461416244506835938e+00) (48, 4.40002441406250000000e-01) (49, 8.65708351135253906250e-01) (50, 1.43073892593383789062e+00) (51, 2.04545807838439941406e+00) (52, 2.04195213317871093750e+00) (53, 9.26436960697174072266e-01) (54, 2.03706574440002441406e+00) (55, 1.79554522037506103516e+00) (56, 1.65357494354248046875e+00) (57, 4.31618660688400268555e-01) (58, 1.55318260192871093750e+00) (59, 1.60653114318847656250e+00) (60, 2.10267138481140136719e+00) (61, 8.03654491901397705078e-01) (62, 2.34648406505584716797e-01) (63, 1.86569666862487792969e+00) (64, 1.93469500541687011719e+00) (65, 1.65588867664337158203e+00) (66, 1.10159277915954589844e+00) (67, 1.70663845539093017578e+00) (68, 1.62562704086303710938e+00) (69, 4.69446629285812377930e-01) (70, 1.20442545413970947266e+00) (71, 8.92321765422821044922e-01) (72, 1.19876456260681152344e+00) (73, 1.83234822750091552734e+00) (74, 5.80959260463714599609e-01) (75, 1.59558820724487304688e+00) (76, 1.62561154365539550781e+00) (77, 2.03186464309692382812e+00) (78, 1.43181669712066650391e+00) (79, 1.96571147441864013672e+00) (80, 7.79187262058258056641e-01) (81, 7.44170188903808593750e-01) (82, 1.89278388023376464844e+00) (83, 7.02753722667694091797e-01) (84, 1.57070469856262207031e+00) (85, 1.81146407127380371094e+00) (86, 3.79913240671157836914e-01) (87, 1.10589396953582763672e+00) (88, 1.24697037041187286377e-01) (89, 1.83319342136383056641e+00) (90, 5.94039499759674072266e-01) (91, 1.08982704579830169678e-01) (92, 5.18462300300598144531e-01) (93, 7.28785574436187744141e-01) (94, 1.87477695941925048828e+00) (95, 3.34771603345870971680e-01) (96, 2.66288697719573974609e-01) (97, 8.57984185218811035156e-01) (98, 1.94150769710540771484e+00) (99, 1.79201328754425048828e+00) (100, 1.22752845287322998047e+00) (101, 1.02754747867584228516e+00) (102, 5.65949380397796630859e-01) (103, 3.07907372713088989258e-01) (104, 7.41510033607482910156e-01) (105, 1.04700636863708496094e+00) (106, 1.80359327793121337891e+00) (107, 2.48735845088958740234e-01) (108, 9.60485339164733886719e-01) (109, 1.11702442169189453125e+00) (110, 2.11454510688781738281e+00) (111, 1.63977015018463134766e+00) (112, 1.76129221916198730469e+00) (113, 1.88894331455230712891e+00) (114, 2.24138215184211730957e-01) (115, 1.21361136436462402344e+00) (116, 1.58202171325683593750e+00) (117, 5.04149079322814941406e-01) (118, 2.01119646430015563965e-01) (119, 1.60681641101837158203e+00) (120, 2.18956857919692993164e-01) (121, 6.95256769657135009766e-01) (122, 1.61589670181274414062e+00) (123, 6.37516736984252929688e-01) (124, 1.32414007186889648438e+00) (125, 1.37228798866271972656e+00) (126, 8.72386038303375244141e-01) (127, 1.49052631855010986328e+00) (128, 1.11886560916900634766e-01) (129, 6.95508003234863281250e-01) (130, 1.16415405273437500000e+00) (131, 1.23951256275177001953e+00) (132, 1.62315320968627929688e+00) (133, 1.63020098209381103516e+00) (134, 1.44751763343811035156e+00) (135, 2.46277526021003723145e-01) (136, 5.58821678161621093750e-01) (137, 1.13272523880004882812e+00) (138, 3.95111024379730224609e-01) (139, 1.41940462589263916016e+00) (140, 1.31364107131958007812e-01) (141, 3.91270428895950317383e-01) (142, 9.40789163112640380859e-01) (143, 1.79275405406951904297e+00) (144, 1.61828085780143737793e-01) (145, 1.06502497196197509766e+00) (146, 8.87979626655578613281e-01) (147, 1.64394748210906982422e+00) (148, 1.46927165985107421875e+00) (149, 9.89197015762329101562e-01) (150, 1.13237822055816650391e+00) (151, 1.58832621574401855469e+00) (152, 1.58455133438110351562e+00) (153, 6.29889309406280517578e-01) (154, 1.07457309961318969727e-01) (155, 7.90305793285369873047e-01) (156, 1.68616425991058349609e+00) (157, 8.79940927028656005859e-01) (158, 1.62446469068527221680e-01) (159, 1.91425931453704833984e+00) (160, 1.47554659843444824219e+00) (161, 1.22669816017150878906e+00) (0, 1.51716172695159912109e+00) (1, 1.22199821472167968750e+00) (2, 5.02356648445129394531e-01) (3, 1.38225650787353515625e+00) (4, 4.19201701879501342773e-01) (5, 1.44174516201019287109e+00) (6, 6.04413032531738281250e-01) (7, 6.13408088684082031250e-01) (8, 2.07835793495178222656e+00) (9, 8.07135701179504394531e-01) (10, 6.84004962444305419922e-01) (11, 1.34139561653137207031e+00) (12, 2.01508736610412597656e+00) (13, 1.67458915710449218750e+00) (14, 8.04134547710418701172e-01) (15, 4.55023407936096191406e-01) (16, 1.38404333591461181641e+00) (17, 2.05581903457641601562e+00) (18, 8.64791989326477050781e-01) (19, 2.58444190025329589844e-01) (20, 1.91135668754577636719e+00) (21, 1.14238250255584716797e+00) (22, 9.67132508754730224609e-01) (23, 5.39546430110931396484e-01) (24, 3.75887602567672729492e-01) (25, 1.82065391540527343750e+00) (26, 1.99289727210998535156e+00) (27, 1.85865628719329833984e+00) (28, 1.63488554954528808594e+00) (29, 1.67118835449218750000e+00) (30, 8.91693294048309326172e-01) (31, 1.03166615962982177734e+00) (32, 7.72805333137512207031e-01) (33, 1.29414749145507812500e+00) (34, 2.93541461229324340820e-01) (35, 1.09210467338562011719e+00) (36, 6.15511536598205566406e-01) (37, 7.98052191734313964844e-01) (38, 1.60561037063598632812e+00) (39, 5.73488056659698486328e-01) (40, 1.50528550148010253906e+00) (41, 1.69234111905097961426e-01) (42, 1.81498146057128906250e+00) (43, 1.39999175071716308594e+00) (44, 1.74392092227935791016e+00) (45, 4.98734772205352783203e-01) (46, 1.75511276721954345703e+00) (47, 1.00758302211761474609e+00) (48, 4.34172421693801879883e-01) (49, 4.99523550271987915039e-01) (50, 1.16612493991851806641e+00) (51, 2.25147783756256103516e-01) (52, 1.54200375080108642578e+00) (53, 2.03335523605346679688e+00) (54, 6.64791822433471679688e-01) (55, 1.81798887252807617188e+00) (56, 1.73362779617309570312e+00) (57, 5.37307918071746826172e-01) (58, 1.55626392364501953125e+00) (59, 1.24813222885131835938e+00) (60, 2.10859394073486328125e+00) (61, 3.27576100826263427734e-01) (62, 1.59417033195495605469e-01) (63, 7.61017978191375732422e-01) (64, 1.52182126045227050781e+00) (65, 3.53056192398071289062e-01) (66, 1.75322031974792480469e+00) (67, 2.03743052482604980469e+00) (68, 1.05120599269866943359e+00) (69, 1.23844945430755615234e+00) (70, 4.90537285804748535156e-01) (71, 4.36110317707061767578e-01) (72, 1.30778121948242187500e+00) (73, 1.85137420892715454102e-01) (74, 1.73619973659515380859e+00) (75, 9.31320965290069580078e-01) (76, 5.83969771862030029297e-01) (77, 1.37093126773834228516e+00) (78, 1.83900177478790283203e+00) (79, 9.18239831924438476562e-01) (80, 1.77055251598358154297e+00) (81, 8.84745478630065917969e-01) (82, 1.04348528385162353516e+00) (83, 1.19217503070831298828e+00) (84, 7.97719299793243408203e-01) (85, 1.60837471485137939453e+00) (86, 8.89782667160034179688e-01) (87, 4.10965889692306518555e-01) (88, 2.04578042030334472656e+00) (89, 3.25665473937988281250e-01) (90, 1.55919575691223144531e+00) (91, 2.03399300575256347656e+00) (92, 5.53339183330535888672e-01) (93, 1.61871039867401123047e+00) (94, 6.74629747867584228516e-01) (95, 1.97525811195373535156e+00) (96, 1.87186419963836669922e+00) (97, 3.07468801736831665039e-01) (98, 1.89230728149414062500e+00) (99, 8.02688956260681152344e-01) (100, 1.44601583480834960938e+00) (101, 2.62463301420211791992e-01) (102, 1.13889682292938232422e+00) (103, 6.33415937423706054688e-01) (104, 3.47698390483856201172e-01) (105, 7.54715383052825927734e-01) (106, 1.46483457088470458984e+00) (107, 8.31765770912170410156e-01) (108, 2.02574443817138671875e+00) (109, 1.18345499038696289062e+00) (110, 1.65010333061218261719e+00) (111, 1.67591571807861328125e+00) (112, 1.96829819679260253906e+00) (113, 5.73207378387451171875e-01) (114, 7.47709453105926513672e-01) (115, 6.45636200904846191406e-01) (116, 2.08167982101440429688e+00) (117, 1.53758978843688964844e+00) (118, 9.56699788570404052734e-01) (119, 2.00707888603210449219e+00) (120, 1.76335287094116210938e+00) (121, 3.95514249801635742188e-01) (122, 1.92069053649902343750e+00) (123, 1.96310818195343017578e-01) (124, 1.91432225704193115234e+00) (125, 4.74939048290252685547e-01) (126, 2.07166671752929687500e+00) (127, 1.66580522060394287109e+00) (128, 6.82505488395690917969e-01) (129, 1.84359252452850341797e+00) (130, 3.48112910985946655273e-01) (131, 2.02861905097961425781e+00) (132, 2.00615358352661132812e+00) (133, 1.38710737228393554688e+00) (134, 5.41653811931610107422e-01) (135, 2.33470663428306579590e-01) (136, 2.04192042350769042969e+00) (137, 1.90658605098724365234e+00) (138, 9.65334177017211914062e-01) (139, 1.94728350639343261719e+00) (140, 9.69659924507141113281e-01) (141, 4.95056211948394775391e-01) (142, 1.50281786918640136719e+00) (143, 8.17576885223388671875e-01) (144, 9.68361198902130126953e-01) (145, 1.30146101117134094238e-01) (146, 1.36331081390380859375e+00) (147, 9.29659783840179443359e-01) (148, 1.56783342361450195312e+00) (149, 1.99629291892051696777e-01) (150, 8.16357374191284179688e-01) (151, 1.21080505847930908203e+00) (152, 4.95241194963455200195e-01) (153, 6.16666674613952636719e-01) (154, 1.30721354484558105469e+00) (155, 2.89182156324386596680e-01) (156, -1.36974498629570007324e-01) (157, 1.25849890708923339844e+00) (158, 1.85508489608764648438e+00) (159, 1.57430636882781982422e+00) (160, 9.81710255146026611328e-01) (161, 2.10329556465148925781e+00) (162, 1.48254418373107910156e+00) (0, 2.09099602699279785156e+00) (1, 1.77939400076866149902e-01) (2, 3.63031744956970214844e-01) (3, 1.50737714767456054688e+00) (4, 1.12028706073760986328e+00) (5, 1.39436781406402587891e+00) (6, 1.96008157730102539062e+00) (7, 1.38205933570861816406e+00) (8, 1.49200022220611572266e+00) (9, 2.05255866050720214844e+00) (10, 6.59314751625061035156e-01) (11, 8.40226709842681884766e-01) (12, 3.95329415798187255859e-01) (13, 6.68554246425628662109e-01) (14, 1.56557357311248779297e+00) (15, 1.06346976757049560547e+00) (16, 1.70909023284912109375e+00) (17, 1.37036812305450439453e+00) (18, 1.54642641544342041016e+00) (19, 1.68132734298706054688e+00) (20, 2.29864746332168579102e-01) (21, 2.09787964820861816406e+00) (22, 2.28207811713218688965e-01) (23, 9.54135835170745849609e-01) (24, 5.64633965492248535156e-01) (25, 5.54793357849121093750e-01) (26, 1.55758786201477050781e+00) (27, 6.90839469432830810547e-01) (28, 1.49627923965454101562e+00) (29, 4.13517683744430541992e-01) (30, 1.13765716552734375000e+00) (31, 1.46516358852386474609e+00) (32, 4.91554737091064453125e-01) (33, 1.40078663825988769531e+00) (34, 8.50429415702819824219e-01) (35, 1.51193940639495849609e+00) (36, 6.73043012619018554688e-01) (37, 6.88399553298950195312e-01) (38, 7.71887362003326416016e-01) (39, 2.06514096260070800781e+00) (40, 6.18846714496612548828e-01) (41, 1.33129966259002685547e+00) (42, 7.83256053924560546875e-01) (43, 9.14273738861083984375e-01) (44, 1.89995169639587402344e+00) (45, 2.26718217134475708008e-01) (46, 1.87784123420715332031e+00) (47, 1.48693037033081054688e+00) (48, 1.49718403816223144531e+00) (49, 1.30215609073638916016e+00) (50, 1.04614651203155517578e+00) (51, 1.62714636325836181641e+00) (52, 1.27792406082153320312e+00) (53, 1.17445194721221923828e+00) (54, 4.59170848131179809570e-01) (55, 1.74265575408935546875e+00) (56, 1.62934303283691406250e+00) (57, 1.91685628890991210938e+00) (58, 3.11383754014968872070e-01) (59, 1.00351071357727050781e+00) (60, 2.08262562751770019531e-01) (61, 1.34913861751556396484e+00) (62, 3.46562922000885009766e-01) (63, 5.99914908409118652344e-01) (64, 6.27813935279846191406e-01) (65, 1.09708988666534423828e+00) (66, 2.01195216178894042969e+00) (67, 1.20095455646514892578e+00) (68, 1.68558704853057861328e+00) (69, 6.61727964878082275391e-01) (70, 1.14398384094238281250e+00) (71, 1.82322427630424499512e-01) (72, 1.89312541484832763672e+00) (73, 1.82733762264251708984e+00) (74, 9.96693849563598632812e-01) (75, 1.67096543312072753906e+00) (76, 1.95415341854095458984e+00) (77, 7.52423584461212158203e-01) (78, 1.03578472137451171875e+00) (79, 1.32922601699829101562e+00) (80, 1.95467722415924072266e+00) (81, 1.98202872276306152344e+00) (82, 8.34261059761047363281e-01) (83, 1.11048996448516845703e+00) (84, 1.03436934947967529297e+00) (85, 1.19352960586547851562e+00) (86, 7.31034338474273681641e-01) (87, 5.41600823402404785156e-01) (88, 9.88274514675140380859e-01) (89, 9.42515730857849121094e-01) (90, 1.44520914554595947266e+00) (91, 1.09663462638854980469e+00) (92, 1.69542983174324035645e-01) (93, 1.69186973571777343750e+00) (94, 1.59664726257324218750e+00) (95, 6.97454571723937988281e-01) (96, 6.66848242282867431641e-01) (97, 1.48648786544799804688e+00) (98, 1.79850673675537109375e+00) (99, 2.30323970317840576172e-01) (100, 2.04831337928771972656e+00) (101, 8.20379257202148437500e-01) (102, 3.12744051218032836914e-01) (103, 1.81932735443115234375e+00) (104, 5.25605440139770507812e-01) (105, 1.20953547954559326172e+00) (106, 1.36818134784698486328e+00) (107, 3.57647508382797241211e-01) (108, 1.86205661296844482422e+00) (109, 2.81854599714279174805e-01) (110, 1.58697116374969482422e+00) (111, 1.69462263584136962891e+00) (112, 1.41771882772445678711e-01) (113, 2.99120873212814331055e-01) (114, 6.83001220226287841797e-01) (115, 1.07623875141143798828e+00) (116, 1.39274811744689941406e+00) (117, 1.31413316726684570312e+00) (118, 1.51793718338012695312e+00) (119, 2.58911132812500000000e-01) (120, 1.34537458419799804688e-01) (121, 8.41035008430480957031e-01) (122, 1.25564336776733398438e+00) (123, 2.04178079962730407715e-01) (124, 4.10793274641036987305e-01) (125, 7.30179190635681152344e-01) (126, 8.01730215549468994141e-01) (127, 9.77739155292510986328e-01) (128, 2.11676478385925292969e+00) (129, 4.78125572204589843750e-01) (130, 1.10816073417663574219e+00) (131, 2.04296660423278808594e+00) (132, 1.19860231876373291016e+00) (133, 1.32100248336791992188e+00) (134, 1.74018251895904541016e+00) (135, 1.62430548667907714844e+00) (136, 4.08426553010940551758e-01) (137, 9.86252486705780029297e-01) (138, 1.88205051422119140625e+00) (139, 1.48371785879135131836e-01) (140, 1.16820478439331054688e+00) (141, 1.34691047668457031250e+00) (142, 1.74309206008911132812e+00) (143, 1.21007430553436279297e+00) (144, 1.54612886905670166016e+00) (145, 3.03981840610504150391e-01) (146, 1.64201647043228149414e-01) (147, 8.16765666007995605469e-01) (148, 1.51821255683898925781e+00) (149, 1.58223652839660644531e+00) (150, 9.75774407386779785156e-01) (151, 1.55284774303436279297e+00) (152, 3.01160067319869995117e-01) (153, 1.09306372702121734619e-01) (154, 1.65712344646453857422e+00) (155, 6.12050950527191162109e-01) (156, -6.42944991588592529297e-01) (157, 3.36742311716079711914e-01) (158, 1.48988771438598632812e+00) (159, 7.34236538410186767578e-01) (160, 7.14965462684631347656e-01) (161, 4.75937157869338989258e-01) (162, 6.55091762542724609375e-01) (163, 1.81366550922393798828e+00) (0, 1.88507246971130371094e+00) (1, 1.40312182903289794922e+00) (2, 7.03442573547363281250e-01) (3, 1.14660072326660156250e+00) (4, 1.51313221454620361328e+00) (5, 1.99593496322631835938e+00) (6, 9.23266589641571044922e-01) (7, 1.97422635555267333984e+00) (8, 2.62582033872604370117e-01) (9, 8.52553784847259521484e-01) (10, 1.89877843856811523438e+00) (11, 7.25238204002380371094e-01) (12, 6.35007679462432861328e-01) (13, 8.53918433189392089844e-01) (14, 4.64116454124450683594e-01) (15, 8.01056981086730957031e-01) (16, 2.97983229160308837891e-01) (17, 1.19332778453826904297e+00) (18, 5.69478034973144531250e-01) (19, 1.31886959075927734375e+00) (20, 1.28798449039459228516e+00) (21, 2.01437532901763916016e-01) (22, 1.67874979972839355469e+00) (23, 8.42613577842712402344e-01) (24, 1.90470784902572631836e-01) (25, 1.52394473552703857422e+00) (26, 3.55640560388565063477e-01) (27, 1.23052096366882324219e+00) (28, 1.94556200504302978516e+00) (29, 5.39427101612091064453e-01) (30, 2.09281253814697265625e+00) (31, 1.70699560642242431641e+00) (32, 1.84264659881591796875e+00) (33, 6.72616183757781982422e-01) (34, 7.29957699775695800781e-01) (35, 1.23214006423950195312e+00) (36, 5.44912517070770263672e-01) (37, 1.55332183837890625000e+00) (38, 1.08272778987884521484e+00) (39, 7.07592189311981201172e-01) (40, 2.82236963510513305664e-01) (41, 8.57867538928985595703e-01) (42, 1.33292806148529052734e+00) (43, 8.17342340946197509766e-01) (44, 1.61188352108001708984e+00) (45, 1.69714212417602539062e+00) (46, 1.51849687099456787109e+00) (47, 1.80996453762054443359e+00) (48, 7.66831219196319580078e-01) (49, 1.98807275295257568359e+00) (50, 1.00519514083862304688e+00) (51, 1.95491337776184082031e+00) (52, 2.08960795402526855469e+00) (53, 5.60306251049041748047e-01) (54, 6.73888146877288818359e-01) (55, 1.56439870595932006836e-01) (56, 1.98434865474700927734e+00) (57, 9.29626405239105224609e-01) (58, 1.28705847263336181641e+00) (59, 1.80627191066741943359e+00) (60, 1.36915111541748046875e+00) (61, 1.25623214244842529297e+00) (62, 1.38962888717651367188e+00) (63, 1.08815896511077880859e+00) (64, 1.82894587516784667969e+00) (65, 2.01968407630920410156e+00) (66, 1.96660265326499938965e-01) (67, 2.50219672918319702148e-01) (68, 1.44936728477478027344e+00) (69, 1.17948567867279052734e+00) (70, 8.57909440994262695312e-01) (71, 1.63170194625854492188e+00) (72, 1.93745076656341552734e+00) (73, 2.09093523025512695312e+00) (74, 3.25405597686767578125e-01) (75, 1.42569553852081298828e+00) (76, 1.66443848609924316406e+00) (77, 1.74400007724761962891e+00) (78, 1.11202132701873779297e+00) (79, 3.07630956172943115234e-01) (80, 1.60843408107757568359e+00) (81, 2.01731419563293457031e+00) (82, 1.38905540108680725098e-01) (83, 1.57440316677093505859e+00) (84, 4.53981727361679077148e-01) (85, 7.12891340255737304688e-01) (86, 1.63094067573547363281e+00) (87, 3.14691632986068725586e-01) (88, 1.54261529445648193359e+00) (89, 7.94360399246215820312e-01) (90, 2.02106094360351562500e+00) (91, 7.88127660751342773438e-01) (92, 1.95069015026092529297e+00) (93, 1.28705132007598876953e+00) (94, 1.77638435363769531250e+00) (95, 1.65599727630615234375e+00) (96, 1.18309676647186279297e+00) (97, 1.87314224243164062500e+00) (98, 1.80631458759307861328e+00) (99, 5.08825361728668212891e-01) (100, 9.28989112377166748047e-01) (101, 5.40585339069366455078e-01) (102, 2.04062509536743164062e+00) (103, 7.42801129817962646484e-01) (104, 5.07881700992584228516e-01) (105, 2.42391869425773620605e-01) (106, 2.06859469413757324219e+00) (107, 2.07241797447204589844e+00) (108, 1.88648974895477294922e+00) (109, 1.05697703361511230469e+00) (110, 2.56410062313079833984e-01) (111, 1.37128496170043945312e+00) (112, 9.50652420520782470703e-01) (113, 2.95413225889205932617e-01) (114, 8.22049438953399658203e-01) (115, 1.30473172664642333984e+00) (116, 9.08402264118194580078e-01) (117, 3.29351365566253662109e-01) (118, 1.51952099800109863281e+00) (119, 3.27378869056701660156e-01) (120, 1.02380943298339843750e+00) (121, 1.41694343090057373047e+00) (122, 1.01560413837432861328e+00) (123, 8.50860834121704101562e-01) (124, 5.80355942249298095703e-01) (125, 6.68349683284759521484e-01) (126, 3.83219391107559204102e-01) (127, 1.66355037689208984375e+00) (128, 4.17853146791458129883e-01) (129, 2.08963179588317871094e+00) (130, 2.07247352600097656250e+00) (131, 1.24693977832794189453e+00) (132, 5.06578207015991210938e-01) (133, 1.98945963382720947266e+00) (134, 1.88983857631683349609e+00) (135, 9.14557516574859619141e-01) (136, 1.08212791383266448975e-01) (137, 1.83479440212249755859e+00) (138, 8.63336622714996337891e-01) (139, 1.89480018615722656250e+00) (140, 7.68132567405700683594e-01) (141, 1.01984429359436035156e+00) (142, 1.14244627952575683594e+00) (143, 1.61888265609741210938e+00) (144, 1.21535515785217285156e+00) (145, 1.86459338665008544922e+00) (146, 7.99975633621215820312e-01) (147, 2.02385497093200683594e+00) (148, 2.09404253959655761719e+00) (149, 1.95857882499694824219e-01) (150, 2.27595165371894836426e-01) (151, 9.94213163852691650391e-01) (152, 1.51289892196655273438e+00) (153, 1.14329695701599121094e+00) (154, 1.74517166614532470703e+00) (155, 1.99335253238677978516e+00) (156, 1.29985010623931884766e+00) (157, 2.02848863601684570312e+00) (158, 1.53326416015625000000e+00) (159, 2.02969527244567871094e+00) (160, 1.99448144435882568359e+00) (161, 1.48209893703460693359e+00) (162, 1.15299618244171142578e+00) (163, 3.77420932054519653320e-01) (164, 1.34791982173919677734e+00) (0, 9.95821535587310791016e-01) (1, 1.62366521358489990234e+00) (2, 2.51811981201171875000e-01) (3, 1.00771105289459228516e+00) (4, 7.41728305816650390625e-01) (5, 3.72534245252609252930e-01) (6, 1.92774578928947448730e-01) (7, 7.76216626167297363281e-01) (8, 1.52632200717926025391e+00) (9, 1.03851580619812011719e+00) (10, 1.00609910488128662109e+00) (11, 3.48870038986206054688e-01) (12, 3.38624477386474609375e-01) (13, 1.68007111549377441406e+00) (14, 1.26646113395690917969e+00) (15, 1.30565595626831054688e+00) (16, 5.58898687362670898438e-01) (17, 4.40876722335815429688e-01) (18, 1.83301246166229248047e+00) (19, 2.12392067909240722656e+00) (20, 1.53285920619964599609e+00) (21, 1.08544087409973144531e+00) (22, 1.28510332107543945312e+00) (23, 1.96609425544738769531e+00) (24, 2.30874568223953247070e-01) (25, 2.46820256114006042480e-01) (26, 1.70875716209411621094e+00) (27, 1.41922330856323242188e+00) (28, 1.83164584636688232422e+00) (29, 1.33608138561248779297e+00) (30, 2.27202326059341430664e-01) (31, 7.02461421489715576172e-01) (32, 8.34740638732910156250e-01) (33, 3.79112005233764648438e-01) (34, 1.61027014255523681641e+00) (35, 1.47656655311584472656e+00) (36, 6.51743829250335693359e-01) (37, 1.70314228534698486328e+00) (38, 1.27777069807052612305e-01) (39, 2.07816362380981445312e+00) (40, 6.16652011871337890625e-01) (41, 1.03397393226623535156e+00) (42, 3.02027463912963867188e-01) (43, 8.55374217033386230469e-01) (44, 5.89038968086242675781e-01) (45, 1.46858620643615722656e+00) (46, 2.06112790107727050781e+00) (47, 1.04803538322448730469e+00) (48, 1.80956065654754638672e+00) (49, 1.76913416385650634766e+00) (50, 1.04694998264312744141e+00) (51, 1.21741378307342529297e+00) (52, 7.29569017887115478516e-01) (53, 2.07047209143638610840e-01) (54, 1.05850195884704589844e+00) (55, 8.60541224479675292969e-01) (56, 3.53965133428573608398e-01) (57, 6.42253041267395019531e-01) (58, 1.54758542776107788086e-01) (59, 2.08570885658264160156e+00) (60, 1.87843215465545654297e+00) (61, 2.82058507204055786133e-01) (62, 6.63164019584655761719e-01) (63, 5.88166713714599609375e-01) (64, 5.61268150806427001953e-01) (65, 1.48428067564964294434e-01) (66, 1.96483099460601806641e+00) (67, 1.11310958862304687500e+00) (68, 1.75166809558868408203e+00) (69, 1.99270558357238769531e+00) (70, 1.06626701354980468750e+00) (71, 2.43314102292060852051e-01) (72, 9.01673436164855957031e-01) (73, 1.26839220523834228516e+00) (74, 9.98785912990570068359e-01) (75, 1.39081013202667236328e+00) (76, 6.11972391605377197266e-01) (77, 9.34907555580139160156e-01) (78, 3.13839375972747802734e-01) (79, 2.96526879072189331055e-01) (80, 5.79035580158233642578e-01) (81, 1.26088678836822509766e+00) (82, 1.41403830051422119141e+00) (83, 1.20870232582092285156e+00) (84, 1.36803174018859863281e+00) (85, 3.47534209489822387695e-01) (86, 1.96934115886688232422e+00) (87, 1.62209439277648925781e+00) (88, 8.89884889125823974609e-01) (89, 2.02419734001159667969e+00) (90, 1.58279705047607421875e+00) (91, 6.43310964107513427734e-01) (92, 1.81249812245368957520e-01) (93, 1.20954997837543487549e-01) (94, 1.13157522678375244141e+00) (95, 6.42615616321563720703e-01) (96, 1.69480741024017333984e-01) (97, 9.71400141716003417969e-01) (98, 1.65582287311553955078e+00) (99, 1.82124650478363037109e+00) (100, 8.39099764823913574219e-01) (101, 5.97083866596221923828e-01) (102, 1.96465826034545898438e+00) (103, 1.64087080955505371094e+00) (104, 1.76557374000549316406e+00) (105, 8.38438034057617187500e-01) (106, 9.06674861907958984375e-01) (107, 2.52540051937103271484e-01) (108, 1.67344319820404052734e+00) (109, 1.12061178684234619141e+00) (110, 4.49164628982543945312e-01) (111, 1.27472758293151855469e-01) (112, 2.56492674350738525391e-01) (113, 1.76330053806304931641e+00) (114, 1.23627269268035888672e+00) (115, 1.52462196350097656250e+00) (116, 2.01093244552612304688e+00) (117, 1.08060777187347412109e+00) (118, 1.02171051502227783203e+00) (119, 7.75811135768890380859e-01) (120, 9.79799032211303710938e-01) (121, 4.79501515626907348633e-01) (122, 1.31921970844268798828e+00) (123, 1.06114649772644042969e+00) (124, 5.00554144382476806641e-01) (125, 3.25789034366607666016e-01) (126, 1.60385966300964355469e+00) (127, 5.70132493972778320312e-01) (128, 1.19728684425354003906e+00) (129, 1.13467657566070556641e+00) (130, 2.66372948884963989258e-01) (131, 1.93648421764373779297e+00) (132, 1.63185811042785644531e+00) (133, 1.06025107204914093018e-01) (134, 1.45234894752502441406e+00) (135, 1.27242577075958251953e+00) (136, 8.44560861587524414062e-01) (137, 2.34017699956893920898e-01) (138, 1.42506349086761474609e+00) (139, 3.92997980117797851562e-01) (140, 1.25472724437713623047e+00) (141, 1.77432572841644287109e+00) (142, 4.20568376779556274414e-01) (143, 1.41131746768951416016e+00) (144, 1.41262018680572509766e+00) (145, 1.55693864822387695312e+00) (146, 8.10933470726013183594e-01) (147, 1.29854643344879150391e+00) (148, 5.12540400028228759766e-01) (149, 1.73274147510528564453e+00) (150, 1.97445535659790039062e+00) (151, 1.39243710041046142578e+00) (152, 2.11234068870544433594e+00) (153, 1.16866898536682128906e+00) (154, 3.28577518463134765625e-01) (155, 4.87888753414154052734e-01) (156, 6.64105355739593505859e-01) (157, 1.83253490924835205078e+00) (158, 9.58118915557861328125e-01) (159, 4.66836482286453247070e-01) (160, 8.42205405235290527344e-01) (161, 1.12458944320678710938e+00) (162, 2.78314590454101562500e-01) (163, 3.49057435989379882812e-01) (164, 1.13071227073669433594e+00) (165, 1.63076126575469970703e+00) (0, 8.62302422523498535156e-01) (1, 1.90137946605682373047e+00) (2, 4.95847404003143310547e-01) (3, 1.61062335968017578125e+00) (4, 2.01076239347457885742e-01) (5, 1.08637988567352294922e+00) (6, 1.43251967430114746094e+00) (7, 1.12632012367248535156e+00) (8, 1.19966816902160644531e+00) (9, 9.64792549610137939453e-01) (10, 1.53094112873077392578e+00) (11, 2.44883462786674499512e-01) (12, 1.12937176227569580078e+00) (13, 1.45637011528015136719e+00) (14, 4.41950917243957519531e-01) (15, 1.62989926338195800781e+00) (16, 2.77140647172927856445e-01) (17, 1.50421202182769775391e+00) (18, 1.08779561519622802734e+00) (19, 3.37579995393753051758e-01) (20, 7.50287055969238281250e-01) (21, 1.51540756225585937500e+00) (22, 3.11891913414001464844e-01) (23, 1.95048511028289794922e+00) (24, 1.55495309829711914062e+00) (25, 9.68835473060607910156e-01) (26, 1.17728710174560546875e+00) (27, 6.22824311256408691406e-01) (28, 8.42341780662536621094e-01) (29, 2.04667139053344726562e+00) (30, 6.49044632911682128906e-01) (31, 1.60474181175231933594e+00) (32, 1.82180702686309814453e+00) (33, 1.04498970508575439453e+00) (34, 1.08912146091461181641e+00) (35, 1.92298102378845214844e+00) (36, 2.03146719932556152344e+00) (37, 3.95397514104843139648e-01) (38, 9.23057377338409423828e-01) (39, 1.10489165782928466797e+00) (40, 1.26028752326965332031e+00) (41, 3.27754825353622436523e-01) (42, 1.24987280368804931641e+00) (43, 2.63415783643722534180e-01) (44, 1.68422269821166992188e+00) (45, 1.59192132949829101562e+00) (46, 1.79341268539428710938e+00) (47, 1.86146092414855957031e+00) (48, 9.69889700412750244141e-01) (49, 7.54964530467987060547e-01) (50, 2.09913873672485351562e+00) (51, 1.62027442455291748047e+00) (52, 1.44128367304801940918e-01) (53, 2.84786731004714965820e-01) (54, 1.44451582431793212891e+00) (55, 1.59917914867401123047e+00) (56, 1.15371978282928466797e+00) (57, 4.95559275150299072266e-01) (58, 2.12210130691528320312e+00) (59, 1.89615929126739501953e+00) (60, 4.15986895561218261719e-01) (61, 6.44902050495147705078e-01) (62, 1.37465739250183105469e+00) (63, 1.11550241708755493164e-01) (64, 1.58998930454254150391e+00) (65, 3.37535172700881958008e-01) (66, 1.93462884426116943359e+00) (67, 1.49521279335021972656e+00) (68, 6.33030295372009277344e-01) (69, 7.31442511081695556641e-01) (70, 4.73860859870910644531e-01) (71, 1.79341566562652587891e+00) (72, 9.59295034408569335938e-01) (73, 1.62383127212524414062e+00) (74, 1.95692908763885498047e+00) (75, 5.17273962497711181641e-01) (76, 1.08950901031494140625e+00) (77, 1.62409794330596923828e+00) (78, 2.52491116523742675781e-01) (79, 1.95949637889862060547e+00) (80, 2.52818763256072998047e-01) (81, 2.25385949015617370605e-01) (82, 1.45352709293365478516e+00) (83, 2.97044813632965087891e-01) (84, 4.10270363092422485352e-01) (85, 7.71799206733703613281e-01) (86, 1.79632163047790527344e+00) (87, 1.46408784389495849609e+00) (88, 1.16745603084564208984e+00) (89, 1.79217898845672607422e+00) (90, 1.23400342464447021484e+00) (91, 1.48354065418243408203e+00) (92, 3.10837358236312866211e-01) (93, 4.82417196035385131836e-01) (94, 1.49518847465515136719e+00) (95, 1.80092430114746093750e+00) (96, 7.20049917697906494141e-01) (97, 1.30357360839843750000e+00) (98, 1.16989338397979736328e+00) (99, 1.25317788124084472656e+00) (100, 1.93511390686035156250e+00) (101, 1.54385185241699218750e+00) (102, 9.20349836349487304688e-01) (103, 7.68165111541748046875e-01) (104, 1.04143965244293212891e+00) (105, 7.51035094261169433594e-01) (106, 1.18553662300109863281e+00) (107, 2.03104639053344726562e+00) (108, 2.48889371752738952637e-01) (109, 1.33812534809112548828e+00) (110, 1.86429893970489501953e+00) (111, 4.01805818080902099609e-01) (112, 1.46360898017883300781e+00) (113, 1.19158220291137695312e+00) (114, 5.98948240280151367188e-01) (115, 1.77397704124450683594e+00) (116, 1.86347913742065429688e+00) (117, 2.69026160240173339844e-01) (118, 1.11182117462158203125e+00) (119, 9.04691517353057861328e-01) (120, 1.96130287647247314453e+00) (121, 2.19580963253974914551e-01) (122, 2.61988401412963867188e-01) (123, 1.45896390080451965332e-01) (124, 6.02095782756805419922e-01) (125, 1.65727448463439941406e+00) (126, 1.84691834449768066406e+00) (127, 1.22224330902099609375e+00) (128, 8.34604501724243164062e-01) (129, 8.90568137168884277344e-01) (130, 3.49177569150924682617e-01) (131, 6.43474638462066650391e-01) (132, 3.08176368474960327148e-01) (133, 1.16962504386901855469e+00) (134, 1.31173741817474365234e+00) (135, 1.24971354007720947266e+00) (136, 1.82075774669647216797e+00) (137, 3.71030420064926147461e-01) (138, 1.15451610088348388672e+00) (139, 1.96974480152130126953e+00) (140, 1.60925340652465820312e+00) (141, 8.92571330070495605469e-01) (142, 2.45306894183158874512e-01) (143, 9.46618854999542236328e-01) (144, 1.98425126075744628906e+00) (145, 7.44352817535400390625e-01) (146, 5.94352185726165771484e-01) (147, 1.72148656845092773438e+00) (148, 9.13476586341857910156e-01) (149, 1.60627102851867675781e+00) (150, 4.99934405088424682617e-01) (151, 7.48535633087158203125e-01) (152, 1.72594964504241943359e+00) (153, 6.62020444869995117188e-01) (154, 7.94529676437377929688e-01) (155, 2.01801702380180358887e-01) (156, -1.74014127254486083984e+00) (157, 5.15204370021820068359e-01) (158, 1.32414269447326660156e+00) (159, 9.27753448486328125000e-01) (160, 1.30587005615234375000e+00) (161, 1.57341802120208740234e+00) (162, 1.47132575511932373047e+00) (163, 1.51414406299591064453e+00) (164, 6.16799294948577880859e-01) (165, 6.56819403171539306641e-01) (166, 6.37614011764526367188e-01) (0, 3.32820802927017211914e-01) (1, 2.05661728978157043457e-01) (2, 7.17258453369140625000e-01) (3, 5.07577598094940185547e-01) (4, 4.63025331497192382812e-01) (5, 1.01599700748920440674e-01) (6, 1.67998063564300537109e+00) (7, 4.93692308664321899414e-01) (8, 1.87224829196929931641e+00) (9, 1.60830187797546386719e+00) (10, 3.95392358303070068359e-01) (11, 1.59676063060760498047e+00) (12, 2.04452300071716308594e+00) (13, 5.77058792114257812500e-01) (14, 2.64338314533233642578e-01) (15, 2.34614595770835876465e-01) (16, 1.69101798534393310547e+00) (17, 1.80730700492858886719e+00) (18, 8.35689306259155273438e-01) (19, 1.71284079551696777344e+00) (20, 1.24226570129394531250e+00) (21, 1.88503313064575195312e+00) (22, 1.95454537868499755859e+00) (23, 1.35798358917236328125e+00) (24, 1.88106894493103027344e+00) (25, 1.47204899787902832031e+00) (26, 9.64884161949157714844e-01) (27, 1.82472193241119384766e+00) (28, 7.41745829582214355469e-01) (29, 1.45600438117980957031e+00) (30, 1.60649740695953369141e+00) (31, 9.74664270877838134766e-01) (32, 1.56176364421844482422e+00) (33, 1.96381524205207824707e-01) (34, 1.38233947753906250000e+00) (35, 1.92488658428192138672e+00) (36, 1.98078885674476623535e-01) (37, 9.34945881366729736328e-01) (38, 2.91204661130905151367e-01) (39, 1.97042489051818847656e+00) (40, 4.15873467922210693359e-01) (41, 5.86694598197937011719e-01) (42, 1.43981122970581054688e+00) (43, 3.33022147417068481445e-01) (44, 1.06385111808776855469e+00) (45, 1.60424721240997314453e+00) (46, 4.67734396457672119141e-01) (47, 6.27494752407073974609e-01) (48, 1.28417992591857910156e+00) (49, 1.20352137088775634766e+00) (50, 2.12961316108703613281e-01) (51, 3.99071455001831054688e-01) (52, 9.61180329322814941406e-01) (53, 2.06760454177856445312e+00) (54, 1.65715277194976806641e+00) (55, 7.14874923229217529297e-01) (56, 1.41227900981903076172e+00) (57, 4.94662642478942871094e-01) (58, 4.12222594022750854492e-01) (59, 2.05412268638610839844e+00) (60, 1.85076463222503662109e+00) (61, 1.91881752014160156250e+00) (62, 9.01412546634674072266e-01) (63, 1.28515398502349853516e+00) (64, 2.01529669761657714844e+00) (65, 1.56377688050270080566e-01) (66, 1.08266639709472656250e+00) (67, 2.11347341537475585938e+00) (68, 9.91421222686767578125e-01) (69, 1.27396869659423828125e+00) (70, 1.95652389526367187500e+00) (71, 1.30739235877990722656e+00) (72, 1.76076102256774902344e+00) (73, 1.26896083354949951172e+00) (74, 1.54051208496093750000e+00) (75, 6.97237908840179443359e-01) (76, 7.45833814144134521484e-01) (77, 1.90834414958953857422e+00) (78, 1.22483038902282714844e+00) (79, 1.93011140823364257812e+00) (80, 9.84491169452667236328e-01) (81, 1.33788919448852539062e+00) (82, 2.01808527112007141113e-01) (83, 1.84576904773712158203e+00) (84, 1.27811932563781738281e+00) (85, 1.75905895233154296875e+00) (86, 4.33269768953323364258e-01) (87, 5.63024103641510009766e-01) (88, 1.26347288489341735840e-01) (89, 7.45590031147003173828e-01) (90, 4.89772409200668334961e-01) (91, 1.87720954418182373047e+00) (92, 5.37033319473266601562e-01) (93, 1.29128253459930419922e+00) (94, 1.03498947620391845703e+00) (95, 4.24955785274505615234e-01) (96, 1.34775781631469726562e+00) (97, 2.01775336265563964844e+00) (98, 4.11054790019989013672e-01) (99, 2.11804807186126708984e-01) (100, 1.16434788703918457031e+00) (101, 2.40204393863677978516e-01) (102, 1.41929471492767333984e+00) (103, 7.97734677791595458984e-01) (104, 1.40926289558410644531e+00) (105, 8.32432627677917480469e-01) (106, 1.39507019519805908203e+00) (107, 2.05519461631774902344e+00) (108, 6.13402485847473144531e-01) (109, 4.92526292800903320312e-01) (110, 1.85793149471282958984e+00) (111, 1.49799120426177978516e+00) (112, 1.73051321506500244141e+00) (113, 1.95983767509460449219e+00) (114, 1.21638607978820800781e+00) (115, 8.81258249282836914062e-01) (116, 1.59152233600616455078e+00) (117, 1.54975342750549316406e+00) (118, 1.34438002109527587891e+00) (119, 1.61796712875366210938e+00) (120, 1.67969211935997009277e-01) (121, 1.73425006866455078125e+00) (122, 1.36780238151550292969e+00) (123, 6.05100154876708984375e-01) (124, 8.98158311843872070312e-01) (125, 2.75417596101760864258e-01) (126, 9.30153608322143554688e-01) (127, 1.18541888892650604248e-01) (128, 1.65796756744384765625e-01) (129, 1.24130594730377197266e+00) (130, 2.30444341897964477539e-01) (131, 1.23024237155914306641e+00) (132, 1.38160800933837890625e+00) (133, 1.54983675479888916016e+00) (134, 1.92807471752166748047e+00) (135, 6.63496673107147216797e-01) (136, 2.54895120859146118164e-01) (137, 1.19577062129974365234e+00) (138, 5.91316699981689453125e-01) (139, 7.68395185470581054688e-01) (140, 1.58839452266693115234e+00) (141, 3.21873903274536132812e-01) (142, 1.39012157917022705078e-01) (143, 1.19153344631195068359e+00) (144, 1.54337227344512939453e-01) (145, 1.25549578666687011719e+00) (146, 1.97288942337036132812e+00) (147, 1.64595711231231689453e+00) (148, 6.77875101566314697266e-01) (149, 1.18989503383636474609e+00) (150, 1.13655006885528564453e+00) (151, 7.45941936969757080078e-01) (152, 7.96770870685577392578e-01) (153, 3.76978367567062377930e-01) (154, 1.25113964080810546875e+00) (155, 1.59502685070037841797e+00) (156, -1.02238714694976806641e+00) (157, 2.08139109611511230469e+00) (158, 1.61366641521453857422e+00) (159, 6.18387997150421142578e-01) (160, 1.19532263278961181641e+00) (161, 1.74420845508575439453e+00) (162, 1.74872791767120361328e+00) (163, 4.49556380510330200195e-01) (164, 1.16667079925537109375e+00) (165, 1.54942834377288818359e+00) (166, 1.01315069198608398438e+00) (167, 1.32166361808776855469e+00) (0, 1.87179148197174072266e+00) (1, 1.20690298080444335938e+00) (2, 1.13407611846923828125e+00) (3, 5.87169468402862548828e-01) (4, 6.44914865493774414062e-01) (5, 9.51621830463409423828e-01) (6, 1.71579360961914062500e+00) (7, 7.82012820243835449219e-01) (8, 5.65665185451507568359e-01) (9, 1.70847141742706298828e+00) (10, 1.87545013427734375000e+00) (11, 1.01969873905181884766e+00) (12, 1.82318270206451416016e+00) (13, 8.13976407051086425781e-01) (14, 1.25673151016235351562e+00) (15, 1.63169503211975097656e+00) (16, 1.50414332747459411621e-01) (17, 2.04446578025817871094e+00) (18, 1.68302750587463378906e+00) (19, 4.11659091711044311523e-01) (20, 1.59121251106262207031e+00) (21, 1.34824204444885253906e+00) (22, 1.54564809799194335938e+00) (23, 1.84590494632720947266e+00) (24, 1.99977302551269531250e+00) (25, 3.34272086620330810547e-01) (26, 1.84224069118499755859e+00) (27, 1.56087422370910644531e+00) (28, 5.69175302982330322266e-01) (29, 8.90056490898132324219e-01) (30, 1.24603950977325439453e+00) (31, 3.12552034854888916016e-01) (32, 1.99705719947814941406e+00) (33, 2.51700937747955322266e-01) (34, 7.99819111824035644531e-01) (35, 5.13557374477386474609e-01) (36, 1.10342037677764892578e+00) (37, 3.87198090553283691406e-01) (38, 1.19566774368286132812e+00) (39, 1.56918323040008544922e+00) (40, 1.99576711654663085938e+00) (41, 9.42703247070312500000e-01) (42, 4.60467159748077392578e-01) (43, 1.69053518772125244141e+00) (44, 1.65677726268768310547e+00) (45, 1.61729633808135986328e+00) (46, 1.19381535053253173828e+00) (47, 1.70728921890258789062e+00) (48, 1.53334724903106689453e+00) (49, 7.48428285121917724609e-01) (50, 2.01904582977294921875e+00) (51, 9.96145069599151611328e-01) (52, 1.99676787853240966797e+00) (53, 1.43627929687500000000e+00) (54, 7.13635206222534179688e-01) (55, 1.86812615394592285156e+00) (56, 1.67064893245697021484e+00) (57, 4.27461206912994384766e-01) (58, 1.30058550834655761719e+00) (59, 1.11409626901149749756e-01) (60, 1.21761512756347656250e+00) (61, 4.18210387229919433594e-01) (62, 3.24059307575225830078e-01) (63, 1.08625769615173339844e+00) (64, 5.70008933544158935547e-01) (65, 1.02397596836090087891e+00) (66, 1.49991261959075927734e+00) (67, 1.57352697849273681641e+00) (68, 1.31127166748046875000e+00) (69, 5.67165672779083251953e-01) (70, 1.01429545879364013672e+00) (71, 1.17862415313720703125e+00) (72, 1.40996646881103515625e+00) (73, 1.37486028671264648438e+00) (74, 7.40744590759277343750e-01) (75, 9.38329041004180908203e-01) (76, 8.63741815090179443359e-01) (77, 1.83465766906738281250e+00) (78, 5.17203569412231445312e-01) (79, 2.68674373626708984375e-01) (80, 4.54671233892440795898e-01) (81, 4.07834798097610473633e-01) (82, 1.16491711139678955078e+00) (83, 3.23024332523345947266e-01) (84, 1.74421167373657226562e+00) (85, 1.77865004539489746094e+00) (86, 2.09124827384948730469e+00) (87, 1.28644597530364990234e+00) (88, 2.10620880126953125000e+00) (89, 1.26341891288757324219e+00) (90, 1.29795324802398681641e+00) (91, 1.19540917873382568359e+00) (92, 1.58172702789306640625e+00) (93, 1.52211022377014160156e+00) (94, 1.53252229094505310059e-01) (95, 2.05183362960815429688e+00) (96, 4.17671561241149902344e-01) (97, 1.55326247215270996094e+00) (98, 1.49694573879241943359e+00) (99, 1.62904095649719238281e+00) (100, 2.02052569389343261719e+00) (101, 3.82826536893844604492e-01) (102, 6.79250419139862060547e-01) (103, 1.30207753181457519531e+00) (104, 1.65778434276580810547e+00) (105, 1.32009255886077880859e+00) (106, 1.11991949379444122314e-01) (107, 3.93111556768417358398e-01) (108, 1.02633559703826904297e+00) (109, 5.29293179512023925781e-01) (110, 5.61883509159088134766e-01) (111, 1.38110435009002685547e+00) (112, 8.37225556373596191406e-01) (113, 1.62689828872680664062e+00) (114, 1.60422623157501220703e+00) (115, 4.53022569417953491211e-01) (116, 1.27713346481323242188e+00) (117, 1.56705975532531738281e+00) (118, 1.63956618309020996094e+00) (119, 1.25492751598358154297e+00) (120, 7.02064037322998046875e-01) (121, 8.09104800224304199219e-01) (122, 3.21922093629837036133e-01) (123, 1.55376210808753967285e-01) (124, 2.02800273895263671875e-01) (125, 3.75272005796432495117e-01) (126, 2.10730767250061035156e+00) (127, 5.20569503307342529297e-01) (128, 1.82863211631774902344e+00) (129, 1.47583842277526855469e+00) (130, 2.04970812797546386719e+00) (131, 1.72074329853057861328e+00) (132, 1.75876271724700927734e+00) (133, 6.00543737411499023438e-01) (134, 8.94406139850616455078e-01) (135, 1.28813230991363525391e+00) (136, 1.82073402404785156250e+00) (137, 9.06495749950408935547e-01) (138, 1.58134150505065917969e+00) (139, 7.18654811382293701172e-01) (140, 1.33588659763336181641e+00) (141, 2.04332280158996582031e+00) (142, 1.99985682964324951172e+00) (143, 2.07321000099182128906e+00) (144, 1.54180634021759033203e+00) (145, 1.47566831111907958984e+00) (146, 3.97817671298980712891e-01) (147, 6.90525054931640625000e-01) (148, 9.14313435554504394531e-01) (149, 1.93748152256011962891e+00) (150, 1.84555029869079589844e+00) (151, 1.51647508144378662109e+00) (152, 6.18171513080596923828e-01) (153, 2.06757020950317382812e+00) (154, 1.57194888591766357422e+00) (155, 7.21069455146789550781e-01) (156, -1.49956047534942626953e+00) (157, 1.55084156990051269531e+00) (158, 1.14173662662506103516e+00) (159, 2.04315710067749023438e+00) (160, 8.98265302181243896484e-01) (161, 1.06302988529205322266e+00) (162, 1.63548552989959716797e+00) (163, 5.28613269329071044922e-01) (164, 1.56367135047912597656e+00) (165, 4.01477038860321044922e-01) (166, 1.71684324741363525391e+00) (167, 1.25599050521850585938e+00) (168, 1.20807039737701416016e+00) (0, 6.13894939422607421875e-01) (1, 5.90210080146789550781e-01) (2, 7.80666112899780273438e-01) (3, 1.43493902683258056641e+00) (4, 1.71713387966156005859e+00) (5, 1.30122327804565429688e+00) (6, 1.26912713050842285156e+00) (7, 8.37298810482025146484e-01) (8, 1.82670581340789794922e+00) (9, 9.25694525241851806641e-01) (10, 1.90314829349517822266e+00) (11, 1.12119054794311523438e+00) (12, 1.71807336807250976562e+00) (13, 1.19442510604858398438e+00) (14, 9.01825666427612304688e-01) (15, 1.77286398410797119141e+00) (16, 1.83826076984405517578e+00) (17, 1.70782732963562011719e+00) (18, 2.11974525451660156250e+00) (19, 1.38873636722564697266e+00) (20, 3.65810692310333251953e-01) (21, 1.05533146858215332031e+00) (22, 1.61561453342437744141e+00) (23, 2.15723648667335510254e-01) (24, 5.50565004348754882812e-01) (25, 1.81505942344665527344e+00) (26, 1.16178166866302490234e+00) (27, 2.18458622694015502930e-01) (28, 1.20729577541351318359e+00) (29, 7.37437188625335693359e-01) (30, 1.63681256771087646484e+00) (31, 1.72128832340240478516e+00) (32, 1.22774481773376464844e+00) (33, 2.88100093603134155273e-01) (34, 1.02684879302978515625e+00) (35, 8.15500140190124511719e-01) (36, 1.48942101001739501953e+00) (37, 1.66597336530685424805e-01) (38, 1.55289661884307861328e+00) (39, 1.18674802780151367188e+00) (40, 9.92389559745788574219e-01) (41, 1.32666623592376708984e+00) (42, 1.78560033440589904785e-01) (43, 5.81084191799163818359e-01) (44, 3.91712695360183715820e-01) (45, 9.80483353137969970703e-01) (46, 2.24569529294967651367e-01) (47, 1.00594714283943176270e-01) (48, 5.58932065963745117188e-01) (49, 2.14935943484306335449e-01) (50, 1.38942873477935791016e+00) (51, 8.24840426445007324219e-01) (52, 1.17036497592926025391e+00) (53, 8.75664770603179931641e-01) (54, 9.40661728382110595703e-01) (55, 1.62102782726287841797e+00) (56, 5.61345577239990234375e-01) (57, 2.00254106521606445312e+00) (58, 1.73958396911621093750e+00) (59, 1.66873896121978759766e+00) (60, 6.10599577426910400391e-01) (61, 1.24701809883117675781e+00) (62, 1.26064860820770263672e+00) (63, 1.73844206333160400391e+00) (64, 1.43521571159362792969e+00) (65, 1.58118799328804016113e-01) (66, 4.24563616514205932617e-01) (67, 7.95258164405822753906e-01) (68, 2.24813789129257202148e-01) (69, 1.87755787372589111328e+00) (70, 1.88210391998291015625e+00) (71, 1.11730086803436279297e+00) (72, 1.07484543323516845703e+00) (73, 1.96076154708862304688e+00) (74, 1.59848272800445556641e+00) (75, 1.36665570735931396484e+00) (76, 8.11866343021392822266e-01) (77, 1.72314989566802978516e+00) (78, 1.36734795570373535156e+00) (79, 1.27089607715606689453e+00) (80, 1.83818352222442626953e+00) (81, 6.27398192882537841797e-01) (82, 1.99583411216735839844e+00) (83, 8.79170000553131103516e-01) (84, 1.40316069126129150391e+00) (85, 8.07117164134979248047e-01) (86, 3.70819091796875000000e-01) (87, 1.86460387706756591797e+00) (88, 6.80279493331909179688e-01) (89, 2.01050090789794921875e+00) (90, 1.40396404266357421875e+00) (91, 1.19097673892974853516e+00) (92, 1.12814021110534667969e+00) (93, 5.35234093666076660156e-01) (94, 8.00040185451507568359e-01) (95, 4.33977305889129638672e-01) (96, 5.93450486660003662109e-01) (97, 1.12470138072967529297e+00) (98, 1.12933301925659179688e+00) (99, 7.18361973762512207031e-01) (100, 8.72880637645721435547e-01) (101, 8.82058382034301757812e-01) (102, 1.73576056957244873047e+00) (103, 1.84782361984252929688e+00) (104, 7.13441312313079833984e-01) (105, 1.20486462116241455078e+00) (106, 1.08510065078735351562e+00) (107, 1.42540526390075683594e+00) (108, 7.98635840415954589844e-01) (109, 3.23070049285888671875e-01) (110, 5.66922605037689208984e-01) (111, 5.07440686225891113281e-01) (112, 8.50565910339355468750e-01) (113, 4.33378100395202636719e-01) (114, 1.28670823574066162109e+00) (115, 1.24347828328609466553e-01) (116, 1.14059293270111083984e+00) (117, 1.55762493610382080078e+00) (118, 1.88904929161071777344e+00) (119, 1.72097015380859375000e+00) (120, 1.43874704837799072266e+00) (121, 1.16363465785980224609e+00) (122, 7.82568156719207763672e-01) (123, 4.37508672475814819336e-01) (124, 1.59896647930145263672e+00) (125, 1.48270595073699951172e+00) (126, 7.71583616733551025391e-01) (127, 2.09251499176025390625e+00) (128, 4.78028833866119384766e-01) (129, 1.80101430416107177734e+00) (130, 6.81497931480407714844e-01) (131, 1.25100708007812500000e+00) (132, 5.53693950176239013672e-01) (133, 2.87879765033721923828e-01) (134, 9.69452023506164550781e-01) (135, 1.16723287105560302734e+00) (136, 1.39284193515777587891e+00) (137, 1.95465040206909179688e+00) (138, 4.63259518146514892578e-01) (139, 2.09157562255859375000e+00) (140, 1.48341700434684753418e-01) (141, 9.30279791355133056641e-01) (142, 4.69637513160705566406e-01) (143, 8.99005293846130371094e-01) (144, 1.26375544071197509766e+00) (145, 1.65644335746765136719e+00) (146, 9.23450767993927001953e-01) (147, 2.74969726800918579102e-01) (148, 1.08468973636627197266e+00) (149, 6.83121383190155029297e-01) (150, 1.89603745937347412109e+00) (151, 3.94058227539062500000e-01) (152, 1.74685370922088623047e+00) (153, 5.49226999282836914062e-01) (154, 7.31664478778839111328e-01) (155, 1.21644151210784912109e+00) (156, 1.73468267917633056641e+00) (157, 1.40334570407867431641e+00) (158, 1.17957758903503417969e+00) (159, 2.80680745840072631836e-01) (160, 1.07498133182525634766e+00) (161, 1.76117312908172607422e+00) (162, 1.43178546428680419922e+00) (163, 1.52877295017242431641e+00) (164, 1.94915044307708740234e+00) (165, 2.71858841180801391602e-01) (166, 5.66627204418182373047e-01) (167, 1.21261382102966308594e+00) (168, 2.12660694122314453125e+00) (169, 9.29984390735626220703e-01) (0, 3.29605996608734130859e-01) (1, 9.59959745407104492188e-01) (2, 1.30726784467697143555e-01) (3, 7.47597932815551757812e-01) (4, 7.49842405319213867188e-01) (5, 1.02414071559906005859e+00) (6, 1.61440658569335937500e+00) (7, 1.17116555571556091309e-01) (8, 1.02934813499450683594e+00) (9, 8.39470207691192626953e-01) (10, 7.71641075611114501953e-01) (11, 7.87229597568511962891e-01) (12, 9.23327744007110595703e-01) (13, 1.60675001144409179688e+00) (14, 9.90040123462677001953e-01) (15, 1.19325602054595947266e+00) (16, 5.48009157180786132812e-01) (17, 3.70104759931564331055e-01) (18, 7.59595334529876708984e-01) (19, 1.29173493385314941406e+00) (20, 2.12852811813354492188e+00) (21, 1.92582392692565917969e+00) (22, 1.08687531948089599609e+00) (23, 1.39628148078918457031e+00) (24, 1.40116047859191894531e+00) (25, 1.73468601703643798828e+00) (26, 3.65543782711029052734e-01) (27, 1.42382276058197021484e+00) (28, 1.15922713279724121094e+00) (29, 1.99315249919891357422e+00) (30, 5.01901865005493164062e-01) (31, 1.38893079757690429688e+00) (32, 8.22835564613342285156e-01) (33, 5.32726287841796875000e-01) (34, 2.03662657737731933594e+00) (35, 1.47277557849884033203e+00) (36, 1.45696461200714111328e+00) (37, 1.52075636386871337891e+00) (38, 1.48998975753784179688e+00) (39, 3.56036275625228881836e-01) (40, 2.29950129985809326172e-01) (41, 1.31354346871376037598e-01) (42, 1.04336345195770263672e+00) (43, 1.05337548255920410156e+00) (44, 1.63820207118988037109e+00) (45, 1.93350124359130859375e+00) (46, 1.16355098783969879150e-01) (47, 2.08630895614624023438e+00) (48, 1.73329398036003112793e-01) (49, 7.76048064231872558594e-01) (50, 1.24776721000671386719e+00) (51, 1.71580925583839416504e-01) (52, 5.71595430374145507812e-01) (53, 2.04365968704223632812e-01) (54, 1.46796011924743652344e+00) (55, 1.87285351753234863281e+00) (56, 1.83914971351623535156e+00) (57, 1.73360145092010498047e+00) (58, 1.16639971733093261719e+00) (59, 8.68100285530090332031e-01) (60, 1.59647738933563232422e+00) (61, 1.56839919090270996094e+00) (62, 1.26754552125930786133e-01) (63, 2.89036393165588378906e-01) (64, 2.00122308731079101562e+00) (65, 2.06347870826721191406e+00) (66, 1.66190969944000244141e+00) (67, 1.32791125774383544922e+00) (68, 1.45395851135253906250e+00) (69, 1.02162301540374755859e+00) (70, 1.58404517173767089844e+00) (71, 1.58400619029998779297e+00) (72, 1.05307495594024658203e+00) (73, 4.97132062911987304688e-01) (74, 5.07105231285095214844e-01) (75, 5.61000466346740722656e-01) (76, 3.00356715917587280273e-01) (77, 5.23557960987091064453e-01) (78, 5.17032802104949951172e-01) (79, 3.73783797025680541992e-01) (80, 1.19970369338989257812e+00) (81, 1.66489756107330322266e+00) (82, 4.45462375879287719727e-01) (83, 1.67139685153961181641e+00) (84, 1.76936125755310058594e+00) (85, 1.81352007389068603516e+00) (86, 1.41397380828857421875e+00) (87, 1.47823429107666015625e+00) (88, 1.41684496402740478516e+00) (89, 4.50097024440765380859e-01) (90, 2.16058135032653808594e-01) (91, 8.83045792579650878906e-01) (92, 1.91859388351440429688e+00) (93, 2.42910325527191162109e-01) (94, 1.07217979431152343750e+00) (95, 1.78954041004180908203e+00) (96, 1.76112353801727294922e-01) (97, 6.03812992572784423828e-01) (98, 9.87175166606903076172e-01) (99, 1.53016853332519531250e+00) (100, 1.52553355693817138672e+00) (101, 4.40943807363510131836e-01) (102, 9.83898162841796875000e-01) (103, 4.48332071304321289062e-01) (104, 8.38173508644104003906e-01) (105, 1.39110100269317626953e+00) (106, 9.09430146217346191406e-01) (107, 1.03862786293029785156e+00) (108, 1.81475651264190673828e+00) (109, 1.32656049728393554688e+00) (110, 1.31250929832458496094e+00) (111, 8.84183704853057861328e-01) (112, 8.61181735992431640625e-01) (113, 1.65806925296783447266e+00) (114, 4.25303965806961059570e-01) (115, 5.00266373157501220703e-01) (116, 1.34131264686584472656e+00) (117, 1.73937547206878662109e+00) (118, 1.87859833240509033203e+00) (119, 6.27881109714508056641e-01) (120, 2.08957028388977050781e+00) (121, 1.99475419521331787109e+00) (122, 1.41102457046508789062e+00) (123, 1.87788736820220947266e+00) (124, 1.07387930154800415039e-01) (125, 3.52927923202514648438e-01) (126, 1.53715121746063232422e+00) (127, 1.83597937226295471191e-01) (128, 8.56838583946228027344e-01) (129, 3.94049912691116333008e-01) (130, 1.61386406421661376953e+00) (131, 2.52095609903335571289e-01) (132, 7.35091388225555419922e-01) (133, 4.67485606670379638672e-01) (134, 6.00525319576263427734e-01) (135, 1.47336244583129882812e+00) (136, 1.75868415832519531250e+00) (137, 1.41005313396453857422e+00) (138, 3.81713807582855224609e-01) (139, 1.44316411018371582031e+00) (140, 6.06337189674377441406e-01) (141, 1.59432065486907958984e+00) (142, 1.97071328759193420410e-01) (143, 1.36761641502380371094e+00) (144, 1.12211322784423828125e+00) (145, 5.22472977638244628906e-01) (146, 1.76798045635223388672e+00) (147, 3.33149552345275878906e-01) (148, 1.31571739912033081055e-01) (149, 1.51630222797393798828e+00) (150, 8.61128330230712890625e-01) (151, 2.12123942375183105469e+00) (152, 1.38077986240386962891e+00) (153, 1.41876399517059326172e-01) (154, 1.86885023117065429688e+00) (155, 1.38826560974121093750e+00) (156, -1.34047281742095947266e+00) (157, 1.27572500705718994141e+00) (158, 1.47196114063262939453e+00) (159, 1.15183818340301513672e+00) (160, 1.56987249851226806641e+00) (161, 9.55548584461212158203e-01) (162, 1.30403137207031250000e+00) (163, 1.74687296152114868164e-01) (164, 1.32313179969787597656e+00) (165, 1.80465435981750488281e+00) (166, 1.54814743995666503906e+00) (167, 9.51539456844329833984e-01) (168, 1.08443093299865722656e+00) (169, 1.82995879650115966797e+00) (170, 2.64427125453948974609e-01) (0, 9.90096986293792724609e-01) (1, 1.60539174079895019531e+00) (2, 1.44923806190490722656e+00) (3, 1.54397618770599365234e+00) (4, 2.42959350347518920898e-01) (5, 2.07906413078308105469e+00) (6, 1.99623191356658935547e+00) (7, 2.00261187553405761719e+00) (8, 1.75360536575317382812e+00) (9, 5.19086837768554687500e-01) (10, 1.16752290725708007812e+00) (11, 1.02183806896209716797e+00) (12, 1.62020528316497802734e+00) (13, 4.00117218494415283203e-01) (14, 8.63050878047943115234e-01) (15, 1.61102092266082763672e+00) (16, 1.17468369007110595703e+00) (17, 4.48261857032775878906e-01) (18, 1.21842551231384277344e+00) (19, 4.11878168582916259766e-01) (20, 8.57901275157928466797e-01) (21, 5.17979145050048828125e-01) (22, 1.93657144904136657715e-01) (23, 3.81701260805130004883e-01) (24, 3.46268057823181152344e-01) (25, 1.80058681964874267578e+00) (26, 